<?xml version="1.0" ?>
<NeuralNetwork Version="4">
    <InputsOutputsInformation Version="4">
        <InputsName>
            <InputName Index="1">i0</InputName>
            <InputName Index="2">i1</InputName>
            <InputName Index="3">i2</InputName>
            <InputName Index="4">i3</InputName>
            <InputName Index="5">i4</InputName>
            <InputName Index="6">i5</InputName>
            <InputName Index="7">i6</InputName>
            <InputName Index="8">i7</InputName>
            <InputName Index="9">i8</InputName>
            <InputName Index="10">i9</InputName>
            <InputName Index="11">i10</InputName>
            <InputName Index="12">i11</InputName>
        </InputsName>
        <InputsUnits>
            <InputUnits Index="1"></InputUnits>
            <InputUnits Index="2"></InputUnits>
            <InputUnits Index="3"></InputUnits>
            <InputUnits Index="4"></InputUnits>
            <InputUnits Index="5"></InputUnits>
            <InputUnits Index="6"></InputUnits>
            <InputUnits Index="7"></InputUnits>
            <InputUnits Index="8"></InputUnits>
            <InputUnits Index="9"></InputUnits>
            <InputUnits Index="10"></InputUnits>
            <InputUnits Index="11"></InputUnits>
            <InputUnits Index="12"></InputUnits>
        </InputsUnits>
        <InputsDescription>
            <InputDescription Index="1"></InputDescription>
            <InputDescription Index="2"></InputDescription>
            <InputDescription Index="3"></InputDescription>
            <InputDescription Index="4"></InputDescription>
            <InputDescription Index="5"></InputDescription>
            <InputDescription Index="6"></InputDescription>
            <InputDescription Index="7"></InputDescription>
            <InputDescription Index="8"></InputDescription>
            <InputDescription Index="9"></InputDescription>
            <InputDescription Index="10"></InputDescription>
            <InputDescription Index="11"></InputDescription>
            <InputDescription Index="12"></InputDescription>
        </InputsDescription>
        <OutputsName>
            <OutputName Index="1">o1</OutputName>
        </OutputsName>
        <OutputsUnits>
            <OutputUnits Index="1"></OutputUnits>
        </OutputsUnits>
        <OutputsDescription>
            <OutputDescription Index="1"></OutputDescription>
        </OutputsDescription>
        <Display>1</Display>
    </InputsOutputsInformation>
    <MultilayerPerceptron Version="4">
        <Architecture>12 28 1</Architecture>
        <LayersActivationFunction>HyperbolicTangent Linear</LayersActivationFunction>
        <Parameters>1061.52 -141381 -78077.9 -40396.9 -26525.5 -34164.8 -109305 -7143.46 35196.8 -42647.5 -1.49617 57523.3 18359.4 -62592.2 26189.9 -52229.9 -96954.3 10521.3 56391.2 -9403.72 3274.37 32059.1 34773.2 -0.58257 75452.4 -44740.7 -26175.7 8762.96 24336.9 -58191.6 -88062.4 12761.7 -32419.9 -1644.18 23898.8 167435 -0.827471 -243.506 64792.2 74180.2 36267.3 7418.97 99672.2 193642 60903 -118516 -35780 69870.8 27435.1 0.461435 -25153.5 -45440.8 -1.43491 -0.549697 0.733728 -0.789034 -0.310003 -0.929584 0.870011 -2.13666 -0.722325 1.43486 -3.20012 -1.40806 1.97728 -33476.4 -10472.4 7757.76 87696 114384 67149.4 -15970.9 24160.5 75087.7 4276.48 0.495925 -27630.6 45558.2 5284.92 28043.1 92418.3 1221.79 -22363.6 -164476 -14850.6 33646.8 69411.4 21246.5 0.0170708 -61418.1 -27055.4 -77823.4 -7406.47 130319 21560.8 -45682.4 -9349.98 -29461.8 -32658 47113.5 16883.4 -0.306429 -65141.3 -39165.5 -56846.7 28726.3 -34581.2 -9980.01 -75118.6 -12998 -8862.58 11923.7 -13058.1 23608.4 1.06239 10360 12743.6 -4642.96 28366.1 11537.1 4366.59 8464.49 18018.3 -32749.3 22557.3 -20118.7 -6194.75 1.27667 7240.86 13490.7 49338.8 -39149.3 21697.9 34094.6 -83533.4 -53612.2 -43620.3 53012.3 -42553.4 -137567 2.12276 43912.5 73208.7 -112735 14235.1 -14878.7 -40265.5 -81616.2 7290.97 -28625.4 -25405.1 6935.87 110527 0.665409 -100916 40419.9 -38841.4 17809.3 24487 24430.9 9319.76 43141.2 -47867.2 -168642 38065 -25862.5 -0.96019 26355 130925 39600.9 24514.5 25116.8 -23449.7 31808.8 -23784.4 12096.5 5932.39 -13479.6 -5316.04 0.513682 1070.7 -5263.5 5658 41420.6 -67978.4 -36731.8 -36083.5 37781.5 -62378.3 45022.4 -32452.9 -105913 0.148236 -194611 -107429 -68475.5 -76987.2 89663.9 36177.5 -33147.9 -75783 -10110.9 -8638.36 -14970.5 -52346.8 -0.108791 83096.1 11423.8 110167 25277.3 45210.7 -39332.9 -47590.9 -90167.9 17248.5 15843.4 6818.87 -1587.59 -0.505782 6481.26 -35134.5 -10486.6 -37731.8 -4449.3 2717.17 99519.9 -78045.6 49512.6 7263.69 46948.7 80782.9 -1.22609 -181222 27348 -73038.1 -127375 5378.82 -8813.42 -33856.4 -97297.1 54400.2 19448.4 47936.2 20890.3 -1.10628 -182968 -14977.7 -152229 -114812 -34918 -96242 -68147.9 101396 14424.5 -102890 93525.9 29860.7 0.430252 72309.4 -37147.1 11802.6 28370 -30244.7 -85599.6 2106.38 76928.4 148463 65608.5 75217.5 173753 -0.119222 -86070.9 -129343 60376.5 3789.92 20761.2 2540.77 -14087.2 -53972.2 -19463.7 -39371.6 3510.65 40996.2 0.737874 54541.6 24111.9 -16573.4 -129590 47166.6 -46933.4 -101728 7578.12 -78914.8 45983.9 -144117 -56717.7 -0.559279 183202 -10839.4 137396 -107820 62837.1 41489.3 -29178.2 -153466 -12172.2 -23355.4 -16667.6 110081 1.18071 -72483.9 17701.1 -1.43493 -0.549688 0.733721 -0.789049 -0.310005 -0.929601 0.870015 -2.13668 -0.722334 1.43489 0.25495 -1.4081 1.97728 11321.7 -31556.6 131662 -9903.94 70089.7 23037.8 -44062.6 66034.8 33426.8 -86363.3 3.33574 124193 42387 -4949.48 -8287.65 576.267 -9459.58 7237.2 11683.7 5184.92 -15414.7 8672.83 8053.94 -0.386355 8336.4 1258.01 -363.657 2178.34 -271.683 -79.6956 -525.069 2409.75 -96.8394 186.341 -318.043 448.713 1.01232 -2161.47 451.546 -0.326947 0.135381 -0.271188 0.351311 -0.171114 -27580.6 -0.244804 0.306496 -0.21012 -0.292087 0.277842 0.343692 -0.384584 0.212499 -0.306845 -0.339883 0.338733 0.32478 0.35409 -0.327149 -0.352356 0.292238 -0.24167 -0.298109 -0.324348 27580.2 -0.270124 0.312638 0.301384</Parameters>
        <Display>1</Display>
    </MultilayerPerceptron>
    <ScalingLayer Version="4">
        <Minimums>-5.67351 -5.98156 -5.3299 -1.17471 -1.02042 -6.55171 -11.7209 -15.1962 -2.98092 0 -0.860407 -0.586705</Minimums>
        <Maximums>4.65176 4.84629 8.00414 15.7561 4.04082 9.08608 0.7008 7.1209 2.79763 0 1.16224 1.70443</Maximums>
        <Means>-0.189467 -0.202069 -0.0127956 0.00364481 0.234219 -0.0734183 0.0215086 0.00409529 -0.0543913 0 0.0340361 -0.0836017</Means>
        <StandardDeviations>0.850485 0.860023 1.0895 1.06033 1.04033 0.961689 0.908128 1.07398 1.05691 0 1.0047 0.948599</StandardDeviations>
        <ScalingMethod>MinimumMaximum</ScalingMethod>
        <Display>1</Display>
    </ScalingLayer>
    <UnscalingLayer Version="4">
        <Minimums>-8</Minimums>
        <Maximums>1.58</Maximums>
        <Means>0.104435</Means>
        <StandardDeviations>1.06032</StandardDeviations>
        <UnscalingMethod>MinimumMaximum</UnscalingMethod>
        <Display>1</Display>
    </UnscalingLayer>
    <ScalingLayerFlag>0</ScalingLayerFlag>
    <UnscalingLayerFlag>0</UnscalingLayerFlag>
    <ProbabilisticLayerFlag>0</ProbabilisticLayerFlag>
    <BoundingLayerFlag>0</BoundingLayerFlag>
    <ConditionsLayerFlag>0</ConditionsLayerFlag>
    <Display>1</Display>
</NeuralNetwork>
