<?xml version="1.0" ?>
<NeuralNetwork Version="4">
    <InputsOutputsInformation Version="4">
        <InputsName>
            <InputName Index="1">i0</InputName>
            <InputName Index="2">i1</InputName>
            <InputName Index="3">i2</InputName>
            <InputName Index="4">i3</InputName>
            <InputName Index="5">i4</InputName>
            <InputName Index="6">i5</InputName>
            <InputName Index="7">i6</InputName>
            <InputName Index="8">i7</InputName>
            <InputName Index="9">i8</InputName>
            <InputName Index="10">i9</InputName>
            <InputName Index="11">i10</InputName>
            <InputName Index="12">i11</InputName>
        </InputsName>
        <InputsUnits>
            <InputUnits Index="1"></InputUnits>
            <InputUnits Index="2"></InputUnits>
            <InputUnits Index="3"></InputUnits>
            <InputUnits Index="4"></InputUnits>
            <InputUnits Index="5"></InputUnits>
            <InputUnits Index="6"></InputUnits>
            <InputUnits Index="7"></InputUnits>
            <InputUnits Index="8"></InputUnits>
            <InputUnits Index="9"></InputUnits>
            <InputUnits Index="10"></InputUnits>
            <InputUnits Index="11"></InputUnits>
            <InputUnits Index="12"></InputUnits>
        </InputsUnits>
        <InputsDescription>
            <InputDescription Index="1"></InputDescription>
            <InputDescription Index="2"></InputDescription>
            <InputDescription Index="3"></InputDescription>
            <InputDescription Index="4"></InputDescription>
            <InputDescription Index="5"></InputDescription>
            <InputDescription Index="6"></InputDescription>
            <InputDescription Index="7"></InputDescription>
            <InputDescription Index="8"></InputDescription>
            <InputDescription Index="9"></InputDescription>
            <InputDescription Index="10"></InputDescription>
            <InputDescription Index="11"></InputDescription>
            <InputDescription Index="12"></InputDescription>
        </InputsDescription>
        <OutputsName>
            <OutputName Index="1">o1</OutputName>
        </OutputsName>
        <OutputsUnits>
            <OutputUnits Index="1"></OutputUnits>
        </OutputsUnits>
        <OutputsDescription>
            <OutputDescription Index="1"></OutputDescription>
        </OutputsDescription>
        <Display>1</Display>
    </InputsOutputsInformation>
    <MultilayerPerceptron Version="4">
        <Architecture>12 28 1</Architecture>
        <LayersActivationFunction>HyperbolicTangent Linear</LayersActivationFunction>
        <Parameters>-18580.3 -59817.9 15528.7 124371 -57021.4 -101449 81682.4 -13797.7 47634.2 -8364.33 1.51678 -56102.2 -21079.1 -116722 38698.5 -60249.5 5537.38 -65413.7 20016.2 -43408.2 31697.1 -31408 -126367 -0.0813588 -11967.2 76332.1 56552.4 -21905.9 -3870.62 -13485 76612.9 72684 6951.99 -20898.2 -36206.5 50243.4 -1.84585 -175071 -3254 -90492.8 69312.4 31188.1 -55578.3 38008.8 58627 -70605.4 96921.9 -33001.8 -1848.63 0.897774 28677.6 -68623.3 -73960.9 -44761.3 -50206.7 6258.41 22486.8 106590 54760.6 17355.4 19975 15981.7 -0.812498 -26262.3 25800.7 37410.3 -41931.5 -91422.8 923.883 19686.3 66558.7 64795.5 -18828.8 -41977.2 55359.3 0.220616 -1929.08 -120065 8263.36 64669.5 -43430.3 61916.9 54821.1 25287.2 29208.7 -84620.1 9186.47 -115366 -0.160339 -59199.6 59847.4 43084.4 72313.1 -22971.8 34500.5 -41830.8 -71279.7 -45583.8 77037.9 -117840 -59366.4 0.953834 -43553.4 7166.34 140432 -14537.4 -83688.5 -4498.58 28314.1 -131117 40772.4 -14944.5 -52984.5 -20903.3 -1.26325 -15364.7 -13018.4 42229.7 -15781.5 41631.6 -34152 -33856.5 -64539.9 16170.9 -66644.7 16664 -22695.1 -0.540796 -95533.4 -65264 -2685.52 32469.8 -46461 13502.7 -464.782 -46796.8 47342.1 91.6784 101106 710.704 -0.127645 25090.5 19223.9 -32240.4 26567.4 12692 7061.07 -58551.2 -130455 63631.9 9204.23 -27942.8 119511 -1.11472 36754.9 -12714 -22817.1 -56255 -26262.3 71270.2 26342.5 -147048 -34168.2 -54971.5 -104406 45205.1 -0.579681 -64582.5 100206 -54049.6 -58175.5 34559.8 22613.7 -6096.25 118700 -35155.1 -22713.5 63283.6 83155.7 -0.171869 18508.3 -220.103 -50208.7 40643 -22596 -134039 46996.8 -25406.2 8559.49 -76448 -55088.5 -74991.1 -0.68117 84685.7 98907.5 -45391.1 -14387 -15873.2 52943 -9352.44 81049.8 -6081.08 27828.8 34854.7 27188.3 -0.775204 -21840.7 -1230.14 -886.168 -13720.8 -1540.77 8282.93 -31438.3 -55937.6 2929.5 24045.6 -14569.8 -3554.61 1.48161 30312.8 27918.4 -70991.6 2816.4 3546.14 -88162.6 -107499 -111393 -18625.2 -10983.9 -41618.1 -29912 0.055837 72979.4 -97526.4 -9445.47 55196.7 -25492.1 -1994.59 16619.6 10066.7 -6022.67 44987 -9839.91 -27707.4 -0.900047 -16037.6 -92699.4 -44063.8 41765.5 2277.58 43571 26859.1 -46507.8 -40535 -9717.88 63923.5 97074.3 -1.48792 -8606.98 -53198.3 654.866 -3396.95 3706.6 1464.18 -887.665 5334.59 -1021.11 -3134.6 558.678 -8151.94 -1.09191 -538.517 1401.68 289063 59307.3 51116.5 347317 26584 34599.6 7500.48 90383.1 -41173.1 7211.52 0.455971 -128671 21955.7 -30660.3 -12707 -32551.3 28385.5 34460.7 69219.3 -54662.7 -21562.9 -36216 -11426.2 1.36755 33254.5 26834.2 -2125.71 37932.4 6035.95 21342.4 -176189 32629.1 29094.2 -53930.7 -34917 34266.6 -0.32947 106643 -76754.9 -19027.1 12013.4 -8635.92 -6306.83 24732.8 47534.5 -1847.49 16631.1 4658.39 7331.27 -2.28939 -28588.9 -23402.8 0.196329 -0.204657 0.373855 -0.876987 -1.90004 0.218242 -0.414297 -0.714034 0.262648 0.728193 0.635775 -0.444344 0.202524 148182 -122602 19587.4 -10471.2 -716.783 -14339.4 21353.7 -25897.2 68875.4 17167.8 -0.328737 134950 2080.47 -121535 65542.1 -12617.5 95016.1 -46661.2 -136151 -106894 5716.83 -110306 38703.3 -0.467123 -76452.8 -53297.2 0.181517 0.300411 -0.272287 -0.461875 0.212873 -0.190568 -0.253444 0.282777 -0.237852 0.215903 -0.236205 -0.286744 0.234447 0.175527 -0.270504 0.223939 0.396625 0.25692 0.198097 0.240404 0.173319 0.250423 0.428905 -0.24255 -0.26659 0.475735 0.517597 -0.275543 -0.266831</Parameters>
        <Display>1</Display>
    </MultilayerPerceptron>
    <ScalingLayer Version="4">
        <Minimums>-5.67351 -5.98156 -5.3299 -1.17471 -1.02042 -6.55171 -11.7209 -15.1962 -2.98092 0 -0.860407 -0.586705</Minimums>
        <Maximums>4.65176 4.84629 8.00414 15.7561 4.04082 9.08608 0.7008 7.1209 2.79763 0 1.16224 1.70443</Maximums>
        <Means>-0.189467 -0.202069 -0.0127956 0.00364481 0.234219 -0.0734183 0.0215086 0.00409529 -0.0543913 0 0.0340361 -0.0836017</Means>
        <StandardDeviations>0.850485 0.860023 1.0895 1.06033 1.04033 0.961689 0.908128 1.07398 1.05691 0 1.0047 0.948599</StandardDeviations>
        <ScalingMethod>MinimumMaximum</ScalingMethod>
        <Display>1</Display>
    </ScalingLayer>
    <UnscalingLayer Version="4">
        <Minimums>-8</Minimums>
        <Maximums>1.58</Maximums>
        <Means>0.104435</Means>
        <StandardDeviations>1.06032</StandardDeviations>
        <UnscalingMethod>MinimumMaximum</UnscalingMethod>
        <Display>1</Display>
    </UnscalingLayer>
    <ScalingLayerFlag>0</ScalingLayerFlag>
    <UnscalingLayerFlag>0</UnscalingLayerFlag>
    <ProbabilisticLayerFlag>0</ProbabilisticLayerFlag>
    <BoundingLayerFlag>0</BoundingLayerFlag>
    <ConditionsLayerFlag>0</ConditionsLayerFlag>
    <Display>1</Display>
</NeuralNetwork>
