<?xml version="1.0" ?>
<NeuralNetwork Version="4">
    <InputsOutputsInformation Version="4">
        <InputsName>
            <InputName Index="1">i0</InputName>
            <InputName Index="2">i1</InputName>
            <InputName Index="3">i2</InputName>
            <InputName Index="4">i3</InputName>
            <InputName Index="5">i4</InputName>
            <InputName Index="6">i5</InputName>
            <InputName Index="7">i6</InputName>
            <InputName Index="8">i7</InputName>
            <InputName Index="9">i8</InputName>
            <InputName Index="10">i9</InputName>
            <InputName Index="11">i10</InputName>
            <InputName Index="12">i11</InputName>
        </InputsName>
        <InputsUnits>
            <InputUnits Index="1"></InputUnits>
            <InputUnits Index="2"></InputUnits>
            <InputUnits Index="3"></InputUnits>
            <InputUnits Index="4"></InputUnits>
            <InputUnits Index="5"></InputUnits>
            <InputUnits Index="6"></InputUnits>
            <InputUnits Index="7"></InputUnits>
            <InputUnits Index="8"></InputUnits>
            <InputUnits Index="9"></InputUnits>
            <InputUnits Index="10"></InputUnits>
            <InputUnits Index="11"></InputUnits>
            <InputUnits Index="12"></InputUnits>
        </InputsUnits>
        <InputsDescription>
            <InputDescription Index="1"></InputDescription>
            <InputDescription Index="2"></InputDescription>
            <InputDescription Index="3"></InputDescription>
            <InputDescription Index="4"></InputDescription>
            <InputDescription Index="5"></InputDescription>
            <InputDescription Index="6"></InputDescription>
            <InputDescription Index="7"></InputDescription>
            <InputDescription Index="8"></InputDescription>
            <InputDescription Index="9"></InputDescription>
            <InputDescription Index="10"></InputDescription>
            <InputDescription Index="11"></InputDescription>
            <InputDescription Index="12"></InputDescription>
        </InputsDescription>
        <OutputsName>
            <OutputName Index="1">o1</OutputName>
        </OutputsName>
        <OutputsUnits>
            <OutputUnits Index="1"></OutputUnits>
        </OutputsUnits>
        <OutputsDescription>
            <OutputDescription Index="1"></OutputDescription>
        </OutputsDescription>
        <Display>1</Display>
    </InputsOutputsInformation>
    <MultilayerPerceptron Version="4">
        <Architecture>12 28 1</Architecture>
        <LayersActivationFunction>HyperbolicTangent Linear</LayersActivationFunction>
        <Parameters>62234.4 -40359.8 146512 79990.5 -94302.8 57670 -62922.4 48947.6 -136136 132451 0.573853 98424.3 166301 36848.5 82426.3 96800.4 41185.1 32963.8 -90156.8 135075 132965 -11164.8 -80222.1 -0.210154 -41589.7 -54741.8 -6193.54 0.179112 1.4816 -0.911282 0.220682 -0.0636196 1.57597 0.607806 -0.314064 0.516875 0.118007 0.589385 -10554.9 -169312 -143460 71327.5 73490.2 222368 -80692.3 65095.3 103483 -122837 202045 -1.18372 75614.2 -75787.9 -38765.5 -1478.66 -30215.7 31882.3 4759.77 -31903.6 6811.35 13871.8 19404.9 43988.8 1.39789 12451 44093.8 -44673.1 24973.7 -132989 208013 35000.9 95643.8 -227848 43307.5 -103380 -51243 1.38053 -31227.8 -155454 -0.153446 0.80087 -0.366343 0.111635 0.28245 0.867437 -0.0840146 0.253643 -0.177992 -0.727027 -0.0213291 -0.161676 -0.521216 -240790 -37268.8 35737.7 21756.6 67554.5 -99907.9 5193.39 -22931.5 -15065.1 -19029.6 0.654431 97829.8 -59139.1 10813.1 53150.6 55014.1 -95036.4 -40062.8 89988.1 14196.5 -11731.2 -89906.5 -187814 -0.41492 -42321.3 371.383 0.232209 -0.166924 -0.170162 -0.731029 -1.1719 -1.28373 2.03356 -0.468338 -2.04461 1.1303 0.0932145 -0.401833 -0.978891 -141164 4126.87 162024 -16980.4 57677.4 564.362 19315.1 -91576.4 88096.9 -33362.5 0.92635 -70371.7 54304.5 65663.3 -664.518 -21766.6 49456.7 -5091.8 -51874.4 12397.1 -21330 34441.7 -84115.9 -0.221304 21885.7 110287 -57332.8 110862 -157404 19815.4 -105897 -69294.5 -18561.3 79410.3 78183.8 6768.34 0.0401897 97176.1 118169 193165 -284.295 -7754.48 16694.6 152025 -9923.76 8148.62 50118.7 -13561.9 -3454.02 0.480137 61477.2 33309.9 38284.5 42737.7 13832.3 -113181 -74581.5 36703.9 3243 10804 131266 -77537.2 -1.20356 -175091 -170111 -206598 -108974 150085 20846.8 -79135.2 -27862.5 -71425.4 20208.7 -29923.9 -16340.5 -2.47588 -18009.2 154149 -4902.03 60087.6 93633.8 82801.7 -47268.5 -14624.2 46621.7 -60213.6 22916.3 90129.7 -0.467547 32656.4 -29753.9 125710 -69457.2 30690 -34921.5 -18796.3 -2553.47 -20832.1 -6113.25 -189869 1072.05 -1.0104 -7361.99 96666.6 68428.9 -79744.1 -1822.18 -25220.8 -59095.6 -60835.3 20120.4 124809 -114846 62070.2 1.34301 70456.1 -79372.1 -80407.1 72908.3 -78838.1 -75389 -72707.2 -71550.9 1587.61 54575.4 7389.64 -60159.8 -0.204752 24790.8 -142839 48189.5 -74567 -825.485 -51154.6 84548 38232 20086.4 -3484.99 -121927 -38716 1.48885 -36284.1 -95938.9 44876 20916.1 -71579.7 92142.1 -31556.2 -23239.1 -57789.2 80588.8 -50279.1 -108218 -2.12363 -156945 35210.9 69071.9 122600 169904 993.897 40921.6 -14941.8 -87458.1 -48480.2 59330.9 -23351.7 -0.753113 133647 -87523.5 0.453624 1.75387 -1.3843 -0.986481 0.647527 1.19531 -0.866009 0.124786 0.190641 1.74375 -1.57249 -0.315811 1.12853 5954.28 -47034.1 -104916 -64188 161560 60968.6 -62820.1 50869.3 18659.2 268.771 -0.807893 76275.7 -47426 -24556.7 -95915 28321.6 106189 -3972.82 90296.5 12099.5 -16996.6 -30682.2 -57260.7 -1.68039 194952 -78913.9 15356.8 -98582.7 -65760 -172423 -5927.83 -49384.4 1816.55 -19340.4 33489.9 -166629 0.700849 -79575.8 -108386 65896.9 111302 -18035.1 96321.8 -9285.4 20566.5 -2001.14 51092.9 105400 116022 -1.23173 38413 -199503 -0.241608 0.303144 0.232316 -0.544325 -0.318593 0.331789 -0.323059 0.697717 0.401385 -0.256883 0.38896 -0.212489 -0.272305 -0.298476 0.509524 0.206023 0.323151 -0.218702 0.366449 -0.28589 0.304647 -0.380498 -0.248905 0.178833 -0.431824 0.244826 -0.307824 -0.29785 0.311445</Parameters>
        <Display>1</Display>
    </MultilayerPerceptron>
    <ScalingLayer Version="4">
        <Minimums>-5.67351 -5.98156 -5.3299 -1.17471 -1.02042 -6.55171 -11.7209 -15.1962 -2.98092 0 -0.860407 -0.586705</Minimums>
        <Maximums>4.65176 4.84629 8.00414 15.7561 4.04082 9.08608 0.7008 7.1209 2.79763 0 1.16224 1.70443</Maximums>
        <Means>-0.189467 -0.202069 -0.0127956 0.00364481 0.234219 -0.0734183 0.0215086 0.00409529 -0.0543913 0 0.0340361 -0.0836017</Means>
        <StandardDeviations>0.850485 0.860023 1.0895 1.06033 1.04033 0.961689 0.908128 1.07398 1.05691 0 1.0047 0.948599</StandardDeviations>
        <ScalingMethod>MinimumMaximum</ScalingMethod>
        <Display>1</Display>
    </ScalingLayer>
    <UnscalingLayer Version="4">
        <Minimums>-8</Minimums>
        <Maximums>1.58</Maximums>
        <Means>0.104435</Means>
        <StandardDeviations>1.06032</StandardDeviations>
        <UnscalingMethod>MinimumMaximum</UnscalingMethod>
        <Display>1</Display>
    </UnscalingLayer>
    <ScalingLayerFlag>0</ScalingLayerFlag>
    <UnscalingLayerFlag>0</UnscalingLayerFlag>
    <ProbabilisticLayerFlag>0</ProbabilisticLayerFlag>
    <BoundingLayerFlag>0</BoundingLayerFlag>
    <ConditionsLayerFlag>0</ConditionsLayerFlag>
    <Display>1</Display>
</NeuralNetwork>
