<?xml version="1.0" ?>
<NeuralNetwork Version="4">
    <InputsOutputsInformation Version="4">
        <InputsName>
            <InputName Index="1">i0</InputName>
            <InputName Index="2">i1</InputName>
            <InputName Index="3">i2</InputName>
            <InputName Index="4">i3</InputName>
            <InputName Index="5">i4</InputName>
            <InputName Index="6">i5</InputName>
            <InputName Index="7">i6</InputName>
            <InputName Index="8">i7</InputName>
            <InputName Index="9">i8</InputName>
            <InputName Index="10">i9</InputName>
            <InputName Index="11">i10</InputName>
            <InputName Index="12">i11</InputName>
        </InputsName>
        <InputsUnits>
            <InputUnits Index="1"></InputUnits>
            <InputUnits Index="2"></InputUnits>
            <InputUnits Index="3"></InputUnits>
            <InputUnits Index="4"></InputUnits>
            <InputUnits Index="5"></InputUnits>
            <InputUnits Index="6"></InputUnits>
            <InputUnits Index="7"></InputUnits>
            <InputUnits Index="8"></InputUnits>
            <InputUnits Index="9"></InputUnits>
            <InputUnits Index="10"></InputUnits>
            <InputUnits Index="11"></InputUnits>
            <InputUnits Index="12"></InputUnits>
        </InputsUnits>
        <InputsDescription>
            <InputDescription Index="1"></InputDescription>
            <InputDescription Index="2"></InputDescription>
            <InputDescription Index="3"></InputDescription>
            <InputDescription Index="4"></InputDescription>
            <InputDescription Index="5"></InputDescription>
            <InputDescription Index="6"></InputDescription>
            <InputDescription Index="7"></InputDescription>
            <InputDescription Index="8"></InputDescription>
            <InputDescription Index="9"></InputDescription>
            <InputDescription Index="10"></InputDescription>
            <InputDescription Index="11"></InputDescription>
            <InputDescription Index="12"></InputDescription>
        </InputsDescription>
        <OutputsName>
            <OutputName Index="1">o1</OutputName>
        </OutputsName>
        <OutputsUnits>
            <OutputUnits Index="1"></OutputUnits>
        </OutputsUnits>
        <OutputsDescription>
            <OutputDescription Index="1"></OutputDescription>
        </OutputsDescription>
        <Display>1</Display>
    </InputsOutputsInformation>
    <MultilayerPerceptron Version="4">
        <Architecture>12 28 1</Architecture>
        <LayersActivationFunction>HyperbolicTangent Linear</LayersActivationFunction>
        <Parameters>0.237258 1.0986 -0.342463 -0.753063 -0.316922 0.744495 -0.0824726 -0.38917 -0.516287 0.397274 0.339027 0.776226 -0.000626491 350713 -510272 262297 94977.2 -117292 -56817.8 -36.9607 128231 711749 -168609 -0.655493 -318407 434936 1120.04 -29722.3 -36701.6 56260.3 73799.2 222896 -247449 -128215 -68835.8 -43415.1 -1.08189 129688 101334 14164 5038.01 -12723.5 -13957.4 -5442.16 -37525.9 -27137.8 8090.92 -7340.21 24276.4 0.670501 -151.195 -4951.69 -421616 39625 10756.8 1351.26 -344212 77013.7 -62006.7 -234705 136643 -51547.9 -0.812988 -160814 -116260 -206824 211770 -306267 -197600 -81354.8 201191 9609.68 40624.7 289065 204608 -1.70917 28906.2 68606.5 119189 -586655 185814 -218756 3476.7 -572543 -211.888 -80466.9 107902 -50443.4 -0.28483 326190 -147285 -213808 -114486 -247882 390665 327394 264848 62226.3 39783.5 -154812 -401296 0.947583 146155 -100260 -249144 -21531.8 36949.9 -50064.1 73068.1 154448 4703.16 65001.4 235125 -1133.24 -0.14944 -114766 35983.2 -116313 130275 -133129 39760.9 208101 -5026.68 145057 -73795.8 -54980.9 144028 0.0489361 109100 -153832 19604.8 3250.08 -3695.69 -13840.7 -3709.79 -33503.5 -18351.5 -6719.04 -3911.39 24274 -0.0434493 -2612.08 -8537.44 119610 -153731 -28897.7 -169994 -25010.3 161616 -65613.5 228971 -108488 -267797 0.712836 1240.47 36999.2 -48948.9 -291418 310718 -79610.8 146307 390803 89753.4 77349.4 -255742 -16732.2 -1.43635 292881 -46002.3 152053 173282 -276012 45816.6 186103 32089.2 40002.3 -14884.5 -183.593 -193698 -0.345174 221843 -385298 477280 350087 500192 -15125.4 34918.7 -58182.1 310543 -209580 -209688 -6443.15 -0.0656708 -125231 -762643 286195 66224.7 131593 -280318 -296581 -50787 89761.2 -90015.9 -107538 49191.8 0.055493 -15807.7 -79717.6 -127840 58681.4 -76352.9 -362754 -238157 -5473.06 39827.8 -152436 -493766 51186.6 0.887673 -260173 43277.6 102213 460462 170745 151369 258753 230541 -280516 -333600 -291490 -27601.1 -0.46997 3497.41 209808 2101.4 -50257.9 187401 -193237 75238.4 245117 158546 -57884 43100.3 130765 0.432708 140634 -96119 117659 -41176.1 -118896 -37687.6 54665.2 89440.2 -51342.5 84588.8 -13988.5 -170674 -0.0977835 9250.75 110144 86401.4 91431 -42683.6 -96352.1 -130018 -126370 -34450.3 -12083.8 -14334.6 -22915.1 0.223128 -254910 -127992 97507.7 275268 -93274.7 -336254 -97266.7 26053.9 -68102.1 -119386 -109273 409351 0.790267 145830 214394 149199 -263485 219235 94081 125994 -192296 476216 7850.45 62760.9 146339 -0.295055 -295209 23652.2 -133274 3932.01 -58725.5 -24566.3 -7715.96 -56529.5 -4062.12 -47192.6 -124944 -8265.9 -1.02281 -45188.1 -94339.6 -419100 -7296.09 -14728.6 57987.3 75786.3 25244.5 298336 -69105.8 6350.11 -205472 -0.419863 -197297 160894 243114 109619 -320670 -145632 398702 249025 122662 153240 -119079 321434 -0.889522 124910 -563184 337998 -44152.8 66608.2 -75131.8 695289 206484 49323.5 -249453 -178581 -445654 -0.994707 -219620 71462.8 -127489 -19630.6 -221463 185053 193994 57714.8 -22483 -219650 81195.2 7219.48 0.620065 -1973.3 36137.4 -0.328437 -0.483084 -0.351557 -0.290583 0.403925 -0.404637 -0.222176 -0.230079 -0.305738 0.327448 -0.201071 -0.43594 -0.187689 -0.247982 0.230758 0.321899 0.412417 0.329698 0.182992 0.265158 0.278803 -0.320261 -0.252592 -0.193038 -0.282931 -0.195293 -0.356518 -0.236576 0.298929</Parameters>
        <Display>1</Display>
    </MultilayerPerceptron>
    <ScalingLayer Version="4">
        <Minimums>-5.67351 -5.98156 -5.3299 -1.17471 -1.02042 -6.55171 -11.7209 -15.1962 -2.98092 0 -0.860407 -0.586705</Minimums>
        <Maximums>4.65176 4.84629 8.00414 15.7561 4.04082 9.08608 0.7008 7.1209 2.79763 0 1.16224 1.70443</Maximums>
        <Means>-0.189467 -0.202069 -0.0127956 0.00364481 0.234219 -0.0734183 0.0215086 0.00409529 -0.0543913 0 0.0340361 -0.0836017</Means>
        <StandardDeviations>0.850485 0.860023 1.0895 1.06033 1.04033 0.961689 0.908128 1.07398 1.05691 0 1.0047 0.948599</StandardDeviations>
        <ScalingMethod>MinimumMaximum</ScalingMethod>
        <Display>1</Display>
    </ScalingLayer>
    <UnscalingLayer Version="4">
        <Minimums>-8</Minimums>
        <Maximums>1.58</Maximums>
        <Means>0.104435</Means>
        <StandardDeviations>1.06032</StandardDeviations>
        <UnscalingMethod>MinimumMaximum</UnscalingMethod>
        <Display>1</Display>
    </UnscalingLayer>
    <ScalingLayerFlag>0</ScalingLayerFlag>
    <UnscalingLayerFlag>0</UnscalingLayerFlag>
    <ProbabilisticLayerFlag>0</ProbabilisticLayerFlag>
    <BoundingLayerFlag>0</BoundingLayerFlag>
    <ConditionsLayerFlag>0</ConditionsLayerFlag>
    <Display>1</Display>
</NeuralNetwork>
