svm_type epsilon_svr
kernel_type rbf
gamma 0.5
nr_class 2
total_sv 906
rho -2.14085
SV
0.07243217476047679 1:-0.71688181 2:-0.06000952 3:-0.22110812 4:-0.61039448 5:-0.76003533 6:-0.30335475 7:-0.47546601 8:1.2514071 9:0.77846456 10:0 11:-0.9244068 12:-0.47469378 
-1.581543486701964 1:0.77607616 2:-0.090323339 3:-0.51469996 4:-0.84860263 5:0.66179282 6:1.4179626 7:1.1207471 8:-0.10458046 9:0.77846456 10:0 11:-0.9244068 12:2.1066213 
-1.124272518240433 1:-0.17920031 2:-0.28861467 3:-2.2888653 4:0.74739201 5:-0.23349847 6:-0.021915139 7:-0.86802784 8:0.86798992 9:1.1722678 10:0 11:-0.9244068 12:-0.47469378 
1.519119712108286 1:0.85009904 2:0.87711392 3:-0.11022923 4:0.19951325 5:-1.0743734 6:-0.78397134 7:-0.91859281 8:0.11050722 9:-1.3382277 10:0 11:-0.9244068 12:2.1066213 
2.394238524631819 1:-2.0060271 2:-1.1119447 3:3.0292864 4:-0.32454469 5:0.92422087 6:-0.72762708 7:-0.39141883 8:0.16661705 9:-0.40294507 10:0 11:-0.9244068 12:-0.47469378 
-8.06028906958618 1:0.87631305 2:1.798366 3:0.046780297 4:1.009421 5:-1.0730414 6:-0.19066622 7:-0.83010411 8:-1.7831995 9:-1.6828055 10:0 11:1.0817748 12:-0.47469378 
-8.5 1:0.39452835 2:0.36288565 3:0.23721029 4:1.009421 5:-1.1238569 6:0.514764 7:1.122797 8:-0.0017124429 9:-1.1905515 10:0 11:1.0817748 12:-0.47469378 
-2.558735675119239 1:-0.87501576 2:-1.3947028 3:-0.42601589 4:0.74739201 5:-0.99391271 6:-0.61522027 7:-0.37809428 8:-0.14198702 9:0.53233756 10:0 11:-0.9244068 12:2.1066213 
-8.5 1:0.72110559 2:0.39920564 3:-0.1565161 4:-0.32454469 5:-1.1281724 6:0.11922725 7:0.17675376 8:0.0076391954 9:0.43388675 10:0 11:-0.9244068 12:2.1066213 
0.6409569576893949 1:-0.17640557 2:0.21238022 3:-2.3034807 4:0.19951325 5:1.0779375 6:0.90973731 7:1.6017976 8:0.012315015 9:-1.3382277 10:0 11:-0.9244068 12:-0.47469378 
8.5 1:0.2269051 2:0.40828012 3:-1.0813834 4:-0.84860263 5:0.83249896 6:0.063728146 7:0.10944769 8:0.15726541 9:0.77846456 10:0 11:-0.9244068 12:2.1066213 
5.825909016366444 1:2.5962562 2:2.1305539 3:0.16206415 4:-0.32454469 5:-1.1281724 6:0.90973731 7:1.1354383 8:-0.011064081 9:0.43388675 10:0 11:-0.9244068 12:2.1066213 
3.177979075161131 1:0.83561734 2:2.1233382 3:0.10190477 4:1.009421 5:-0.68977402 6:-0.72537331 7:-0.84752852 8:1.2888136 9:-1.4366785 10:0 11:1.0817748 12:-0.47469378 
0.1564736443740801 1:-0.34367393 2:-0.55826431 3:-0.025642294 4:0.74739201 5:-0.74426796 6:0.82409402 7:-1.4836905 8:0.20869942 9:2.058325 10:0 11:1.0817748 12:-0.47469378 
0.0159331260484951 1:-0.19854835 2:-0.11252303 3:-0.33157858 4:0.79503364 5:-1.11337 6:-2.8703995 7:-2.0593795 8:0.17596868 9:-1.0921007 10:0 11:1.0817748 12:-0.47469378 
5.776277364993959 1:0.53974135 2:-0.317934 3:-0.15887549 4:-0.84860263 5:0.39581215 6:1.0776432 7:0.16855404 8:-0.20744848 9:0.77846456 10:0 11:-0.9244068 12:2.1066213 
0.2551038889995792 1:0.37343702 2:-0.17057421 3:-0.10029605 4:-0.32454469 5:-1.1281724 6:0.62745253 7:0.16206259 8:-0.085877187 9:-1.0921007 10:0 11:1.0817748 12:-0.47469378 
8.5 1:2.2480459 2:1.70676 3:0.35509319 4:-0.84860263 5:-1.0937154 6:0.90973731 7:1.1354383 8:-0.011064081 9:0.77846456 10:0 11:-0.9244068 12:2.1066213 
-0.2228875912686599 1:-0.039819384 2:1.2794423 3:-1.1755486 4:-1.3488398 5:0.546097 6:0.90973731 7:1.1313384 8:0.0076391954 9:0.40927405 10:0 11:1.0817748 12:-0.47469378 
-0.2529501308513221 1:1.0097416 2:0.59445761 3:-0.015965986 4:-0.32454469 5:-0.3567304 6:0.96523641 7:1.5385914 8:-0.1373112 9:-0.50139587 10:0 11:-0.9244068 12:-0.47469378 
-0.04740495295446447 1:-0.92890367 2:-0.033568049 3:-1.318397 4:-0.32454469 5:1.0709724 6:0.96523641 7:1.5385914 8:-0.1373112 9:0.43388675 10:0 11:1.0817748 12:-0.47469378 
-1.284343534386374 1:-0.45051112 2:0.14600791 3:-0.14849175 4:-1.5155855 5:-1.1174345 6:-1.1214735 7:0.50610938 8:0.15258959 9:-0.40294507 10:0 11:-0.9244068 12:2.1066213 
8.5 1:0.1738693 2:0.32324568 3:0.095609909 4:0.19951325 5:-0.65859944 6:0.62745253 7:1.1282635 8:-0.44123944 9:-1.1905515 10:0 11:-0.9244068 12:-0.47469378 
-5.222988506230759 1:0.23769724 2:0.2473958 3:0.06836408 4:-0.32454469 5:-0.3567304 6:0.11950897 7:0.51294248 8:-0.0017124429 9:0.43388675 10:0 11:-0.9244068 12:-0.47469378 
-0.08348681724232576 1:0.15626551 2:0.2811102 3:-1.7775274 4:-0.32454469 5:0.75953649 6:-1.9108567 7:-0.89570191 8:1.3168686 9:0.43388675 10:0 11:1.0817748 12:-0.47469378 
-5.470110673926816 1:1.2003641 2:0.57910769 3:0.26351642 4:0.74739201 5:-1.0529699 6:0.90973731 7:1.1354383 8:-0.011064081 9:2.7474806 10:0 11:1.0817748 12:-0.47469378 
-0.161094057682536 1:-0.84742909 2:-1.6588616 3:0.46930551 4:-1.5155855 5:-0.29951697 6:2.1219842 7:1.0561742 8:2.4250377 9:0.77846456 10:0 11:-0.9244068 12:2.1066213 
1.823299068871946 1:-1.392788 2:-0.90351984 3:-0.07218603 4:-0.32454469 5:-0.59762271 6:0.93650084 7:1.0281585 8:-0.2588825 9:0.43388675 10:0 11:-0.9244068 12:-0.47469378 
-1.288789552386679 1:3.0021423 2:1.0166195 3:0.60779303 4:-1.3488398 5:-1.0880612 6:0.90973731 7:1.1354383 8:-0.011064081 9:0.43388675 10:0 11:-0.9244068 12:2.1066213 
-3.778150576544171 1:1.3915435 2:-0.93600201 3:-0.25382148 4:-1.3488398 5:-0.64338779 6:0.17500807 7:1.0489995 8:-0.13263538 9:0.43388675 10:0 11:-0.9244068 12:-0.47469378 
8.5 1:1.5356492 2:0.85217212 3:0.16705187 4:1.009421 5:-1.1023205 6:0.90973731 7:1.1313384 8:0.0076391954 9:-1.185629 10:0 11:1.0817748 12:-0.47469378 
5.640853377946764 1:-1.2217814 2:-1.2028618 3:-0.081556038 4:-0.32454469 5:-0.51024112 6:0.68266991 7:-0.31044655 8:-0.21680012 9:0.36004865 10:0 11:1.0817748 12:-0.47469378 
7.782309188356844 1:2.5962562 2:2.1305539 3:0.16206415 4:-0.32454469 5:-1.1281724 6:0.90973731 7:1.1354383 8:-0.011064081 9:0.43388675 10:0 11:-0.9244068 12:2.1066213 
0.5554539846236646 1:1.2948224 2:0.68546959 3:-0.29255803 4:0.74739201 5:-0.99391271 6:-1.0372388 7:-0.88989377 8:0.012315015 9:0.53233756 10:0 11:-0.9244068 12:2.1066213 
-0.7429823032064229 1:0.91074339 2:1.2480356 3:-0.048245804 4:0.91413772 5:-1.0394844 6:-1.3465688 7:-1.1345189 8:-0.68905786 9:1.1722678 10:0 11:-0.9244068 12:2.1066213 
-0.01805564853452154 1:-1.6512597 2:-0.30092893 3:0.0066666247 4:-1.3488398 5:-0.37216147 6:1.0776432 7:0.16855404 8:-0.20744848 9:0.40927405 10:0 11:-0.9244068 12:2.1066213 
-3.197623334791614 1:0.89045233 2:1.6942851 3:0.32274275 4:0.19951325 5:-1.0458835 6:-0.33124516 7:0.096806448 8:0.16661705 9:-0.69829748 10:0 11:1.0817748 12:-0.47469378 
-1.333896325068218 1:1.1182225 2:0.13917826 3:0.20287223 4:0.79503364 5:0.94854575 6:0.59815351 7:0.13541349 8:-0.28693741 9:0.040083541 10:0 11:1.0817748 12:-0.47469378 
3.011951320092178 1:3.814603 2:4.4386167 3:0.59671077 4:-1.0868108 5:-1.1281724 6:-0.6974829 7:-0.34734531 8:0.27416089 9:-0.82136098 10:0 11:-0.9244068 12:2.1066213 
-0.238346494442276 1:-0.25526097 2:0.22172977 3:0.096474102 4:-0.32454469 5:0.54314894 6:1.3590828 7:1.5184337 8:-1.4792713 9:-0.50139587 10:0 11:1.0817748 12:-0.47469378 
2.246983494608287 1:0.050419858 2:0.37844261 3:-1.4866823 4:1.009421 5:0.30073563 6:-0.64198379 7:-0.41055152 8:0.12453467 9:0.53233756 10:0 11:-0.9244068 12:-0.47469378 
-0.474542222820746 1:0.4261988 2:-0.12698473 3:-0.13362707 4:1.009421 5:2.0103392 6:-0.30222787 7:-0.96095805 8:2.9954876 9:-1.6828055 10:0 11:1.0817748 12:-0.47469378 
-1.341011650198497 1:-0.3500688 2:-0.320601 3:0.037088392 4:-0.44364877 5:-0.39883212 6:-0.67071937 7:-0.31488807 8:0.026342472 9:0.77846456 10:0 11:1.0817748 12:-0.47469378 
1.292236233168117 1:0.91400889 2:3.521811 3:-0.07218603 4:-0.32454469 5:-1.1094078 6:-0.6988915 7:-0.8195128 8:-1.6709799 9:0.77846456 10:0 11:-0.9244068 12:2.1066213 
-0.7729075962010267 1:0.28433541 2:-0.22403537 3:0.049624065 4:-0.32454469 5:0.398049 6:0.51448228 7:-0.89331032 8:2.5886914 9:-0.50139587 10:0 11:-0.9244068 12:-0.47469378 
-0.4434657558865412 1:-0.045868528 2:0.51282279 3:-0.82082875 4:0.74739201 5:0.58991414 6:0.90973731 7:1.1313384 8:0.0076391954 9:2.058325 10:0 11:1.0817748 12:-0.47469378 
7.718444510927355 1:-0.89396183 2:0.096198045 3:0.040254058 4:-0.32454469 5:0.26457578 6:-0.67071937 7:-0.31488807 8:0.0076391954 9:2.0090996 10:0 11:-0.9244068 12:2.1066213 
-0.276355822939525 1:-0.45023584 2:0.10254643 3:0.021723719 4:1.009421 5:0.75647334 6:-0.30222787 7:-0.96095805 8:2.9954876 9:-1.185629 10:0 11:1.0817748 12:-0.47469378 
8.5 1:-0.34393799 2:-0.042357985 3:-0.033371021 4:2.7721613 5:-0.56039044 6:0.82409402 7:-1.4836905 8:0.20869942 9:0.77846456 10:0 11:1.0817748 12:-0.47469378 
-0.2634131229727736 1:-0.73639906 2:-0.30943298 3:-0.027444955 4:0.91413772 5:0.36690384 6:-0.24813737 7:-0.90595156 8:-1.1192332 9:1.1722678 10:0 11:-0.9244068 12:2.1066213 
-0.6388103017272561 1:-0.60563227 2:0.65896267 3:-0.37898999 4:-1.5632271 5:1.5999657 6:0.23050718 7:0.149763 8:-1.6335733 9:0.77846456 10:0 11:-0.9244068 12:-0.47469378 
-0.8028834843307838 1:0.17510792 2:-0.23628867 3:1.4757587 4:0.74739201 5:0.94268444 6:1.3593646 7:1.043533 8:-1.2828869 9:-0.69829748 10:0 11:1.0817748 12:-0.47469378 
-0.9739272587404331 1:-1.2006261 2:-1.0409819 3:0.089122583 4:-1.5155855 5:-0.090726247 6:1.3593646 7:1.043533 8:-1.2828869 9:0.77846456 10:0 11:-0.9244068 12:-0.47469378 
-8.5 1:0.36453611 2:1.368423 3:0.20115911 4:-1.3250189 5:2.2627799 6:0.48687359 7:-0.92679253 8:3.7249154 9:0.77846456 10:0 11:-0.9244068 12:2.1066213 
-1.101407783800254 1:1.8734101 2:2.7626327 3:-0.10252823 4:0.79503364 5:-1.11337 6:-1.5156016 7:-0.41635966 8:1.5272804 9:-1.0921007 10:0 11:1.0817748 12:-0.47469378 
1.587289193458142 1:-0.3721028 2:-1.4088589 3:0.32873583 4:-0.84860263 5:0.34728495 6:1.3328828 7:1.0220087 8:1.6956099 9:-0.058367262 10:0 11:1.0817748 12:-0.47469378 
1.500307240750561 1:0.57806219 2:2.8310926 3:-0.13777608 4:-0.32454469 5:-1.1094078 6:-1.487993 7:-1.776489 8:-2.4004077 9:0.77846456 10:0 11:-0.9244068 12:2.1066213 
8.5 1:-0.37336339 2:-0.24363669 3:-0.033371021 4:2.7721613 5:-1.1281724 6:0.82409402 7:-1.4836905 8:0.20869942 9:0.77846456 10:0 11:1.0817748 12:-0.47469378 
-0.5380939133340925 1:-0.39856511 2:-0.76585024 3:-0.025054411 4:0.19951325 5:-0.71533178 6:0.17500807 7:-1.488132 8:0.10115558 9:-1.3382277 10:0 11:-0.9244068 12:2.1066213 
-2.192481072703381 1:1.2173255 2:-0.26341517 3:-0.79145233 4:-0.84860263 5:0.66179282 6:0.57195343 7:0.094756517 8:0.063749025 9:0.77846456 10:0 11:-0.9244068 12:2.1066213 
-0.7203398728806274 1:1.4504473 2:0.71404957 3:-0.69464751 4:-1.3488398 5:0.5361045 6:0.514764 7:1.122797 8:-0.0017124429 9:0.43388675 10:0 11:-0.9244068 12:2.1066213 
0.02779165689704353 1:0.072897138 2:0.30251144 3:0.11787688 4:-0.84860263 5:0.34728495 6:-0.30222787 7:-0.96095805 8:2.9954876 9:-0.058367262 10:0 11:1.0817748 12:-0.47469378 
7.457368644736907 1:0.1012895 2:1.451678 3:0.35247055 4:1.009421 5:-0.68977402 6:0.063728146 7:0.10944769 8:0.15726541 9:-1.1905515 10:0 11:1.0817748 12:-0.47469378 
-0.7644673867319367 1:-0.76054063 2:-0.22228673 3:-0.018366806 4:1.009421 5:-1.1238569 6:-0.67071937 7:-0.31488807 8:0.026342472 9:-1.185629 10:0 11:1.0817748 12:-0.47469378 
-8.381027161167298 1:-2.5739095 2:0.38065763 3:-2.4344814 4:-0.800961 5:0.46309261 6:-1.1203466 7:-0.86016977 8:1.2981653 9:0.77846456 10:0 11:1.0817748 12:-0.47469378 
-0.8145872984858183 1:-1.0375484 2:-0.059851623 3:0.96788479 4:-0.32454469 5:0.92422087 6:-1.939874 7:-1.8615612 8:-2.2507814 9:-0.40294507 10:0 11:-0.9244068 12:-0.47469378 
0.3985135649603224 1:-0.58336201 2:-0.037540056 3:-0.033371021 4:2.7721613 5:-0.9268643 6:0.82409402 7:-1.4836905 8:0.20869942 9:0.77846456 10:0 11:-0.9244068 12:2.1066213 
1.291935587249537 1:0.6876031 2:-0.50840129 3:-0.49444179 4:1.009421 5:0.011124701 6:-0.22024696 7:0.10090631 8:-0.13263538 9:-1.1905515 10:0 11:-0.9244068 12:-0.47469378 
0.5349739221017623 1:1.5043069 2:0.040791289 3:-0.25890996 4:1.009421 5:0.39350622 6:0.23050718 7:0.149763 8:-1.6335733 9:-1.1905515 10:0 11:1.0817748 12:-0.47469378 
-1.139033685602635 1:2.7537997 2:2.715809 3:0.43813595 4:-1.0868108 5:-1.1281724 6:0.063728146 7:0.10534783 8:0.17596868 9:-0.82136098 10:0 11:-0.9244068 12:-0.47469378 
8.5 1:-0.19506717 2:0.15974154 3:0.23721029 4:1.009421 5:-1.1281724 6:0.514764 7:1.122797 8:-0.0017124429 9:-1.1905515 10:0 11:1.0817748 12:-0.47469378 
-1.050268119577874 1:-0.84467378 2:-1.2003925 3:1.79072 4:-0.41982795 5:-0.0068731312 6:0.93650084 7:1.0281585 8:-0.2588825 9:-1.4366785 10:0 11:-0.9244068 12:2.1066213 
-2.612941504837291 1:-0.23756793 2:0.43111406 3:-0.078702847 4:-0.13397817 5:-0.87121012 6:-1.1214735 7:0.50610938 8:0.15258959 9:1.0245916 10:0 11:-0.9244068 12:-0.47469378 
-0.03880420449064156 1:-0.36912027 2:-0.087163822 3:-0.48313996 4:1.7716871 5:2.2680895 6:0.51448228 7:-0.89331032 8:2.5886914 9:0.87691537 10:0 11:-0.9244068 12:-0.47469378 
0.3759990411112035 1:2.2480459 2:1.70676 3:0.35509319 4:-0.84860263 5:-1.0937154 6:0.90973731 7:1.1354383 8:-0.011064081 9:0.77846456 10:0 11:-0.9244068 12:2.1066213 
-1.393517558653323 1:0.01350382 2:-0.1102612 3:3.0171874 4:-0.84860263 5:-0.71893304 6:-0.89722332 7:-1.2178828 8:-2.1806442 9:-0.058367262 10:0 11:1.0817748 12:-0.47469378 
-0.5632790436935305 1:-0.56577999 2:-0.65706669 3:1.7049 4:-1.5155855 5:2.319128 6:2.1219842 7:1.0561742 8:2.4250377 9:0.77846456 10:0 11:-0.9244068 12:-0.47469378 
-1.390694327573965 1:0.0096884036 2:0.58672611 3:-0.081556038 4:-0.32454469 5:-0.3567304 6:-0.64198379 7:-0.41055152 8:0.12453467 9:0.43388675 10:0 11:-0.9244068 12:-0.47469378 
8.5 1:1.226098 2:0.55266678 3:0.29688088 4:0.74739201 5:-1.1281724 6:1.4179626 7:1.1207471 8:-0.10458046 9:1.1722678 10:0 11:1.0817748 12:-0.47469378 
-1.070123534103829 1:1.1764439 2:-0.46107699 3:0.60804765 4:1.009421 5:0.30073563 6:-0.22024696 7:0.10090631 8:-0.13263538 9:-0.0091418603 10:0 11:-0.9244068 12:-0.47469378 
-1.218228412929565 1:1.1475536 2:0.66515016 3:-2.6881118 4:-0.75331937 5:0.10500095 6:-0.72650019 7:0.54061655 8:0.16661705 9:0.77846456 10:0 11:1.0817748 12:-0.47469378 
-1.266403852029347 1:2.3319061 2:0.99532286 3:-0.053446016 4:-1.3488398 5:1.7873373 6:1.7278561 7:1.5010093 8:1.7096374 9:0.43388675 10:0 11:1.0817748 12:-0.47469378 
-1.168136430840363 1:-1.8358591 2:-0.38808859 3:-0.098547856 4:1.009421 5:-1.1011239 6:0.68266991 7:-0.31044655 8:-0.19809685 9:-1.6828055 10:0 11:1.0817748 12:-0.47469378 
0.5770730886896701 1:5.0562028 2:1.7710326 3:0.68794322 4:-1.3488398 5:-1.1271835 6:0.90973731 7:1.1313384 8:0.0076391954 9:-0.94442449 10:0 11:-0.9244068 12:2.1066213 
0.2559295739811907 1:1.3773418 2:1.0453543 3:0.46657519 4:0.91413772 5:-1.0394844 6:0.064009867 7:0.57614869 8:0.14791377 9:1.1722678 10:0 11:-0.9244068 12:2.1066213 
-1.270076545075029 1:1.2955694 2:0.074799648 3:0.44316437 4:-0.32454469 5:0.75953649 6:-1.0662561 7:0.12858038 8:0.03569411 9:0.43388675 10:0 11:1.0817748 12:-0.47469378 
-2.404277832522497 1:0.10122416 2:0.39153869 3:-0.33019838 4:-0.84860263 5:0.9609635 6:-1.1217552 7:0.061274307 8:0.18532032 9:0.77846456 10:0 11:-0.9244068 12:-0.47469378 
-0.05892862588462271 1:-1.6178357 2:-0.47448515 3:-0.015965986 4:-0.32454469 5:0.15371876 6:1.78251 7:-0.32137952 8:-0.025091539 9:0.18775975 10:0 11:-0.9244068 12:-0.47469378 
-0.05086563899109046 1:-1.3726172 2:-0.24241763 3:-1.3112862 4:1.009421 5:0.70663313 6:-1.0648475 7:-0.92337598 8:1.1485391 9:-1.6828055 10:0 11:1.0817748 12:-0.47469378 
8.5 1:0.53007132 2:-0.66759943 3:-0.45936258 4:1.009421 5:0.011124701 6:-0.61522027 7:-0.37809428 8:-0.12328374 9:-0.69829748 10:0 11:-0.9244068 12:-0.47469378 
0.8449741391191636 1:1.6610182 2:0.100183 3:-0.033400753 4:1.009421 5:0.29032682 6:-0.55859428 7:0.15932935 8:-0.27290995 9:-1.185629 10:0 11:1.0817748 12:-0.47469378 
0.5325185792975838 1:-2.3050727 2:-0.087566501 3:-0.26729891 4:-1.5155855 5:-0.32361484 6:-0.67071937 7:1.0527577 8:0.0029633763 9:0.77846456 10:0 11:-0.9244068 12:-0.47469378 
-2.778465190093751 1:-0.36379041 2:1.1637335 3:0.64786812 4:-1.3488398 5:-0.68584162 6:-0.33124516 7:0.096806448 8:0.16661705 9:0.43388675 10:0 11:-0.9244068 12:-0.47469378 
4.778368989216376 1:-0.64001343 2:-0.53592032 3:-0.033616274 4:-0.41982795 5:-1.1281724 6:0.23247922 7:-0.316938 8:-0.095228825 9:-1.6828055 10:0 11:-0.9244068 12:-0.47469378 
5.389808431633833 1:-0.60305711 2:-0.0016101724 3:0.27415154 4:0.056588358 5:-0.99706478 6:2.7138807 7:1.5908646 8:-0.12795956 9:-0.20604347 10:0 11:-0.9244068 12:-0.47469378 
4.160174015058298 1:-1.0507161 2:0.85050266 3:0.27921405 4:-1.5155855 5:-0.69723844 6:1.8681533 7:1.1272385 8:-0.22615176 9:-1.6828055 10:0 11:-0.9244068 12:-0.47469378 
3.27394859576436 1:0.2691503 2:1.4938582 3:0.31805615 4:0.34243814 5:-1.1281724 6:1.8681533 7:0.56521573 8:0.0076391954 9:0.77846456 10:0 11:-0.9244068 12:2.1066213 
0.2779253533847689 1:0.394252 2:1.7638992 3:0.34191451 4:-0.84860263 5:-1.1281724 6:-0.21855663 7:0.10227293 8:-0.27290995 9:0.77846456 10:0 11:-0.9244068 12:2.1066213 
0.1831617187858096 1:0.32987286 2:2.3554045 3:0.25835044 4:0.34243814 5:-0.84328295 6:1.3047106 7:1.610339 8:0.021666653 9:0.77846456 10:0 11:-0.9244068 12:-0.47469378 
0.5261770413065966 1:-0.81230095 2:-0.60477474 3:-0.1335962 4:-1.3488398 5:0.051435723 6:0.5702631 7:1.0595908 8:-0.15133866 9:0.43388675 10:0 11:-0.9244068 12:-0.47469378 
8.5 1:-0.63454659 2:0.17663183 3:-0.51118975 4:0.34243814 5:-0.79198208 6:-1.1214735 7:0.50610938 8:0.15258959 9:0.77846456 10:0 11:-0.9244068 12:-0.47469378 
8.5 1:-0.64001343 2:-0.53592032 3:-0.033616274 4:-0.41982795 5:-1.1281724 6:0.23247922 7:-0.316938 8:-0.095228825 9:0.28621055 10:0 11:-0.9244068 12:-0.47469378 
3.415063877182198 1:0.72110559 2:0.39920564 3:-0.1565161 4:-0.32454469 5:-1.1281724 6:0.11922725 7:0.17675376 8:0.0076391954 9:-0.50139587 10:0 11:-0.9244068 12:2.1066213 
-4.519617405300192 1:2.6085063 2:0.73352773 3:0.1119274 4:1.009421 5:-1.1281724 6:-0.72650019 7:0.54061655 8:0.16661705 9:0.53233756 10:0 11:1.0817748 12:-0.47469378 
-1.05361062964321 1:-0.058277268 2:-0.019438434 3:-0.17865524 4:-1.5632271 5:-0.31931688 6:0.96523641 7:1.5385914 8:-0.1373112 9:-0.10759266 10:0 11:-0.9244068 12:-0.47469378 
2.34495644864865 1:-0.22673762 2:0.011568121 3:-0.43931732 4:1.009421 5:0.011124701 6:-1.8274672 7:-1.8482366 8:-2.5593855 9:-1.1905515 10:0 11:-0.9244068 12:-0.47469378 
-0.312537033201062 1:1.5345957 2:0.53111398 3:-0.29389658 4:-1.3488398 5:0.90790522 6:0.14711766 7:-0.42660932 8:-1.0070136 9:0.40927405 10:0 11:1.0817748 12:-0.47469378 
-6.760390457993725 1:-0.87162497 2:0.33472369 3:0.18080417 4:-0.32454469 5:-0.23447661 6:2.3189074 7:1.111864 8:-0.14198702 9:0.43388675 10:0 11:1.0817748 12:-0.47469378 
0.230199584207338 1:0.24126305 2:0.54165859 3:-0.088525225 4:1.009421 5:-1.121174 6:-0.27574606 7:-0.30634669 8:0.03569411 9:-1.6828055 10:0 11:1.0817748 12:-0.47469378 
1.798673125768552 1:0.013334251 2:-0.19534358 3:-0.40924943 4:1.009421 5:0.011124701 6:-0.33293549 7:-0.03575577 8:0.30689162 9:-1.4366785 10:0 11:-0.9244068 12:-0.47469378 
-0.3525090519652495 1:-1.3882659 2:1.0996472 3:0.10685436 4:-1.3488398 5:-0.14374551 6:0.11922725 7:1.5662655 8:0.031018291 9:0.43388675 10:0 11:-0.9244068 12:-0.47469378 
-2.837412738250863 1:-1.7690941 2:-0.56570955 3:-0.066178825 4:-0.800961 5:-0.64178128 6:0.68266991 7:-0.31044655 8:-0.21680012 9:0.77846456 10:0 11:1.0817748 12:-0.47469378 
-0.2577486807908902 1:-1.6502396 2:0.13256712 3:-0.70281931 4:-0.800961 5:0.46309261 6:-0.33124516 7:0.096806448 8:0.16661705 9:0.77846456 10:0 11:1.0817748 12:-0.47469378 
-0.7050477606677987 1:0.64854835 2:0.37717748 3:-1.9377007 4:1.009421 5:-0.32819802 6:-0.72650019 7:0.54061655 8:0.16661705 9:0.13853434 10:0 11:1.0817748 12:-0.47469378 
8.5 1:-0.78673899 2:-0.31676938 3:0.39462925 4:-0.84860263 5:-0.18907619 6:-0.67071937 7:-0.31488807 8:0.0076391954 9:0.77846456 10:0 11:-0.9244068 12:2.1066213 
-1.329251527632967 1:0.3413725 2:-1.3640949 3:2.4111722 4:-1.3488398 5:-0.44853603 6:0.96410953 7:1.0394331 8:-1.4932987 9:0.40927405 10:0 11:-0.9244068 12:-0.47469378 
1.617848248955146 1:-0.72378322 2:0.67066038 3:0.24723292 4:1.009421 5:-0.37527875 6:0.37333989 7:-0.38868559 8:0.98020957 9:0.040083541 10:0 11:-0.9244068 12:-0.47469378 
0.8811138758577309 1:-0.77705724 2:-2.0800901 3:0.24966372 4:-0.84860263 5:-1.1281724 6:1.3317559 7:1.0250836 8:-0.14666284 9:-0.058367262 10:0 11:1.0817748 12:-0.47469378 
0.8804631996069086 1:0.74479482 2:-0.40109931 3:-0.10029605 4:-0.32454469 5:-0.3567304 6:0.5702631 7:1.0595908 8:-0.15133866 9:0.43388675 10:0 11:-0.9244068 12:-0.47469378 
-8.5 1:0.040745016 2:0.35100695 3:0.23756793 4:0.19951325 5:-0.79723826 6:0.514764 7:1.122797 8:-0.0017124429 9:-1.3382277 10:0 11:-0.9244068 12:-0.47469378 
0.7313900550922542 1:-0.4588366 2:-0.34149338 3:-0.072628781 4:1.7716871 5:-1.0606542 6:0.26065136 7:-1.2011417 8:1.7376923 9:0.87691537 10:0 11:-0.9244068 12:-0.47469378 
1.257548611112983 1:-0.91602095 2:0.87343245 3:-0.013642212 4:0.34243814 5:-1.1260423 6:0.96523641 7:1.5385914 8:-0.1373112 9:0.77846456 10:0 11:1.0817748 12:-0.47469378 
3.777885505784652 1:-0.78499088 2:0.15609907 3:0.15702924 4:1.009421 5:-0.40919623 6:1.8681533 7:1.1272385 8:-0.22615176 9:-1.1905515 10:0 11:1.0817748 12:-0.47469378 
-0.8155093945185281 1:0.02338374 2:0.53257395 3:-2.8082282 4:-0.32454469 5:1.0573773 6:0.37333989 7:-0.38868559 8:0.98020957 9:0.43388675 10:0 11:-0.9244068 12:-0.47469378 
-1.098260945664386 1:-0.70617051 2:-0.00463831 3:-1.7587874 4:-0.32454469 5:0.75953649 6:-1.883248 7:-0.8622197 8:0.1806445 9:0.43388675 10:0 11:1.0817748 12:-0.47469378 
-2.345728987021714 1:1.8242235 2:0.37573859 3:0.51742336 4:-1.0868108 5:-1.1281724 6:0.88100173 7:0.47843531 8:0.0029633763 9:-0.82136098 10:0 11:-0.9244068 12:2.1066213 
-1.123729032978409 1:0.98594862 2:-0.71852064 3:1.7499332 4:-1.3488398 5:1.3226215 6:2.1219842 7:1.0561742 8:2.4250377 9:0.40927405 10:0 11:-0.9244068 12:-0.47469378 
0.1702234823318167 1:-1.6066611 2:-0.93413733 3:-0.11355866 4:-1.3488398 5:-0.37216147 6:0.68266991 7:-0.31044655 8:-0.21680012 9:0.43388675 10:0 11:-0.9244068 12:2.1066213 
-1.355849968312438 1:0.43325491 2:-0.59405492 3:-0.2739439 4:1.009421 5:-1.1220955 6:-1.4612294 7:-0.35042021 8:0.026342472 9:-1.6828055 10:0 11:1.0817748 12:-0.47469378 
4.005700690869308 1:-0.2059353 2:1.1056338 3:0.72801831 4:-1.3488398 5:-0.29514081 6:0.90973731 7:1.6017976 8:0.012315015 9:0.43388675 10:0 11:-0.9244068 12:-0.47469378 
6.886541476025274 1:0.88322875 2:0.059653519 3:-0.0065959789 4:-0.32454469 5:0.40431493 6:-0.16333925 7:0.16992066 8:-0.29161323 9:0.43388675 10:0 11:-0.9244068 12:-0.47469378 
-0.2043060578346458 1:-0.044479952 2:0.46171958 3:0.13561929 4:0.74739201 5:1.017042 6:1.7543379 7:1.5225336 8:-1.2688594 9:-0.59984668 10:0 11:1.0817748 12:-0.47469378 
6.330794694095323 1:1.4485144 2:1.0159303 3:0.16705187 4:1.009421 5:-1.1281724 6:0.90973731 7:1.1313384 8:0.0076391954 9:0.63078836 10:0 11:1.0817748 12:-0.47469378 
8.5 1:0.36453611 2:1.368423 3:0.20115911 4:-1.3250189 5:2.2627799 6:0.48687359 7:-0.92679253 8:3.7249154 9:0.77846456 10:0 11:-0.9244068 12:2.1066213 
2.219483579146174 1:0.82796747 2:0.5898111 3:0.26351642 4:0.74739201 5:-1.0268194 6:0.90973731 7:1.1354383 8:-0.011064081 9:2.7474806 10:0 11:1.0817748 12:-0.47469378 
1.687284746769696 1:0.0035655411 2:2.1320498 3:-0.0007312789 4:-0.84860263 5:-0.99230284 6:0.11922725 7:1.5662655 8:0.031018291 9:-0.058367262 10:0 11:1.0817748 12:-0.47469378 
-1.483668466769973 1:-0.26352378 2:-0.34195431 3:-0.25112628 4:-0.84860263 5:3.0105943 6:0.17500807 7:-1.488132 8:0.10115558 9:0.77846456 10:0 11:-0.9244068 12:-0.47469378 
0.3896917112904694 1:0.91696361 2:2.4934451 3:-0.015270958 4:0.79503364 5:-1.11337 6:-1.487993 7:-0.38287745 8:0.29286416 9:-1.0921007 10:0 11:1.0817748 12:-0.47469378 
-0.21964524428346 1:-0.19506717 2:0.15974154 3:0.23721029 4:1.009421 5:-1.1281724 6:0.514764 7:1.122797 8:-0.0017124429 9:-0.0091418603 10:0 11:1.0817748 12:-0.47469378 
-0.4816373081035012 1:1.0097416 2:0.59445761 3:-0.015965986 4:-0.32454469 5:-0.3567304 6:0.96523641 7:1.5385914 8:-0.1373112 9:0.43388675 10:0 11:-0.9244068 12:-0.47469378 
-7.408120537751989 1:-0.21114854 2:-0.96995216 3:0.0016784562 4:1.009421 5:-1.0730414 6:0.23247922 7:-0.316938 8:-0.095228825 9:-1.185629 10:0 11:1.0817748 12:-0.47469378 
-1.033173289251504 1:-0.018782304 2:0.0041927275 3:2.3510596 4:-1.3488398 5:0.7878534 6:1.3593646 7:1.043533 8:-1.2828869 9:0.43388675 10:0 11:-0.9244068 12:-0.47469378 
-0.4260790980605371 1:0.89324173 2:0.1382539 3:-0.093521109 4:-1.3488398 5:-0.64338779 6:0.56998138 7:1.5280001 8:-0.11860792 9:0.40927405 10:0 11:-0.9244068 12:-0.47469378 
-0.6789925438252548 1:-0.88153537 2:0.17376685 3:0.19201077 4:0.34243814 5:0.1199549 6:1.8681533 7:1.1272385 8:-0.22615176 9:0.77846456 10:0 11:1.0817748 12:-0.47469378 
-1.174117464832375 1:-0.51215346 2:0.25411339 3:-0.15887549 4:-0.84860263 5:0.0037736708 6:-0.38843459 7:0.027450442 8:0.45651783 9:0.77846456 10:0 11:-0.9244068 12:2.1066213 
2.787401079736732 1:2.2653824 2:3.126046 3:0.1119274 4:1.009421 5:-1.0844513 6:-0.33011828 7:-0.37228614 8:1.5179288 9:-1.1905515 10:0 11:1.0817748 12:-0.47469378 
0.7837357745681408 1:0.29614213 2:0.4804921 3:-0.77138364 4:1.8193287 5:1.0648735 6:0.063728146 7:0.10944769 8:0.15726541 9:1.1722678 10:0 11:1.0817748 12:-0.47469378 
2.025386272368141 1:0.39516164 2:-0.66814028 3:-0.053446016 4:-0.32454469 5:-1.1281724 6:0.23247922 7:-0.316938 8:-0.076525549 9:2.0090996 10:0 11:1.0817748 12:-0.47469378 
0.7387559419044218 1:0.059657873 2:0.048785063 3:-1.271547 4:-0.32454469 5:-0.27735366 6:1.6712301 7:0.50952593 8:2.5746639 9:0.43388675 10:0 11:-0.9244068 12:-0.47469378 
1.148981625361408 1:5.0562028 2:1.7710326 3:0.68794322 4:-1.3488398 5:-1.1271835 6:0.90973731 7:1.1313384 8:0.0076391954 9:0.43388675 10:0 11:-0.9244068 12:2.1066213 
-8.5 1:0.53007132 2:-0.66759943 3:-0.45936258 4:1.009421 5:0.011124701 6:-0.61522027 7:-0.37809428 8:-0.12328374 9:-1.1905515 10:0 11:-0.9244068 12:-0.47469378 
-1.006116989321796 1:0.14362395 2:-0.70281802 3:0.36734247 4:-1.3488398 5:-0.91723619 6:1.3328828 7:1.0220087 8:1.6956099 9:0.43388675 10:0 11:-0.9244068 12:-0.47469378 
1.032852685784377 1:-0.3896972 2:0.044760883 3:-0.1565161 4:-0.32454469 5:-1.1281724 6:0.11922725 7:0.17675376 8:0.0076391954 9:-0.50139587 10:0 11:-0.9244068 12:2.1066213 
1.235610676337482 1:-0.54093448 2:-0.10969976 3:0.076559286 4:0.91413772 5:0.10638687 6:-0.67071937 7:-0.31488807 8:0.026342472 9:0.87691537 10:0 11:-0.9244068 12:-0.47469378 
0.7144538999451218 1:0.30506349 2:0.28117357 3:-3.1923985 4:-0.32454469 5:1.0573773 6:1.1348327 7:0.53480841 8:0.85396246 9:0.43388675 10:0 11:-0.9244068 12:-0.47469378 
-0.3976228323220042 1:0.20673519 2:0.082705858 3:-0.013370922 4:-1.3488398 5:-0.28808378 6:0.11922725 7:0.17675376 8:0.0076391954 9:-0.94442449 10:0 11:-0.9244068 12:2.1066213 
-8.5 1:0.1012895 2:1.451678 3:0.35247055 4:1.009421 5:-0.68977402 6:0.063728146 7:0.10944769 8:0.15726541 9:-1.1905515 10:0 11:1.0817748 12:-0.47469378 
-7.20036045692928 1:0.10122416 2:0.56463052 3:0.038804774 4:-0.84860263 5:-0.9406044 6:-1.1789447 7:-0.93123405 8:0.11985885 9:0.77846456 10:0 11:-0.9244068 12:2.1066213 
-2.830118115045677 1:-0.7955256 2:-1.03485 3:-0.20097225 4:-0.87242345 5:-0.52122296 6:0.17500807 7:1.0489995 8:-0.13263538 9:0.77846456 10:0 11:-0.9244068 12:-0.47469378 
-1.823177408550786 1:-0.96562674 2:-0.45527429 3:-0.023701402 4:-0.41982795 5:-0.95176586 6:0.17500807 7:-1.488132 8:0.10115558 9:0.77846456 10:0 11:-0.9244068 12:-0.47469378 
-2.076201024486287 1:0.27506674 2:0.49868579 3:-0.10857049 4:1.009421 5:-1.0050431 6:-0.78397134 7:-0.92269267 8:0.12921049 9:-1.185629 10:0 11:-0.9244068 12:-0.47469378 
1.342554824540797 1:-0.23756793 2:0.020045443 3:1.248985 4:-0.32454469 5:-0.34588398 6:-1.5167285 7:0.026767132 8:0.17129287 9:0.43388675 10:0 11:-0.9244068 12:-0.47469378 
-0.1153416451146602 1:0.18641062 2:-0.18970405 3:-0.13849511 4:2.295745 5:0.40756454 6:-0.30335475 7:-0.47546601 8:1.2514071 9:1.0245916 10:0 11:-0.9244068 12:-0.47469378 
-0.2488392593040135 1:-0.38100221 2:0.69762518 3:-0.40231063 4:-1.0868108 5:0.0098811059 6:0.62576221 7:0.15386287 8:-1.4231615 9:-1.1905515 10:0 11:-0.9244068 12:-0.47469378 
-8.5 1:1.3799623 2:1.4695743 3:0.16206415 4:-0.32454469 5:-1.1281724 6:0.90973731 7:1.1354383 8:-0.011064081 9:0.43388675 10:0 11:-0.9244068 12:2.1066213 
-0.8388657871076433 1:-1.4842136 2:0.78565371 3:-0.95296672 4:-0.32454469 5:0.32086611 6:-0.33124516 7:0.096806448 8:0.16661705 9:0.43388675 10:0 11:-0.9244068 12:-0.47469378 
0.0800236985860687 1:3.2871224 2:1.183057 3:0.81382984 4:-1.6585104 5:-1.1281724 6:0.514764 7:1.122797 8:-0.0017124429 9:1.0245916 10:0 11:1.0817748 12:-0.47469378 
-3.30270734619287 1:0.36835555 2:0.91317763 3:0.23756793 4:0.19951325 5:-0.52726334 6:0.514764 7:1.122797 8:-0.0017124429 9:-1.3382277 10:0 11:1.0817748 12:-0.47469378 
-8.5 1:-0.88213018 2:-1.2956055 3:-0.13276498 4:-0.41982795 5:-0.43102596 6:0.93650084 7:1.0281585 8:-0.2588825 9:0.77846456 10:0 11:-0.9244068 12:-0.47469378 
-0.001964524954018363 1:0.60691665 2:1.6412078 3:-3.950863 4:-1.3250189 5:1.3287007 6:-0.72537331 7:-0.85162839 8:1.3075169 9:0.77846456 10:0 11:-0.9244068 12:-0.47469378 
8.5 1:0.53007132 2:-0.66759943 3:-0.45936258 4:1.009421 5:0.011124701 6:-0.61522027 7:-0.37809428 8:-0.12328374 9:-1.6828055 10:0 11:-0.9244068 12:-0.47469378 
-0.03260504708986671 1:1.7835728 2:0.63618193 3:-0.040267331 4:-0.84860263 5:-1.0937154 6:-1.234162 7:-1.4645578 8:0.23207851 9:0.77846456 10:0 11:-0.9244068 12:2.1066213 
-0.2130950249553644 1:-0.14994088 2:0.11861778 3:-0.038412069 4:1.009421 5:0.011124701 6:0.11950897 7:0.51294248 8:-0.0017124429 9:-1.6828055 10:0 11:-0.9244068 12:-0.47469378 
-8.5 1:-0.34393799 2:-0.042357985 3:-0.033371021 4:2.7721613 5:-0.56039044 6:0.82409402 7:-1.4836905 8:0.20869942 9:0.77846456 10:0 11:1.0817748 12:-0.47469378 
-2.765450803646649 1:0.24070059 2:0.56064815 3:-0.015965986 4:-0.32454469 5:0.40431493 6:0.96523641 7:1.5385914 8:-0.1373112 9:0.43388675 10:0 11:-0.9244068 12:-0.47469378 
-1.299826347510846 1:-0.32666039 2:-0.081167354 3:-0.086810482 4:0.74739201 5:0.64341541 6:-1.0648475 7:-1.8858187 8:-0.71243695 9:0.53233756 10:0 11:1.0817748 12:-0.47469378 
8.5 1:0.45278229 2:1.1700679 3:0.16705187 4:1.009421 5:-1.0844513 6:0.90973731 7:1.1313384 8:0.0076391954 9:-1.185629 10:0 11:1.0817748 12:-0.47469378 
-0.9852106453647987 1:-0.092795278 2:-0.37206333 3:0.28725324 4:0.19951325 5:1.0779375 6:-1.6291353 7:-1.4771991 8:0.24143015 9:-1.3382277 10:0 11:-0.9244068 12:-0.47469378 
-1.406501123529598 1:0.48231615 2:2.0871461 3:0.10685436 4:-1.3488398 5:-1.1281724 6:0.11922725 7:1.5662655 8:0.031018291 9:0.40927405 10:0 11:1.0817748 12:-0.47469378 
0.4154599632439531 1:-0.21724183 2:-0.0060224897 3:-0.086810482 4:0.74739201 5:-1.0268194 6:-0.78397134 7:-0.91859281 8:0.11050722 9:1.1722678 10:0 11:1.0817748 12:-0.47469378 
-0.8405969490014135 1:0.16922056 2:0.23066535 3:-2.5083879 4:-0.32454469 5:1.0573773 6:-0.023042024 7:-0.86939446 8:-0.97428282 9:0.43388675 10:0 11:-0.9244068 12:-0.47469378 
-1.014122241873371 1:1.8682708 2:3.0312983 3:0.67138162 4:-0.84860263 5:-1.1281724 6:0.1766984 7:0.58161518 8:-0.29161323 9:0.77846456 10:0 11:-0.9244068 12:2.1066213 
-0.1965742495408414 1:0.74072323 2:0.018429434 3:0.9866248 4:-0.32454469 5:0.75953649 6:-2.8703995 7:-2.0593795 8:0.17596868 9:0.43388675 10:0 11:1.0817748 12:-0.47469378 
-0.2494677077545941 1:0.16758232 2:0.86106749 3:0.03088405 4:-0.32454469 5:0.72264771 6:1.3590828 7:1.5184337 8:-1.4792713 9:0.43388675 10:0 11:1.0817748 12:-0.47469378 
4.198909756388472 1:0.30613874 2:0.10154801 3:-0.83098838 4:-0.84860263 5:0.97041401 6:-0.33124516 7:0.096806448 8:0.16661705 9:0.77846456 10:0 11:-0.9244068 12:2.1066213 
-0.7961974631771168 1:1.1545617 2:-0.60710382 3:-0.10302037 4:-0.41982795 5:0.095779571 6:-1.4612294 7:-0.35042021 8:0.045045748 9:-1.4366785 10:0 11:1.0817748 12:-0.47469378 
-3.902903941160317 1:-0.79356139 2:-0.084523418 3:-0.023701402 4:-0.41982795 5:-0.49685158 6:0.17500807 7:-1.488132 8:0.10115558 9:0.77846456 10:0 11:-0.9244068 12:2.1066213 
-8.5 1:0.50037001 2:-0.28457017 3:-0.20378548 4:1.009421 5:0.011124701 6:0.5702631 7:1.0595908 8:-0.15133866 9:-1.6828055 10:0 11:-0.9244068 12:-0.47469378 
-0.6452239381161334 1:-2.3738231 2:-0.5397204 3:0.0099839151 4:-1.0868108 5:0.0098811059 6:-0.24813737 7:-0.90595156 8:-1.1192332 9:-1.1905515 10:0 11:-0.9244068 12:-0.47469378 
1.513460487443638 1:-0.11219005 2:-0.54891102 3:1.6050458 4:0.34243814 5:-0.37857168 6:0.96410953 7:1.0394331 8:-1.4932987 9:0.77846456 10:0 11:-0.9244068 12:-0.47469378 
-0.2571658864130998 1:-0.35778448 2:-2.031019 3:-0.027088647 4:-0.84860263 5:0.2753128 6:1.2187856 7:-0.039172322 8:2.883268 9:0.77846456 10:0 11:-0.9244068 12:-0.47469378 
8.5 1:-0.88213018 2:-1.2956055 3:-0.13276498 4:-0.41982795 5:-0.43102596 6:0.93650084 7:1.0281585 8:-0.2588825 9:0.77846456 10:0 11:-0.9244068 12:-0.47469378 
1.466938077756468 1:3.0815948 2:3.4118115 3:0.35113435 4:0.19951325 5:-1.0743734 6:0.45898318 7:0.58878994 8:0.13856213 9:-1.3382277 10:0 11:-0.9244068 12:2.1066213 
6.363954920916011 1:0.83561734 2:2.1233382 3:0.10190477 4:1.009421 5:-0.68977402 6:-0.72537331 7:-0.84752852 8:1.2888136 9:-1.6828055 10:0 11:1.0817748 12:-0.47469378 
-0.6724919994331156 1:-0.7649086 2:-0.95646142 3:-0.13251812 4:-0.84860263 5:-0.20513182 6:0.5702631 7:1.0595908 8:-0.15133866 9:-0.058367262 10:0 11:-0.9244068 12:-0.47469378 
-0.4201209180791382 1:0.17693757 2:0.63167762 3:-0.023378122 4:1.009421 5:0.1626012 6:-0.30335475 7:-0.95788315 8:1.1532149 9:0.040083541 10:0 11:1.0817748 12:-0.47469378 
-8.5 1:0.56023281 2:-0.022192998 3:-0.83098838 4:-0.84860263 5:0.95250315 6:-0.33124516 7:0.096806448 8:0.16661705 9:0.77846456 10:0 11:-0.9244068 12:2.1066213 
-0.7799488208259949 1:1.6080293 2:2.0251383 3:0.48688004 4:-0.84860263 5:-0.59823378 6:0.063728146 7:0.10534783 8:0.17596868 9:0.77846456 10:0 11:-0.9244068 12:-0.47469378 
4.644328786948897 1:0.65225876 2:0.65950991 3:0.26513423 4:-0.32454469 5:-1.1281724 6:0.514764 7:1.122797 8:-0.0017124429 9:0.43388675 10:0 11:1.0817748 12:-0.47469378 
-0.874738077958337 1:-0.2313323 2:-0.12834718 3:2.6476531 4:1.009421 5:-0.32479382 6:-1.6863248 7:-1.2083164 8:-0.81998079 9:-1.6828055 10:0 11:1.0817748 12:-0.47469378 
-8.5 1:0.35219168 2:-0.93484822 3:-0.42428337 4:1.009421 5:0.011124701 6:-0.61522027 7:-0.37809428 8:-0.14198702 9:-1.6828055 10:0 11:-0.9244068 12:-0.47469378 
3.35689404561086 1:1.6405244 2:1.2898607 3:0.031728798 4:0.19951325 5:-1.0743734 6:-1.6849162 7:-2.0112061 8:0.14791377 9:-1.3382277 10:0 11:-0.9244068 12:2.1066213 
-1.347256307855291 1:-0.51467427 2:-0.49055017 3:-0.053446016 4:0.74739201 5:-1.0529699 6:-0.27574606 7:-0.30224683 8:-0.0017124429 9:2.7474806 10:0 11:1.0817748 12:-0.47469378 
0.005292276145675276 1:2.5058323 2:1.5336849 3:0.15949102 4:0.19951325 5:-1.0743734 6:0.90973731 7:1.1354383 8:-0.011064081 9:-1.3382277 10:0 11:-0.9244068 12:2.1066213 
0.5572293974807719 1:0.57082703 2:0.71892203 3:-2.620828 4:-0.32454469 5:1.0573773 6:0.3457312 7:-0.4221678 8:2.2146258 9:0.43388675 10:0 11:-0.9244068 12:-0.47469378 
0.1008097168371284 1:-0.23756793 2:-0.067567622 3:0.49001441 4:-0.32454469 5:-0.34588398 6:-3.0684496 7:-1.8550697 8:-2.4050835 9:0.43388675 10:0 11:-0.9244068 12:-0.47469378 
8.5 1:-0.59253271 2:-0.041740135 3:0.2182842 4:-0.32454469 5:3.0193723 6:0.23247922 7:-0.316938 8:-0.076525549 9:2.0090996 10:0 11:-0.9244068 12:-0.47469378 
-0.1359719719543133 1:0.81765198 2:0.1730941 3:-0.11355866 4:-1.3488398 5:0.90790522 6:0.11950897 7:-0.46009153 8:0.22740269 9:0.40927405 10:0 11:1.0817748 12:-0.47469378 
-1.394132364291238 1:-0.98569224 2:-1.8183882 3:-0.34784602 4:0.17569244 5:-1.1281724 6:-0.61522027 7:-0.37809428 8:-0.12328374 9:0.48311215 10:0 11:-0.9244068 12:-0.47469378 
-0.3091010158932687 1:-0.044265184 2:0.39357678 3:0.012447405 4:-0.84860263 5:-1.0078064 6:-0.27574606 7:-0.30634669 8:0.03569411 9:0.77846456 10:0 11:-0.9244068 12:-0.47469378 
-0.4812243337280449 1:0.45243559 2:-0.01679852 3:-0.23768574 4:-0.56275285 5:0.66500325 6:0.82409402 7:-1.4836905 8:0.20869942 9:1.0245916 10:0 11:1.0817748 12:-0.47469378 
8.5 1:0.36453611 2:1.368423 3:0.20115911 4:-1.3250189 5:2.2627799 6:0.48687359 7:-0.92679253 8:3.7249154 9:0.77846456 10:0 11:-0.9244068 12:2.1066213 
-1.208155785779589 1:-0.71743936 2:-0.15338596 3:-0.29477466 4:0.19951325 5:-0.010329595 6:-0.24813737 7:-0.43070918 8:-1.2174254 9:-0.69829748 10:0 11:1.0817748 12:-0.47469378 
-1.092218602854769 1:0.3625297 2:-0.19798507 3:2.1314876 4:1.009421 5:1.1916682 6:-0.5284501 7:-1.2353072 8:1.0082645 9:-1.687728 10:0 11:1.0817748 12:-0.47469378 
3.136201040897723 1:0.96541696 2:0.065384906 3:0.03174635 4:1.009421 5:-1.1281724 6:-0.38843459 7:0.027450442 8:0.45651783 9:-0.0091418603 10:0 11:1.0817748 12:-0.47469378 
-1.180470193915181 1:-1.3726172 2:-0.24241763 3:-1.3112862 4:1.009421 5:0.70663313 6:-1.0648475 7:-0.92337598 8:1.1485391 9:-1.6828055 10:0 11:1.0817748 12:-0.47469378 
-0.9489739920048748 1:0.88604523 2:-0.49709241 3:-0.13129644 4:0.74739201 5:-0.99391271 6:0.5702631 7:1.0595908 8:-0.15133866 9:0.53233756 10:0 11:-0.9244068 12:2.1066213 
5.770807111197318 1:0.41100262 2:0.49141598 3:-0.053446016 4:0.74739201 5:-1.0971325 6:-0.27574606 7:-0.30634669 8:0.03569411 9:2.7474806 10:0 11:1.0817748 12:-0.47469378 
-8.5 1:0.6876031 2:-0.50840129 3:-0.49444179 4:1.009421 5:0.011124701 6:-0.22024696 7:0.10090631 8:-0.13263538 9:0.53233756 10:0 11:-0.9244068 12:-0.47469378 
8.5 1:-0.23756793 2:-0.64432458 3:-0.13777608 4:-0.32454469 5:-1.087083 6:-0.67071937 7:1.0527577 8:0.0029633763 9:0.43388675 10:0 11:-0.9244068 12:-0.47469378 
-1.178948548444238 1:-0.86883097 2:-0.65105226 3:-0.073347917 4:0.34243814 5:-1.1260423 6:0.5702631 7:1.0595908 8:-0.15133866 9:0.77846456 10:0 11:1.0817748 12:-0.47469378 
-0.3823044881103275 1:0.69834351 2:0.21956057 3:-0.17415856 4:-0.44364877 5:1.5871998 6:0.26065136 7:-1.2011417 8:1.7376923 9:0.77846456 10:0 11:1.0817748 12:-0.47469378 
8.149483983324453 1:-0.012890393 2:-0.24060739 3:-1.0935168 4:-0.32454469 5:1.5021671 6:2.3189074 7:1.111864 8:-0.14198702 9:0.43388675 10:0 11:-0.9244068 12:-0.47469378 
2.328722006899833 1:-0.66203604 2:1.8124771 3:0.40759502 4:1.009421 5:-1.1281724 6:0.90973731 7:1.6017976 8:0.012315015 9:-0.0091418603 10:0 11:1.0817748 12:-0.47469378 
-1.171355253591711 1:0.0058986786 2:-0.25992238 3:2.1377405 4:-0.41982795 5:0.62215204 6:0.17500807 7:1.0489995 8:-0.13263538 9:0.77846456 10:0 11:-0.9244068 12:-0.47469378 
0.1554848726608461 1:2.0653498 2:0.99563257 3:0.20213108 4:1.009421 5:-0.63945742 6:0.90973731 7:1.1354383 8:-0.011064081 9:-1.6828055 10:0 11:-0.9244068 12:-0.47469378 
2.890556841947162 1:0.90005393 2:1.0342577 3:-0.96536799 4:0.17569244 5:-1.0670871 6:0.90973731 7:1.1354383 8:-0.011064081 9:0.48311215 10:0 11:-0.9244068 12:-0.47469378 
2.492184577518445 1:-0.23756793 2:-2.4598637 3:-0.45635633 4:-0.32454469 5:-0.71799429 6:-1.4612294 7:0.094073206 8:0.021666653 9:0.43388675 10:0 11:-0.9244068 12:-0.47469378 
-0.1773064132426208 1:1.366951 2:0.58606791 3:0.34299105 4:-1.0868108 5:-0.11314429 6:0.12063586 7:-0.4481336 8:1.9714832 9:-0.20604347 10:0 11:1.0817748 12:-0.47469378 
-0.6612163335381545 1:0.97502452 2:0.62601732 3:-1.8243774 4:-0.32454469 5:0.75953649 6:-1.5156016 7:-0.41635966 8:1.5272804 9:0.43388675 10:0 11:1.0817748 12:-0.47469378 
-0.4204500886514903 1:0.4261988 2:-0.12698473 3:-0.13362707 4:1.009421 5:2.0103392 6:-0.30222787 7:-0.96095805 8:2.9954876 9:-0.058367262 10:0 11:1.0817748 12:-0.47469378 
3.259492926025053 1:-1.485647 2:-1.7575715 3:0.089122583 4:-1.5155855 5:-1.0886287 6:1.3314741 7:1.5071591 8:-0.24485504 9:-1.6828055 10:0 11:-0.9244068 12:-0.47469378 
-8.5 1:0.36453611 2:1.368423 3:0.20115911 4:-1.3250189 5:2.2627799 6:0.48687359 7:-0.92679253 8:3.7249154 9:0.77846456 10:0 11:-0.9244068 12:2.1066213 
0.05867986910938866 1:-1.2825019 2:-0.34443251 3:0.073413846 4:-1.0868108 5:0.0098811059 6:-0.24926425 7:-0.90731818 8:-2.961506 9:-1.1905515 10:0 11:-0.9244068 12:-0.47469378 
7.819570923868317 1:0.2075551 2:1.7945002 3:-0.020081549 4:0.74739201 5:-1.0906758 6:0.25952447 7:-0.82361266 8:-1.9047708 9:2.058325 10:0 11:1.0817748 12:-0.47469378 
-1.724357132951184 1:-0.6067927 2:0.10340839 3:-0.0484347 4:1.009421 5:0.29032682 6:0.56998138 7:1.5280001 8:-0.11860792 9:-1.185629 10:0 11:1.0817748 12:-0.47469378 
-6.400684366076089 1:0.65722571 2:1.1820253 3:0.27602109 4:-0.84860263 5:-1.1281724 6:0.62745253 7:1.1282635 8:-0.44123944 9:0.77846456 10:0 11:-0.9244068 12:2.1066213 
-2.336137051061373 1:1.4714878 2:0.77809932 3:0.38754976 4:1.009421 5:-1.0644592 6:-0.33124516 7:0.096806448 8:0.16661705 9:-1.1905515 10:0 11:1.0817748 12:-0.47469378 
2.787591099987338 1:0.76120973 2:3.1556033 3:0.25835044 4:0.34243814 5:-1.1070726 6:1.3047106 7:1.610339 8:0.021666653 9:0.77846456 10:0 11:-0.9244068 12:-0.47469378 
4.836947571944909 1:-0.89396183 2:0.096198045 3:0.040254058 4:-0.32454469 5:0.26457578 6:-0.67071937 7:-0.31488807 8:0.0076391954 9:0.77846456 10:0 11:-0.9244068 12:2.1066213 
-3.518343149898184 1:-0.22673762 2:0.011568121 3:-0.43931732 4:1.009421 5:0.011124701 6:-1.8274672 7:-1.8482366 8:-2.5593855 9:-1.6828055 10:0 11:-0.9244068 12:-0.47469378 
-4.61551552241596 1:1.2132013 2:1.8525721 3:0.3675045 4:1.009421 5:-0.68977402 6:0.45898318 7:0.58878994 8:0.13856213 9:0.53233756 10:0 11:1.0817748 12:-0.47469378 
0.9250474164317686 1:-0.59253271 2:-0.041740135 3:0.2182842 4:-0.32454469 5:3.0193723 6:0.23247922 7:-0.316938 8:-0.076525549 9:0.77846456 10:0 11:-0.9244068 12:-0.47469378 
-8.5 1:0.73026796 2:0.78600987 3:0.20213108 4:1.009421 5:-1.1281724 6:0.90973731 7:1.1354383 8:-0.011064081 9:0.00070322002 10:0 11:1.0817748 12:-0.47469378 
-0.2475427616913001 1:-0.21114854 2:-0.96995216 3:0.0016784562 4:1.009421 5:-1.0730414 6:0.23247922 7:-0.316938 8:-0.095228825 9:0.13853434 10:0 11:1.0817748 12:-0.47469378 
1.124349257735618 1:0.9017571 2:0.31023357 3:0.09151951 4:-0.84860263 5:-1.0078064 6:0.0065387155 7:0.035991822 8:0.46586947 9:0.77846456 10:0 11:-0.9244068 12:-0.47469378 
0.6534974324253325 1:2.7302652 2:0.77896128 3:-0.33909101 4:1.009421 5:0.88694747 6:0.59815351 7:0.13541349 8:-0.28693741 9:0.53233756 10:0 11:1.0817748 12:-0.47469378 
-1.405397602409158 1:1.4698014 2:0.3491598 3:-0.013370922 4:-1.3488398 5:-1.1281724 6:0.11922725 7:0.17675376 8:0.0076391954 9:0.43388675 10:0 11:1.0817748 12:-0.47469378 
-8.5 1:1.5356492 2:0.85217212 3:0.16705187 4:1.009421 5:-1.1023205 6:0.90973731 7:1.1313384 8:0.0076391954 9:-1.185629 10:0 11:1.0817748 12:-0.47469378 
0.03245058956124723 1:-0.75317882 2:0.3328225 3:0.03088405 4:-0.32454469 5:-0.51681543 6:-0.24813737 7:-0.43070918 8:-1.2174254 9:0.43388675 10:0 11:-0.9244068 12:-0.47469378 
-4.301069287342052 1:0.63782314 2:0.45703343 3:-0.081556038 4:-0.32454469 5:0.40431493 6:-0.64198379 7:-0.41055152 8:0.12453467 9:0.43388675 10:0 11:-0.9244068 12:-0.47469378 
4.278646775501318 1:-0.45372258 2:-3.0201333 3:0.0060432108 4:-0.41982795 5:-1.0462221 6:0.96410953 7:1.0394331 8:-1.4932987 9:0.77846456 10:0 11:-0.9244068 12:2.1066213 
0.3336325856996367 1:-1.3764971 2:-1.033142 3:-0.037588533 4:-1.0868108 5:-1.1281724 6:-0.27574606 7:-0.30224683 8:-0.0017124429 9:-1.1905515 10:0 11:1.0817748 12:-0.47469378 
0.8605884233120069 1:-0.23756793 2:-0.053150282 3:2.4296059 4:-0.32454469 5:-0.34588398 6:-2.5320522 7:-1.2045582 8:-0.68438204 9:1.7137472 10:0 11:-0.9244068 12:-0.47469378 
-0.3323443332295867 1:-1.6201248 2:-0.44578565 3:2.6916979 4:-1.3488398 5:0.37910246 6:0.45785629 7:1.0462662 8:0.15726541 9:0.40927405 10:0 11:1.0817748 12:-0.47469378 
-8.5 1:0.74479482 2:-0.40109931 3:-0.10029605 4:-0.32454469 5:-0.3567304 6:0.5702631 7:1.0595908 8:-0.15133866 9:0.43388675 10:0 11:-0.9244068 12:-0.47469378 
-0.7886610981388976 1:-0.13220785 2:-0.79327873 3:0.091133339 4:0.74739201 5:0.71191524 6:1.3593646 7:1.043533 8:-1.2828869 9:-0.59984668 10:0 11:1.0817748 12:-0.47469378 
0.3435772460796239 1:-0.80730788 2:-0.076935535 3:-0.13362707 4:1.009421 5:-1.1011239 6:1.0776432 7:0.16855404 8:-0.20744848 9:-1.6828055 10:0 11:1.0817748 12:-0.47469378 
4.125277392357155 1:-0.60615578 2:0.54870869 3:0.23756793 4:0.19951325 5:-1.0458835 6:0.514764 7:1.122797 8:-0.0017124429 9:-1.3382277 10:0 11:1.0817748 12:-0.47469378 
-0.7311359208458159 1:-0.92238409 2:-0.91014898 3:1.7049 4:-1.5155855 5:2.1019345 6:2.1219842 7:1.0561742 8:2.4250377 9:0.77846456 10:0 11:-0.9244068 12:-0.47469378 
1.122338904956743 1:-0.1853776 2:-0.82094492 3:1.5675653 4:-0.32454469 5:-0.27735366 6:0.42827555 7:-0.99785681 8:2.546609 9:-0.50139587 10:0 11:-0.9244068 12:-0.47469378 
-3.482826468526738 1:-0.78548316 2:0.39267882 3:0.15702924 4:1.009421 5:-0.85497343 6:1.8681533 7:1.1272385 8:-0.22615176 9:-1.6828055 10:0 11:1.0817748 12:-0.47469378 
-0.1130989075386642 1:0.010798836 2:0.29375309 3:-0.13777608 4:-0.32454469 5:-0.51109302 6:-0.30335475 7:-0.47546601 8:1.2514071 9:0.43388675 10:0 11:-0.9244068 12:-0.47469378 
-2.401707992371322 1:-0.92933845 2:-0.57658746 3:-0.0065959789 4:-0.32454469 5:-0.77742588 6:0.090491673 7:0.0021679575 8:-0.090553006 9:-0.20604347 10:0 11:1.0817748 12:-0.47469378 
0.6380067860835457 1:0.040745016 2:0.35100695 3:0.23756793 4:0.19951325 5:-0.79723826 6:0.514764 7:1.122797 8:-0.0017124429 9:-1.3382277 10:0 11:-0.9244068 12:-0.47469378 
2.110350700052746 1:0.60473482 2:0.053359197 3:0.096893453 4:1.009421 5:-0.77952962 6:-1.1217552 7:0.061274307 8:0.18532032 9:0.28621055 10:0 11:1.0817748 12:-0.47469378 
8.5 1:0.36835555 2:0.91317763 3:0.23756793 4:0.19951325 5:-0.52726334 6:0.514764 7:1.122797 8:-0.0017124429 9:-1.3382277 10:0 11:1.0817748 12:-0.47469378 
-4.579322595529164 1:1.1014522 2:-0.28184527 3:-0.34410232 4:1.009421 5:-1.1220955 6:-1.0662561 7:0.12858038 8:0.03569411 9:-0.058367262 10:0 11:1.0817748 12:-0.47469378 
-3.04928133572849 1:-0.71361437 2:0.61325956 3:0.47370135 4:-0.84860263 5:-0.063723078 6:2.3189074 7:1.111864 8:-0.14198702 9:-0.058367262 10:0 11:1.0817748 12:-0.47469378 
1.610984094083991 1:-0.20751379 2:-0.13086672 3:-0.40927049 4:-0.84860263 5:0.83249896 6:0.0065387155 7:0.040091685 8:0.44716619 9:0.77846456 10:0 11:-0.9244068 12:2.1066213 
-0.9393300913059623 1:0.77150873 2:0.64217742 3:-1.7400473 4:-0.32454469 5:0.75953649 6:0.11922725 7:1.5662655 8:0.031018291 9:0.43388675 10:0 11:1.0817748 12:-0.47469378 
-8.5 1:0.056507904 2:0.95837991 3:-0.32036175 4:0.74739201 5:-1.126986 6:-1.8843749 7:-0.86358632 8:-1.6616282 9:1.1722678 10:0 11:1.0817748 12:-0.47469378 
-0.2457258848363187 1:-0.88213018 2:-1.2956055 3:-0.13276498 4:-0.41982795 5:-0.43102596 6:0.93650084 7:1.0281585 8:-0.2588825 9:0.77846456 10:0 11:-0.9244068 12:-0.47469378 
7.076586173441734 1:0.87204656 2:0.73666971 3:0.15702924 4:1.009421 5:-1.1011239 6:1.8681533 7:1.1272385 8:-0.22615176 9:-1.185629 10:0 11:1.0817748 12:-0.47469378 
-6.451233302417103 1:-0.306475 2:0.067131524 3:-2.536498 4:-0.32454469 5:1.0573773 6:1.9805601 7:1.5604573 8:0.7183637 9:0.43388675 10:0 11:-0.9244068 12:-0.47469378 
8.5 1:0.52270829 2:-0.59052097 3:-0.10029605 4:-0.32454469 5:0.40431493 6:0.5702631 7:1.0595908 8:-0.15133866 9:0.43388675 10:0 11:-0.9244068 12:-0.47469378 
8.5 1:1.5356492 2:0.85217212 3:0.16705187 4:1.009421 5:-1.1023205 6:0.90973731 7:1.1313384 8:0.0076391954 9:-1.185629 10:0 11:1.0817748 12:-0.47469378 
8.5 1:1.0738842 2:0.88762363 3:0.20213108 4:1.009421 5:-1.005342 6:0.90973731 7:1.1354383 8:-0.011064081 9:-1.1905515 10:0 11:-0.9244068 12:-0.47469378 
-2.612795075724048 1:0.76390756 2:1.3864056 3:-0.10857049 4:1.009421 5:-1.121174 6:-0.78397134 7:-0.92269267 8:0.12921049 9:0.53233756 10:0 11:1.0817748 12:-0.47469378 
2.987524100451392 1:2.2653824 2:3.126046 3:0.1119274 4:1.009421 5:-1.0844513 6:-0.33011828 7:-0.37228614 8:1.5179288 9:0.53233756 10:0 11:1.0817748 12:-0.47469378 
-8.5 1:0.50037001 2:-0.28457017 3:-0.20378548 4:1.009421 5:0.011124701 6:0.5702631 7:1.0595908 8:-0.15133866 9:-1.1905515 10:0 11:-0.9244068 12:-0.47469378 
-8.5 1:2.6946565 2:2.3563589 3:0.16705187 4:1.009421 5:-1.121174 6:0.90973731 7:1.1313384 8:0.0076391954 9:-0.0091418603 10:0 11:1.0817748 12:-0.47469378 
-4.032580070562478 1:0.48577172 2:0.68857641 3:0.25171648 4:0.34243814 5:-0.13747893 6:1.3047106 7:1.6144388 8:0.0029633763 9:0.77846456 10:0 11:-0.9244068 12:2.1066213 
0.6413973093930463 1:0.31098579 2:-1.4189318 3:-0.07218603 4:-0.32454469 5:-0.80568888 6:0.93650084 7:1.0281585 8:-0.2588825 9:0.43388675 10:0 11:-0.9244068 12:-0.47469378 
8.340051903621532 1:2.6946565 2:2.3563589 3:0.16705187 4:1.009421 5:-1.121174 6:0.90973731 7:1.1313384 8:0.0076391954 9:0.13853434 10:0 11:1.0817748 12:-0.47469378 
-0.8626008627656164 1:-0.52991272 2:-0.63012527 3:2.0287861 4:-0.84860263 5:-1.1281724 6:-0.67100109 7:0.023008925 8:0.03569411 9:0.77846456 10:0 11:1.0817748 12:-0.47469378 
1.130472917714545 1:2.0936198 2:1.4230419 3:0.46052267 4:-0.84860263 5:-1.1139539 6:0.90973731 7:1.1313384 8:0.0076391954 9:-0.058367262 10:0 11:1.0817748 12:-0.47469378 
8.5 1:1.5653505 2:1.0786586 3:0.20213108 4:1.009421 5:-0.91998108 6:0.90973731 7:1.1354383 8:-0.011064081 9:-0.0091418603 10:0 11:1.0817748 12:-0.47469378 
0.3192495491574154 1:-0.23756793 2:-0.053150282 3:2.4296059 4:-0.32454469 5:-0.34588398 6:-2.5320522 7:-1.2045582 8:-0.68438204 9:-0.50139587 10:0 11:-0.9244068 12:-0.47469378 
0.3547335868106853 1:0.85350939 2:-1.0721045 3:2.6260313 4:-1.5632271 5:0.3306037 6:0.96410953 7:1.0394331 8:-1.4932987 9:0.77846456 10:0 11:-0.9244068 12:-0.47469378 
-0.08308758217109491 1:-0.23756793 2:0.32502763 3:-0.32517623 4:-0.32454469 5:-0.34588398 6:-1.8829663 7:-0.41738463 8:0.27883671 9:0.43388675 10:0 11:-0.9244068 12:-0.47469378 
-1.371686163780738 1:-1.3318118 2:0.48186962 3:0.40780793 4:-0.84860263 5:-0.072161726 6:1.0221441 7:0.10124797 8:-0.057822272 9:0.77846456 10:0 11:-0.9244068 12:-0.47469378 
0.3109669482332989 1:-2.2856068 2:-1.6316806 3:0.089122583 4:-1.5155855 5:-0.65834788 6:1.3314741 7:1.5071591 8:-0.24485504 9:-1.6828055 10:0 11:-0.9244068 12:-0.47469378 
-0.3872591925513816 1:0.75285251 2:1.2597638 3:-3.2295089 4:-0.84860263 5:1.9652934 6:0.17613496 7:0.24166825 8:-0.13263538 9:0.77846456 10:0 11:1.0817748 12:-0.47469378 
0.5007286116678517 1:0.53630695 2:-0.57283962 3:-0.41426074 4:1.009421 5:0.011124701 6:-1.5736362 7:-1.5404053 8:0.09180394 9:-1.6828055 10:0 11:-0.9244068 12:-0.47469378 
-8.171236463091276 1:1.8384919 2:0.78687131 3:0.26351642 4:0.74739201 5:-1.0847028 6:0.90973731 7:1.1354383 8:-0.011064081 9:1.1722678 10:0 11:1.0817748 12:-0.47469378 
-1.156831900100812 1:-0.61348146 2:-0.056882362 3:0.049624065 4:-0.32454469 5:3.0193723 6:0.62745253 7:0.16206259 8:-0.085877187 9:2.0090996 10:0 11:-0.9244068 12:-0.47469378 
0.3348193700187526 1:-0.56440527 2:-0.31025423 3:2.3265359 4:-0.32454469 5:0.087139509 6:0.17500807 7:1.0489995 8:-0.13263538 9:-0.50139587 10:0 11:-0.9244068 12:-0.47469378 
8.5 1:-0.20086193 2:-0.055141707 3:0.14463623 4:0.056588358 5:0.88525211 6:0.8528296 7:1.5252668 8:0.17129287 9:0.28621055 10:0 11:-0.9244068 12:-0.47469378 
4.25925738841998 1:1.8648556 2:0.62213369 3:0.025626089 4:-0.84860263 5:-1.0937154 6:0.0065387155 7:0.040091685 8:0.44716619 9:0.77846456 10:0 11:-0.9244068 12:2.1066213 
8.5 1:1.3799623 2:1.4695743 3:0.16206415 4:-0.32454469 5:-1.1281724 6:0.90973731 7:1.1354383 8:-0.011064081 9:0.43388675 10:0 11:-0.9244068 12:2.1066213 
-1.397948420872555 1:-0.61348146 2:-0.056882362 3:0.049624065 4:-0.32454469 5:3.0193723 6:0.62745253 7:0.16206259 8:-0.085877187 9:-1.0921007 10:0 11:-0.9244068 12:-0.47469378 
0.5386889576366944 1:0.28951743 2:-0.52882743 3:0.84607469 4:-0.32454469 5:0.63315436 6:-0.22024696 7:0.10090631 8:-0.13263538 9:0.43388675 10:0 11:-0.9244068 12:-0.47469378 
3.356882656144529 1:-0.036550814 2:0.22030106 3:-0.008344175 4:1.009421 5:-0.68977402 6:-1.234162 7:-1.4645578 8:0.23207851 9:-1.6828055 10:0 11:1.0817748 12:-0.47469378 
8.5 1:1.6779284 2:1.6853591 3:0.15269415 4:-0.32454469 5:-1.1274398 6:0.90973731 7:1.1313384 8:0.0076391954 9:0.43388675 10:0 11:1.0817748 12:-0.47469378 
-1.263038043744469 1:-0.24738609 2:0.76621263 3:-1.8976102 4:1.009421 5:0.88868801 6:0.90973731 7:1.6017976 8:0.012315015 9:-1.185629 10:0 11:1.0817748 12:-0.47469378 
0.4671352018629479 1:3.3084422 2:0.4439644 3:0.56771793 4:-1.3488398 5:-0.85051697 6:0.514764 7:1.122797 8:-0.0017124429 9:-1.1905515 10:0 11:-0.9244068 12:-0.47469378 
-1.805938880844762 1:0.99424377 2:1.6935032 3:0.19442576 4:-0.41982795 5:0.095779571 6:0.11922725 7:1.5662655 8:0.031018291 9:0.77846456 10:0 11:1.0817748 12:-0.47469378 
0.4146358982009868 1:-0.0036367881 2:0.18830055 3:-0.56879642 4:-0.32454469 5:-0.27735366 6:0.51335539 7:-0.89467694 8:0.74641862 9:0.43388675 10:0 11:-0.9244068 12:-0.47469378 
-0.8859228832921235 1:0.057640065 2:0.85449385 3:0.046780297 4:1.009421 5:-0.46866171 6:-0.19066622 7:-0.83010411 8:-1.7831995 9:-1.4366785 10:0 11:1.0817748 12:-0.47469378 
6.286230185682227 1:0.42703834 2:1.7441734 3:0.48688004 4:-0.84860263 5:-1.0078064 6:0.063728146 7:0.10534783 8:0.17596868 9:0.77846456 10:0 11:-0.9244068 12:-0.47469378 
-7.317631721106367 1:2.0907249 2:1.8061098 3:0.055625577 4:0.79503364 5:-1.11337 6:-1.0093484 7:0.19759473 8:-0.12328374 9:-1.0921007 10:0 11:1.0817748 12:-0.47469378 
-4.525396961240691 1:0.73174481 2:0.15684716 3:0.30800237 4:0.74739201 5:-1.0572411 6:0.514764 7:1.122797 8:-0.0017124429 9:1.1722678 10:0 11:1.0817748 12:-0.47469378 
-8.5 1:-0.71744928 2:0.108462 3:-0.0065959789 4:-0.32454469 5:0.26457578 6:-0.67071937 7:-0.31488807 8:0.026342472 9:0.77846456 10:0 11:-0.9244068 12:2.1066213 
2.815974846909868 1:-2.3050727 2:-0.087566501 3:-0.26729891 4:-1.5155855 5:-0.32361484 6:-0.67071937 7:1.0527577 8:0.0029633763 9:-1.6828055 10:0 11:-0.9244068 12:-0.47469378 
-1.491899850088725 1:-2.0191452 2:-2.5972957 3:-0.088935522 4:0.19951325 5:-0.32636465 6:0.17388119 7:-0.39415207 8:-1.2735352 9:-1.3382277 10:0 11:1.0817748 12:-0.47469378 
-1.563512939534305 1:-1.6030299 2:-0.70009276 3:-0.7936766 4:-0.32454469 5:1.0709724 6:-1.8274672 7:-1.8482366 8:-2.5593855 9:0.43388675 10:0 11:1.0817748 12:-0.47469378 
8.5 1:-0.64001343 2:-0.53592032 3:-0.033616274 4:-0.41982795 5:-1.1281724 6:0.23247922 7:-0.316938 8:-0.095228825 9:-0.94442449 10:0 11:-0.9244068 12:-0.47469378 
0.6833290275490675 1:1.2656843 2:1.5175599 3:0.021679516 4:-1.5632271 5:0.67163169 6:0.11922725 7:0.1726539 8:0.026342472 9:0.28621055 10:0 11:1.0817748 12:-0.47469378 
-0.529307498170087 1:0.86285721 2:-0.15448398 3:0.026735034 4:1.009421 5:0.73311651 6:-0.24926425 7:-0.90731818 8:-2.961506 9:-1.1905515 10:0 11:1.0817748 12:-0.47469378 
-8.5 1:-0.58336201 2:-0.037540056 3:-0.033371021 4:2.7721613 5:-0.9268643 6:0.82409402 7:-1.4836905 8:0.20869942 9:0.77846456 10:0 11:-0.9244068 12:2.1066213 
-3.683934786170448 1:0.050419858 2:0.37844261 3:-1.4866823 4:1.009421 5:0.30073563 6:-0.64198379 7:-0.41055152 8:0.12453467 9:0.13853434 10:0 11:-0.9244068 12:-0.47469378 
1.344565775674048 1:3.0021423 2:1.0166195 3:0.60779303 4:-1.3488398 5:-1.0880612 6:0.90973731 7:1.1354383 8:-0.011064081 9:-0.94442449 10:0 11:-0.9244068 12:2.1066213 
0.5667662351504724 1:0.39516164 2:-0.66814028 3:-0.053446016 4:-0.32454469 5:-1.1281724 6:0.23247922 7:-0.316938 8:-0.076525549 9:-1.0921007 10:0 11:1.0817748 12:-0.47469378 
-0.7336907256323727 1:-0.31316238 2:-1.0340419 3:-0.097931971 4:0.74739201 5:-0.85116602 6:-0.67071937 7:1.0527577 8:0.0029633763 9:2.7474806 10:0 11:1.0817748 12:-0.47469378 
-8.5 1:0.82281788 2:0.6277293 3:0.22217634 4:1.009421 5:-1.1281724 6:1.4179626 7:1.1207471 8:-0.10458046 9:-1.1905515 10:0 11:1.0817748 12:-0.47469378 
2.152786119443041 1:0.058633591 2:-0.026035385 3:-0.5432012 4:0.19951325 5:-1.1054878 6:0.11922725 7:0.17675376 8:0.0076391954 9:-1.3382277 10:0 11:-0.9244068 12:-0.47469378 
1.759954003161745 1:-0.80981089 2:0.19992948 3:0.26513423 4:-0.32454469 5:-0.23022904 6:0.514764 7:1.122797 8:-0.0017124429 9:0.43388675 10:0 11:1.0817748 12:-0.47469378 
-8.5 1:-0.71744928 2:0.108462 3:-0.0065959789 4:-0.32454469 5:0.26457578 6:-0.67071937 7:-0.31488807 8:0.026342472 9:2.0090996 10:0 11:-0.9244068 12:2.1066213 
-0.7560388324240496 1:0.12754479 2:0.65745296 3:-0.10857049 4:1.009421 5:-0.85799799 6:-0.78397134 7:-0.92269267 8:0.12921049 9:-1.6828055 10:0 11:1.0817748 12:-0.47469378 
4.6851249703216 1:-0.3361046 2:0.94034592 3:-0.0065959789 4:-0.32454469 5:0.26457578 6:-1.1789447 7:-0.93123405 8:0.11985885 9:0.77846456 10:0 11:-0.9244068 12:2.1066213 
2.767612171087911 1:1.558453 2:2.018543 3:0.039264839 4:0.79503364 5:-1.11337 6:-0.72650019 7:0.54061655 8:0.16661705 9:-1.0921007 10:0 11:1.0817748 12:-0.47469378 
-1.809984378900282 1:-0.23167755 2:-1.6787362 3:0.36734247 4:-1.3488398 5:0.78425104 6:1.3328828 7:1.0220087 8:1.6956099 9:0.40927405 10:0 11:1.0817748 12:-0.47469378 
-1.267155018951833 1:-0.64001343 2:-0.53592032 3:-0.033616274 4:-0.41982795 5:-1.1281724 6:0.23247922 7:-0.316938 8:-0.095228825 9:-0.20604347 10:0 11:-0.9244068 12:-0.47469378 
-8.5 1:-0.37336339 2:-0.24363669 3:-0.033371021 4:2.7721613 5:-1.1281724 6:0.82409402 7:-1.4836905 8:0.20869942 9:0.77846456 10:0 11:1.0817748 12:-0.47469378 
3.623117949245514 1:0.023769613 2:2.2580638 3:0.3494643 4:-0.32454469 5:0.26457578 6:0.90973731 7:1.6017976 8:0.012315015 9:2.0090996 10:0 11:-0.9244068 12:2.1066213 
-1.435280455433011 1:-0.35823495 2:-0.17381233 3:0.46190439 4:-0.32454469 5:0.71509055 6:-1.0648475 7:-1.8858187 8:-0.71243695 9:0.43388675 10:0 11:-0.9244068 12:-0.47469378 
8.5 1:1.0235068 2:1.0315429 3:0.16705187 4:1.009421 5:-1.0534306 6:0.90973731 7:1.1313384 8:0.0076391954 9:-1.1905515 10:0 11:1.0817748 12:-0.47469378 
0.7298632964281281 1:-0.37660229 2:-0.49096433 3:-0.13251812 4:-0.84860263 5:0.34728495 6:-1.0648475 7:-1.8858187 8:-0.71243695 9:-0.058367262 10:0 11:1.0817748 12:-0.47469378 
-5.92449917202863 1:0.59370219 2:-0.12751843 3:-0.14569681 4:-0.84860263 5:0.010617266 6:-0.24813737 7:-0.43070918 8:-1.2174254 9:0.77846456 10:0 11:-0.9244068 12:-0.47469378 
-2.846837663558798 1:0.1984341 2:0.7251862 3:-0.10857049 4:1.009421 5:-1.1023205 6:-0.78397134 7:-0.92269267 8:0.12921049 9:0.00070322002 10:0 11:1.0817748 12:-0.47469378 
-0.8031890399519497 1:1.4916693 2:-0.20648586 3:-0.11293524 4:-0.41982795 5:0.095779571 6:-2.4196454 7:-1.5127312 8:0.26013343 9:-1.4366785 10:0 11:1.0817748 12:-0.47469378 
-1.020242553882834 1:1.2903874 2:1.1603144 3:-2.6957881 4:-0.32454469 5:0.8179806 6:-0.69776462 7:-0.81814618 8:0.17129287 9:0.43388675 10:0 11:1.0817748 12:-0.47469378 
-3.965678969259693 1:1.7626236 2:-0.0097139901 3:-0.204987 4:-0.13397817 5:0.60676901 6:0.093027165 7:-0.48161581 8:3.2058995 9:1.0245916 10:0 11:1.0817748 12:-0.47469378 
-0.03774946369224709 1:-0.27190297 2:-0.49396432 3:0.29357447 4:-0.41982795 5:-0.43102596 6:0.4857467 7:0.4815102 8:-0.10925628 9:0.77846456 10:0 11:-0.9244068 12:-0.47469378 
-1.104333760439803 1:0.42670165 2:-0.10180629 3:2.344837 4:0.17569244 5:1.2896365 6:-0.52957698 7:-1.2322323 8:-0.83400825 9:0.48311215 10:0 11:1.0817748 12:-0.47469378 
-2.4260928616932 1:0.098491969 2:-0.045194267 3:-0.11933944 4:-0.84860263 5:-1.0937154 6:-0.27574606 7:-0.30224683 8:-0.0017124429 9:0.77846456 10:0 11:-0.9244068 12:2.1066213 
0.6705611707036935 1:-0.30684453 2:-0.94097144 3:-0.17225318 4:-1.5155855 5:-0.070740776 6:0.45785629 7:1.0462662 8:0.15726541 9:0.77846456 10:0 11:-0.9244068 12:-0.47469378 
-6.351966454390237 1:0.44703894 2:0.71965298 3:-0.023378122 4:1.009421 5:-0.68977402 6:-1.6849162 7:-2.0112061 8:0.14791377 9:0.53233756 10:0 11:1.0817748 12:-0.47469378 
-0.8792459550542593 1:-0.72057928 2:-0.22506561 3:-0.013370922 4:-1.3488398 5:0.68516981 6:-0.24813737 7:-0.90595156 8:-1.1192332 9:0.40927405 10:0 11:1.0817748 12:-0.47469378 
2.346541207805255 1:0.87204656 2:0.73666971 3:0.15702924 4:1.009421 5:-1.1011239 6:1.8681533 7:1.1272385 8:-0.22615176 9:0.13853434 10:0 11:1.0817748 12:-0.47469378 
-1.847681031642781 1:-1.5275728 2:0.17945149 3:0.4341653 4:-0.84860263 5:-1.1281724 6:1.8681533 7:1.1272385 8:-0.22615176 9:-0.058367262 10:0 11:1.0817748 12:-0.47469378 
-3.188314689382976 1:-0.98567593 2:-0.80141782 3:-0.060626504 4:0.17569244 5:-1.0512524 6:-0.67071937 7:-0.31488807 8:0.0076391954 9:0.58156296 10:0 11:-0.9244068 12:-0.47469378 
4.624364724433853 1:-0.54038386 2:0.63913259 3:0.47370135 4:-0.84860263 5:-1.0463429 6:2.3189074 7:1.111864 8:-0.14198702 9:-0.058367262 10:0 11:1.0817748 12:-0.47469378 
-1.162164946830217 1:-1.6178357 2:-0.47448515 3:-0.015965986 4:-0.32454469 5:0.15371876 6:1.78251 7:-0.32137952 8:-0.025091539 9:1.7137472 10:0 11:-0.9244068 12:-0.47469378 
-0.1546988539949148 1:-0.9702002 2:0.28770408 3:0.075447308 4:-0.41982795 5:-0.97199661 6:-0.021915139 7:-0.86802784 8:0.86798992 9:1.5168456 10:0 11:-0.9244068 12:2.1066213 
-1.401553071266938 1:-0.15962252 2:-0.45365303 3:1.3346884 4:1.009421 5:2.0504886 6:1.3328828 7:1.0220087 8:1.6956099 9:0.63078836 10:0 11:1.0817748 12:-0.47469378 
-1.152356969053409 1:0.32921829 2:-0.37887119 3:0.026735034 4:1.009421 5:-1.1238569 6:-1.6291353 7:-1.4771991 8:0.24143015 9:-1.185629 10:0 11:1.0817748 12:-0.47469378 
8.5 1:0.17678139 2:0.083273362 3:-0.13152293 4:0.19951325 5:-1.0200481 6:0.11922725 7:0.17675376 8:0.0076391954 9:-1.3382277 10:0 11:1.0817748 12:-0.47469378 
1.955904708581164 1:-0.07840592 2:0.09957846 3:-0.26895618 4:-0.32454469 5:0.40431493 6:-1.0372388 7:-0.88989377 8:0.012315015 9:0.43388675 10:0 11:-0.9244068 12:-0.47469378 
-2.862802167461554 1:0.76077786 2:1.9765133 3:0.37251581 4:1.009421 5:-0.68977402 6:1.3047106 7:1.6144388 8:0.0029633763 9:0.13853434 10:0 11:1.0817748 12:-0.47469378 
-0.588450073445092 1:0.75983415 2:0.55142925 3:-2.9789278 4:-1.3488398 5:0.5361045 6:0.90973731 7:1.6017976 8:0.012315015 9:0.43388675 10:0 11:-0.9244068 12:2.1066213 
6.92511280353888 1:-0.050274959 2:0.22245856 3:-0.0065959789 4:-0.32454469 5:0.398049 6:0.51335539 7:-0.89467694 8:0.74641862 9:0.43388675 10:0 11:-0.9244068 12:-0.47469378 
-0.5885532020283711 1:-1.0490139 2:-0.7653522 3:-0.32586424 4:2.2004618 5:-0.96432529 6:-0.89722332 7:-1.2178828 8:-2.1806442 9:0.87691537 10:0 11:-0.9244068 12:2.1066213 
-0.6549952374244984 1:0.76292298 2:0.30424468 3:0.081859506 4:1.009421 5:0.66305332 6:0.48687359 7:-0.92679253 8:3.7249154 9:-1.6828055 10:0 11:1.0817748 12:-0.47469378 
-1.640649203367683 1:-1.7510823 2:-0.23182596 3:-0.12660894 4:-1.5394063 5:0.04416508 6:-0.72650019 7:-2.0194059 8:-0.067173911 9:0.77846456 10:0 11:-0.9244068 12:2.1066213 
-1.00718147521222 1:1.4198778 2:0.93080147 3:-0.11293524 4:-0.41982795 5:0.095779571 6:-1.5156016 7:-0.41635966 8:1.5272804 9:0.77846456 10:0 11:1.0817748 12:-0.47469378 
-1.395793225680045 1:1.8040643 2:2.7335192 3:-0.17205417 4:-0.84860263 5:0.46256835 6:-0.95159554 7:-1.1259775 8:-0.67970622 9:0.77846456 10:0 11:-0.9244068 12:2.1066213 
-0.5407211812857992 1:2.8716435 2:1.6058894 3:0.31198427 4:-0.32454469 5:-1.1281724 6:-0.33124516 7:0.096806448 8:0.16661705 9:0.43388675 10:0 11:1.0817748 12:-0.47469378 
2.245995616219679 1:0.43165281 2:0.2364006 3:-0.1565161 4:-0.32454469 5:-1.1136103 6:0.11922725 7:0.17675376 8:0.0076391954 9:-0.50139587 10:0 11:-0.9244068 12:-0.47469378 
-0.9542329796741305 1:-0.31994393 2:-0.098984985 3:-0.10355917 4:1.009421 5:1.713801 6:-0.5284501 7:-1.2353072 8:1.0082645 9:-1.2890023 10:0 11:1.0817748 12:-0.47469378 
-0.8577754815422551 1:3.0400091 2:0.97235777 3:-0.29389658 4:-1.3488398 5:0.84039587 6:0.14711766 7:-0.42660932 8:-1.0070136 9:0.40927405 10:0 11:1.0817748 12:-0.47469378 
0.2187648028416539 1:-0.12828016 2:-2.0487795 3:2.3846106 4:-0.84860263 5:0.010617266 6:0.060910933 7:-0.055913426 8:-1.0350685 9:0.77846456 10:0 11:-0.9244068 12:-0.47469378 
-0.8665478565571008 1:-0.3896972 2:0.044760883 3:-0.1565161 4:-0.32454469 5:-1.1281724 6:0.11922725 7:0.17675376 8:0.0076391954 9:0.43388675 10:0 11:-0.9244068 12:2.1066213 
8.5 1:0.44703894 2:0.71965298 3:-0.023378122 4:1.009421 5:-0.68977402 6:-1.6849162 7:-2.0112061 8:0.14791377 9:0.53233756 10:0 11:1.0817748 12:-0.47469378 
-1.383242617043302 1:-0.61348146 2:-0.056882362 3:0.049624065 4:-0.32454469 5:3.0193723 6:0.62745253 7:0.16206259 8:-0.085877187 9:0.77846456 10:0 11:-0.9244068 12:-0.47469378 
-0.007298471978544998 1:-1.0482849 2:-0.52605777 3:0.057556363 4:-1.0868108 5:-0.11314429 6:-0.27461917 7:-0.92747584 8:1.8592636 9:-0.20604347 10:0 11:1.0817748 12:-0.47469378 
-0.4648957611199114 1:-0.65952316 2:0.058473934 3:0.072838139 4:-0.13397817 5:1.0176193 6:-0.30222787 7:-0.96095805 8:2.9954876 9:1.0245916 10:0 11:1.0817748 12:-0.47469378 
8.5 1:1.015302 2:-0.93292966 3:-0.34410232 4:1.009421 5:-1.1281724 6:-1.0662561 7:0.12858038 8:0.03569411 9:-1.1905515 10:0 11:1.0817748 12:-0.47469378 
-0.4866263755721383 1:0.70426709 2:0.34053034 3:-0.27895522 4:1.009421 5:-0.72572949 6:-1.910575 7:-0.45086684 8:1.513253 9:-1.185629 10:0 11:-0.9244068 12:-0.47469378 
5.001138464127678 1:-0.36944568 2:-0.44009134 3:-0.023701402 4:-0.41982795 5:-1.0341386 6:0.17500807 7:-1.488132 8:0.10115558 9:0.77846456 10:0 11:-0.9244068 12:2.1066213 
-1.021653085007722 1:-1.4606119 2:0.03559798 3:0.026704171 4:-1.3488398 5:0.051435723 6:0.96523641 7:1.5385914 8:-0.1373112 9:0.43388675 10:0 11:-0.9244068 12:-0.47469378 
0.9693361757022741 1:-0.23756793 2:-0.070989759 3:-0.025335994 4:-0.32454469 5:-0.34588398 6:-2.2793482 7:-0.89809349 8:-1.6756557 9:0.43388675 10:0 11:-0.9244068 12:-0.47469378 
-0.6776123497905165 1:0.056507904 2:0.95837991 3:-0.32036175 4:0.74739201 5:-1.126986 6:-1.8843749 7:-0.86358632 8:-1.6616282 9:2.7474806 10:0 11:1.0817748 12:-0.47469378 
-3.677170856106829 1:-0.0760372 2:-0.55921672 3:0.045702695 4:-0.41982795 5:-0.28894169 6:1.5855868 7:1.0814567 8:0.70433625 9:0.28621055 10:0 11:-0.9244068 12:-0.47469378 
-1.294083484299163 1:0.6367331 2:-0.08658808 3:-0.69464751 4:-1.3488398 5:0.14785996 6:0.514764 7:1.122797 8:-0.0017124429 9:0.40927405 10:0 11:-0.9244068 12:-0.47469378 
0.581443661807135 1:-0.21683986 2:-0.51035423 3:1.6706353 4:-0.32454469 5:0.77552734 6:1.3593646 7:1.043533 8:-1.2828869 9:0.43388675 10:0 11:1.0817748 12:-0.47469378 
-0.6818692940996466 1:-0.50111241 2:-0.39850739 3:0.031728798 4:0.19951325 5:0.42640346 6:-0.24813737 7:-0.43070918 8:-1.2174254 9:-1.5843547 10:0 11:-0.9244068 12:-0.47469378 
-4.537961085261564 1:-0.58523966 2:-0.78021583 3:-0.44880654 4:-0.84860263 5:-0.75930791 6:-0.33293549 7:-0.03575577 8:0.30689162 9:0.77846456 10:0 11:-0.9244068 12:-0.47469378 
-2.826420963871177 1:-1.0010867 2:-0.65580258 3:0.019527624 4:0.34243814 5:-1.0600419 6:1.3590828 7:1.5184337 8:-1.4792713 9:0.77846456 10:0 11:-0.9244068 12:-0.47469378 
-0.7066389880010417 1:1.0691142 2:1.0107068 3:-0.15259473 4:-0.41982795 5:0.095779571 6:-2.1370789 7:-1.170051 8:-0.67035458 9:-1.4366785 10:0 11:1.0817748 12:-0.47469378 
-0.7133330529581402 1:-0.57095267 2:-1.7198257 3:0.5225164 4:-1.5632271 5:0.07834225 6:1.3328828 7:1.0220087 8:1.6956099 9:0.77846456 10:0 11:-0.9244068 12:-0.47469378 
-1.089697133253281 1:0.86466472 2:-0.51438492 3:2.1377405 4:-0.41982795 5:-0.18753681 6:0.17500807 7:1.0489995 8:-0.13263538 9:0.77846456 10:0 11:-0.9244068 12:-0.47469378 
-8.5 1:0.3013574 2:0.28453912 3:-0.14569681 4:-0.84860263 5:-1.0981957 6:0.11922725 7:0.17675376 8:0.0076391954 9:0.77846456 10:0 11:-0.9244068 12:2.1066213 
-8.5 1:-0.68633085 2:-0.14564285 3:0.038804774 4:-0.84860263 5:-0.9406044 6:-0.67071937 7:-0.31488807 8:0.026342472 9:0.77846456 10:0 11:-0.9244068 12:2.1066213 
-1.540767078793148 1:-1.2821614 2:-0.73597935 3:-0.070261955 4:2.2004618 5:-1.0337354 6:0.68266991 7:-0.31044655 8:-0.21680012 9:0.87691537 10:0 11:-0.9244068 12:-0.47469378 
-0.6379006043185832 1:0.71074058 2:-0.48694965 3:0.15702924 4:1.009421 5:0.30073563 6:0.5702631 7:1.0595908 8:-0.15133866 9:0.13853434 10:0 11:-0.9244068 12:-0.47469378 
0.6498163233787169 1:0.6718764 2:0.24489257 3:-0.69060652 4:-0.32454469 5:0.77552734 6:0.90861042 7:0.49688469 8:-1.1332607 9:0.43388675 10:0 11:1.0817748 12:-0.47469378 
0.09152695346893996 1:0.65772854 2:0.30670543 3:-1.2260939 4:1.009421 5:0.30073563 6:0.96523641 7:1.5385914 8:-0.1373112 9:2.4521282 10:0 11:-0.9244068 12:-0.47469378 
-1.662430480090146 1:-0.13730552 2:-0.066161056 3:-0.18374022 4:1.009421 5:0.094721295 6:-0.24813737 7:-0.43070918 8:-1.2174254 9:0.63078836 10:0 11:-0.9244068 12:-0.47469378 
-0.7118676494172067 1:2.0981678 2:0.80147519 3:0.19864474 4:0.34243814 5:-1.1281724 6:0.90973731 7:1.1313384 8:0.0076391954 9:0.77846456 10:0 11:-0.9244068 12:2.1066213 
8.5 1:0.45278229 2:1.1700679 3:0.16705187 4:1.009421 5:-1.0844513 6:0.90973731 7:1.1313384 8:0.0076391954 9:-1.6729604 10:0 11:1.0817748 12:-0.47469378 
-2.185646543653209 1:0.50037001 2:-0.28457017 3:-0.20378548 4:1.009421 5:0.011124701 6:0.5702631 7:1.0595908 8:-0.15133866 9:-1.6828055 10:0 11:-0.9244068 12:-0.47469378 
-7.917186247343278 1:0.40650733 2:0.77840517 3:0.20213108 4:1.009421 5:-0.68977402 6:0.90973731 7:1.1354383 8:-0.011064081 9:-1.6828055 10:0 11:1.0817748 12:-0.47469378 
-1.099927452882709 1:2.9331407 2:0.76753664 3:0.68794322 4:-1.3488398 5:-0.31850675 6:0.90973731 7:1.1313384 8:0.0076391954 9:0.43388675 10:0 11:-0.9244068 12:2.1066213 
1.354942666135041 1:-0.23756793 2:0.71496122 3:-0.13777608 4:-0.32454469 5:-0.34588398 6:-1.910575 7:-0.45086684 8:1.513253 9:0.43388675 10:0 11:-0.9244068 12:-0.47469378 
-2.309839023559007 1:-0.02694587 2:0.31867916 3:-0.082167968 4:0.17569244 5:-0.75382825 6:-0.72650019 7:-2.0194059 8:-0.067173911 9:0.48311215 10:0 11:-0.9244068 12:-0.47469378 
1.428307605176297 1:-0.56440527 2:-0.31025423 3:2.3265359 4:-0.32454469 5:0.087139509 6:0.17500807 7:1.0489995 8:-0.13263538 9:0.43388675 10:0 11:-0.9244068 12:-0.47469378 
3.37620041487061 1:0.16413811 2:0.49470966 3:-0.038412069 4:1.009421 5:-1.1266725 6:0.11950897 7:0.51294248 8:-0.0017124429 9:-1.1905515 10:0 11:1.0817748 12:-0.47469378 
-1.513575628665485 1:-0.071043061 2:-0.18129475 3:-0.025642294 4:0.74739201 5:-1.0478422 6:0.82409402 7:-1.4836905 8:0.20869942 9:1.1722678 10:0 11:1.0817748 12:-0.47469378 
-1.273000261856128 1:1.5615231 2:0.51472436 3:0.56771793 4:-1.3488398 5:-0.29514081 6:0.514764 7:1.122797 8:-0.0017124429 9:0.43388675 10:0 11:-0.9244068 12:-0.47469378 
3.317650885594562 1:1.0182461 2:2.5349413 3:0.30261426 4:-0.32454469 5:-1.1281724 6:1.8129359 7:1.5997477 8:-0.090553006 9:2.0090996 10:0 11:1.0817748 12:-0.47469378 
-1.924502078870669 1:-0.44963908 2:-0.5388889 3:0.022739462 4:0.056588358 5:-0.93097345 6:-0.24813737 7:-0.43070918 8:-1.2174254 9:-2.0766087 10:0 11:-0.9244068 12:-0.47469378 
5.680644877801776 1:1.3799623 2:1.4695743 3:0.16206415 4:-0.32454469 5:-1.1281724 6:0.90973731 7:1.1354383 8:-0.011064081 9:0.43388675 10:0 11:-0.9244068 12:2.1066213 
-1.019944083836044 1:0.70391232 2:1.0475323 3:-1.7167463 4:-1.5155855 5:-0.60592562 6:1.8681533 7:1.1272385 8:-0.22615176 9:-1.6828055 10:0 11:-0.9244068 12:2.1066213 
-0.2157632107731953 1:-1.7600386 2:0.42961519 3:0.27760704 4:-0.800961 5:0.46309261 6:-1.3465688 7:-1.1345189 8:-0.68905786 9:0.77846456 10:0 11:1.0817748 12:-0.47469378 
-0.5024846146437424 1:-0.37453369 2:-0.063068853 3:0.48133199 4:-0.800961 5:1.1152391 6:-2.0798895 7:-2.0238474 8:0.15726541 9:0.77846456 10:0 11:1.0817748 12:-0.47469378 
-3.925490302702274 1:-0.62550759 2:0.45066382 3:0.18080417 4:-0.32454469 5:-1.1281724 6:1.4179626 7:1.1207471 8:-0.10458046 9:0.77846456 10:0 11:1.0817748 12:-0.47469378 
-1.027609916139649 1:-1.3253577 2:0.49660041 3:-0.11859312 4:1.009421 5:-1.1011239 6:0.17444463 7:-0.92679253 8:-0.10458046 9:0.53233756 10:0 11:1.0817748 12:-0.47469378 
-4.884883584409965 1:-0.4315235 2:-0.012306434 3:0.012144036 4:-0.32454469 5:0.15371876 6:0.82409402 7:-1.4836905 8:0.20869942 9:0.18775975 10:0 11:-0.9244068 12:-0.47469378 
-0.104058128378794 1:-0.55788256 2:-0.53124318 3:-0.20378548 4:1.009421 5:-1.1266725 6:0.5702631 7:1.0595908 8:-0.15133866 9:-1.1905515 10:0 11:1.0817748 12:-0.47469378 
-4.225181965742379 1:0.54753588 2:1.335481 3:-1.2156237 4:-1.3488398 5:0.39168065 6:0.063728146 7:0.10944769 8:0.15726541 9:0.43388675 10:0 11:-0.9244068 12:2.1066213 
0.2127801309444222 1:1.1339936 2:1.0397232 3:-0.053446016 4:-0.84860263 5:-1.0937154 6:-0.78397134 7:-0.91859281 8:0.11050722 9:0.77846456 10:0 11:-0.9244068 12:2.1066213 
0.2548092550536826 1:1.2828982 2:0.65809137 3:0.44734398 4:-0.84860263 5:-0.9406044 6:0.514764 7:1.122797 8:-0.0017124429 9:0.77846456 10:0 11:-0.9244068 12:2.1066213 
0.04671701848222247 1:2.2653824 2:3.126046 3:0.1119274 4:1.009421 5:-1.0844513 6:-0.33011828 7:-0.37228614 8:1.5179288 9:-0.50139587 10:0 11:1.0817748 12:-0.47469378 
1.226295167411319 1:1.2251903 2:0.5995012 3:0.46930551 4:-1.5155855 5:1.1383212 6:0.90973731 7:1.1354383 8:-0.011064081 9:0.77846456 10:0 11:-0.9244068 12:2.1066213 
-0.3914561287185994 1:1.9656046 2:0.55311156 3:-0.15259473 4:-0.41982795 5:-1.0587717 6:0.11922725 7:0.1726539 8:0.026342472 9:-1.6828055 10:0 11:1.0817748 12:-0.47469378 
7.633063865463476 1:0.84517164 2:1.127903 3:0.2276542 4:-0.32454469 5:0.26457578 6:0.514764 7:1.122797 8:-0.0017124429 9:0.77846456 10:0 11:-0.9244068 12:2.1066213 
-8.5 1:1.6779284 2:1.6853591 3:0.15269415 4:-0.32454469 5:-1.1274398 6:0.90973731 7:1.1313384 8:0.0076391954 9:0.43388675 10:0 11:1.0817748 12:-0.47469378 
2.265468097636415 1:0.23441864 2:0.51622595 3:-2.7814336 4:-0.84860263 5:0.97041401 6:-0.21883835 7:0.23312687 8:-0.14198702 9:0.77846456 10:0 11:-0.9244068 12:2.1066213 
1.41986916579883 1:-0.3147943 2:-1.9830826 3:-0.12473031 4:-1.5155855 5:-0.34907303 6:0.93650084 7:1.0281585 8:-0.2588825 9:0.77846456 10:0 11:-0.9244068 12:2.1066213 
0.3237042535414162 1:0.46742483 2:0.89186171 3:-0.57762164 4:0.17569244 5:-1.0670871 6:-0.78397134 7:-0.91859281 8:0.11050722 9:0.48311215 10:0 11:-0.9244068 12:-0.47469378 
2.180104827058703 1:-0.5551898 2:0.16728353 3:0.2151127 4:1.7716871 5:-0.74518217 6:0.1766984 7:0.58161518 8:-0.29161323 9:0.87691537 10:0 11:-0.9244068 12:-0.47469378 
6.518847536605285 1:1.3109032 2:2.1357773 3:0.42098662 4:-0.84860263 5:-1.0937154 6:0.063728146 7:0.10944769 8:0.15726541 9:0.77846456 10:0 11:-0.9244068 12:2.1066213 
0.1578862710642803 1:-0.13927294 2:-0.20533109 3:1.5837053 4:0.17569244 5:0.60600822 6:-0.67071937 7:1.0527577 8:0.0029633763 9:-1.3382277 10:0 11:-0.9244068 12:-0.47469378 
6.748576433046711 1:1.2812955 2:0.92485633 3:-0.097931971 4:0.74739201 5:-1.0971325 6:0.11922725 7:0.1726539 8:0.026342472 9:2.7474806 10:0 11:1.0817748 12:-0.47469378 
3.882282495311608 1:0.12705251 2:0.34873285 3:-0.12861575 4:1.009421 5:0.011124701 6:-0.64198379 7:-0.41055152 8:0.12453467 9:-1.1905515 10:0 11:-0.9244068 12:-0.47469378 
8.5 1:0.1012895 2:1.451678 3:0.35247055 4:1.009421 5:-0.68977402 6:0.063728146 7:0.10944769 8:0.15726541 9:-1.6828055 10:0 11:1.0817748 12:-0.47469378 
-8.5 1:-0.64001343 2:-0.53592032 3:-0.033616274 4:-0.41982795 5:-1.1281724 6:0.23247922 7:-0.316938 8:-0.095228825 9:-1.4366785 10:0 11:-0.9244068 12:-0.47469378 
-1.487644076525269 1:-1.2940838 2:-0.78437465 3:-0.19523909 4:0.79503364 5:-0.72814634 6:-0.24813737 7:-0.43070918 8:-1.2174254 9:-1.1905515 10:0 11:-0.9244068 12:2.1066213 
0.8870140506211854 1:4.5287226 2:4.2798042 3:0.64428322 4:-1.0868108 5:-1.1281724 6:0.45898318 7:0.58469007 8:0.15726541 9:-0.82136098 10:0 11:-0.9244068 12:-0.47469378 
8.5 1:2.4050277 2:0.97177579 3:0.13197266 4:1.009421 5:-0.94433883 6:-1.0093484 7:0.19759473 8:-0.12328374 9:-0.94442449 10:0 11:1.0817748 12:-0.47469378 
8.193846526834795 1:0.37223073 2:-1.163602 3:0.27949915 4:-1.3250189 5:2.2627799 6:2.1219842 7:1.0561742 8:2.4250377 9:0.77846456 10:0 11:-0.9244068 12:2.1066213 
0.3022345671477996 1:-0.25420751 2:0.13541496 3:0.075802769 4:0.17569244 5:1.5504407 6:-0.7543906 7:-0.42387608 8:0.43313874 9:2.0090996 10:0 11:-0.9244068 12:-0.47469378 
-8.5 1:0.1012895 2:1.451678 3:0.35247055 4:1.009421 5:-0.68977402 6:0.063728146 7:0.10944769 8:0.15726541 9:-1.6828055 10:0 11:1.0817748 12:-0.47469378 
1.365292593565416 1:-0.73743379 2:-0.31808738 3:-0.17131123 4:-0.13397817 5:-0.68244469 6:0.45785629 7:1.0462662 8:0.15726541 9:1.0245916 10:0 11:-0.9244068 12:-0.47469378 
-0.3840964647792776 1:-0.42886722 2:0.27905126 3:-2.4344814 4:-0.800961 5:1.1152391 6:-1.1203466 7:-0.86016977 8:1.2981653 9:0.77846456 10:0 11:1.0817748 12:-0.47469378 
1.176935597795536 1:1.3986921 2:0.74417899 3:0.52764284 4:-1.3488398 5:0.78425104 6:1.7278561 7:1.5010093 8:1.7096374 9:0.40927405 10:0 11:1.0817748 12:-0.47469378 
0.688702865463619 1:0.66118371 2:1.6277678 3:0.1119274 4:1.009421 5:-1.1281724 6:-0.72650019 7:0.54061655 8:0.16661705 9:-1.1905515 10:0 11:1.0817748 12:-0.47469378 
8.5 1:0.74479482 2:-0.40109931 3:-0.10029605 4:-0.32454469 5:-0.3567304 6:0.5702631 7:1.0595908 8:-0.15133866 9:0.43388675 10:0 11:-0.9244068 12:-0.47469378 
0.795884489137111 1:0.31625474 2:0.58870483 3:0.16705187 4:1.009421 5:0.54683519 6:0.90973731 7:1.1313384 8:0.0076391954 9:0.01547084 10:0 11:1.0817748 12:-0.47469378 
2.541990000540625 1:1.9484224 2:1.6714686 3:0.19864474 4:0.34243814 5:-1.1281724 6:0.90973731 7:1.1313384 8:0.0076391954 9:0.77846456 10:0 11:1.0817748 12:-0.47469378 
5.491827693969467 1:0.53007132 2:-0.66759943 3:-0.45936258 4:1.009421 5:0.011124701 6:-0.61522027 7:-0.37809428 8:-0.12328374 9:-1.6828055 10:0 11:-0.9244068 12:-0.47469378 
1.466798183791114 1:-0.33528601 2:0.48532944 3:0.16206415 4:-0.32454469 5:0.1305987 6:0.90973731 7:1.1354383 8:-0.011064081 9:0.43388675 10:0 11:-0.9244068 12:-0.47469378 
0.2082601915294504 1:-0.47756206 2:-0.78181121 3:3.2073165 4:-0.32454469 5:0.92422087 6:-2.7858831 7:-2.8875517 8:0.20869942 9:-0.40294507 10:0 11:-0.9244068 12:-0.47469378 
8.5 1:-0.75317882 2:0.3328225 3:0.03088405 4:-0.32454469 5:-0.51681543 6:-0.24813737 7:-0.43070918 8:-1.2174254 9:0.43388675 10:0 11:-0.9244068 12:-0.47469378 
-1.576163949824487 1:-1.7592867 2:-2.2404489 3:-0.022971825 4:0.056588358 5:-0.93097345 6:0.96410953 7:1.0394331 8:-1.4932987 9:-2.0766087 10:0 11:-0.9244068 12:-0.47469378 
-0.1129312770780914 1:-0.62550759 2:0.45066382 3:0.18080417 4:-0.32454469 5:-1.1281724 6:1.4179626 7:1.1207471 8:-0.10458046 9:2.0090996 10:0 11:1.0817748 12:-0.47469378 
8.5 1:0.41138932 2:0.28710809 3:0.26831518 4:0.79503364 5:-1.094189 6:0.514764 7:1.122797 8:-0.0017124429 9:0.040083541 10:0 11:1.0817748 12:-0.47469378 
-0.7439842233962848 1:1.5621314 2:1.5867684 3:0.26351642 4:0.74739201 5:-1.0883528 6:0.90973731 7:1.1313384 8:0.0076391954 9:2.7474806 10:0 11:1.0817748 12:-0.47469378 
-1.323929661151839 1:2.2790426 2:1.0227635 3:-0.76556657 4:-0.32454469 5:-0.16701099 6:0.90973731 7:1.1354383 8:-0.011064081 9:0.43388675 10:0 11:-0.9244068 12:-0.47469378 
-0.179827123631703 1:0.24265488 2:1.1135773 3:0.13804653 4:-1.3011981 5:0.1267199 6:1.8681533 7:1.1272385 8:-0.22615176 9:0.77846456 10:0 11:-0.9244068 12:2.1066213 
-5.533089717582469 1:-0.073472325 2:0.45932767 3:-0.088525225 4:1.009421 5:-0.68977402 6:0.11922725 7:0.17675376 8:0.0076391954 9:-1.1905515 10:0 11:1.0817748 12:-0.47469378 
6.394276009631199 1:-0.1767021 2:0.018465161 3:0.068622281 4:0.17569244 5:-1.0622734 6:0.62745253 7:1.1282635 8:-0.44123944 9:2.0090996 10:0 11:1.0817748 12:-0.47469378 
2.275912352209143 1:0.11950411 2:1.2547623 3:0.38754976 4:1.009421 5:-1.1281724 6:-0.33124516 7:0.096806448 8:0.16661705 9:-1.1905515 10:0 11:1.0817748 12:-0.47469378 
-0.1424556295328031 1:-0.85552383 2:-0.6410001 3:3.1510965 4:-0.32454469 5:0.92422087 6:-2.1367972 7:-2.1003781 8:0.31624326 9:-0.40294507 10:0 11:-0.9244068 12:-0.47469378 
5.272593407326752 1:-0.091395536 2:0.46127039 3:-0.60695075 4:-0.84860263 5:1.2026807 6:0.0065387155 7:0.035991822 8:0.46586947 9:0.77846456 10:0 11:-0.9244068 12:-0.47469378 
0.9016072479095834 1:0.19964006 2:0.68136378 3:0.049624065 4:-0.32454469 5:0.26457578 6:-1.6291353 7:-1.4771991 8:0.24143015 9:0.77846456 10:0 11:-0.9244068 12:2.1066213 
-0.3657756729894549 1:-0.071043061 2:-0.18129475 3:-0.025642294 4:0.74739201 5:-1.0478422 6:0.82409402 7:-1.4836905 8:0.20869942 9:2.7474806 10:0 11:1.0817748 12:-0.47469378 
-2.21117682012057 1:0.071184822 2:0.13424425 3:-0.033400753 4:1.009421 5:0.011124701 6:0.96523641 7:1.5385914 8:-0.1373112 9:-1.4366785 10:0 11:-0.9244068 12:-0.47469378 
-3.056439542598218 1:0.66027449 2:2.2129241 3:0.028357679 4:0.79503364 5:-1.11337 6:0.11922725 7:1.5662655 8:0.031018291 9:-1.0921007 10:0 11:1.0817748 12:-0.47469378 
-8.5 1:-1.9438233 2:-0.62204571 3:-0.13251812 4:-0.84860263 5:-1.1281724 6:-0.55803084 7:-0.30942158 8:-0.41318453 9:0.77846456 10:0 11:-0.9244068 12:2.1066213 
-8.378832003537179 1:1.3236377 2:1.8624846 3:0.38754976 4:1.009421 5:-0.68977402 6:0.17613496 7:0.24576811 8:-0.15133866 9:-1.1905515 10:0 11:1.0817748 12:-0.47469378 
-0.5564676956722637 1:0.16130855 2:1.1127059 3:0.26351642 4:0.74739201 5:-0.31994851 6:0.90973731 7:1.1313384 8:0.0076391954 9:2.058325 10:0 11:1.0817748 12:-0.47469378 
7.472727902559123 1:0.2057306 2:-0.23393569 3:-0.15887549 4:-0.84860263 5:0.97041401 6:-0.38843459 7:0.027450442 8:0.45651783 9:0.77846456 10:0 11:-0.9244068 12:2.1066213 
3.086634698055158 1:-2.0013167 2:-1.3613469 3:-0.21374639 4:-1.3488398 5:-1.0642726 6:0.45785629 7:1.0462662 8:0.15726541 9:0.40927405 10:0 11:-0.9244068 12:-0.47469378 
-0.7544458262878073 1:1.0298059 2:-0.92180292 3:-0.4188763 4:-0.32454469 5:-0.3567304 6:-0.22024696 7:0.10090631 8:-0.13263538 9:0.43388675 10:0 11:-0.9244068 12:-0.47469378 
7.065337894612582 1:-0.58315735 2:0.52871395 3:0.11416204 4:0.056588358 5:-0.99706478 6:2.3189074 7:1.111864 8:-0.14198702 9:-0.20604347 10:0 11:-0.9244068 12:-0.47469378 
-0.4298829932431488 1:0.99094926 2:0.9034654 3:0.26351642 4:0.74739201 5:-1.0370537 6:0.90973731 7:1.1313384 8:0.0076391954 9:1.1722678 10:0 11:1.0817748 12:-0.47469378 
0.397498792899304 1:0.72270672 2:0.54774868 3:0.0062596894 4:0.34243814 5:0.13915358 6:0.11922725 7:1.5662655 8:0.031018291 9:0.77846456 10:0 11:1.0817748 12:-0.47469378 
-7.691199662726507 1:0.29607098 2:-0.30706451 3:0.076848191 4:1.009421 5:0.1626012 6:1.3317559 7:1.0250836 8:-0.14666284 9:-1.4366785 10:0 11:1.0817748 12:-0.47469378 
0.53926033920246 1:-0.48514658 2:0.7385274 3:0.58811268 4:-1.5155855 5:1.5025649 6:1.4179626 7:1.1207471 8:-0.10458046 9:0.77846456 10:0 11:1.0817748 12:-0.47469378 
1.378196267544631 1:0.063977251 2:0.92962325 3:0.24723292 4:1.009421 5:0.1626012 6:1.7267292 7:1.5040842 8:-0.13263538 9:-1.6828055 10:0 11:1.0817748 12:-0.47469378 
8.5 1:0.056507904 2:0.95837991 3:-0.32036175 4:0.74739201 5:-1.126986 6:-1.8843749 7:-0.86358632 8:-1.6616282 9:1.1722678 10:0 11:1.0817748 12:-0.47469378 
-0.4680887174644799 1:-0.15502577 2:-0.071401683 3:0.18080417 4:-0.32454469 5:0.54314894 6:0.51335539 7:0.49278482 8:-1.3436725 9:0.43388675 10:0 11:1.0817748 12:-0.47469378 
-2.870235859814818 1:0.97534029 2:0.8300844 3:0.30297548 4:-1.5155855 5:1.2359914 6:0.90973731 7:1.1313384 8:0.0076391954 9:0.77846456 10:0 11:1.0817748 12:-0.47469378 
-4.103328783675058 1:0.16413811 2:0.49470966 3:-0.038412069 4:1.009421 5:-1.1266725 6:0.11950897 7:0.51294248 8:-0.0017124429 9:-0.0091418603 10:0 11:1.0817748 12:-0.47469378 
-8.5 1:0.53007132 2:-0.66759943 3:-0.45936258 4:1.009421 5:0.011124701 6:-0.61522027 7:-0.37809428 8:-0.12328374 9:-1.1905515 10:0 11:-0.9244068 12:-0.47469378 
-2.005115710284643 1:-0.90823003 2:0.37703196 3:0.56771793 4:-1.3488398 5:-0.01877824 6:0.514764 7:1.122797 8:-0.0017124429 9:0.43388675 10:0 11:1.0817748 12:-0.47469378 
3.280159290825185 1:0.72110559 2:0.39920564 3:-0.1565161 4:-0.32454469 5:-1.1281724 6:0.11922725 7:0.17675376 8:0.0076391954 9:0.43388675 10:0 11:-0.9244068 12:2.1066213 
-1.085284941123105 1:-1.3253577 2:0.49660041 3:-0.11859312 4:1.009421 5:-1.1011239 6:0.17444463 7:-0.92679253 8:-0.10458046 9:-1.6828055 10:0 11:1.0817748 12:-0.47469378 
2.699029608088386 1:0.87631305 2:1.798366 3:0.046780297 4:1.009421 5:-1.0730414 6:-0.19066622 7:-0.83010411 8:-1.7831995 9:-0.058367262 10:0 11:1.0817748 12:-0.47469378 
-1.690083788103442 1:-0.036550814 2:0.22030106 3:-0.008344175 4:1.009421 5:-0.68977402 6:-1.234162 7:-1.4645578 8:0.23207851 9:0.53233756 10:0 11:1.0817748 12:-0.47469378 
-0.9134871420568099 1:-0.021413281 2:0.39902401 3:-0.18233934 4:-0.41982795 5:0.095779571 6:-1.9108567 7:-0.89570191 8:1.3168686 9:0.77846456 10:0 11:1.0817748 12:-0.47469378 
-1.000703948620701 1:0.09904219 2:-0.33214821 3:0.087104095 4:-0.32454469 5:-0.77742588 6:0.4857467 7:0.4815102 8:-0.10925628 9:-0.20604347 10:0 11:1.0817748 12:-0.47469378 
-0.1704372198203782 1:0.21403454 2:0.38695638 3:-0.037845379 4:0.91413772 5:-1.0394844 6:-2.0798895 7:-2.0238474 8:0.15726541 9:1.1722678 10:0 11:-0.9244068 12:2.1066213 
-1.720877639787575 1:0.92105171 2:3.3395484 3:0.5132374 4:-0.84860263 5:-0.029082444 6:1.1066605 7:-0.35827828 8:0.13388631 9:-0.058367262 10:0 11:1.0817748 12:-0.47469378 
6.238097889717427 1:0.76104874 2:1.7313226 3:0.97326959 4:-1.5632271 5:0.67163169 6:0.90973731 7:1.1313384 8:0.0076391954 9:0.28621055 10:0 11:1.0817748 12:-0.47469378 
-0.5548387682639867 1:0.85280312 2:1.0552371 3:-0.59998441 4:0.19951325 5:-1.1054878 6:-0.78397134 7:-0.91859281 8:0.11050722 9:-1.3382277 10:0 11:-0.9244068 12:-0.47469378 
-1.087118323635796 1:-0.22673762 2:0.011568121 3:-0.43931732 4:1.009421 5:0.011124701 6:-1.8274672 7:-1.8482366 8:-2.5593855 9:0.53233756 10:0 11:-0.9244068 12:-0.47469378 
3.458428624400636 1:-0.64001343 2:-0.53592032 3:-0.033616274 4:-0.41982795 5:-1.1281724 6:0.23247922 7:-0.316938 8:-0.095228825 9:-1.1905515 10:0 11:-0.9244068 12:-0.47469378 
-0.2560186326032631 1:0.063977251 2:0.92962325 3:0.24723292 4:1.009421 5:0.1626012 6:1.7267292 7:1.5040842 8:-0.13263538 9:-1.6828055 10:0 11:1.0817748 12:-0.47469378 
1.767428154608445 1:-0.3361046 2:0.94034592 3:-0.0065959789 4:-0.32454469 5:0.26457578 6:-1.1789447 7:-0.93123405 8:0.11985885 9:2.0090996 10:0 11:-0.9244068 12:2.1066213 
-0.2343882216967045 1:-0.47165331 2:0.0093908122 3:-0.079981885 4:0.34243814 5:-0.37857168 6:1.3590828 7:1.5184337 8:-1.4792713 9:0.77846456 10:0 11:-0.9244068 12:-0.47469378 
2.123899411046407 1:1.9824874 2:2.4922569 3:0.13819732 4:0.19951325 5:-1.1204399 6:0.063728146 7:0.10534783 8:0.17596868 9:-1.3382277 10:0 11:1.0817748 12:-0.47469378 
-8.5 1:-0.5463679 2:-0.19369426 3:0.40568434 4:-0.32454469 5:3.0193723 6:0.23247922 7:-0.316938 8:-0.095228825 9:2.0090996 10:0 11:-0.9244068 12:-0.47469378 
4.166467532269933 1:1.1161648 2:-0.76553053 3:-0.17225318 4:-1.5155855 5:-0.43208667 6:0.17500807 7:1.0489995 8:-0.13263538 9:0.77846456 10:0 11:-0.9244068 12:-0.47469378 
1.967464538880891 1:-0.18693053 2:-0.22273823 3:1.8511909 4:0.056588358 5:0.88525211 6:0.45785629 7:1.0462662 8:0.15726541 9:-0.59984668 10:0 11:-0.9244068 12:-0.47469378 
-0.09634979984571736 1:-0.81266614 2:-0.59378882 3:-0.053446016 4:0.74739201 5:-1.0268194 6:-0.27574606 7:-0.30224683 8:-0.0017124429 9:1.1722678 10:0 11:1.0817748 12:-0.47469378 
-1.342068922086672 1:-0.41091347 2:-0.74128945 3:0.82820604 4:-1.3488398 5:0.084157969 6:-0.22024696 7:0.10090631 8:-0.13263538 9:0.40927405 10:0 11:-0.9244068 12:-0.47469378 
-0.1626978800067046 1:-1.7592867 2:-2.2404489 3:-0.022971825 4:0.056588358 5:-0.93097345 6:0.96410953 7:1.0394331 8:-1.4932987 9:0.28621055 10:0 11:-0.9244068 12:-0.47469378 
1.536729043894564 1:2.0981678 2:0.80147519 3:0.19864474 4:0.34243814 5:-1.1281724 6:0.90973731 7:1.1313384 8:0.0076391954 9:-0.20604347 10:0 11:-0.9244068 12:2.1066213 
2.852591567814323 1:0.87762581 2:0.44493852 3:-0.63475863 4:1.009421 5:-0.34958965 6:0.90973731 7:1.1354383 8:-0.011064081 9:-1.1905515 10:0 11:1.0817748 12:-0.47469378 
-8.5 1:-0.63454659 2:0.17663183 3:-0.51118975 4:0.34243814 5:-0.79198208 6:-1.1214735 7:0.50610938 8:0.15258959 9:-0.20604347 10:0 11:-0.9244068 12:-0.47469378 
8.5 1:-2.5739095 2:0.38065763 3:-2.4344814 4:-0.800961 5:0.46309261 6:-1.1203466 7:-0.86016977 8:1.2981653 9:0.77846456 10:0 11:1.0817748 12:-0.47469378 
0.02951413147021969 1:-0.49791607 2:-0.38420715 3:0.48133199 4:-0.800961 5:0.46309261 6:-2.0798895 7:-2.0238474 8:0.15726541 9:0.77846456 10:0 11:1.0817748 12:-0.47469378 
-6.746619775017214 1:1.1014522 2:-0.28184527 3:-0.34410232 4:1.009421 5:-1.1220955 6:-1.0662561 7:0.12858038 8:0.03569411 9:-1.6828055 10:0 11:1.0817748 12:-0.47469378 
-1.109872008431195 1:0.48277175 2:0.33052243 3:-0.24731919 4:0.17569244 5:-0.67799417 6:-1.8829663 7:-0.41738463 8:0.27883671 9:2.0090996 10:0 11:-0.9244068 12:-0.47469378 
2.715073778790269 1:1.3472674 2:0.85663484 3:-0.10857049 4:1.009421 5:-1.1281724 6:-0.78397134 7:-0.92269267 8:0.12921049 9:0.00070322002 10:0 11:1.0817748 12:-0.47469378 
-3.655014811138688 1:0.8584193 2:0.61532775 3:0.15949102 4:0.19951325 5:-1.0200481 6:0.90973731 7:1.1354383 8:-0.011064081 9:-1.3382277 10:0 11:1.0817748 12:-0.47469378 
0.4650032072268548 1:2.7299957 2:2.2663209 3:0.62842574 4:-1.0868108 5:-1.1281724 6:-0.33124516 7:0.096806448 8:0.16661705 9:-0.82136098 10:0 11:-0.9244068 12:2.1066213 
0.06854566185414007 1:0.11950411 2:1.2547623 3:0.38754976 4:1.009421 5:-1.1281724 6:-0.33124516 7:0.096806448 8:0.16661705 9:-0.0091418603 10:0 11:1.0817748 12:-0.47469378 
-3.637108059692607 1:0.430213 2:0.77611259 3:0.30297548 4:-1.5155855 5:-0.80305881 6:2.3189074 7:1.111864 8:-0.14198702 9:0.77846456 10:0 11:-0.9244068 12:2.1066213 
-8.5 1:0.48569386 2:-0.62328477 3:-0.07218603 4:-0.32454469 5:0.40829249 6:0.93650084 7:1.0281585 8:-0.2588825 9:0.43388675 10:0 11:-0.9244068 12:-0.47469378 
-8.5 1:0.68298073 2:-0.45239969 3:0.012144036 4:-0.32454469 5:-0.51681543 6:0.96410953 7:1.0394331 8:-1.4932987 9:0.43388675 10:0 11:-0.9244068 12:-0.47469378 
-0.6908911614225988 1:0.2075551 2:1.7945002 3:-0.020081549 4:0.74739201 5:-1.0906758 6:0.25952447 7:-0.82361266 8:-1.9047708 9:1.1722678 10:0 11:1.0817748 12:-0.47469378 
8.14656452914622 1:-0.80833031 2:-0.71745694 3:0.03088405 4:-0.32454469 5:-1.1060473 6:-0.24813737 7:-0.43070918 8:-1.2174254 9:0.43388675 10:0 11:-0.9244068 12:2.1066213 
-1.027427626107741 1:0.76390756 2:1.3864056 3:-0.10857049 4:1.009421 5:-1.121174 6:-0.78397134 7:-0.92269267 8:0.12921049 9:0.00070322002 10:0 11:1.0817748 12:-0.47469378 
1.510962568115301 1:-0.1566688 2:-0.20565928 3:-0.32906838 4:1.009421 5:-1.1220955 6:-1.9694547 7:-0.96676619 8:0.13856213 9:-1.1905515 10:0 11:1.0817748 12:-0.47469378 
0.638056424043578 1:-0.49769107 2:-0.0065437529 3:-0.26729891 4:-1.5155855 5:-1.1174345 6:-0.67071937 7:1.0527577 8:0.0029633763 9:0.77846456 10:0 11:-0.9244068 12:2.1066213 
-0.6059018000876 1:1.517766 2:0.60648658 3:-0.11355866 4:-1.3488398 5:0.84039587 6:0.11950897 7:-0.46009153 8:0.22740269 9:0.40927405 10:0 11:1.0817748 12:-0.47469378 
-0.8615302409827671 1:0.52902325 2:-0.315552 3:-0.013370922 4:-1.3488398 5:0.84039587 6:-0.24813737 7:-0.90595156 8:-1.1192332 9:0.40927405 10:0 11:1.0817748 12:-0.47469378 
1.070853369996478 1:1.1063751 2:0.32370825 3:-0.073491278 4:1.009421 5:-0.91998108 6:-0.78397134 7:-0.91859281 8:0.11050722 9:-1.6828055 10:0 11:1.0817748 12:-0.47469378 
-3.256008519580552 1:1.0968109 2:1.1317429 3:0.19864474 4:0.34243814 5:-0.84328295 6:0.90973731 7:1.1313384 8:0.0076391954 9:0.77846456 10:0 11:-0.9244068 12:-0.47469378 
-2.236244739106432 1:-0.66792638 2:-0.46150959 3:-0.043531145 4:-0.41982795 5:-1.0759532 6:0.37333989 7:-2.0303388 8:0.12453467 9:0.28621055 10:0 11:-0.9244068 12:2.1066213 
-0.7857325724572932 1:-0.90823003 2:0.37703196 3:0.56771793 4:-1.3488398 5:-0.01877824 6:0.514764 7:1.122797 8:-0.0017124429 9:-1.1905515 10:0 11:1.0817748 12:-0.47469378 
-0.4571599638327962 1:-0.63390651 2:-0.91549046 3:2.4111722 4:-1.3488398 5:0.20999779 6:0.96410953 7:1.0394331 8:-1.4932987 9:0.40927405 10:0 11:1.0817748 12:-0.47469378 
-0.6163464339378688 1:0.063417745 2:0.13626126 3:-2.7719422 4:0.19951325 5:1.0779375 6:0.064009867 7:0.57614869 8:0.14791377 9:-1.3382277 10:0 11:-0.9244068 12:-0.47469378 
-1.335516138350071 1:-0.64001343 2:-0.53592032 3:-0.033616274 4:-0.41982795 5:-1.1281724 6:0.23247922 7:-0.316938 8:-0.095228825 9:0.77846456 10:0 11:-0.9244068 12:-0.47469378 
-1.335137208527381 1:-1.2940799 2:-0.32258346 3:0.27450424 4:-0.32454469 5:0.92422087 6:0.8528296 7:1.5252668 8:0.17129287 9:-0.40294507 10:0 11:-0.9244068 12:-0.47469378 
1.144688733098774 1:1.1111339 2:0.12508247 3:-0.043423384 4:1.009421 5:0.39985359 6:0.26065136 7:-1.2011417 8:1.7376923 9:0.28621055 10:0 11:1.0817748 12:-0.47469378 
-0.8095262483491724 1:1.2803935 2:-0.046147574 3:1.0709549 4:-0.32454469 5:0.75953649 6:-3.5194855 7:-2.8465531 8:0.068424844 9:0.43388675 10:0 11:1.0817748 12:-0.47469378 
-0.4906503406373349 1:-0.57450139 2:0.084707358 3:1.8511909 4:0.056588358 5:0.95687801 6:0.45785629 7:1.0462662 8:0.15726541 9:-0.59984668 10:0 11:-0.9244068 12:-0.47469378 
0.8877531092408807 1:-0.20086193 2:-0.055141707 3:0.14463623 4:0.056588358 5:0.88525211 6:0.8528296 7:1.5252668 8:0.17129287 9:-0.59984668 10:0 11:-0.9244068 12:-0.47469378 
4.029405905494882 1:2.4290581 2:4.4144373 3:0.3374366 4:1.009421 5:-1.121174 6:1.3047106 7:1.610339 8:0.021666653 9:-1.1905515 10:0 11:1.0817748 12:-0.47469378 
-8.5 1:-0.012890393 2:-0.24060739 3:-1.0935168 4:-0.32454469 5:1.5021671 6:2.3189074 7:1.111864 8:-0.14198702 9:0.43388675 10:0 11:-0.9244068 12:-0.47469378 
-0.698185276076976 1:0.84103231 2:0.46752165 3:0.74300461 4:-0.32454469 5:0.75953649 6:-2.1370789 7:-1.170051 8:-0.67035458 9:0.43388675 10:0 11:1.0817748 12:-0.47469378 
-8.5 1:-0.48375276 2:-0.080760201 3:0.14463623 4:0.056588358 5:0.95687801 6:0.8528296 7:1.5252668 8:0.17129287 9:0.28621055 10:0 11:-0.9244068 12:-0.47469378 
1.476813010052218 1:0.82620661 2:3.4093368 3:0.31564485 4:0.19951325 5:-1.0743734 6:1.3047106 7:1.6144388 8:0.0029633763 9:-1.3382277 10:0 11:-0.9244068 12:2.1066213 
0.07072976586596785 1:-0.5370146 2:-0.23550586 3:-1.9930375 4:-0.32454469 5:1.0709724 6:0.11950897 7:0.51294248 8:-0.0017124429 9:0.43388675 10:0 11:1.0817748 12:-0.47469378 
0.7535385311681904 1:-1.044154 2:0.075168205 3:-0.064353175 4:0.79503364 5:-1.0876884 6:0.56998138 7:1.5280001 8:-0.11860792 9:-1.1905515 10:0 11:-0.9244068 12:2.1066213 
-1.012757360722521 1:-0.19359995 2:-0.87412442 3:2.6315959 4:-1.5155855 5:-0.24973121 6:-0.67071937 7:1.0527577 8:0.0029633763 9:0.77846456 10:0 11:-0.9244068 12:2.1066213 
-0.06695702025694833 1:1.1907199 2:0.59192269 3:-0.034706001 4:-0.32454469 5:1.0930732 6:1.7267292 7:1.5040842 8:-0.13263538 9:0.43388675 10:0 11:1.0817748 12:-0.47469378 
-8.5 1:1.1413084 2:0.91403581 3:0.23756793 4:0.19951325 5:0.4709918 6:0.514764 7:1.122797 8:-0.0017124429 9:-1.3382277 10:0 11:-0.9244068 12:-0.47469378 
0.2079387176668221 1:0.29025772 2:0.59569338 3:-0.26895618 4:-0.32454469 5:-0.3567304 6:-1.0372388 7:-0.88989377 8:0.012315015 9:0.43388675 10:0 11:-0.9244068 12:-0.47469378 
-4.775514485490931 1:-0.23756793 2:-1.2635414 3:-0.13777608 4:-0.32454469 5:-0.71799429 6:-0.67071937 7:1.0527577 8:0.0029633763 9:0.43388675 10:0 11:-0.9244068 12:-0.47469378 
6.281986251891225 1:0.41138932 2:0.28710809 3:0.26831518 4:0.79503364 5:-1.094189 6:0.514764 7:1.122797 8:-0.0017124429 9:-1.1905515 10:0 11:1.0817748 12:-0.47469378 
1.715776133714309 1:-1.742102 2:0.24581825 3:3.102193 4:-1.0868108 5:0.0098811059 6:-0.50196829 7:-1.2137829 8:-1.9702323 9:-1.1905515 10:0 11:-0.9244068 12:-0.47469378 
-1.189020034759647 1:1.4485144 2:1.0159303 3:0.16705187 4:1.009421 5:-1.1281724 6:0.90973731 7:1.1313384 8:0.0076391954 9:-1.185629 10:0 11:1.0817748 12:-0.47469378 
2.34712029021936 1:-0.92193953 2:-1.0250156 3:-0.040178081 4:0.34243814 5:-1.0600419 6:0.96410953 7:1.0394331 8:-1.4932987 9:0.77846456 10:0 11:-0.9244068 12:-0.47469378 
8.5 1:-0.87162497 2:0.33472369 3:0.18080417 4:-0.32454469 5:-0.23447661 6:2.3189074 7:1.111864 8:-0.14198702 9:0.43388675 10:0 11:1.0817748 12:-0.47469378 
0.8259647106897184 1:-0.041833916 2:0.97753263 3:-0.34066554 4:0.17569244 5:-1.1121082 6:-1.0648475 7:-0.45462504 8:1.3776542 9:0.48311215 10:0 11:1.0817748 12:-0.47469378 
-0.7995632051824633 1:0.48313997 2:-1.1155536 3:0.12195003 4:1.009421 5:-0.1604066 6:1.3328828 7:1.0220087 8:1.6956099 9:-1.1905515 10:0 11:1.0817748 12:-0.47469378 
-0.3610834679941178 1:2.794296 2:1.1132888 3:0.68794322 4:-1.3488398 5:-1.1006433 6:0.90973731 7:1.1313384 8:0.0076391954 9:0.43388675 10:0 11:1.0817748 12:-0.47469378 
-1.440698078561677 1:-0.65859311 2:-0.37323265 3:0.26967594 4:0.17569244 5:0.94723616 6:-0.67212798 7:-0.92269267 8:-1.9375016 9:0.48311215 10:0 11:-0.9244068 12:-0.47469378 
8.5 1:0.31160313 2:0.42189163 3:-0.14569681 4:-0.84860263 5:-1.0937154 6:0.11922725 7:0.17675376 8:0.0076391954 9:0.77846456 10:0 11:-0.9244068 12:2.1066213 
-2.474577621136504 1:0.37343702 2:-0.17057421 3:-0.10029605 4:-0.32454469 5:-1.1281724 6:0.62745253 7:0.16206259 8:-0.085877187 9:2.0090996 10:0 11:1.0817748 12:-0.47469378 
-0.5435457307356354 1:0.15506362 2:0.70075926 3:-0.0031235812 4:5.916509 5:-1.1281724 6:0.11922725 7:1.5662655 8:0.031018291 9:1.073817 10:0 11:1.0817748 12:-0.47469378 
-1.69970497832451 1:-0.35511189 2:0.11612697 3:-2.545868 4:-0.32454469 5:3.0193723 6:1.8129359 7:1.5997477 8:-0.090553006 9:2.0090996 10:0 11:-0.9244068 12:-0.47469378 
5.758368072510184 1:0.023769613 2:2.2580638 3:0.3494643 4:-0.32454469 5:0.26457578 6:0.90973731 7:1.6017976 8:0.012315015 9:0.77846456 10:0 11:-0.9244068 12:2.1066213 
1.854965270483636 1:-1.0160059 2:-0.34233559 3:0.11421609 4:-0.61039448 5:-0.76003533 6:0.4857467 7:0.4815102 8:-0.10925628 9:0.77846456 10:0 11:-0.9244068 12:-0.47469378 
0.7142079162877276 1:2.4050277 2:0.97177579 3:0.13197266 4:1.009421 5:-0.94433883 6:-1.0093484 7:0.19759473 8:-0.12328374 9:-0.69829748 10:0 11:1.0817748 12:-0.47469378 
-2.781534165313232 1:-0.36461497 2:0.53333132 3:-0.25112628 4:-0.84860263 5:1.2026807 6:-0.27574606 7:-0.30634669 8:0.03569411 9:0.77846456 10:0 11:-0.9244068 12:-0.47469378 
-8.5 1:-0.005117365 2:0.048848436 3:-0.1565161 4:-0.32454469 5:-1.1281724 6:0.11922725 7:0.17675376 8:0.0076391954 9:0.43388675 10:0 11:-0.9244068 12:-0.47469378 
3.259126257151199 1:-0.27175662 2:0.17084131 3:-2.7988582 4:-0.32454469 5:1.5021671 6:2.7138807 7:1.5908646 8:-0.12795956 9:0.43388675 10:0 11:-0.9244068 12:-0.47469378 
-4.051042565839555 1:0.24917171 2:0.54426625 3:0.16206415 4:-0.32454469 5:0.88796738 6:0.90973731 7:1.1354383 8:-0.011064081 9:0.43388675 10:0 11:-0.9244068 12:-0.47469378 
-8.5 1:0.17678139 2:0.083273362 3:-0.13152293 4:0.19951325 5:-1.0200481 6:0.11922725 7:0.17675376 8:0.0076391954 9:-1.3382277 10:0 11:1.0817748 12:-0.47469378 
-0.5686263971963855 1:3.3084422 2:0.4439644 3:0.56771793 4:-1.3488398 5:-0.85051697 6:0.514764 7:1.122797 8:-0.0017124429 9:0.43388675 10:0 11:-0.9244068 12:-0.47469378 
2.991369349734783 1:2.0765737 2:0.75209775 3:-2.1898077 4:-0.32454469 5:0.75953649 6:-1.0093484 7:0.19759473 8:-0.12328374 9:0.43388675 10:0 11:1.0817748 12:-0.47469378 
0.4528794742926001 1:0.062141579 2:-0.10426717 3:0.39730718 4:-1.5632271 5:0.70521819 6:0.5702631 7:1.0595908 8:-0.15133866 9:0.77846456 10:0 11:1.0817748 12:-0.47469378 
1.093057346829184 1:1.7092623 2:1.527586 3:0.35247055 4:1.009421 5:-1.005342 6:0.063728146 7:0.10944769 8:0.15726541 9:-0.0091418603 10:0 11:-0.9244068 12:-0.47469378 
-1.255654776870078 1:0.17387817 2:0.66402722 3:-0.0007312789 4:-0.84860263 5:-1.0739977 6:0.11922725 7:1.5662655 8:0.031018291 9:-0.058367262 10:0 11:1.0817748 12:-0.47469378 
-8.5 1:0.2075551 2:1.7945002 3:-0.020081549 4:0.74739201 5:-1.0906758 6:0.25952447 7:-0.82361266 8:-1.9047708 9:2.058325 10:0 11:1.0817748 12:-0.47469378 
3.725906651135467 1:0.95347836 2:0.31887493 3:0.29435114 4:0.19951325 5:-1.1054878 6:-1.234162 7:-1.4645578 8:0.23207851 9:-1.3382277 10:0 11:-0.9244068 12:-0.47469378 
0.4209463701873818 1:0.70426709 2:0.34053034 3:-0.27895522 4:1.009421 5:-0.72572949 6:-1.910575 7:-0.45086684 8:1.513253 9:-0.0091418603 10:0 11:-0.9244068 12:-0.47469378 
1.115442336228717 1:1.4006977 2:3.0393452 3:0.5132374 4:-0.84860263 5:-0.063723078 6:1.1066605 7:-0.35827828 8:0.13388631 9:-0.058367262 10:0 11:1.0817748 12:-0.47469378 
-0.423895952224227 1:-0.2121772 2:2.4348043 3:-0.14615687 4:0.79503364 5:-1.11337 6:-1.9108567 7:-0.89570191 8:1.3168686 9:-1.0921007 10:0 11:1.0817748 12:-0.47469378 
4.364780176658126 1:0.86771904 2:0.57468014 3:0.18080417 4:-0.32454469 5:-0.97254997 6:0.90973731 7:1.1313384 8:0.0076391954 9:0.28621055 10:0 11:-0.9244068 12:-0.47469378 
0.2712019839618883 1:-0.23756793 2:-1.1030921 3:-0.446939 4:2.2004618 5:-1.0341885 6:-1.4612294 7:0.094073206 8:0.021666653 9:0.87691537 10:0 11:-0.9244068 12:-0.47469378 
