svm_type epsilon_svr
kernel_type rbf
gamma 0.4
nr_class 2
total_sv 1043
rho -0.021116
SV
0.6418051880866545 1:-0.027337293 2:-0.052440764 3:-0.64017288 4:-1.0868108 5:1.7290438 6:0.51448228 7:-0.89331032 8:2.5886914 9:-0.20604347 10:0 11:-0.9244068 12:-0.47469378 
-1.251776497183458 1:-1.0528782 2:-0.52365134 3:-0.13391487 4:-0.87242345 5:0.75544319 6:-0.27461917 7:-0.92747584 8:1.8592636 9:0.77846456 10:0 11:1.0817748 12:-0.47469378 
1.613038614124717 1:1.4698014 2:0.3491598 3:-0.013370922 4:-1.3488398 5:-1.1281724 6:0.11922725 7:0.17675376 8:0.0076391954 9:0.43388675 10:0 11:1.0817748 12:-0.47469378 
-3.487929755683815 1:-0.50600548 2:0.028460198 3:-0.023701402 4:-0.41982795 5:0.70887583 6:-0.27687295 7:-0.92576756 8:-1.8252819 9:0.77846456 10:0 11:1.0817748 12:-0.47469378 
-0.652013651061792 1:-0.54135751 2:-0.70165536 3:-0.19849303 4:5.916509 5:0.048330799 6:-0.61522027 7:-0.37809428 8:-0.12328374 9:1.073817 10:0 11:1.0817748 12:-0.47469378 
0.1062681092149405 1:-0.17920031 2:-0.28861467 3:-2.2888653 4:0.74739201 5:-0.23349847 6:-0.021915139 7:-0.86802784 8:0.86798992 9:1.1722678 10:0 11:-0.9244068 12:-0.47469378 
-0.5109175740658676 1:-1.5943494 2:-0.54550945 3:-0.0038716603 4:-0.41982795 5:0.78609465 6:-0.67100109 7:-0.94353363 8:-0.19342103 9:1.5168456 10:0 11:1.0817748 12:-0.47469378 
2.342137498444414 1:0.85009904 2:0.87711392 3:-0.11022923 4:0.19951325 5:-1.0743734 6:-0.78397134 7:-0.91859281 8:0.11050722 9:-1.3382277 10:0 11:-0.9244068 12:2.1066213 
-0.1588309528389439 1:-0.88592478 2:0.14841555 3:-2.3034807 4:0.19951325 5:0.67001713 6:-0.72509159 7:-0.38082752 8:1.5085771 9:-1.3382277 10:0 11:1.0817748 12:-0.47469378 
-0.03444394782227159 1:-0.41485635 2:-0.037860721 3:-2.2272877 4:-0.32454469 5:3.0193723 6:-0.21714802 7:-0.8622197 8:1.1952973 9:0.77846456 10:0 11:-0.9244068 12:-0.47469378 
0.2001003163744877 1:-0.27543468 2:-0.36560412 3:2.2308343 4:-1.3488398 5:1.7873373 6:1.3328828 7:1.0220087 8:1.6956099 9:0.40927405 10:0 11:1.0817748 12:-0.47469378 
0.8220009049541118 1:-2.8048801 2:-1.9522033 3:-0.29758261 4:0.17569244 5:-1.1121082 6:0.17500807 7:1.0489995 8:-0.13263538 9:0.48311215 10:0 11:1.0817748 12:-0.47469378 
6.544102045143291 1:-0.31952257 2:-0.0010482479 3:-0.66386552 4:0.19951325 5:0.67001713 6:0.514764 7:1.122797 8:-0.0017124429 9:-1.3382277 10:0 11:1.0817748 12:-0.47469378 
-0.6858051760552233 1:0.37109037 2:-0.65114492 3:0.25740802 4:0.79503364 5:-1.1281724 6:-0.67071937 7:1.0527577 8:0.0029633763 9:0.040083541 10:0 11:-0.9244068 12:2.1066213 
-0.3381375222001944 1:-0.33296521 2:-0.14270879 3:1.7049 4:-1.5155855 5:2.8278199 6:2.1219842 7:1.0561742 8:2.4250377 9:0.77846456 10:0 11:-0.9244068 12:-0.47469378 
-0.5498423449919736 1:0.044081167 2:-0.26157683 3:2.417743 4:-1.5155855 5:3.2804545 6:1.3328828 7:1.0220087 8:1.6956099 9:0.77846456 10:0 11:-0.9244068 12:-0.47469378 
4.119033982679442 1:-1.4913779 2:-1.0767368 3:-0.75476015 4:-1.3488398 5:0.051435723 6:-0.22024696 7:0.10090631 8:-0.13263538 9:0.43388675 10:0 11:-0.9244068 12:-0.47469378 
4.317744145463577 1:0.39452835 2:0.36288565 3:0.23721029 4:1.009421 5:-1.1238569 6:0.514764 7:1.122797 8:-0.0017124429 9:-1.1905515 10:0 11:1.0817748 12:-0.47469378 
1.469995961284754 1:-0.87501576 2:-1.3947028 3:-0.42601589 4:0.74739201 5:-0.99391271 6:-0.61522027 7:-0.37809428 8:-0.14198702 9:0.53233756 10:0 11:-0.9244068 12:2.1066213 
-0.6187514398668673 1:-0.48778542 2:-0.40284207 3:-0.13777608 4:-0.32454469 5:-0.59762271 6:-0.30335475 7:-0.47546601 8:1.2514071 9:0.43388675 10:0 11:-0.9244068 12:-0.47469378 
-7.5 1:-0.080856627 2:-0.46284262 3:-0.018366806 4:1.009421 5:-0.68977402 6:-0.27574606 7:-0.30224683 8:-0.0017124429 9:-1.1905515 10:0 11:1.0817748 12:-0.47469378 
-0.9287777405452199 1:1.3915435 2:-0.93600201 3:-0.25382148 4:-1.3488398 5:-0.64338779 6:0.17500807 7:1.0489995 8:-0.13263538 9:-1.1905515 10:0 11:-0.9244068 12:-0.47469378 
-7.5 1:-0.46895052 2:-0.71598242 3:0.019716905 4:-1.5394063 5:0.54251463 6:0.17500807 7:-1.488132 8:0.10115558 9:0.77846456 10:0 11:1.0817748 12:-0.47469378 
-6.18463484103473 1:-0.028111926 2:0.058615486 3:-0.10197096 4:-1.1106316 5:0.37497128 6:-0.24813737 7:-0.43070918 8:-1.2174254 9:0.77846456 10:0 11:-0.9244068 12:-0.47469378 
0.3174515942525878 1:-0.16301284 2:-1.2222247 3:-0.20959984 4:0.19951325 5:-0.30504032 6:-0.67071937 7:1.0527577 8:0.0029633763 9:-1.3382277 10:0 11:-0.9244068 12:-0.47469378 
1.927997831068673 1:-0.34367393 2:-0.55826431 3:-0.025642294 4:0.74739201 5:-0.74426796 6:0.82409402 7:-1.4836905 8:0.20869942 9:2.058325 10:0 11:1.0817748 12:-0.47469378 
2.751208453878984 1:0.67361887 2:-0.87112908 3:-0.11933944 4:-0.84860263 5:0.66179282 6:0.514764 7:0.025400511 8:0.35364981 9:0.77846456 10:0 11:-0.9244068 12:2.1066213 
3.779661631926934 1:0.37343702 2:-0.17057421 3:-0.10029605 4:-0.32454469 5:-1.1281724 6:0.62745253 7:0.16206259 8:-0.085877187 9:-1.0921007 10:0 11:1.0817748 12:-0.47469378 
0.8427723787650575 1:-0.039819384 2:1.2794423 3:-1.1755486 4:-1.3488398 5:0.546097 6:0.90973731 7:1.1313384 8:0.0076391954 9:0.40927405 10:0 11:1.0817748 12:-0.47469378 
-6.399827285798359 1:-0.34787091 2:-0.32945622 3:-0.044076008 4:-0.32454469 5:-1.1281724 6:-0.27574606 7:-0.30224683 8:-0.0017124429 9:0.43388675 10:0 11:-0.9244068 12:2.1066213 
1.58062169101325 1:0.27063616 2:0.45924425 3:-1.9377007 4:1.009421 5:0.4740808 6:-0.72650019 7:0.54061655 8:0.16661705 9:-1.1905515 10:0 11:1.0817748 12:-0.47469378 
0.8697962702014911 1:-0.45051112 2:0.14600791 3:-0.14849175 4:-1.5155855 5:-1.1174345 6:-1.1214735 7:0.50610938 8:0.15258959 9:-0.40294507 10:0 11:-0.9244068 12:2.1066213 
0.3695963100973341 1:0.39332597 2:-0.049248021 3:0.077325907 4:-0.44364877 5:1.7960201 6:-0.24926425 7:-0.90731818 8:-2.961506 9:0.77846456 10:0 11:1.0817748 12:-0.47469378 
2.118784841009478 1:1.2003641 2:0.57910769 3:0.26351642 4:0.74739201 5:-1.0529699 6:0.90973731 7:1.1354383 8:-0.011064081 9:2.7474806 10:0 11:1.0817748 12:-0.47469378 
0.292896299220528 1:-1.3726172 2:-0.24241763 3:-1.3112862 4:1.009421 5:0.70663313 6:-1.0648475 7:-0.92337598 8:1.1485391 9:0.040083541 10:0 11:1.0817748 12:-0.47469378 
-7.5 1:0.86153561 2:0.85026461 3:0.34009429 4:-0.32454469 5:-1.087898 6:-0.21855663 7:0.10227293 8:-0.27290995 9:-0.35371967 10:0 11:1.0817748 12:-0.47469378 
0.789523660152292 1:-0.35405168 2:-0.36190482 3:-0.025054411 4:0.19951325 5:-0.70101686 6:0.17500807 7:-1.488132 8:0.10115558 9:-1.3382277 10:0 11:1.0817748 12:-0.47469378 
0.07443301071614418 1:0.049312472 2:-1.1584994 3:0.21012767 4:-0.84860263 5:0.89260607 6:0.68238819 7:-0.013889837 8:1.1625665 9:0.77846456 10:0 11:-0.9244068 12:-0.47469378 
-2.46662175118576 1:-1.6689739 2:-1.0107979 3:-0.21881943 4:1.009421 5:-1.0970636 6:0.17500807 7:1.0489995 8:-0.13263538 9:-1.185629 10:0 11:1.0817748 12:-0.47469378 
-7.5 1:-0.96713385 2:-0.63657256 3:0.18700455 4:-1.3488398 5:0.084157969 6:0.5702631 7:1.0595908 8:-0.15133866 9:0.40927405 10:0 11:-0.9244068 12:-0.47469378 
-2.499634115390766 1:-1.1606346 2:0.0019131832 3:2.9265334 4:-1.5632271 5:1.5999657 6:0.060910933 7:-0.055913426 8:-1.0350685 9:0.77846456 10:0 11:-0.9244068 12:-0.47469378 
-1.625123132486161 1:-0.23912862 2:-0.5056555 3:2.3558677 4:-0.41982795 5:2.0326173 6:-0.89722332 7:-1.2178828 8:-2.1806442 9:0.77846456 10:0 11:-0.9244068 12:-0.47469378 
2.046362541937623 1:0.89045233 2:1.6942851 3:0.32274275 4:0.19951325 5:-1.0458835 6:-0.33124516 7:0.096806448 8:0.16661705 9:-0.69829748 10:0 11:1.0817748 12:-0.47469378 
-0.410830182036578 1:-0.94851327 2:-0.88229614 3:0.9231859 4:-1.5632271 5:1.5999657 6:-1.4336207 7:-1.8683943 8:-3.9013456 9:0.77846456 10:0 11:-0.9244068 12:-0.47469378 
0.6339454870959276 1:1.1182225 2:0.13917826 3:0.20287223 4:0.79503364 5:0.94854575 6:0.59815351 7:0.13541349 8:-0.28693741 9:0.040083541 10:0 11:1.0817748 12:-0.47469378 
6.608049004097015 1:-0.020961731 2:-0.6440207 3:1.5902655 4:1.009421 5:1.2849827 6:0.93650084 7:1.0281585 8:-0.2588825 9:-1.185629 10:0 11:1.0817748 12:-0.47469378 
6.322153862840585 1:0.050419858 2:0.37844261 3:-1.4866823 4:1.009421 5:0.30073563 6:-0.64198379 7:-0.41055152 8:0.12453467 9:0.53233756 10:0 11:-0.9244068 12:-0.47469378 
0.1284421772096334 1:0.37168945 2:0.28545124 3:-0.23147616 4:-0.32454469 5:0.40431493 6:-1.0648475 7:-0.92337598 8:1.1485391 9:-0.50139587 10:0 11:-0.9244068 12:-0.47469378 
-7.5 1:-0.30470127 2:-0.73295533 3:1.3396997 4:1.009421 5:0.06150088 6:-0.67071937 7:1.0527577 8:0.0029633763 9:-1.4366785 10:0 11:1.0817748 12:-0.47469378 
4.04960525585869 1:0.31413365 2:0.066838463 3:-0.023701402 4:-0.41982795 5:-0.71575891 6:0.17500807 7:-1.488132 8:0.10115558 9:0.77846456 10:0 11:-0.9244068 12:-0.47469378 
7.5 1:0.4261988 2:-0.12698473 3:-0.13362707 4:1.009421 5:2.0103392 6:-0.30222787 7:-0.96095805 8:2.9954876 9:-1.6828055 10:0 11:1.0817748 12:-0.47469378 
-0.4227733555160558 1:-2.5071918 2:-1.4682298 3:2.1377405 4:-0.41982795 5:0.23234934 6:0.17500807 7:1.0489995 8:-0.13263538 9:0.77846456 10:0 11:1.0817748 12:-0.47469378 
5.482927327250424 1:-0.3500688 2:-0.320601 3:0.037088392 4:-0.44364877 5:-0.39883212 6:-0.67071937 7:-0.31488807 8:0.026342472 9:0.77846456 10:0 11:1.0817748 12:-0.47469378 
-0.04338309619866108 1:-0.13843206 2:-0.16335668 3:-2.5457319 4:0.79503364 5:1.7679981 6:0.85198444 7:0.19178659 8:0.56406167 9:0.040083541 10:0 11:-0.9244068 12:-0.47469378 
0.1010475608667805 1:0.79492163 2:0.16207717 3:-0.043423384 4:1.009421 5:1.3500396 6:0.26065136 7:-1.2011417 8:1.7376923 9:-0.0091418603 10:0 11:1.0817748 12:-0.47469378 
-0.0360960893228499 1:0.85317557 2:-0.2509816 3:0.39757239 4:1.009421 5:-0.32819802 6:-1.0662561 7:0.12858038 8:0.03569411 9:-0.0091418603 10:0 11:1.0817748 12:-0.47469378 
0.9582396978867637 1:-0.45023584 2:0.10254643 3:0.021723719 4:1.009421 5:0.75647334 6:-0.30222787 7:-0.96095805 8:2.9954876 9:-1.185629 10:0 11:1.0817748 12:-0.47469378 
-3.19159168510545 1:-0.88129832 2:-0.51645597 3:0.045622526 4:-0.94388589 5:-0.95698816 6:-0.67071937 7:-0.31488807 8:0.026342472 9:-0.20604347 10:0 11:1.0817748 12:-0.47469378 
5.945237057993709 1:-0.73639906 2:-0.30943298 3:-0.027444955 4:0.91413772 5:0.36690384 6:-0.24813737 7:-0.90595156 8:-1.1192332 9:1.1722678 10:0 11:-0.9244068 12:2.1066213 
-0.3216556249813239 1:1.0776158 2:-0.21755002 3:0.14760765 4:0.17569244 5:-1.0803141 6:-0.72593675 7:-1.479249 8:0.13856213 9:-1.3382277 10:0 11:1.0817748 12:-0.47469378 
1.816062493890615 1:-0.3721028 2:-1.4088589 3:0.32873583 4:-0.84860263 5:0.34728495 6:1.3328828 7:1.0220087 8:1.6956099 9:-0.058367262 10:0 11:1.0817748 12:-0.47469378 
-2.368654190233568 1:0.85317557 2:-0.2509816 3:0.39757239 4:1.009421 5:-0.32819802 6:-1.0662561 7:0.12858038 8:0.03569411 9:-1.6680379 10:0 11:1.0817748 12:-0.47469378 
-0.1054879800417387 1:-0.12070355 2:-0.42626866 3:-0.31606836 4:0.19951325 5:-0.30504032 6:-2.2782213 7:-0.89672687 8:0.16661705 9:-1.3382277 10:0 11:-0.9244068 12:-0.47469378 
0.8334087900741092 1:-1.1294985 2:-2.9092385 3:0.075447308 4:-0.41982795 5:-0.95588967 6:1.3593646 7:1.043533 8:-1.2828869 9:0.77846456 10:0 11:-0.9244068 12:2.1066213 
1.597043296859325 1:-0.39856511 2:-0.76585024 3:-0.025054411 4:0.19951325 5:-0.71533178 6:0.17500807 7:-1.488132 8:0.10115558 9:-1.3382277 10:0 11:-0.9244068 12:2.1066213 
-5.45858342074189 1:-0.2237839 2:0.27617542 3:-0.088525225 4:1.009421 5:0.90861106 6:-0.30335475 7:-0.95788315 8:1.1532149 9:-1.6828055 10:0 11:1.0817748 12:-0.47469378 
0.4680092113662265 1:1.2173255 2:-0.26341517 3:-0.79145233 4:-0.84860263 5:0.66179282 6:0.57195343 7:0.094756517 8:0.063749025 9:0.77846456 10:0 11:-0.9244068 12:2.1066213 
-0.3003821994770694 1:-0.64645633 2:0.011069946 3:-0.5406864 4:-0.32454469 5:3.0193723 6:1.4179626 7:1.1207471 8:-0.10458046 9:2.0090996 10:0 11:-0.9244068 12:-0.47469378 
-0.3248598226372646 1:0.12138925 2:-0.34653068 3:-0.063360887 4:-0.41982795 5:-0.89092915 6:-0.92483201 7:-2.8219539 8:-0.090553006 9:0.28621055 10:0 11:-0.9244068 12:-0.47469378 
-2.290500380742015 1:0.45048495 2:0.32483436 3:-1.7723273 4:1.009421 5:0.74374185 6:-1.0093484 7:0.19759473 8:-0.12328374 9:-1.6828055 10:0 11:1.0817748 12:-0.47469378 
-0.4781416048493201 1:1.4504473 2:0.71404957 3:-0.69464751 4:-1.3488398 5:0.5361045 6:0.514764 7:1.122797 8:-0.0017124429 9:0.43388675 10:0 11:-0.9244068 12:2.1066213 
3.76485977012859 1:0.0184883 2:-0.47368834 3:0.35113435 4:0.19951325 5:1.0779375 6:-0.67071937 7:-0.31488807 8:0.0076391954 9:-1.3382277 10:0 11:-0.9244068 12:-0.47469378 
7.5 1:-0.76054063 2:-0.22228673 3:-0.018366806 4:1.009421 5:-1.1238569 6:-0.67071937 7:-0.31488807 8:0.026342472 9:-1.185629 10:0 11:1.0817748 12:-0.47469378 
4.140411440927244 1:-0.56214904 2:-0.16606481 3:0.076848191 4:1.009421 5:0.97632637 6:-0.30335475 7:-0.47546601 8:1.2514071 9:-1.6828055 10:0 11:1.0817748 12:-0.47469378 
7.5 1:0.45048495 2:0.32483436 3:-1.7723273 4:1.009421 5:0.74374185 6:-1.0093484 7:0.19759473 8:-0.12328374 9:-1.6828055 10:0 11:1.0817748 12:-0.47469378 
6.768124436080613 1:-0.76177895 2:-2.7150315 3:-1.0300779 4:-1.5632271 5:-0.31931688 6:-0.61522027 7:-0.37809428 8:-0.12328374 9:-0.10759266 10:0 11:-0.9244068 12:-0.47469378 
1.119375470188398 1:-1.0375484 2:-0.059851623 3:0.96788479 4:-0.32454469 5:0.92422087 6:-1.939874 7:-1.8615612 8:-2.2507814 9:-0.40294507 10:0 11:-0.9244068 12:-0.47469378 
-7.5 1:-1.2485052 2:-1.3201642 3:-0.026910147 4:0.34243814 5:0.90500447 6:0.40010342 7:-0.35622835 8:0.71368788 9:-0.20604347 10:0 11:1.0817748 12:-0.47469378 
1.02449072267302 1:-1.3653 2:-0.96893274 3:0.18416831 4:-1.5155855 5:1.021964 6:1.3328828 7:1.0220087 8:1.6956099 9:0.77846456 10:0 11:-0.9244068 12:-0.47469378 
-0.3904359882666962 1:-1.0532452 2:-1.0143668 3:0.01199694 4:0.79503364 5:-1.094189 6:-0.67071937 7:-0.31488807 8:0.0076391954 9:-1.1905515 10:0 11:1.0817748 12:-0.47469378 
-1.951855182810456 1:-0.073249731 2:0.77157887 3:0.24784616 4:-1.0868108 5:0.28496928 6:0.48687359 7:-0.92679253 8:3.7249154 9:-0.20604347 10:0 11:-0.9244068 12:2.1066213 
0.8974005605755113 1:-0.29558752 2:-0.058664371 3:-0.54889969 4:0.17569244 5:1.9849653 6:0.51448228 7:-0.89331032 8:2.5886914 9:0.48311215 10:0 11:-0.9244068 12:-0.47469378 
1.032696554746866 1:-0.84467378 2:-1.2003925 3:1.79072 4:-0.41982795 5:-0.0068731312 6:0.93650084 7:1.0281585 8:-0.2588825 9:-1.4366785 10:0 11:-0.9244068 12:2.1066213 
-1.046393253132978 1:-0.24849272 2:0.14390676 3:0.035787824 4:-0.41982795 5:2.4650581 6:-0.92483201 7:-2.8219539 8:-0.090553006 9:0.28621055 10:0 11:-0.9244068 12:-0.47469378 
-1.354172599965787 1:0.69388977 2:0.93090677 3:-0.097931971 4:0.74739201 5:-1.0370537 6:0.11922725 7:0.1726539 8:0.026342472 9:2.7474806 10:0 11:1.0817748 12:-0.47469378 
-6.532550176303045 1:-0.5724587 2:-0.25309502 3:0.12400151 4:0.19951325 5:0.67001713 6:-0.67071937 7:-0.31488807 8:0.026342472 9:-1.3382277 10:0 11:1.0817748 12:-0.47469378 
-7.5 1:-0.17920031 2:-0.28861467 3:-2.2888653 4:0.74739201 5:-0.23349847 6:-0.021915139 7:-0.86802784 8:0.86798992 9:1.1722678 10:0 11:-0.9244068 12:-0.47469378 
0.4386579287547436 1:0.01350382 2:-0.1102612 3:3.0171874 4:-0.84860263 5:-0.71893304 6:-0.89722332 7:-1.2178828 8:-2.1806442 9:-0.058367262 10:0 11:1.0817748 12:-0.47469378 
-0.8931298843628129 1:-0.13678564 2:-0.10675806 3:-0.088085891 4:3.6535315 5:-0.45688384 6:-0.72593675 7:-1.479249 8:0.13856213 9:1.2707186 10:0 11:-0.9244068 12:2.1066213 
0.4517287160494566 1:-0.56577999 2:-0.65706669 3:1.7049 4:-1.5155855 5:2.319128 6:2.1219842 7:1.0561742 8:2.4250377 9:0.77846456 10:0 11:-0.9244068 12:-0.47469378 
0.2458695526302819 1:0.42735847 2:1.0801875 3:0.31993936 4:0.17569244 5:-1.125093 6:0.57195343 7:0.094756517 8:0.063749025 9:2.0090996 10:0 11:1.0817748 12:-0.47469378 
-7.5 1:0.093027581 2:-0.56701736 3:-0.013909963 4:-0.84860263 5:0.66179282 6:0.62745253 7:0.16206259 8:-0.085877187 9:0.77846456 10:0 11:-0.9244068 12:2.1066213 
6.342190963946646 1:0.0096884036 2:0.58672611 3:-0.081556038 4:-0.32454469 5:-0.3567304 6:-0.64198379 7:-0.41055152 8:0.12453467 9:0.43388675 10:0 11:-0.9244068 12:-0.47469378 
1.205282915574029 1:1.1475536 2:0.66515016 3:-2.6881118 4:-0.75331937 5:0.10500095 6:-0.72650019 7:0.54061655 8:0.16661705 9:0.77846456 10:0 11:1.0817748 12:-0.47469378 
0.4213769763769014 1:-1.8358591 2:-0.38808859 3:-0.098547856 4:1.009421 5:-1.1011239 6:0.68266991 7:-0.31044655 8:-0.19809685 9:-1.6828055 10:0 11:1.0817748 12:-0.47469378 
-0.5955690752475423 1:0.52033133 2:0.8231071 3:-1.8163179 4:0.91413772 5:-0.24930912 6:-1.487993 7:-1.776489 8:-2.4004077 9:1.1722678 10:0 11:1.0817748 12:-0.47469378 
1.238424856296104 1:0.10122416 2:0.39153869 3:-0.33019838 4:-0.84860263 5:0.9609635 6:-1.1217552 7:0.061274307 8:0.18532032 9:0.77846456 10:0 11:-0.9244068 12:-0.47469378 
-1.478594367003124 1:-0.64645633 2:0.011069946 3:-0.5406864 4:-0.32454469 5:3.0193723 6:1.4179626 7:1.1207471 8:-0.10458046 9:0.77846456 10:0 11:-0.9244068 12:-0.47469378 
-2.082010480077754 1:-0.095285203 2:-0.16128542 3:1.3589831 4:0.74739201 5:1.6714638 6:1.3328828 7:1.0220087 8:1.6956099 9:-0.59984668 10:0 11:1.0817748 12:-0.47469378 
-5.577589406635664 1:0.14083654 2:-0.059168072 3:0.076848191 4:1.009421 5:0.56838499 6:-0.30335475 7:-0.47546601 8:1.2514071 9:-0.0091418603 10:0 11:1.0817748 12:-0.47469378 
7.5 1:-0.36379041 2:1.1637335 3:0.64786812 4:-1.3488398 5:-0.68584162 6:-0.33124516 7:0.096806448 8:0.16661705 9:0.43388675 10:0 11:-0.9244068 12:-0.47469378 
7.5 1:-0.14215479 2:-2.5775082 3:-1.1052035 4:-1.5632271 5:-0.31931688 6:-0.22024696 7:0.10090631 8:-0.13263538 9:-0.10759266 10:0 11:-0.9244068 12:-0.47469378 
-0.5159206986143747 1:-0.12065298 2:0.2089065 3:-0.50581676 4:0.17569244 5:2.0963394 6:0.51335539 7:-0.89467694 8:0.74641862 9:0.48311215 10:0 11:-0.9244068 12:-0.47469378 
0.1376497776949244 1:-1.1773984 2:-0.31069154 3:-0.097074653 4:0.79503364 5:-0.034109008 6:-0.67100109 7:-0.94353363 8:-0.19342103 9:-1.1905515 10:0 11:1.0817748 12:-0.47469378 
0.658743347311203 1:-0.74920862 2:0.34476513 3:-0.091644445 4:-0.800961 5:-0.64178128 6:-0.72650019 7:-2.0194059 8:-0.067173911 9:0.77846456 10:0 11:1.0817748 12:-0.47469378 
1.130177456441708 1:-0.49088366 2:-0.15724623 3:-0.26886066 4:0.17569244 5:0.96575679 6:-0.24813737 7:-0.43070918 8:-1.2174254 9:0.48311215 10:0 11:1.0817748 12:-0.47469378 
3.137381260441853 1:-0.81230095 2:-0.60477474 3:-0.1335962 4:-1.3488398 5:0.051435723 6:0.5702631 7:1.0595908 8:-0.15133866 9:0.43388675 10:0 11:-0.9244068 12:-0.47469378 
-0.622985211429953 1:2.2824331 2:1.3752201 3:0.13819732 4:0.19951325 5:-1.1281724 6:-0.72650019 7:0.54061655 8:0.16661705 9:-1.3382277 10:0 11:1.0817748 12:-0.47469378 
0.997781629597513 1:-0.058277268 2:-0.019438434 3:-0.17865524 4:-1.5632271 5:-0.31931688 6:0.96523641 7:1.5385914 8:-0.1373112 9:-0.10759266 10:0 11:-0.9244068 12:-0.47469378 
-1.135259284619891 1:-0.10964401 2:0.14471452 3:1.5202447 4:0.74739201 5:1.188601 6:0.96410953 7:1.0394331 8:-1.4932987 9:-0.69829748 10:0 11:1.0817748 12:-0.47469378 
3.537137824595945 1:0.098491969 2:-0.045194267 3:-0.11933944 4:-0.84860263 5:-1.0937154 6:-0.27574606 7:-0.30224683 8:-0.0017124429 9:0.77846456 10:0 11:-0.9244068 12:2.1066213 
7.5 1:-0.22673762 2:0.011568121 3:-0.43931732 4:1.009421 5:0.011124701 6:-1.8274672 7:-1.8482366 8:-2.5593855 9:-1.1905515 10:0 11:-0.9244068 12:-0.47469378 
-0.04783682546343228 1:1.5345957 2:0.53111398 3:-0.29389658 4:-1.3488398 5:0.90790522 6:0.14711766 7:-0.42660932 8:-1.0070136 9:0.40927405 10:0 11:1.0817748 12:-0.47469378 
-0.4031446048156311 1:0.20004881 2:-1.3103716 3:-0.037085277 4:0.79503364 5:1.4660996 6:1.2187856 7:-0.039172322 8:2.883268 9:0.040083541 10:0 11:-0.9244068 12:-0.47469378 
7.5 1:0.24126305 2:0.54165859 3:-0.088525225 4:1.009421 5:-1.121174 6:-0.27574606 7:-0.30634669 8:0.03569411 9:-1.6828055 10:0 11:1.0817748 12:-0.47469378 
1.933441513936654 1:0.013334251 2:-0.19534358 3:-0.40924943 4:1.009421 5:0.011124701 6:-0.33293549 7:-0.03575577 8:0.30689162 9:-1.4366785 10:0 11:-0.9244068 12:-0.47469378 
1.143263262647399 1:-1.6502396 2:0.13256712 3:-0.70281931 4:-0.800961 5:0.46309261 6:-0.33124516 7:0.096806448 8:0.16661705 9:0.77846456 10:0 11:1.0817748 12:-0.47469378 
1.260886078990285 1:0.10122416 2:0.56463052 3:0.038804774 4:-0.84860263 5:-0.9406044 6:-1.1789447 7:-0.93123405 8:0.11985885 9:0.77846456 10:0 11:-0.9244068 12:2.1066213 
0.4671103058945163 1:0.64854835 2:0.37717748 3:-1.9377007 4:1.009421 5:-0.32819802 6:-0.72650019 7:0.54061655 8:0.16661705 9:0.13853434 10:0 11:1.0817748 12:-0.47469378 
7.5 1:-1.3836717 2:-0.90836462 3:-0.0070082451 4:0.34243814 5:-1.0642396 6:-0.67071937 7:-0.31488807 8:0.0076391954 9:-0.20604347 10:0 11:1.0817748 12:-0.47469378 
1.777019561673365 1:-0.32909087 2:-0.076887802 3:-1.0045648 4:0.19951325 5:2.1026224 6:1.5855868 7:1.0814567 8:0.70433625 9:-1.3382277 10:0 11:-0.9244068 12:-0.47469378 
2.059986006150547 1:0.84843498 2:0.51641701 3:0.32274275 4:0.19951325 5:-1.0999795 6:-0.33124516 7:0.096806448 8:0.16661705 9:-1.3382277 10:0 11:1.0817748 12:-0.47469378 
-6.598925476858796 1:-0.080856627 2:-0.46284262 3:-0.018366806 4:1.009421 5:-0.68977402 6:-0.27574606 7:-0.30224683 8:-0.0017124429 9:-1.6828055 10:0 11:1.0817748 12:-0.47469378 
7.5 1:-0.06879424 2:0.019124943 3:-0.097074653 4:0.79503364 5:0.099991701 6:-0.67100109 7:-0.94353363 8:-0.19342103 9:-1.1905515 10:0 11:-0.9244068 12:2.1066213 
-5.682094673413101 1:0.37833987 2:0.22730864 3:-0.23089354 4:0.19951325 5:-0.80985898 6:0.11922725 7:0.17675376 8:0.0076391954 9:-1.3382277 10:0 11:-0.9244068 12:-0.47469378 
-0.5795934811053778 1:-1.6030299 2:-0.70009276 3:-0.7936766 4:-0.32454469 5:1.0709724 6:-1.8274672 7:-1.8482366 8:-2.5593855 9:0.43388675 10:0 11:1.0817748 12:-0.47469378 
0.18600259177304 1:-0.70617051 2:-0.00463831 3:-1.7587874 4:-0.32454469 5:0.75953649 6:-1.883248 7:-0.8622197 8:0.1806445 9:0.43388675 10:0 11:1.0817748 12:-0.47469378 
1.295312356806068 1:1.8242235 2:0.37573859 3:0.51742336 4:-1.0868108 5:-1.1281724 6:0.88100173 7:0.47843531 8:0.0029633763 9:-0.82136098 10:0 11:-0.9244068 12:2.1066213 
0.4172574290717427 1:0.98594862 2:-0.71852064 3:1.7499332 4:-1.3488398 5:1.3226215 6:2.1219842 7:1.0561742 8:2.4250377 9:0.40927405 10:0 11:-0.9244068 12:-0.47469378 
-7.5 1:0.45048495 2:0.32483436 3:-1.7723273 4:1.009421 5:0.74374185 6:-1.0093484 7:0.19759473 8:-0.12328374 9:-1.6828055 10:0 11:1.0817748 12:-0.47469378 
4.870607990671808 1:0.43325491 2:-0.59405492 3:-0.2739439 4:1.009421 5:-1.1220955 6:-1.4612294 7:-0.35042021 8:0.026342472 9:-1.6828055 10:0 11:1.0817748 12:-0.47469378 
-4.025150838282702 1:-0.28480216 2:-0.53350051 3:0.033811259 4:0.79503364 5:0.099991701 6:-0.24813737 7:-0.43070918 8:-1.2174254 9:1.7629726 10:0 11:-0.9244068 12:2.1066213 
-2.252128761204207 1:-1.059721 2:-0.25637748 3:1.786022 4:-1.0868108 5:0.0098811059 6:0.51335539 7:0.017542442 8:-1.1145574 9:-1.1905515 10:0 11:-0.9244068 12:-0.47469378 
0.5771527810151225 1:0.028266951 2:-0.099930359 3:1.3797903 4:1.009421 5:0.90861106 6:1.3317559 7:1.0250836 8:-0.14666284 9:-1.185629 10:0 11:1.0817748 12:-0.47469378 
7.5 1:0.20673519 2:0.082705858 3:-0.013370922 4:-1.3488398 5:-0.28808378 6:0.11922725 7:0.17675376 8:0.0076391954 9:0.43388675 10:0 11:-0.9244068 12:2.1066213 
-5.52674647778959 1:-0.9324001 2:-0.70868893 3:2.6260313 4:-1.5632271 5:0.59445823 6:0.96410953 7:1.0394331 8:-1.4932987 9:0.77846456 10:0 11:1.0817748 12:-0.47469378 
-3.767470922468848 1:-0.38935637 2:0.077090856 3:-0.18374022 4:1.009421 5:-0.10800889 6:-0.24813737 7:-0.43070918 8:-1.2174254 9:-0.0091418603 10:0 11:-0.9244068 12:2.1066213 
-1.267410728715863 1:-1.4674406 2:-0.83459509 3:3.4352002 4:-1.0868108 5:0.0098811059 6:-1.8843749 7:-2.890285 8:-1.2314529 9:-1.1905515 10:0 11:-0.9244068 12:-0.47469378 
-6.470887923017425 1:-0.23920889 2:-0.29318976 3:0.32741397 4:1.009421 5:-0.055824134 6:-1.0648475 7:-0.45462504 8:1.3776542 9:0.13853434 10:0 11:-0.9244068 12:-0.47469378 
1.457031772526855 1:-1.081063 2:-1.9019748 3:0.039264839 4:0.79503364 5:-0.69130291 6:1.3593646 7:1.043533 8:-1.2828869 9:-1.1905515 10:0 11:1.0817748 12:-0.47469378 
2.351933461423439 1:-0.26352378 2:-0.34195431 3:-0.25112628 4:-0.84860263 5:3.0105943 6:0.17500807 7:-1.488132 8:0.10115558 9:0.77846456 10:0 11:-0.9244068 12:-0.47469378 
-3.929271434485538 1:0.61720608 2:0.5515155 3:-0.043423384 4:1.009421 5:-1.0844513 6:-1.234162 7:-1.4686577 8:0.25078179 9:-1.185629 10:0 11:1.0817748 12:-0.47469378 
3.315628566859552 1:-0.21114854 2:-0.96995216 3:0.0016784562 4:1.009421 5:-1.0730414 6:0.23247922 7:-0.316938 8:-0.095228825 9:-1.185629 10:0 11:1.0817748 12:-0.47469378 
-1.103945980192239 1:-0.46351592 2:-0.12290273 3:-0.5417192 4:0.17569244 5:-1.0670871 6:0.11922725 7:0.17675376 8:0.0076391954 9:0.48311215 10:0 11:-0.9244068 12:-0.47469378 
7.5 1:-0.96562674 2:-0.45527429 3:-0.023701402 4:-0.41982795 5:-0.95176586 6:0.17500807 7:-1.488132 8:0.10115558 9:0.77846456 10:0 11:-0.9244068 12:-0.47469378 
1.664141495961297 1:0.89324173 2:0.1382539 3:-0.093521109 4:-1.3488398 5:-0.64338779 6:0.56998138 7:1.5280001 8:-0.11860792 9:0.40927405 10:0 11:-0.9244068 12:-0.47469378 
-7.5 1:-0.14583698 2:-0.33893342 3:0.98284755 4:0.19951325 5:2.0143918 6:2.1219842 7:1.0561742 8:2.4250377 9:-1.3382277 10:0 11:-0.9244068 12:-0.47469378 
-1.361702263080541 1:-0.23175208 2:0.32365698 3:-1.4704908 4:-1.3011981 5:2.3480831 6:1.8681533 7:1.1272385 8:-0.22615176 9:0.77846456 10:0 11:-0.9244068 12:-0.47469378 
6.462635632918042 1:-0.27386324 2:-3.0138285 3:3.3120483 4:-1.5394063 5:1.1644807 6:-0.81101659 7:-1.5779873 8:1.9387525 9:0.77846456 10:0 11:-0.9244068 12:-0.47469378 
-7.5 1:-0.7302241 2:-1.6035735 3:-0.80470133 4:-1.5632271 5:-0.1751259 6:-1.5736362 7:-1.5404053 8:0.09180394 9:-0.10759266 10:0 11:-0.9244068 12:-0.47469378 
0.8136501867597349 1:-0.27188062 2:-0.10248555 3:0.29911245 4:-1.444123 5:2.3130371 6:0.71140549 7:-0.83762052 8:0.021666653 9:0.77846456 10:0 11:-0.9244068 12:-0.47469378 
-0.8112366524179602 1:-0.56372683 2:-0.29943065 3:0.35557246 4:0.79503364 5:1.2839403 6:-1.0648475 7:-1.8858187 8:-0.71243695 9:0.040083541 10:0 11:-0.9244068 12:2.1066213 
7.5 1:-0.34367393 2:-0.55826431 3:-0.025642294 4:0.74739201 5:-0.74426796 6:0.82409402 7:-1.4836905 8:0.20869942 9:1.1722678 10:0 11:1.0817748 12:-0.47469378 
0.2315963071498131 1:0.46255686 2:0.53995511 3:-2.4651452 4:-0.84860263 5:0.86431761 6:-0.078822848 7:-1.7959634 8:-2.5500339 9:0.77846456 10:0 11:-0.9244068 12:2.1066213 
1.527981946739734 1:-0.071478208 2:-0.10020904 3:-0.60331653 4:-0.87242345 5:0.75544319 6:0.12063586 7:-0.4481336 8:1.9714832 9:0.77846456 10:0 11:1.0817748 12:-0.47469378 
-1.09279607886713 1:-1.1676902 2:-1.0447103 3:-0.15161045 4:0.79503364 5:-0.034109008 6:-0.6433924 7:-0.91005143 8:-1.3296451 9:-1.1905515 10:0 11:1.0817748 12:-0.47469378 
0.7991866375900126 1:0.16922056 2:0.23066535 3:-2.5083879 4:-0.32454469 5:1.0573773 6:-0.023042024 7:-0.86939446 8:-0.97428282 9:0.43388675 10:0 11:-0.9244068 12:-0.47469378 
0.2534080299422996 1:-0.92720428 2:-0.13599825 3:-0.30386446 4:-1.5632271 5:1.5999657 6:-0.24813737 7:-0.43070918 8:-1.2174254 9:0.77846456 10:0 11:-0.9244068 12:-0.47469378 
-2.657348049567664 1:-0.14204478 2:0.5383282 3:0.25953431 4:-0.77714019 5:-0.43468116 6:0.62745253 7:1.1282635 8:-0.44123944 9:0.97536617 10:0 11:-0.9244068 12:-0.47469378 
-0.0777556528154859 1:0.19164747 2:-0.22680078 3:-0.17887835 4:0.79503364 5:1.2101156 6:-0.24926425 7:-0.90731818 8:-2.961506 9:0.040083541 10:0 11:1.0817748 12:-0.47469378 
1.944745994097291 1:-0.3896972 2:0.044760883 3:-0.1565161 4:-0.32454469 5:-1.1281724 6:0.11922725 7:0.17675376 8:0.0076391954 9:-0.50139587 10:0 11:-0.9244068 12:2.1066213 
-7.5 1:0.15049283 2:0.59459111 3:-0.086810482 4:0.74739201 5:-1.0847028 6:-0.78397134 7:-0.91859281 8:0.11050722 9:2.7474806 10:0 11:1.0817748 12:-0.47469378 
-0.01741634138385317 1:0.088655428 2:0.083731652 3:-0.50581676 4:0.17569244 5:1.352288 6:0.51335539 7:-0.89467694 8:0.74641862 9:0.48311215 10:0 11:-0.9244068 12:-0.47469378 
-0.5735839082716488 1:0.48199242 2:0.54176302 3:-0.23147616 4:-0.32454469 5:-0.3567304 6:-1.0648475 7:-0.92337598 8:1.1485391 9:0.43388675 10:0 11:-0.9244068 12:-0.47469378 
-2.241581302390131 1:2.0689989 2:-0.56852893 3:3.3120483 4:-1.5394063 5:2.1863926 6:-0.81101659 7:-1.5779873 8:1.9387525 9:0.77846456 10:0 11:-0.9244068 12:-0.47469378 
-7.5 1:-0.25102377 2:0.3097918 3:0.30235739 4:1.009421 5:-1.0369649 6:-0.21855663 7:0.10227293 8:-0.27290995 9:0.28621055 10:0 11:-0.9244068 12:-0.47469378 
0.09409809405516949 1:0.020842396 2:0.18052817 3:0.31986784 4:2.2004618 5:0.058735059 6:2.5169575 7:1.5351748 8:2.4390651 9:0.97536617 10:0 11:-0.9244068 12:-0.47469378 
0.8197371225480506 1:0.20673519 2:0.082705858 3:-0.013370922 4:-1.3488398 5:-0.28808378 6:0.11922725 7:0.17675376 8:0.0076391954 9:-0.94442449 10:0 11:-0.9244068 12:2.1066213 
0.3105766276425052 1:-1.2085759 2:-1.4246369 3:0.041599717 4:-1.5155855 5:-0.034901495 6:0.96410953 7:1.0394331 8:-1.4932987 9:0.77846456 10:0 11:1.0817748 12:-0.47469378 
-0.2747262953829394 1:-0.7955256 2:-1.03485 3:-0.20097225 4:-0.87242345 5:-0.52122296 6:0.17500807 7:1.0489995 8:-0.13263538 9:0.77846456 10:0 11:-0.9244068 12:-0.47469378 
5.19252345382114 1:-0.96562674 2:-0.45527429 3:-0.023701402 4:-0.41982795 5:-0.95176586 6:0.17500807 7:-1.488132 8:0.10115558 9:0.77846456 10:0 11:-0.9244068 12:-0.47469378 
1.133562436730533 1:-1.138357 2:-0.64016306 3:3.6777887 4:-1.5632271 5:1.5999657 6:-2.2796299 7:-2.8943848 8:-1.4418647 9:0.77846456 10:0 11:-0.9244068 12:-0.47469378 
0.02612124417353651 1:0.27506674 2:0.49868579 3:-0.10857049 4:1.009421 5:-1.0050431 6:-0.78397134 7:-0.92269267 8:0.12921049 9:-1.185629 10:0 11:-0.9244068 12:-0.47469378 
-5.494442173027408 1:-1.3512848 2:-0.59729421 3:-0.21881943 4:1.009421 5:0.29032682 6:0.17500807 7:1.0489995 8:-0.13263538 9:-1.1905515 10:0 11:1.0817748 12:-0.47469378 
0.634648600261733 1:-0.7955256 2:-1.03485 3:-0.20097225 4:-0.87242345 5:-0.52122296 6:0.17500807 7:1.0489995 8:-0.13263538 9:0.77846456 10:0 11:-0.9244068 12:-0.47469378 
0.6284844528671983 1:-1.4842136 2:0.78565371 3:-0.95296672 4:-0.32454469 5:0.32086611 6:-0.33124516 7:0.096806448 8:0.16661705 9:0.43388675 10:0 11:-0.9244068 12:-0.47469378 
-7.5 1:-0.57488707 2:-1.5049703 3:-0.24493856 4:-1.3011981 5:0.49933862 6:-1.0383657 7:-1.8642944 8:-3.6909337 9:0.77846456 10:0 11:-0.9244068 12:2.1066213 
-6.059711039224127 1:-0.63662717 2:-0.96405792 3:3.0767845 4:-1.5632271 5:1.5999657 6:-0.72959913 7:-1.0145979 8:-1.3717274 9:0.77846456 10:0 11:-0.9244068 12:-0.47469378 
7.5 1:1.226098 2:0.55266678 3:0.29688088 4:0.74739201 5:-1.1281724 6:1.4179626 7:1.1207471 8:-0.10458046 9:1.1722678 10:0 11:1.0817748 12:-0.47469378 
2.58716163073552 1:0.36835555 2:0.91317763 3:0.23756793 4:0.19951325 5:-0.52726334 6:0.514764 7:1.122797 8:-0.0017124429 9:-1.3382277 10:0 11:1.0817748 12:-0.47469378 
-0.2819587142599423 1:-0.14994088 2:0.11861778 3:-0.038412069 4:1.009421 5:0.011124701 6:0.11950897 7:0.51294248 8:-0.0017124429 9:-1.6828055 10:0 11:-0.9244068 12:-0.47469378 
1.058062467477651 1:0.38458007 2:0.25087878 3:0.28725324 4:0.19951325 5:0.77166585 6:-1.6291353 7:-1.4771991 8:0.24143015 9:-1.3382277 10:0 11:-0.9244068 12:2.1066213 
-0.5315134944962072 1:0.24070059 2:0.56064815 3:-0.015965986 4:-0.32454469 5:0.40431493 6:0.96523641 7:1.5385914 8:-0.1373112 9:0.43388675 10:0 11:-0.9244068 12:-0.47469378 
0.8604042350158735 1:-0.32666039 2:-0.081167354 3:-0.086810482 4:0.74739201 5:0.64341541 6:-1.0648475 7:-1.8858187 8:-0.71243695 9:0.53233756 10:0 11:1.0817748 12:-0.47469378 
0.3820701026837829 1:-1.4780784 2:-1.8023355 3:-0.15887549 4:-0.84860263 5:-0.05599271 6:-0.3608259 7:-1.0320223 8:1.8171812 9:-0.058367262 10:0 11:1.0817748 12:-0.47469378 
2.339809166081702 1:-0.092795278 2:-0.37206333 3:0.28725324 4:0.19951325 5:1.0779375 6:-1.6291353 7:-1.4771991 8:0.24143015 9:-1.3382277 10:0 11:-0.9244068 12:-0.47469378 
0.354328873128076 1:0.48231615 2:2.0871461 3:0.10685436 4:-1.3488398 5:-1.1281724 6:0.11922725 7:1.5662655 8:0.031018291 9:0.40927405 10:0 11:1.0817748 12:-0.47469378 
0.9278778699994618 1:-1.9623888 2:-0.64750535 3:0.0025072651 4:-1.6585104 5:-1.1281724 6:-0.67071937 7:-0.31488807 8:0.026342472 9:1.0245916 10:0 11:1.0817748 12:-0.47469378 
-3.763749136420372 1:-0.24335553 2:0.33760798 3:0.0065433606 4:0.79503364 5:-0.72814634 6:-0.67100109 7:-0.94353363 8:-0.19342103 9:-1.1905515 10:0 11:-0.9244068 12:2.1066213 
-0.3255430695100358 1:-1.1676902 2:-1.0447103 3:-0.15161045 4:0.79503364 5:-0.034109008 6:-0.6433924 7:-0.91005143 8:-1.3296451 9:0.040083541 10:0 11:1.0817748 12:-0.47469378 
-3.308732380642213 1:0.11306487 2:0.66963648 3:-0.097515824 4:-1.444123 5:2.3130371 6:0.45757457 7:-1.1454519 8:-0.82933243 9:0.77846456 10:0 11:-0.9244068 12:-0.47469378 
-0.1949454385845467 1:0.74072323 2:0.018429434 3:0.9866248 4:-0.32454469 5:0.75953649 6:-2.8703995 7:-2.0593795 8:0.17596868 9:0.43388675 10:0 11:1.0817748 12:-0.47469378 
0.3777018080072475 1:-1.5399948 2:0.12213513 3:-0.31904574 4:1.009421 5:0.29032682 6:-1.4601025 7:-0.93396729 8:1.1672423 9:0.63078836 10:0 11:1.0817748 12:-0.47469378 
-7.5 1:0.22956776 2:4.4748212 3:0.5225164 4:-1.5632271 5:-0.23116531 6:-0.30250959 7:-0.33470407 8:0.26480925 9:-0.10759266 10:0 11:-0.9244068 12:-0.47469378 
-0.4418312408065047 1:0.16758232 2:0.86106749 3:0.03088405 4:-0.32454469 5:0.72264771 6:1.3590828 7:1.5184337 8:-1.4792713 9:0.43388675 10:0 11:1.0817748 12:-0.47469378 
0.07350629769984396 1:1.1545617 2:-0.60710382 3:-0.10302037 4:-0.41982795 5:0.095779571 6:-1.4612294 7:-0.35042021 8:0.045045748 9:-1.4366785 10:0 11:1.0817748 12:-0.47469378 
-0.8173151443201103 1:-0.79356139 2:-0.084523418 3:-0.023701402 4:-0.41982795 5:-0.49685158 6:0.17500807 7:-1.488132 8:0.10115558 9:0.77846456 10:0 11:-0.9244068 12:2.1066213 
4.233598940306254 1:-0.085783627 2:-0.44309411 3:-0.069806755 4:0.79503364 5:-1.0876884 6:-0.67100109 7:0.023008925 8:0.03569411 9:-1.1905515 10:0 11:-0.9244068 12:2.1066213 
-7.5 1:-0.44062216 2:-2.181019 3:-1.0300779 4:-1.5632271 5:-0.1751259 6:-0.22024696 7:0.10090631 8:-0.13263538 9:-0.10759266 10:0 11:-0.9244068 12:-0.47469378 
-4.019098748006594 1:0.50037001 2:-0.28457017 3:-0.20378548 4:1.009421 5:0.011124701 6:0.5702631 7:1.0595908 8:-0.15133866 9:-1.6828055 10:0 11:-0.9244068 12:-0.47469378 
-0.6241374185797838 1:-0.047226963 2:1.0176496 3:-0.0049501903 4:3.6535315 5:0.33210414 6:0.71027861 7:-0.83898714 8:-1.8206061 9:1.2707186 10:0 11:-0.9244068 12:2.1066213 
-7.5 1:-0.020961731 2:-0.6440207 3:1.5902655 4:1.009421 5:1.2849827 6:0.93650084 7:1.0281585 8:-0.2588825 9:-1.1905515 10:0 11:1.0817748 12:-0.47469378 
-2.12909019680282 1:0.17467242 2:-1.1281852 3:0.12939913 4:0.056588358 5:0.33235189 6:1.5855868 7:1.0814567 8:0.70433625 9:-2.0766087 10:0 11:-0.9244068 12:-0.47469378 
-0.4096199433550896 1:1.0691142 2:1.0107068 3:-0.15259473 4:-0.41982795 5:0.095779571 6:-2.1370789 7:-1.170051 8:-0.67035458 9:0.77846456 10:0 11:1.0817748 12:-0.47469378 
2.109838832299288 1:-0.7649086 2:-0.95646142 3:-0.13251812 4:-0.84860263 5:-0.20513182 6:0.5702631 7:1.0595908 8:-0.15133866 9:-0.058367262 10:0 11:-0.9244068 12:-0.47469378 
4.232365306839635 1:0.17693757 2:0.63167762 3:-0.023378122 4:1.009421 5:0.1626012 6:-0.30335475 7:-0.95788315 8:1.1532149 9:0.040083541 10:0 11:1.0817748 12:-0.47469378 
-0.1905372052576785 1:-0.37251583 2:-0.25908909 3:0.36230974 4:-0.87242345 5:0.75544319 6:-1.0648475 7:-1.8858187 8:-0.71243695 9:0.77846456 10:0 11:1.0817748 12:-0.47469378 
-7.099329086413348 1:-1.0023143 2:-0.37205043 3:-0.053446016 4:0.74739201 5:-1.0847028 6:-0.27574606 7:-0.30224683 8:-0.0017124429 9:-0.59984668 10:0 11:1.0817748 12:-0.47469378 
-3.135880195152022 1:0.19515218 2:-0.43393921 3:-0.50947574 4:1.009421 5:0.29032682 6:-0.61550199 7:0.090314999 8:-0.1139321 9:-1.2890023 10:0 11:1.0817748 12:-0.47469378 
-1.59837407886692 1:0.56023281 2:-0.022192998 3:-0.83098838 4:-0.84860263 5:0.95250315 6:-0.33124516 7:0.096806448 8:0.16661705 9:0.77846456 10:0 11:-0.9244068 12:2.1066213 
7.5 1:-0.030334748 2:-1.3630627 3:-0.33703216 4:0.79503364 5:-0.034109008 6:-0.89722332 7:-1.2178828 8:-2.1806442 9:0.040083541 10:0 11:1.0817748 12:-0.47469378 
1.97171107019117 1:-0.37453369 2:-0.063068853 3:0.48133199 4:-0.800961 5:1.1152391 6:-2.0798895 7:-2.0238474 8:0.15726541 9:0.77846456 10:0 11:1.0817748 12:-0.47469378 
-2.752154097233892 1:1.3305287 2:1.1066057 3:0.025872953 4:-0.41982795 5:0.095779571 6:-1.487993 7:-0.38287745 8:0.29286416 9:-1.4366785 10:0 11:1.0817748 12:-0.47469378 
0.4559817236375768 1:-0.2313323 2:-0.12834718 3:2.6476531 4:1.009421 5:-0.32479382 6:-1.6863248 7:-1.2083164 8:-0.81998079 9:-1.6828055 10:0 11:1.0817748 12:-0.47469378 
0.2069421658680361 1:-0.56372683 2:-0.29943065 3:0.35557246 4:0.79503364 5:1.2839403 6:-1.0648475 7:-1.8858187 8:-0.71243695 9:-1.1905515 10:0 11:-0.9244068 12:2.1066213 
1.357727538099929 1:0.35219168 2:-0.93484822 3:-0.42428337 4:1.009421 5:0.011124701 6:-0.61522027 7:-0.37809428 8:-0.14198702 9:-1.6828055 10:0 11:-0.9244068 12:-0.47469378 
-3.459759165625363 1:-1.526521 2:-2.9628787 3:-1.8094987 4:0.79503364 5:-0.72814634 6:0.96410953 7:1.0394331 8:-1.4932987 9:1.7629726 10:0 11:-0.9244068 12:2.1066213 
0.1508565099929705 1:-0.51467427 2:-0.49055017 3:-0.053446016 4:0.74739201 5:-1.0529699 6:-0.27574606 7:-0.30224683 8:-0.0017124429 9:2.7474806 10:0 11:1.0817748 12:-0.47469378 
-0.75052713331562 1:0.22660692 2:-0.91964282 3:2.6315959 4:-1.5155855 5:-0.2600724 6:-0.67071937 7:1.0527577 8:0.0029633763 9:0.77846456 10:0 11:-0.9244068 12:-0.47469378 
-1.816203084720743 1:-0.24335553 2:0.33760798 3:0.0065433606 4:0.79503364 5:-0.72814634 6:-0.67100109 7:-0.94353363 8:-0.19342103 9:1.7629726 10:0 11:-0.9244068 12:2.1066213 
-0.9850296325214206 1:-1.758338 2:-0.41720498 3:1.5621638 4:0.17569244 5:0.96575679 6:0.96410953 7:1.0394331 8:-1.4932987 9:0.48311215 10:0 11:1.0817748 12:-0.47469378 
7.5 1:-0.59253271 2:-0.041740135 3:0.2182842 4:-0.32454469 5:3.0193723 6:0.23247922 7:-0.316938 8:-0.076525549 9:2.0090996 10:0 11:-0.9244068 12:-0.47469378 
5.584595218319921 1:-0.45098279 2:-0.23036311 3:-0.025054411 4:0.19951325 5:0.019563268 6:-0.24813737 7:-0.90595156 8:-1.1192332 9:-1.5351293 10:0 11:1.0817748 12:-0.47469378 
-0.0006315519708987643 1:0.81765198 2:0.1730941 3:-0.11355866 4:-1.3488398 5:0.90790522 6:0.11950897 7:-0.46009153 8:0.22740269 9:0.40927405 10:0 11:1.0817748 12:-0.47469378 
-0.2384157546428054 1:-0.20121349 2:-0.21668006 3:2.1509638 4:0.17569244 5:0.18919325 6:-1.4612294 7:0.094073206 8:0.021666653 9:0.48311215 10:0 11:-0.9244068 12:-0.47469378 
-6.505599101781398 1:-1.2263129 2:-1.6308862 3:-0.0043637988 4:0.79503364 5:-0.034109008 6:0.96410953 7:1.0394331 8:-1.4932987 9:1.7629726 10:0 11:1.0817748 12:-0.47469378 
1.686813350560416 1:0.45243559 2:-0.01679852 3:-0.23768574 4:-0.56275285 5:0.66500325 6:0.82409402 7:-1.4836905 8:0.20869942 9:1.0245916 10:0 11:1.0817748 12:-0.47469378 
4.122717026399108 1:-0.7302241 2:-1.6035735 3:-0.80470133 4:-1.5632271 5:-0.1751259 6:-1.5736362 7:-1.5404053 8:0.09180394 9:-0.10759266 10:0 11:-0.9244068 12:-0.47469378 
1.933692918330736 1:-0.31994393 2:-0.098984985 3:-0.10355917 4:1.009421 5:1.713801 6:-0.5284501 7:-1.2353072 8:1.0082645 9:0.53233756 10:0 11:1.0817748 12:-0.47469378 
-0.08611714170361263 1:1.3444284 2:0.32762592 3:-0.70934653 4:-0.32454469 5:1.0930732 6:0.88100173 7:0.47843531 8:0.0029633763 9:0.43388675 10:0 11:1.0817748 12:-0.47469378 
-1.581255424207471 1:0.050357212 2:0.70619551 3:-2.3034807 4:0.19951325 5:0.67001713 6:0.90973731 7:1.6017976 8:0.012315015 9:-1.3382277 10:0 11:1.0817748 12:-0.47469378 
-2.182457028207057 1:-0.23756793 2:-0.20568891 3:-0.72808654 4:-0.32454469 5:0.18857649 6:-1.1214735 7:0.50610938 8:0.15258959 9:0.43388675 10:0 11:-0.9244068 12:-0.47469378 
0.5767964907296453 1:0.3625297 2:-0.19798507 3:2.1314876 4:1.009421 5:1.1916682 6:-0.5284501 7:-1.2353072 8:1.0082645 9:-1.687728 10:0 11:1.0817748 12:-0.47469378 
4.385958773058771 1:-0.86699135 2:-0.17396894 3:-0.031411112 4:-1.444123 5:2.3130371 6:1.5283974 7:0.15317956 8:-0.12328374 9:0.77846456 10:0 11:-0.9244068 12:-0.47469378 
0.967120749845787 1:-1.3726172 2:-0.24241763 3:-1.3112862 4:1.009421 5:0.70663313 6:-1.0648475 7:-0.92337598 8:1.1485391 9:-1.6828055 10:0 11:1.0817748 12:-0.47469378 
0.573964485935506 1:0.88604523 2:-0.49709241 3:-0.13129644 4:0.74739201 5:-0.99391271 6:0.5702631 7:1.0595908 8:-0.15133866 9:0.53233756 10:0 11:-0.9244068 12:2.1066213 
-0.05832251639318228 1:-1.3657709 2:-0.24293651 3:0.20917633 4:0.19951325 5:-0.85890838 6:1.7267292 7:1.5040842 8:-0.13263538 9:-1.3382277 10:0 11:-0.9244068 12:2.1066213 
0.8018174983748918 1:0.6876031 2:-0.50840129 3:-0.49444179 4:1.009421 5:0.011124701 6:-0.22024696 7:0.10090631 8:-0.13263538 9:0.53233756 10:0 11:-0.9244068 12:-0.47469378 
-1.522980144822675 1:-0.35200965 2:-0.92314549 3:0.36734247 4:-1.3488398 5:0.66216785 6:1.3328828 7:1.0220087 8:1.6956099 9:0.40927405 10:0 11:-0.9244068 12:-0.47469378 
7.5 1:-0.75308828 2:-0.78449028 3:-0.041291619 4:1.6049414 5:-0.013031529 6:-1.0090667 7:-2.0651877 8:0.8633141 9:0.77846456 10:0 11:1.0817748 12:-0.47469378 
0.00106191411332295 1:0.1771974 2:0.4317162 3:-2.7719422 4:0.19951325 5:0.77166585 6:0.064009867 7:0.57614869 8:0.14791377 9:-1.3382277 10:0 11:-0.9244068 12:2.1066213 
4.279491294386387 1:-0.45958929 2:-0.11558463 3:-0.1436497 4:1.009421 5:0.29032682 6:-1.0372388 7:-0.42114283 8:0.14323795 9:-1.185629 10:0 11:1.0817748 12:-0.47469378 
-0.807494353999694 1:-0.69851249 2:-0.82531 3:0.34745923 4:1.009421 5:0.068392512 6:0.23247922 7:-0.316938 8:-0.095228825 9:-1.1905515 10:0 11:-0.9244068 12:-0.47469378 
-0.02172792398591411 1:-0.62636638 2:0.095905333 3:-0.51331301 4:-1.0868108 5:0.0098811059 6:0.90861042 7:0.49688469 8:-1.1332607 9:-1.1905515 10:0 11:-0.9244068 12:-0.47469378 
0.05989489163624006 1:0.97502452 2:0.62601732 3:-1.8243774 4:-0.32454469 5:0.75953649 6:-1.5156016 7:-0.41635966 8:1.5272804 9:0.43388675 10:0 11:1.0817748 12:-0.47469378 
-1.54156883908383 1:-0.81872216 2:-0.79088056 3:0.071763204 4:-1.5632271 5:1.5999657 6:-0.64451928 7:-0.91141805 8:-3.1719178 9:0.77846456 10:0 11:-0.9244068 12:-0.47469378 
5.447205147785408 1:-0.76054063 2:-0.22228673 3:-0.018366806 4:1.009421 5:-1.1238569 6:-0.67071937 7:-0.31488807 8:0.026342472 9:0.13853434 10:0 11:1.0817748 12:-0.47469378 
0.4428774654909973 1:-0.61351254 2:0.48825027 3:-2.140229 4:0.19951325 5:0.96827844 6:-1.0938648 7:-0.82805418 8:-1.6803315 9:-0.45217047 10:0 11:1.0817748 12:-0.47469378 
0.1791108840182324 1:-0.44225768 2:-1.0135352 3:1.0896949 4:-0.32454469 5:0.35145416 6:2.1219842 7:1.0561742 8:2.4250377 9:0.43388675 10:0 11:-0.9244068 12:-0.47469378 
-1.221987299317316 1:-0.68582638 2:-0.96813328 3:0.033811259 4:0.79503364 5:-0.034109008 6:-0.24813737 7:-0.43070918 8:-1.2174254 9:1.7629726 10:0 11:1.0817748 12:-0.47469378 
-0.04072752205324776 1:-0.27700286 2:0.058628088 3:-0.17095608 4:-1.3250189 5:2.2478942 6:-0.30335475 7:-0.95788315 8:1.1532149 9:0.77846456 10:0 11:-0.9244068 12:2.1066213 
0.7530799803923552 1:0.4261988 2:-0.12698473 3:-0.13362707 4:1.009421 5:2.0103392 6:-0.30222787 7:-0.96095805 8:2.9954876 9:-0.058367262 10:0 11:1.0817748 12:-0.47469378 
1.085716683962211 1:0.36453611 2:1.368423 3:0.20115911 4:-1.3250189 5:2.2627799 6:0.48687359 7:-0.92679253 8:3.7249154 9:0.77846456 10:0 11:-0.9244068 12:2.1066213 
7.5 1:-1.0889481 2:-1.355547 3:-0.42824631 4:-0.32454469 5:-0.77742588 6:0.14599078 7:0.069474032 8:-0.24017922 9:-0.40294507 10:0 11:1.0817748 12:-0.47469378 
5.472871266701128 1:-0.64162989 2:-1.1503164 3:-0.5575781 4:-0.038694904 5:-0.45101119 6:-0.61522027 7:-0.37809428 8:-0.12328374 9:-1.6828055 10:0 11:1.0817748 12:-0.47469378 
7.5 1:0.2075551 2:1.7945002 3:-0.020081549 4:0.74739201 5:-1.0906758 6:0.25952447 7:-0.82361266 8:-1.9047708 9:2.058325 10:0 11:1.0817748 12:-0.47469378 
-0.08411369135709819 1:-0.10369041 2:-0.2286949 3:0.34191451 4:-0.84860263 5:0.66179282 6:-0.72593675 7:-1.479249 8:0.13856213 9:0.77846456 10:0 11:-0.9244068 12:2.1066213 
-0.3890904897623901 1:0.65722571 2:1.1820253 3:0.27602109 4:-0.84860263 5:-1.1281724 6:0.62745253 7:1.1282635 8:-0.44123944 9:0.77846456 10:0 11:-0.9244068 12:2.1066213 
0.8911137386044373 1:0.17255186 2:0.12492763 3:-0.044076008 4:-0.32454469 5:0.15371876 6:0.37333989 7:-2.0303388 8:0.12453467 9:1.7629726 10:0 11:-0.9244068 12:-0.47469378 
0.4822485224017107 1:-0.22673762 2:0.011568121 3:-0.43931732 4:1.009421 5:0.011124701 6:-1.8274672 7:-1.8482366 8:-2.5593855 9:-1.6828055 10:0 11:-0.9244068 12:-0.47469378 
-2.483096572968351 1:-2.9199038 2:-1.4698083 3:0.030483906 4:-1.6585104 5:-1.1281724 6:-0.67071937 7:-0.31488807 8:0.0076391954 9:1.0245916 10:0 11:1.0817748 12:-0.47469378 
7.5 1:-0.74560793 2:-0.26057437 3:-0.038412069 4:1.009421 5:-0.91744913 6:-1.1789447 7:-0.93123405 8:0.11985885 9:0.00070322002 10:0 11:1.0817748 12:-0.47469378 
6.7555970154033 1:-1.0388696 2:-2.4818528 3:-0.27704278 4:0.79503364 5:-0.034109008 6:-0.22137384 7:-0.39825194 8:-1.4652438 9:0.040083541 10:0 11:1.0817748 12:-0.47469378 
0.5020755656162527 1:0.20893621 2:-0.44029268 3:-0.17872891 4:1.009421 5:-0.41947475 6:-0.50196829 7:-1.2137829 8:-1.9702323 9:-0.0091418603 10:0 11:1.0817748 12:-0.47469378 
6.353347816053126 1:-0.59253271 2:-0.041740135 3:0.2182842 4:-0.32454469 5:3.0193723 6:0.23247922 7:-0.316938 8:-0.076525549 9:0.77846456 10:0 11:-0.9244068 12:-0.47469378 
-1.198364054729508 1:0.61720608 2:0.5515155 3:-0.043423384 4:1.009421 5:-1.0844513 6:-1.234162 7:-1.4686577 8:0.25078179 9:0.13853434 10:0 11:1.0817748 12:-0.47469378 
-0.2230603744675833 1:-0.23290052 2:-1.1494975 3:-0.0043637988 4:0.79503364 5:0.099991701 6:0.96410953 7:1.0394331 8:-1.4932987 9:1.7629726 10:0 11:-0.9244068 12:2.1066213 
0.02577840005905345 1:-0.28201129 2:-0.42419489 3:-0.072628781 4:1.7716871 5:0.092110558 6:0.26065136 7:-1.2011417 8:1.7376923 9:0.87691537 10:0 11:-0.9244068 12:2.1066213 
2.303035403848633 1:-0.21114854 2:-0.96995216 3:0.0016784562 4:1.009421 5:-1.0730414 6:0.23247922 7:-0.316938 8:-0.095228825 9:0.13853434 10:0 11:1.0817748 12:-0.47469378 
-0.3914503037346851 1:-0.57362174 2:-0.021768354 3:-0.34248574 4:0.79503364 5:1.7505646 6:0.12063586 7:-0.4481336 8:1.9714832 9:-1.1905515 10:0 11:-0.9244068 12:-0.47469378 
-1.361386275612156 1:-0.32563023 2:0.1195371 3:-2.2741378 4:-0.32454469 5:3.0193723 6:0.17810701 7:-0.38287745 8:1.4057091 9:-1.0921007 10:0 11:-0.9244068 12:-0.47469378 
1.010534053160072 1:-0.65241914 2:-0.78908432 3:-0.21374639 4:-1.3488398 5:0.60260841 6:0.45785629 7:1.0462662 8:0.15726541 9:0.40927405 10:0 11:-0.9244068 12:2.1066213 
-1.376628586162269 1:-0.32563023 2:0.1195371 3:-2.2741378 4:-0.32454469 5:3.0193723 6:0.17810701 7:-0.38287745 8:1.4057091 9:2.0090996 10:0 11:-0.9244068 12:-0.47469378 
-0.9540048722516487 1:1.162199 2:1.6402365 3:-0.27882261 4:-1.5632271 5:-0.31931688 6:-0.64198379 7:-0.41055152 8:0.12453467 9:-0.10759266 10:0 11:-0.9244068 12:-0.47469378 
2.054672374054887 1:-0.13220785 2:-0.79327873 3:0.091133339 4:0.74739201 5:0.71191524 6:1.3593646 7:1.043533 8:-1.2828869 9:-0.59984668 10:0 11:1.0817748 12:-0.47469378 
5.825114538356655 1:0.86153561 2:0.85026461 3:0.34009429 4:-0.32454469 5:-1.087898 6:-0.21855663 7:0.10227293 8:-0.27290995 9:0.28621055 10:0 11:1.0817748 12:-0.47469378 
-0.2853039662989049 1:-0.050897623 2:-0.3552122 3:0.057556363 4:-1.0868108 5:0.21609954 6:-0.27461917 7:-0.92747584 8:1.8592636 9:-0.20604347 10:0 11:-0.9244068 12:2.1066213 
7.5 1:-0.60615578 2:0.54870869 3:0.23756793 4:0.19951325 5:-1.0458835 6:0.514764 7:1.122797 8:-0.0017124429 9:-1.3382277 10:0 11:1.0817748 12:-0.47469378 
0.4309159976297937 1:-0.15082914 2:-0.20958707 3:-0.11022923 4:0.19951325 5:1.0779375 6:-1.1789447 7:-0.93123405 8:0.11985885 9:-1.3382277 10:0 11:-0.9244068 12:-0.47469378 
-1.385146312523728 1:0.90950899 2:0.28408872 3:0.06836408 4:-0.32454469 5:0.40431493 6:0.11950897 7:0.51294248 8:-0.0017124429 9:0.43388675 10:0 11:-0.9244068 12:-0.47469378 
7.5 1:-1.3726172 2:-0.24241763 3:-1.3112862 4:1.009421 5:0.70663313 6:-1.0648475 7:-0.92337598 8:1.1485391 9:0.53233756 10:0 11:1.0817748 12:-0.47469378 
-2.761933343163641 1:0.94171906 2:0.73649859 3:0.26351642 4:0.74739201 5:-0.38235806 6:0.90973731 7:1.1313384 8:0.0076391954 9:2.058325 10:0 11:1.0817748 12:-0.47469378 
-0.3357640033296302 1:0.37109037 2:-0.65114492 3:0.25740802 4:0.79503364 5:-1.1281724 6:-0.67071937 7:1.0527577 8:0.0029633763 9:-1.1905515 10:0 11:-0.9244068 12:2.1066213 
-1.275387094149766 1:-0.48486001 2:0.13126911 3:0.22217634 4:1.009421 5:-0.46866171 6:1.4179626 7:1.1207471 8:-0.10458046 9:-1.2890023 10:0 11:1.0817748 12:-0.47469378 
0.5426275861463953 1:0.15219393 2:-0.16164472 3:-0.1565161 4:-0.32454469 5:-0.72885579 6:0.11922725 7:0.17675376 8:0.0076391954 9:0.43388675 10:0 11:-0.9244068 12:-0.47469378 
-0.7563766432399863 1:0.10922285 2:0.21410297 3:0.42774404 4:-0.94388589 5:1.0502641 6:-1.0659744 7:-1.8827438 8:-2.5547097 9:-0.20604347 10:0 11:-0.9244068 12:-0.47469378 
-7.272403918938357 1:0.0013552717 2:0.22310938 3:-1.7272254 4:1.009421 5:0.30073563 6:0.11950897 7:0.51294248 8:-0.0017124429 9:0.13853434 10:0 11:-0.9244068 12:-0.47469378 
7.5 1:-0.92933845 2:-0.57658746 3:-0.0065959789 4:-0.32454469 5:-0.77742588 6:0.090491673 7:0.0021679575 8:-0.090553006 9:-0.20604347 10:0 11:1.0817748 12:-0.47469378 
-1.198694357616178 1:-1.0532452 2:-1.0143668 3:0.01199694 4:0.79503364 5:-1.094189 6:-0.67071937 7:-0.31488807 8:0.0076391954 9:0.040083541 10:0 11:1.0817748 12:-0.47469378 
-0.6520391360885256 1:-1.7290329 2:-1.4942731 3:-0.47439653 4:1.009421 5:-1.0970636 6:-1.0104753 7:-0.38868559 8:-0.10458046 9:-0.0091418603 10:0 11:1.0817748 12:-0.47469378 
0.1926146213051024 1:-1.7321253 2:-1.174936 3:-0.12473031 4:-1.5155855 5:-0.048723936 6:0.5702631 7:1.0595908 8:-0.15133866 9:0.77846456 10:0 11:1.0817748 12:-0.47469378 
-0.501368943453684 1:-1.079273 2:-1.2379106 3:3.4273703 4:-1.5632271 5:1.5999657 6:-0.22137384 7:-0.39825194 8:-1.4839471 9:0.77846456 10:0 11:-0.9244068 12:-0.47469378 
-7.5 1:-0.080856627 2:-0.46284262 3:-0.018366806 4:1.009421 5:-0.68977402 6:-0.27574606 7:-0.30224683 8:-0.0017124429 9:-0.0091418603 10:0 11:1.0817748 12:-0.47469378 
-0.5387576460376028 1:0.34081802 2:0.073920219 3:-0.0098173784 4:0.79503364 5:-0.69130291 6:0.11950897 7:-0.46009153 8:0.22740269 9:1.7629726 10:0 11:1.0817748 12:-0.47469378 
-1.203948475117938 1:0.61117275 2:0.51707927 3:-0.1658861 4:-0.32454469 5:0.40431493 6:-0.66959248 7:-0.44403373 8:1.3589509 9:0.43388675 10:0 11:-0.9244068 12:-0.47469378 
1.418264636677617 1:1.1014522 2:-0.28184527 3:-0.34410232 4:1.009421 5:-1.1220955 6:-1.0662561 7:0.12858038 8:0.03569411 9:-0.058367262 10:0 11:1.0817748 12:-0.47469378 
0.6736578555532906 1:0.77150873 2:0.64217742 3:-1.7400473 4:-0.32454469 5:0.75953649 6:0.11922725 7:1.5662655 8:0.031018291 9:0.43388675 10:0 11:1.0817748 12:-0.47469378 
0.1133079360613278 1:0.056507904 2:0.95837991 3:-0.32036175 4:0.74739201 5:-1.126986 6:-1.8843749 7:-0.86358632 8:-1.6616282 9:1.1722678 10:0 11:1.0817748 12:-0.47469378 
-2.007202719127758 1:-0.83484131 2:-0.15534815 3:-0.56326066 4:0.17569244 5:0.96575679 6:0.51335539 7:0.49278482 8:-1.3436725 9:0.48311215 10:0 11:1.0817748 12:-0.47469378 
-0.4858843381083614 1:0.41241477 2:-0.6167995 3:-0.093536541 4:1.009421 5:1.3500396 6:0.42827555 7:-0.99785681 8:2.546609 9:-1.185629 10:0 11:1.0817748 12:-0.47469378 
-0.05470293803829186 1:-0.020961731 2:-0.6440207 3:1.5902655 4:1.009421 5:1.2849827 6:0.93650084 7:1.0281585 8:-0.2588825 9:0.63078836 10:0 11:1.0817748 12:-0.47469378 
1.120715933105686 1:-0.25512616 2:0.024594814 3:-1.4866823 4:1.009421 5:1.3326916 6:-0.64198379 7:-0.41055152 8:0.12453467 9:0.63078836 10:0 11:1.0817748 12:-0.47469378 
0.1094271948538597 1:0.19928974 2:-0.048893476 3:0.50728818 4:0.19951325 5:-1.1255515 6:-0.27574606 7:-0.30224683 8:-0.0017124429 9:-0.45217047 10:0 11:-0.9244068 12:-0.47469378 
-6.1378919169779 1:-1.0889481 2:-1.355547 3:-0.42824631 4:-0.32454469 5:-0.77742588 6:0.14599078 7:0.069474032 8:-0.24017922 9:-0.69829748 10:0 11:1.0817748 12:-0.47469378 
-1.885113804652208 1:-0.31967327 2:1.1094211 3:0.45221241 4:-0.41982795 5:0.37379206 6:0.1766984 7:0.58161518 8:-0.29161323 9:1.5168456 10:0 11:-0.9244068 12:-0.47469378 
-2.792277270149431 1:0.36679619 2:0.65461684 3:-0.038412069 4:1.009421 5:-1.0046591 6:0.11950897 7:0.51294248 8:-0.0017124429 9:-0.0091418603 10:0 11:-0.9244068 12:2.1066213 
-3.034148502699464 1:0.50037001 2:-0.28457017 3:-0.20378548 4:1.009421 5:0.011124701 6:0.5702631 7:1.0595908 8:-0.15133866 9:-1.1905515 10:0 11:-0.9244068 12:-0.47469378 
0.2828693555199667 1:-1.1987227 2:-0.34586857 3:0.054261305 4:0.17569244 5:0.96575679 6:-0.64451928 7:-0.91141805 8:-3.1719178 9:0.48311215 10:0 11:1.0817748 12:-0.47469378 
-2.083716256990072 1:-0.50456356 2:-0.079544956 3:0.14486812 4:-1.444123 5:2.3130371 6:1.4157088 7:0.016517476 8:0.31624326 9:-1.1905515 10:0 11:-0.9244068 12:-0.47469378 
-0.9613368544540399 1:-1.413146 2:0.24169224 3:0.58371448 4:-0.32454469 5:0.55269065 6:-1.4601025 7:-0.93396729 8:1.1672423 9:0.43388675 10:0 11:1.0817748 12:-0.47469378 
7.328708219084371 1:-0.78198409 2:-2.307908 3:-1.0300779 4:-1.5632271 5:-0.31931688 6:-0.33293549 7:-0.03575577 8:0.30689162 9:-0.10759266 10:0 11:-0.9244068 12:-0.47469378 
2.546973156078875 1:0.16512269 2:-0.50891568 3:-0.42428337 4:1.009421 5:0.29032682 6:-0.72819052 7:-0.046347081 8:0.3255949 9:-1.185629 10:0 11:1.0817748 12:-0.47469378 
-7.5 1:0.94867921 2:0.76885412 3:-0.0033328594 4:1.009421 5:-0.68977402 6:0.0065387155 7:0.040091685 8:0.44716619 9:-1.6828055 10:0 11:1.0817748 12:-0.47469378 
3.72177583608025 1:-1.0269533 2:-0.91020485 3:-0.32316626 4:0.19951325 5:-1.1281724 6:-1.9694547 7:-0.96676619 8:0.13856213 9:-1.3382277 10:0 11:1.0817748 12:-0.47469378 
7.5 1:-1.0040585 2:-1.1710526 3:0.0016784562 4:1.009421 5:-0.36636063 6:0.96410953 7:1.0394331 8:-1.4932987 9:-1.1905515 10:0 11:1.0817748 12:-0.47469378 
0.2956959169525327 1:0.45240479 2:-0.35604229 3:0.059778861 4:-1.1106316 5:1.6797177 6:-0.24813737 7:-0.90595156 8:-1.1192332 9:0.77846456 10:0 11:1.0817748 12:-0.47469378 
1.492007136814332 1:0.85350939 2:-1.0721045 3:2.6260313 4:-1.5632271 5:0.3306037 6:0.96410953 7:1.0394331 8:-1.4932987 9:0.77846456 10:0 11:-0.9244068 12:-0.47469378 
-7.5 1:-0.31952257 2:-0.0010482479 3:-0.66386552 4:0.19951325 5:0.67001713 6:0.514764 7:1.122797 8:-0.0017124429 9:-1.3382277 10:0 11:1.0817748 12:-0.47469378 
0.6166785859354101 1:-1.3318118 2:0.48186962 3:0.40780793 4:-0.84860263 5:-0.072161726 6:1.0221441 7:0.10124797 8:-0.057822272 9:0.77846456 10:0 11:-0.9244068 12:-0.47469378 
-2.183763162686789 1:-1.5847825 2:-0.71469313 3:2.6916979 4:-1.3488398 5:1.1387846 6:0.45785629 7:1.0462662 8:0.15726541 9:-0.62445938 10:0 11:-0.9244068 12:-0.47469378 
0.1893716449325443 1:-0.23167755 2:-1.6787362 3:0.36734247 4:-1.3488398 5:0.78425104 6:1.3328828 7:1.0220087 8:1.6956099 9:0.43388675 10:0 11:1.0817748 12:-0.47469378 
0.4604664343449514 1:-1.106267 2:-1.6481113 3:1.9152962 4:0.79503364 5:0.093781527 6:0.5688545 7:0.084848516 8:-1.2641836 9:-1.1905515 10:0 11:-0.9244068 12:2.1066213 
-0.2631505322218732 1:0.92643749 2:0.30159149 3:-2.6512778 4:0.19951325 5:0.67001713 6:-0.21883835 7:0.23312687 8:-0.14198702 9:-1.2890023 10:0 11:1.0817748 12:-0.47469378 
1.186082539095736 1:-1.4643467 2:-0.069108398 3:-0.50446442 4:1.009421 5:0.88868801 6:0.514764 7:1.122797 8:-0.0017124429 9:-1.185629 10:0 11:1.0817748 12:-0.47469378 
-0.6577989515512276 1:-0.36615025 2:-0.24844138 3:0.08280416 4:3.6535315 5:0.82932966 6:0.4857467 7:0.4815102 8:-0.10925628 9:1.2707186 10:0 11:-0.9244068 12:2.1066213 
0.3586816296426844 1:1.8384919 2:0.78687131 3:0.26351642 4:0.74739201 5:-1.0847028 6:0.90973731 7:1.1354383 8:-0.011064081 9:1.1722678 10:0 11:1.0817748 12:-0.47469378 
-1.452729552501371 1:-1.6709427 2:0.27608912 3:0.16855874 4:-1.0868108 5:0.0098811059 6:1.7543379 7:1.5225336 8:-1.2688594 9:-1.1905515 10:0 11:-0.9244068 12:-0.47469378 
-0.8372083622325206 1:-0.67690031 2:0.26178508 3:-0.22199882 4:-0.41982795 5:0.095779571 6:-1.883248 7:-0.8622197 8:0.1806445 9:0.77846456 10:0 11:1.0817748 12:-0.47469378 
0.08555174412757129 1:0.53575511 2:-0.40711794 3:-0.41412186 4:-1.3488398 5:3.3220576 6:0.12063586 7:-0.4481336 8:1.9714832 9:0.40927405 10:0 11:-0.9244068 12:-0.47469378 
1.20351369703791 1:-0.069487018 2:-0.55939721 3:2.417743 4:-1.5155855 5:2.8237286 6:1.3328828 7:1.0220087 8:1.6956099 9:0.77846456 10:0 11:-0.9244068 12:-0.47469378 
0.8727908865239491 1:-0.61348146 2:-0.056882362 3:0.049624065 4:-0.32454469 5:3.0193723 6:0.62745253 7:0.16206259 8:-0.085877187 9:-1.0921007 10:0 11:-0.9244068 12:-0.47469378 
-0.199547253575268 1:-0.35511189 2:0.11612697 3:-2.545868 4:-0.32454469 5:3.0193723 6:1.8129359 7:1.5997477 8:-0.090553006 9:0.77846456 10:0 11:-0.9244068 12:-0.47469378 
1.047164462605308 1:0.14362395 2:-0.70281802 3:0.36734247 4:-1.3488398 5:-0.91723619 6:1.3328828 7:1.0220087 8:1.6956099 9:0.40927405 10:0 11:-0.9244068 12:-0.47469378 
7.5 1:-1.2164812 2:-1.3990666 3:-0.31580622 4:-0.32454469 5:-0.77742588 6:-0.24898253 7:-0.40952656 8:-0.23082758 9:-0.20604347 10:0 11:1.0817748 12:-0.47469378 
1.587713985158078 1:-0.24738609 2:0.76621263 3:-1.8976102 4:1.009421 5:0.88868801 6:0.90973731 7:1.6017976 8:0.012315015 9:-1.185629 10:0 11:1.0817748 12:-0.47469378 
1.59115899689484 1:-0.15962252 2:-0.45365303 3:1.3346884 4:1.009421 5:2.0504886 6:1.3328828 7:1.0220087 8:1.6956099 9:-1.1905515 10:0 11:1.0817748 12:-0.47469378 
5.56863813250263 1:-0.56214904 2:-0.16606481 3:0.076848191 4:1.009421 5:0.97632637 6:-0.30335475 7:-0.47546601 8:1.2514071 9:-0.0091418603 10:0 11:1.0817748 12:-0.47469378 
1.207202991613345 1:-0.054916108 2:-0.010201969 3:-0.093249819 4:0.34243814 5:-0.13747893 6:-0.78397134 7:-0.91859281 8:0.11050722 9:0.00070322002 10:0 11:-0.9244068 12:2.1066213 
0.678119745299342 1:0.99424377 2:1.6935032 3:0.19442576 4:-0.41982795 5:0.095779571 6:0.11922725 7:1.5662655 8:0.031018291 9:0.77846456 10:0 11:1.0817748 12:-0.47469378 
-0.005134865997772001 1:1.0801358 2:-0.78332793 3:0.024894024 4:-1.3250189 5:0.07677784 6:1.3593646 7:1.043533 8:-1.2828869 9:0.77846456 10:0 11:-0.9244068 12:2.1066213 
1.240937729069177 1:0.73174481 2:0.15684716 3:0.30800237 4:0.74739201 5:-1.0572411 6:0.514764 7:1.122797 8:-0.0017124429 9:1.1722678 10:0 11:1.0817748 12:-0.47469378 
-0.2063815242528445 1:-0.71744928 2:0.108462 3:-0.0065959789 4:-0.32454469 5:0.26457578 6:-0.67071937 7:-0.31488807 8:0.026342472 9:0.77846456 10:0 11:-0.9244068 12:2.1066213 
2.935939547954327 1:-2.0191452 2:-2.5972957 3:-0.088935522 4:0.19951325 5:-0.32636465 6:0.17388119 7:-0.39415207 8:-1.2735352 9:-1.3382277 10:0 11:1.0817748 12:-0.47469378 
7.5 1:-1.6030299 2:-0.70009276 3:-0.7936766 4:-0.32454469 5:1.0709724 6:-1.8274672 7:-1.8482366 8:-2.5593855 9:0.43388675 10:0 11:1.0817748 12:-0.47469378 
7.5 1:-0.17920031 2:-0.28861467 3:-2.2888653 4:0.74739201 5:-0.23349847 6:-0.021915139 7:-0.86802784 8:0.86798992 9:1.1722678 10:0 11:-0.9244068 12:-0.47469378 
0.7063809274785019 1:0.86285721 2:-0.15448398 3:0.026735034 4:1.009421 5:0.73311651 6:-0.24926425 7:-0.90731818 8:-2.961506 9:-1.1905515 10:0 11:1.0817748 12:-0.47469378 
1.189474259360684 1:-0.58336201 2:-0.037540056 3:-0.033371021 4:2.7721613 5:-0.9268643 6:0.82409402 7:-1.4836905 8:0.20869942 9:0.77846456 10:0 11:-0.9244068 12:2.1066213 
-7.244692376751593 1:0.050419858 2:0.37844261 3:-1.4866823 4:1.009421 5:0.30073563 6:-0.64198379 7:-0.41055152 8:0.12453467 9:0.13853434 10:0 11:-0.9244068 12:-0.47469378 
-7.221500215076417 1:-1.4023411 2:-2.1890678 3:0.14240408 4:-1.3250189 5:2.2627799 6:0.93650084 7:-0.38151083 8:2.4343893 9:0.77846456 10:0 11:-0.9244068 12:2.1066213 
-2.054472950502189 1:-0.88504509 2:-0.78877593 3:2.0024287 4:-0.84860263 5:-0.71893304 6:0.96410953 7:1.0394331 8:-1.4932987 9:-0.058367262 10:0 11:1.0817748 12:-0.47469378 
3.281377690458574 1:-1.081063 2:-1.9019748 3:0.039264839 4:0.79503364 5:-0.69130291 6:1.3593646 7:1.043533 8:-1.2828869 9:1.7629726 10:0 11:1.0817748 12:-0.47469378 
0.8296275664122138 1:-0.2237839 2:0.27617542 3:-0.088525225 4:1.009421 5:0.90861106 6:-0.30335475 7:-0.95788315 8:1.1532149 9:0.13853434 10:0 11:1.0817748 12:-0.47469378 
-4.327116767656768 1:-0.50456356 2:-0.079544956 3:0.14486812 4:-1.444123 5:2.3130371 6:1.4157088 7:0.016517476 8:0.31624326 9:0.77846456 10:0 11:-0.9244068 12:-0.47469378 
3.336382278384216 1:-0.31316238 2:-1.0340419 3:-0.097931971 4:0.74739201 5:-0.85116602 6:-0.67071937 7:1.0527577 8:0.0029633763 9:2.7474806 10:0 11:1.0817748 12:-0.47469378 
-1.110548978042919 1:0.4370591 2:-0.53331267 3:-1.0551198 4:-1.5632271 5:-0.31931688 6:-1.1234456 7:-0.99444026 8:-0.029767358 9:-0.10759266 10:0 11:-0.9244068 12:-0.47469378 
4.044557094515284 1:0.058633591 2:-0.026035385 3:-0.5432012 4:0.19951325 5:-1.1054878 6:0.11922725 7:0.17675376 8:0.0076391954 9:-1.3382277 10:0 11:-0.9244068 12:-0.47469378 
-7.5 1:-0.75308828 2:-0.78449028 3:-0.041291619 4:1.6049414 5:-0.013031529 6:-1.0090667 7:-2.0651877 8:0.8633141 9:0.77846456 10:0 11:1.0817748 12:-0.47469378 
0.8978328638984607 1:-0.71744928 2:0.108462 3:-0.0065959789 4:-0.32454469 5:0.26457578 6:-0.67071937 7:-0.31488807 8:0.026342472 9:2.0090996 10:0 11:-0.9244068 12:2.1066213 
0.09213742768812226 1:0.21373129 2:-0.65017042 3:-0.15887549 4:-0.84860263 5:0.81452746 6:-0.3608259 7:-1.0320223 8:1.8171812 9:-0.058367262 10:0 11:1.0817748 12:-0.47469378 
-1.043575744055973 1:0.12754479 2:0.65745296 3:-0.10857049 4:1.009421 5:-0.85799799 6:-0.78397134 7:-0.92269267 8:0.12921049 9:-1.6828055 10:0 11:1.0817748 12:-0.47469378 
-7.5 1:0.42950951 2:-0.0058381145 3:-0.29477466 4:0.19951325 5:0.86873327 6:-0.24813737 7:-0.43070918 8:-1.2174254 9:-1.3382277 10:0 11:-0.9244068 12:-0.47469378 
-0.5797460089940183 1:0.53154818 2:0.45706155 3:-1.5668633 4:1.009421 5:-0.32819802 6:-1.5156016 7:-0.41635966 8:1.5272804 9:-0.0091418603 10:0 11:1.0817748 12:-0.47469378 
5.034561585852581 1:-0.35823495 2:-0.17381233 3:0.46190439 4:-0.32454469 5:0.71509055 6:-1.0648475 7:-1.8858187 8:-0.71243695 9:0.43388675 10:0 11:-0.9244068 12:-0.47469378 
-1.863570411015033 1:-1.3836717 2:-0.90836462 3:-0.0070082451 4:0.34243814 5:-1.0642396 6:-0.67071937 7:-0.31488807 8:0.0076391954 9:0.77846456 10:0 11:1.0817748 12:-0.47469378 
-0.479398796121605 1:-0.24698243 2:-0.043202875 3:0.16196862 4:0.17569244 5:1.0100216 6:-0.30335475 7:-0.47546601 8:1.2514071 9:2.0090996 10:0 11:-0.9244068 12:-0.47469378 
-3.95137885601765 1:0.14083654 2:-0.059168072 3:0.076848191 4:1.009421 5:0.56838499 6:-0.30335475 7:-0.47546601 8:1.2514071 9:0.72923916 10:0 11:1.0817748 12:-0.47469378 
-2.316472884469122 1:-0.21510321 2:-0.51739587 3:0.031728798 4:0.19951325 5:-0.38458661 6:-0.24813737 7:-0.43070918 8:-1.2174254 9:-1.5843547 10:0 11:-0.9244068 12:-0.47469378 
4.577928348426763 1:0.59370219 2:-0.12751843 3:-0.14569681 4:-0.84860263 5:0.010617266 6:-0.24813737 7:-0.43070918 8:-1.2174254 9:0.77846456 10:0 11:-0.9244068 12:-0.47469378 
5.025070433326738 1:0.1984341 2:0.7251862 3:-0.10857049 4:1.009421 5:-1.1023205 6:-0.78397134 7:-0.92269267 8:0.12921049 9:0.00070322002 10:0 11:1.0817748 12:-0.47469378 
-5.416116945038755 1:-0.2237839 2:0.27617542 3:-0.088525225 4:1.009421 5:0.90861106 6:-0.30335475 7:-0.95788315 8:1.1532149 9:0.53233756 10:0 11:1.0817748 12:-0.47469378 
0.3196792450450967 1:1.4916693 2:-0.20648586 3:-0.11293524 4:-0.41982795 5:0.095779571 6:-2.4196454 7:-1.5127312 8:0.26013343 9:-1.4366785 10:0 11:1.0817748 12:-0.47469378 
-0.9224017259162917 1:-1.2517066 2:-0.52687879 3:2.5028077 4:0.17569244 5:0.96575679 6:-1.1797898 7:-1.5605629 8:-1.2501562 9:0.48311215 10:0 11:1.0817748 12:-0.47469378 
0.8742122998041029 1:0.091006338 2:0.12294245 3:-0.086810482 4:0.74739201 5:-1.0529699 6:-0.78397134 7:-0.91859281 8:0.11050722 9:2.7474806 10:0 11:1.0817748 12:-0.47469378 
5.43796674720911 1:0.86153561 2:0.85026461 3:0.34009429 4:-0.32454469 5:-1.087898 6:-0.21855663 7:0.10227293 8:-0.27290995 9:-0.35371967 10:0 11:1.0817748 12:-0.47469378 
0.9342941078406067 1:1.2903874 2:1.1603144 3:-2.6957881 4:-0.32454469 5:0.8179806 6:-0.69776462 7:-0.81814618 8:0.17129287 9:0.43388675 10:0 11:1.0817748 12:-0.47469378 
1.079473655429813 1:1.7626236 2:-0.0097139901 3:-0.204987 4:-0.13397817 5:0.60676901 6:0.093027165 7:-0.48161581 8:3.2058995 9:1.0245916 10:0 11:1.0817748 12:-0.47469378 
-7.5 1:0.80247003 2:0.60789035 3:-1.7723273 4:1.009421 5:0.4740808 6:-1.0093484 7:0.19759473 8:-0.12328374 9:-1.1905515 10:0 11:1.0817748 12:-0.47469378 
1.050642400830875 1:0.09904219 2:-0.33214821 3:0.087104095 4:-0.32454469 5:-0.77742588 6:0.4857467 7:0.4815102 8:-0.10925628 9:-0.40294507 10:0 11:1.0817748 12:-0.47469378 
7.5 1:0.91020428 2:-0.9829069 3:-0.37040845 4:0.74739201 5:-1.126986 6:-1.4612294 7:-0.35042021 8:0.026342472 9:1.1722678 10:0 11:1.0817748 12:-0.47469378 
7.5 1:-1.5260466 2:-1.4059223 3:-0.45936258 4:1.009421 5:-1.1266725 6:-0.61522027 7:-0.37809428 8:-0.12328374 9:-0.0091418603 10:0 11:1.0817748 12:-0.47469378 
-0.7357616690483837 1:-0.2459415 2:-0.08169579 3:-0.13763545 4:-0.13397817 5:1.8671544 6:-0.30222787 7:-0.96095805 8:2.9954876 9:1.0245916 10:0 11:-0.9244068 12:-0.47469378 
0.5324547599520478 1:0.42670165 2:-0.10180629 3:2.344837 4:0.17569244 5:1.2896365 6:-0.52957698 7:-1.2322323 8:-0.83400825 9:0.48311215 10:0 11:1.0817748 12:-0.47469378 
7.5 1:-0.080856627 2:-0.46284262 3:-0.018366806 4:1.009421 5:-0.68977402 6:-0.27574606 7:-0.30224683 8:-0.0017124429 9:-1.1905515 10:0 11:1.0817748 12:-0.47469378 
-2.173669880014226 1:0.37109037 2:-0.65114492 3:0.25740802 4:0.79503364 5:-1.1281724 6:-0.67071937 7:1.0527577 8:0.0029633763 9:-1.1905515 10:0 11:-0.9244068 12:2.1066213 
0.4698007740795788 1:-0.30684453 2:-0.94097144 3:-0.17225318 4:-1.5155855 5:-0.070740776 6:0.45785629 7:1.0462662 8:0.15726541 9:0.77846456 10:0 11:-0.9244068 12:-0.47469378 
-0.01988186186285507 1:-0.2579249 2:0.17497935 3:-2.6441799 4:0.19951325 5:2.1026224 6:1.9805601 7:1.5604573 8:0.7183637 9:-1.3382277 10:0 11:-0.9244068 12:-0.47469378 
1.867242030166822 1:-0.72057928 2:-0.22506561 3:-0.013370922 4:-1.3488398 5:0.68516981 6:-0.24813737 7:-0.90595156 8:-1.1192332 9:0.40927405 10:0 11:1.0817748 12:-0.47469378 
1.887142691550657 1:-0.25526097 2:0.22172977 3:0.096474102 4:-0.32454469 5:0.54314894 6:1.3590828 7:1.5184337 8:-1.4792713 9:0.43388675 10:0 11:1.0817748 12:-0.47469378 
-1.119647942271207 1:0.45048495 2:0.32483436 3:-1.7723273 4:1.009421 5:0.74374185 6:-1.0093484 7:0.19759473 8:-0.12328374 9:0.53233756 10:0 11:1.0817748 12:-0.47469378 
-0.240176109339716 1:0.21368981 2:0.47079621 3:0.32616947 4:0.91413772 5:-1.0394844 6:0.514764 7:1.122797 8:-0.0017124429 9:1.1722678 10:0 11:-0.9244068 12:2.1066213 
7.30071830807226 1:-0.18078211 2:-0.40856611 3:0.98284755 4:0.19951325 5:1.9555963 6:2.1219842 7:1.0561742 8:2.4250377 9:-1.3382277 10:0 11:-0.9244068 12:-0.47469378 
-0.2629942029340214 1:-0.98567593 2:-0.80141782 3:-0.060626504 4:0.17569244 5:-1.0512524 6:-0.67071937 7:-0.31488807 8:0.0076391954 9:0.58156296 10:0 11:-0.9244068 12:-0.47469378 
-7.5 1:-0.46059471 2:-2.3813711 3:-0.85478502 4:-1.5632271 5:-0.1751259 6:-0.61522027 7:-0.37809428 8:-0.12328374 9:-0.10759266 10:0 11:-0.9244068 12:-0.47469378 
-1.326961707256341 1:0.42552082 2:-0.76268428 3:2.3510596 4:-1.3488398 5:0.86989233 6:1.3593646 7:1.043533 8:-1.2828869 9:0.40927405 10:0 11:-0.9244068 12:-0.47469378 
-0.3560430837990573 1:1.6051048 2:-0.47410217 3:0.31127609 4:-1.0868108 5:-1.1281724 6:0.4857467 7:-0.00090693926 8:0.021666653 9:-0.82136098 10:0 11:-0.9244068 12:2.1066213 
0.2698869402767999 1:-0.020815498 2:-0.40389861 3:2.624876 4:0.17569244 5:1.5198639 6:-0.92483201 7:-1.2291574 8:-0.94622791 9:0.48311215 10:0 11:-0.9244068 12:-0.47469378 
0.5395816367337278 1:-0.10295971 2:-0.12035922 3:-1.7549629 4:0.79503364 5:1.7679981 6:-0.81214348 7:-1.8263707 8:-1.7037106 9:-1.1905515 10:0 11:-0.9244068 12:-0.47469378 
-1.548691800221821 1:-0.63221787 2:-0.045487959 3:0.026735034 4:1.009421 5:0.67859908 6:-0.24926425 7:-0.90731818 8:-2.961506 9:-0.0091418603 10:0 11:-0.9244068 12:-0.47469378 
1.441896361660388 1:-0.15962252 2:-0.45365303 3:1.3346884 4:1.009421 5:2.0504886 6:1.3328828 7:1.0220087 8:1.6956099 9:0.63078836 10:0 11:1.0817748 12:-0.47469378 
5.708186438068313 1:-1.0451399 2:-2.3584228 3:3.7381063 4:-1.3011981 5:-0.15154846 6:0.17388119 7:-0.39415207 8:-1.2735352 9:0.77846456 10:0 11:-0.9244068 12:-0.47469378 
-1.058136099582563 1:-1.1826046 2:0.075447296 3:-0.07498748 4:0.17569244 5:0.96575679 6:1.3590828 7:1.5184337 8:-1.4792713 9:0.48311215 10:0 11:1.0817748 12:-0.47469378 
3.334748790538602 1:0.32921829 2:-0.37887119 3:0.026735034 4:1.009421 5:-1.1238569 6:-1.6291353 7:-1.4771991 8:0.24143015 9:-1.185629 10:0 11:1.0817748 12:-0.47469378 
7.5 1:0.17678139 2:0.083273362 3:-0.13152293 4:0.19951325 5:-1.0200481 6:0.11922725 7:0.17675376 8:0.0076391954 9:-1.3382277 10:0 11:1.0817748 12:-0.47469378 
-0.8954042387039972 1:0.5579473 2:0.3318971 3:-0.65400641 4:0.74739201 5:-0.43287185 6:-0.33124516 7:0.096806448 8:0.16661705 9:1.1722678 10:0 11:1.0817748 12:-0.47469378 
7.5 1:-1.0451399 2:-2.3584228 3:3.7381063 4:-1.3011981 5:-0.15154846 6:0.17388119 7:-0.39415207 8:-1.2735352 9:0.77846456 10:0 11:-0.9244068 12:-0.47469378 
0.460885817876019 1:1.7337126 2:1.1133455 3:-0.043423384 4:1.009421 5:-1.121174 6:-1.234162 7:-1.4686577 8:0.25078179 9:0.00070322002 10:0 11:1.0817748 12:-0.47469378 
-1.408087138732908 1:-0.81931442 2:-0.79827663 3:-0.37520722 4:0.79503364 5:-1.11337 6:-1.0662561 7:0.12858038 8:0.03569411 9:-1.1905515 10:0 11:1.0817748 12:-0.47469378 
-0.1902055342733263 1:-0.7160891 2:-2.5131559 3:-0.37059567 4:-1.0868108 5:-1.1281724 6:0.54124581 7:0.066399135 8:-0.12795956 9:-0.82136098 10:0 11:-0.9244068 12:2.1066213 
-4.097979994486197 1:1.2077629 2:0.13575875 3:-0.15887549 4:-0.84860263 5:-0.18907619 6:-0.38843459 7:0.027450442 8:0.45651783 9:0.77846456 10:0 11:-0.9244068 12:2.1066213 
-0.8163084247173331 1:-1.5250621 2:0.38048628 3:-1.9727799 4:1.009421 5:0.88868801 6:-1.1203466 7:-0.86016977 8:1.2981653 9:-1.185629 10:0 11:1.0817748 12:-0.47469378 
1.669220524194187 1:-1.0490139 2:-0.7653522 3:-0.32586424 4:2.2004618 5:-0.96432529 6:-0.89722332 7:-1.2178828 8:-2.1806442 9:0.87691537 10:0 11:-0.9244068 12:2.1066213 
-5.043519686963673 1:-1.2263129 2:-1.6308862 3:-0.0043637988 4:0.79503364 5:-0.034109008 6:0.96410953 7:1.0394331 8:-1.4932987 9:0.040083541 10:0 11:1.0817748 12:-0.47469378 
6.763101603846677 1:0.76292298 2:0.30424468 3:0.081859506 4:1.009421 5:0.66305332 6:0.48687359 7:-0.92679253 8:3.7249154 9:-1.6828055 10:0 11:1.0817748 12:-0.47469378 
0.01186583156378754 1:-1.7510823 2:-0.23182596 3:-0.12660894 4:-1.5394063 5:0.04416508 6:-0.72650019 7:-2.0194059 8:-0.067173911 9:0.77846456 10:0 11:-0.9244068 12:2.1066213 
-0.6340545235623343 1:-0.62690562 2:-0.49189929 3:2.3450745 4:-0.84860263 5:2.716847 6:0.54237269 7:0.063324238 8:1.7143132 9:0.77846456 10:0 11:-0.9244068 12:-0.47469378 
-0.4362865476155006 1:-0.097758475 2:-0.56210685 3:-0.42929469 4:1.009421 5:0.29032682 6:-1.9688913 7:-1.5509966 8:0.11050722 9:-1.185629 10:0 11:1.0817748 12:-0.47469378 
1.339830228955382 1:-1.3978597 2:-0.356591 3:2.5154662 4:-1.0868108 5:0.0098811059 6:0.45616596 7:-0.051813564 8:-0.82465661 9:-1.1905515 10:0 11:-0.9244068 12:-0.47469378 
-0.01101129650671825 1:1.4198778 2:0.93080147 3:-0.11293524 4:-0.41982795 5:0.095779571 6:-1.5156016 7:-0.41635966 8:1.5272804 9:0.77846456 10:0 11:1.0817748 12:-0.47469378 
0.7412376025299194 1:1.8040643 2:2.7335192 3:-0.17205417 4:-0.84860263 5:0.46256835 6:-0.95159554 7:-1.1259775 8:-0.67970622 9:0.77846456 10:0 11:-0.9244068 12:2.1066213 
2.371942223159457 1:-0.31994393 2:-0.098984985 3:-0.10355917 4:1.009421 5:1.713801 6:-0.5284501 7:-1.2353072 8:1.0082645 9:-1.2890023 10:0 11:1.0817748 12:-0.47469378 
0.9863993552210415 1:3.0400091 2:0.97235777 3:-0.29389658 4:-1.3488398 5:0.84039587 6:0.14711766 7:-0.42660932 8:-1.0070136 9:0.40927405 10:0 11:1.0817748 12:-0.47469378 
-1.434559431896655 1:-0.43956962 2:0.13207546 3:-1.3563881 4:1.009421 5:1.3326916 6:-0.66959248 7:-0.44403373 8:1.3589509 9:0.63078836 10:0 11:1.0817748 12:-0.47469378 
0.3597414030569593 1:-0.22942476 2:-0.28164135 3:-0.1565161 4:-0.32454469 5:0.88796738 6:0.11922725 7:0.17675376 8:0.0076391954 9:0.43388675 10:0 11:-0.9244068 12:-0.47469378 
-1.522631995418189 1:0.89324173 2:0.1382539 3:-0.093521109 4:-1.3488398 5:-0.64338779 6:0.56998138 7:1.5280001 8:-0.11860792 9:-0.94442449 10:0 11:-0.9244068 12:-0.47469378 
5.687300453493135 1:0.22956776 2:4.4748212 3:0.5225164 4:-1.5632271 5:-0.23116531 6:-0.30250959 7:-0.33470407 8:0.26480925 9:-0.10759266 10:0 11:-0.9244068 12:-0.47469378 
2.261031795332007 1:-0.88129832 2:-0.51645597 3:0.045622526 4:-0.94388589 5:-0.95698816 6:-0.67071937 7:-0.31488807 8:0.026342472 9:-0.89519909 10:0 11:1.0817748 12:-0.47469378 
-7.5 1:-0.75308828 2:-0.78449028 3:-0.041291619 4:1.6049414 5:-0.013031529 6:-1.0090667 7:-2.0651877 8:0.8633141 9:0.77846456 10:0 11:1.0817748 12:-0.47469378 
0.310631092876059 1:-0.61348146 2:-0.056882362 3:0.049624065 4:-0.32454469 5:3.0193723 6:0.62745253 7:0.16206259 8:-0.085877187 9:0.77846456 10:0 11:-0.9244068 12:-0.47469378 
6.305458681120486 1:-0.65952316 2:0.058473934 3:0.072838139 4:-0.13397817 5:1.0176193 6:-0.30222787 7:-0.96095805 8:2.9954876 9:1.0245916 10:0 11:1.0817748 12:-0.47469378 
0.4500891320237133 1:-1.3010716 2:-0.7414776 3:0.29233476 4:1.009421 5:0.88868801 6:-0.67071937 7:-0.31488807 8:0.0076391954 9:-1.185629 10:0 11:1.0817748 12:-0.47469378 
-2.893359630392547 1:-0.77610418 2:-0.62676595 3:0.04672136 4:-1.5632271 5:1.5999657 6:-0.6433924 7:-0.91005143 8:-1.3296451 9:0.77846456 10:0 11:-0.9244068 12:-0.47469378 
1.626997553653857 1:0.70426709 2:0.34053034 3:-0.27895522 4:1.009421 5:-0.72572949 6:-1.910575 7:-0.45086684 8:1.513253 9:-1.185629 10:0 11:-0.9244068 12:-0.47469378 
-7.5 1:-1.3744043 2:-1.5098149 3:-0.021034292 4:1.6049414 5:-0.013031529 6:0.40010342 7:-0.35622835 8:0.71368788 9:0.77846456 10:0 11:1.0817748 12:-0.47469378 
2.227249966245743 1:-1.4606119 2:0.03559798 3:0.026704171 4:-1.3488398 5:0.051435723 6:0.96523641 7:1.5385914 8:-0.1373112 9:0.43388675 10:0 11:-0.9244068 12:-0.47469378 
1.322711503284275 1:-0.28480216 2:-0.53350051 3:0.033811259 4:0.79503364 5:0.099991701 6:-0.24813737 7:-0.43070918 8:-1.2174254 9:-1.1905515 10:0 11:-0.9244068 12:2.1066213 
1.087450394325966 1:0.056507904 2:0.95837991 3:-0.32036175 4:0.74739201 5:-1.126986 6:-1.8843749 7:-0.86358632 8:-1.6616282 9:2.7474806 10:0 11:1.0817748 12:-0.47469378 
-0.4520927062872652 1:-0.0760372 2:-0.55921672 3:0.045702695 4:-0.41982795 5:-0.28894169 6:1.5855868 7:1.0814567 8:0.70433625 9:0.28621055 10:0 11:-0.9244068 12:-0.47469378 
1.69347676762292 1:-0.21683986 2:-0.51035423 3:1.6706353 4:-0.32454469 5:0.77552734 6:1.3593646 7:1.043533 8:-1.2828869 9:0.43388675 10:0 11:1.0817748 12:-0.47469378 
2.825177200501682 1:-0.50111241 2:-0.39850739 3:0.031728798 4:0.19951325 5:0.42640346 6:-0.24813737 7:-0.43070918 8:-1.2174254 9:-1.5843547 10:0 11:-0.9244068 12:-0.47469378 
-1.334589952899439 1:-0.41718399 2:0.030154158 3:-2.1710677 4:-0.32454469 5:3.0193723 6:-0.19066622 7:-0.83010411 8:-1.7831995 9:-1.0921007 10:0 11:-0.9244068 12:-0.47469378 
0.2213456925597709 1:-0.21697527 2:-1.1885959 3:-0.18830614 4:0.19951325 5:0.32532029 6:-0.3608259 7:-1.0320223 8:1.8171812 9:-1.3382277 10:0 11:-0.9244068 12:-0.47469378 
-1.502304533958604 1:-1.1755384 2:-0.48822868 3:1.249496 4:1.009421 5:-0.10800889 6:0.11810036 7:0.013442579 8:-1.3249693 9:-1.6828055 10:0 11:-0.9244068 12:2.1066213 
-0.6241082255515561 1:-0.30343208 2:-0.14328786 3:-0.67949211 4:-1.5632271 5:1.5999657 6:0.51335539 7:0.49278482 8:-1.3436725 9:0.77846456 10:0 11:-0.9244068 12:-0.47469378 
-0.3358440389420483 1:-0.21098444 2:-1.3127613 3:-0.16369496 4:1.009421 5:-0.41947475 6:-0.78453479 7:-1.5564631 8:-1.0397443 9:-0.0091418603 10:0 11:1.0817748 12:-0.47469378 
-0.004325287139779859 1:-0.64704577 2:-0.82077776 3:-0.22383075 4:1.009421 5:-1.0527044 6:-0.67071937 7:1.0527577 8:0.0029633763 9:0.53233756 10:0 11:1.0817748 12:-0.47469378 
0.9182688865628427 1:-1.5661071 2:-0.47254606 3:0.011178376 4:0.17569244 5:0.96575679 6:-0.6433924 7:-0.91005143 8:-1.3296451 9:0.48311215 10:0 11:1.0817748 12:-0.47469378 
3.797384929153636 1:-0.25102377 2:0.3097918 3:0.30235739 4:1.009421 5:-1.0369649 6:-0.21855663 7:0.10227293 8:-0.27290995 9:0.53233756 10:0 11:-0.9244068 12:-0.47469378 
7.5 1:1.3391228 2:1.9353751 3:0.13819732 4:0.19951325 5:-1.1281724 6:-0.72650019 7:0.54061655 8:0.16661705 9:-1.3382277 10:0 11:1.0817748 12:-0.47469378 
-2.310196439135359 1:-1.7315138 2:-1.3598847 3:0.69914798 4:0.79503364 5:-0.72814634 6:-0.89722332 7:-1.2178828 8:-2.1806442 9:1.7629726 10:0 11:-0.9244068 12:2.1066213 
1.309115021338315 1:-0.58523966 2:-0.78021583 3:-0.44880654 4:-0.84860263 5:-0.75930791 6:-0.33293549 7:-0.03575577 8:0.30689162 9:0.77846456 10:0 11:-0.9244068 12:-0.47469378 
1.220988122992717 1:-0.16129842 2:0.61934869 3:-0.086810482 4:0.74739201 5:-1.0370537 6:-0.78397134 7:-0.92269267 8:0.12921049 9:2.7474806 10:0 11:1.0817748 12:-0.47469378 
-7.5 1:0.91020428 2:-0.9829069 3:-0.37040845 4:0.74739201 5:-1.126986 6:-1.4612294 7:-0.35042021 8:0.026342472 9:1.1722678 10:0 11:1.0817748 12:-0.47469378 
-0.3765878307842708 1:-1.3726172 2:-0.24241763 3:-1.3112862 4:1.009421 5:0.70663313 6:-1.0648475 7:-0.92337598 8:1.1485391 9:0.53233756 10:0 11:1.0817748 12:-0.47469378 
0.1884966666834331 1:0.2355197 2:0.086155321 3:0.081859506 4:1.009421 5:1.3500396 6:0.48687359 7:-0.92679253 8:3.7249154 9:-0.058367262 10:0 11:1.0817748 12:-0.47469378 
-0.2102808238384279 1:0.24065839 2:-0.53703423 3:1.6518953 4:-0.32454469 5:1.0930732 6:1.3317559 7:1.0250836 8:-0.14666284 9:0.43388675 10:0 11:1.0817748 12:-0.47469378 
1.022715685600046 1:1.0691142 2:1.0107068 3:-0.15259473 4:-0.41982795 5:0.095779571 6:-2.1370789 7:-1.170051 8:-0.67035458 9:-1.4366785 10:0 11:1.0817748 12:-0.47469378 
0.3790918697474872 1:-0.57095267 2:-1.7198257 3:0.5225164 4:-1.5632271 5:0.07834225 6:1.3328828 7:1.0220087 8:1.6956099 9:0.77846456 10:0 11:-0.9244068 12:-0.47469378 
-0.7360499233066367 1:-1.0767721 2:-0.92919402 3:-0.21859724 4:0.17569244 5:-1.1194703 6:-1.4612294 7:-0.35042021 8:0.045045748 9:0.48311215 10:0 11:1.0817748 12:-0.47469378 
-7.5 1:-0.45098279 2:-0.23036311 3:-0.025054411 4:0.19951325 5:0.019563268 6:-0.24813737 7:-0.90595156 8:-1.1192332 9:-1.2890023 10:0 11:1.0817748 12:-0.47469378 
0.06908617249205744 1:1.3937364 2:1.3829853 3:0.37289344 4:-0.41982795 5:0.095779571 6:-0.72650019 7:0.54061655 8:0.16661705 9:0.77846456 10:0 11:1.0817748 12:-0.47469378 
-2.884508583258615 1:0.3013574 2:0.28453912 3:-0.14569681 4:-0.84860263 5:-1.0981957 6:0.11922725 7:0.17675376 8:0.0076391954 9:0.77846456 10:0 11:-0.9244068 12:2.1066213 
-0.9522097770256166 1:-0.68633085 2:-0.14564285 3:0.038804774 4:-0.84860263 5:-0.9406044 6:-0.67071937 7:-0.31488807 8:0.026342472 9:0.77846456 10:0 11:-0.9244068 12:2.1066213 
5.987853244718446 1:0.091607856 2:-0.27845305 3:-0.068479963 4:1.009421 5:0.29032682 6:-0.67100109 7:0.023008925 8:0.03569411 9:-1.185629 10:0 11:1.0817748 12:-0.47469378 
0.5803295245651965 1:-1.2821614 2:-0.73597935 3:-0.070261955 4:2.2004618 5:-1.0337354 6:0.68266991 7:-0.31044655 8:-0.21680012 9:0.87691537 10:0 11:-0.9244068 12:-0.47469378 
1.384710985560794 1:-0.025789719 2:0.12858591 3:0.29233476 4:1.009421 5:0.99897883 6:1.7278561 7:1.5010093 8:1.7096374 9:-1.185629 10:0 11:-0.9244068 12:-0.47469378 
1.09357657409516 1:0.6718764 2:0.24489257 3:-0.69060652 4:-0.32454469 5:0.77552734 6:0.90861042 7:0.49688469 8:-1.1332607 9:0.43388675 10:0 11:1.0817748 12:-0.47469378 
-3.558479553491132 1:2.2686509 2:1.5053905 3:0.43379437 4:-0.32454469 5:-1.087898 6:0.1766984 7:0.58161518 8:-0.29161323 9:0.28621055 10:0 11:1.0817748 12:-0.47469378 
1.008479806444192 1:-0.67690031 2:0.26178508 3:-0.22199882 4:-0.41982795 5:0.095779571 6:-1.883248 7:-0.8622197 8:0.1806445 9:-1.4366785 10:0 11:1.0817748 12:-0.47469378 
1.801544635422826 1:-0.13730552 2:-0.066161056 3:-0.18374022 4:1.009421 5:0.094721295 6:-0.24813737 7:-0.43070918 8:-1.2174254 9:0.63078836 10:0 11:-0.9244068 12:-0.47469378 
-6.357940362076692 1:-0.18960339 2:1.0472397 3:0.64786812 4:-1.3488398 5:-0.29514081 6:-0.33124516 7:0.096806448 8:0.16661705 9:0.43388675 10:0 11:-0.9244068 12:-0.47469378 
-7.5 1:-0.45060122 2:-0.26169944 3:-0.023701402 4:-0.41982795 5:-0.89092915 6:0.17500807 7:-1.488132 8:0.10115558 9:0.77846456 10:0 11:-0.9244068 12:-0.47469378 
0.04645300780379098 1:-0.58735422 2:-0.74645005 3:-0.4188763 4:-0.32454469 5:1.1936706 6:-0.22024696 7:0.10090631 8:-0.13263538 9:0.43388675 10:0 11:-0.9244068 12:-0.47469378 
-2.841311902676043 1:-0.95765387 2:-0.94187188 3:-0.097931971 4:0.74739201 5:-0.53945829 6:-0.67071937 7:1.0527577 8:0.0029633763 9:2.058325 10:0 11:1.0817748 12:-0.47469378 
4.222892718608144 1:0.40650733 2:0.77840517 3:0.20213108 4:1.009421 5:-0.68977402 6:0.90973731 7:1.1354383 8:-0.011064081 9:-1.6828055 10:0 11:1.0817748 12:-0.47469378 
-1.146942326147615 1:0.3850108 2:-0.70033994 3:1.4148695 4:1.009421 5:0.73311651 6:1.3593646 7:1.043533 8:-1.2828869 9:-1.6729604 10:0 11:1.0817748 12:-0.47469378 
-4.995260174207834 1:-0.41576837 2:0.37625272 3:-0.16073782 4:-0.87242345 5:-0.52122296 6:-1.0372388 7:-0.42114283 8:0.14323795 9:0.77846456 10:0 11:-0.9244068 12:-0.47469378 
-0.6728589101344422 1:-0.02694587 2:0.31867916 3:-0.082167968 4:0.17569244 5:-0.75382825 6:-0.72650019 7:-2.0194059 8:-0.067173911 9:0.48311215 10:0 11:-0.9244068 12:-0.47469378 
-1.963121889712286 1:-1.2940838 2:-0.78437465 3:-0.19523909 4:0.79503364 5:-0.72814634 6:-0.24813737 7:-0.43070918 8:-1.2174254 9:1.7629726 10:0 11:-0.9244068 12:2.1066213 
-1.78745517367654 1:-0.09412773 2:-0.31698774 3:0.44734398 4:-0.84860263 5:0.9609635 6:-1.0662561 7:0.12858038 8:0.03569411 9:0.77846456 10:0 11:-0.9244068 12:-0.47469378 
0.02727789669557545 1:-0.50687964 2:0.043406864 3:0.33825418 4:-1.3250189 5:0.9143685 6:-1.0648475 7:-0.45462504 8:1.3776542 9:0.77846456 10:0 11:-0.9244068 12:-0.47469378 
-0.8739604438824593 1:-0.071043061 2:-0.18129475 3:-0.025642294 4:0.74739201 5:-1.0478422 6:0.82409402 7:-1.4836905 8:0.20869942 9:1.1722678 10:0 11:1.0817748 12:-0.47469378 
1.211297349448984 1:-0.44963908 2:-0.5388889 3:0.022739462 4:0.056588358 5:-0.93097345 6:-0.24813737 7:-0.43070918 8:-1.2174254 9:-2.0766087 10:0 11:-0.9244068 12:-0.47469378 
0.9992227122311906 1:0.70391232 2:1.0475323 3:-1.7167463 4:-1.5155855 5:-0.60592562 6:1.8681533 7:1.1272385 8:-0.22615176 9:-1.6828055 10:0 11:-0.9244068 12:2.1066213 
1.196309009238776 1:-1.4961812 2:-0.53936227 3:0.12195003 4:1.009421 5:0.97632637 6:-0.69860978 7:-0.95480826 8:1.0409952 9:0.53233756 10:0 11:1.0817748 12:-0.47469378 
2.588015345620932 1:-0.58200461 2:-0.53545566 3:0.076848191 4:1.009421 5:0.63086257 6:1.3317559 7:1.0250836 8:-0.14666284 9:-1.185629 10:0 11:1.0817748 12:-0.47469378 
1.310360683158272 1:-1.7600386 2:0.42961519 3:0.27760704 4:-0.800961 5:0.46309261 6:-1.3465688 7:-1.1345189 8:-0.68905786 9:0.77846456 10:0 11:1.0817748 12:-0.47469378 
-6.256197719493332 1:-0.9509355 2:-1.4326742 3:-0.326125 4:0.79503364 5:-1.11337 6:-1.4612294 7:-0.35042021 8:0.045045748 9:-1.0921007 10:0 11:1.0817748 12:-0.47469378 
-0.4653441464580702 1:0.74482938 2:0.26802552 3:-0.33703216 4:0.79503364 5:0.25146503 6:-1.1217552 7:0.061274307 8:0.18532032 9:0.040083541 10:0 11:1.0817748 12:-0.47469378 
-1.554032074728988 1:-1.1673336 2:-1.3078537 3:-0.42929469 4:1.009421 5:-1.0970636 6:-1.9688913 7:-1.5509966 8:0.11050722 9:-1.1905515 10:0 11:1.0817748 12:-0.47469378 
0.1502992585098428 1:-0.2318915 2:-0.45914454 3:0.19711977 4:1.009421 5:1.3239131 6:1.3314741 7:1.5071591 8:-0.24485504 9:-1.6828055 10:0 11:-0.9244068 12:-0.47469378 
-0.8284529045014325 1:-0.30776004 2:-1.0106535 3:0.15741293 4:-0.84860263 5:0.98076447 6:1.3593646 7:1.043533 8:-1.2828869 9:-0.058367262 10:0 11:1.0817748 12:-0.47469378 
0.1679977008705034 1:-0.0027404562 2:-0.032523079 3:0.056728504 4:-1.444123 5:2.3130371 6:0.17500807 7:-1.488132 8:0.10115558 9:0.77846456 10:0 11:-0.9244068 12:-0.47469378 
-1.408676291866727 1:-1.3253577 2:0.49660041 3:-0.11859312 4:1.009421 5:-1.1011239 6:0.17444463 7:-0.92679253 8:-0.10458046 9:0.53233756 10:0 11:1.0817748 12:-0.47469378 
0.4553344434185783 1:-0.42369814 2:-0.29072465 3:-0.1625096 4:-0.41982795 5:2.7184382 6:1.133424 7:-0.32582103 8:-0.13263538 9:1.5168456 10:0 11:-0.9244068 12:-0.47469378 
0.5153138589753777 1:-0.31846707 2:-0.66572258 3:1.4599713 4:1.009421 5:-0.10800889 6:0.96410953 7:1.0394331 8:-1.4932987 9:-1.6828055 10:0 11:-0.9244068 12:2.1066213 
4.050160475193664 1:-0.4315235 2:-0.012306434 3:0.012144036 4:-0.32454469 5:0.15371876 6:0.82409402 7:-1.4836905 8:0.20869942 9:0.18775975 10:0 11:-0.9244068 12:-0.47469378 
-0.3886333060130645 1:-1.1569046 2:-0.69256507 3:0.30800237 4:0.74739201 5:0.68609023 6:1.5855868 7:1.0814567 8:0.70433625 9:2.058325 10:0 11:1.0817748 12:-0.47469378 
1.635665076611199 1:0.54753588 2:1.335481 3:-1.2156237 4:-1.3488398 5:0.39168065 6:0.063728146 7:0.10944769 8:0.15726541 9:0.43388675 10:0 11:-0.9244068 12:2.1066213 
-1.568143181313325 1:1.4217014 2:1.9241987 3:0.13819732 4:0.19951325 5:-1.1281724 6:-0.72650019 7:0.54061655 8:0.16661705 9:-1.3382277 10:0 11:1.0817748 12:-0.47469378 
-7.5 1:-0.18497319 2:-0.4827279 3:0.23648504 4:-0.84860263 5:0.66179282 6:0.23247922 7:-0.316938 8:-0.076525549 9:0.77846456 10:0 11:-0.9244068 12:2.1066213 
-1.147227816731404 1:-0.20426348 2:-0.46157976 3:-1.0861297 4:-0.87242345 5:0.75544319 6:0.88212862 7:0.47536041 8:1.8452361 9:0.77846456 10:0 11:1.0817748 12:-0.47469378 
-7.5 1:0.10735842 2:0.0031111056 3:0.355752 4:1.6049414 5:-0.013031529 6:1.1348327 7:0.53480841 8:0.85396246 9:0.77846456 10:0 11:1.0817748 12:-0.47469378 
1.198581177379458 1:1.9656046 2:0.55311156 3:-0.15259473 4:-0.41982795 5:-1.0587717 6:0.11922725 7:0.1726539 8:0.026342472 9:-1.6828055 10:0 11:1.0817748 12:-0.47469378 
-0.2153255852448362 1:-0.64704577 2:-0.82077776 3:-0.22383075 4:1.009421 5:-1.0527044 6:-0.67071937 7:1.0527577 8:0.0029633763 9:-1.6828055 10:0 11:1.0817748 12:-0.47469378 
0.6856055343864417 1:-2.6625679 2:-2.8235633 3:-0.56326066 4:0.17569244 5:-1.1121082 6:-0.61550199 7:0.090314999 8:-0.1139321 9:0.48311215 10:0 11:1.0817748 12:-0.47469378 
0.01171363241995292 1:-0.7767476 2:-0.21538027 3:1.3808454 4:0.79503364 5:1.7505646 6:1.3328828 7:1.0220087 8:1.6956099 9:1.7629726 10:0 11:-0.9244068 12:-0.47469378 
-0.1213288519105565 1:-0.48667499 2:0.4676167 3:-1.262177 4:-0.32454469 5:-1.1281724 6:0.11922725 7:0.1726539 8:0.026342472 9:0.43388675 10:0 11:-0.9244068 12:2.1066213 
-7.5 1:-0.030334748 2:-1.3630627 3:-0.33703216 4:0.79503364 5:-0.034109008 6:-0.89722332 7:-1.2178828 8:-2.1806442 9:0.040083541 10:0 11:1.0817748 12:-0.47469378 
6.074183065519919 1:0.12705251 2:0.34873285 3:-0.12861575 4:1.009421 5:0.011124701 6:-0.64198379 7:-0.41055152 8:0.12453467 9:-1.1905515 10:0 11:-0.9244068 12:-0.47469378 
1.957426812566134 1:-1.2940838 2:-0.78437465 3:-0.19523909 4:0.79503364 5:-0.72814634 6:-0.24813737 7:-0.43070918 8:-1.2174254 9:-1.1905515 10:0 11:-0.9244068 12:2.1066213 
-6.951683282786146 1:-0.64704577 2:-0.82077776 3:-0.22383075 4:1.009421 5:-1.0527044 6:-0.67071937 7:1.0527577 8:0.0029633763 9:0.53233756 10:0 11:1.0817748 12:-0.47469378 
-0.109739397802609 1:0.19542674 2:0.37215866 3:-2.6881118 4:-0.75331937 5:0.72673077 6:-0.72650019 7:0.54061655 8:0.16661705 9:0.77846456 10:0 11:-0.9244068 12:-0.47469378 
1.110203274889794 1:-0.43973372 2:0.31165474 3:-1.9377007 4:1.009421 5:0.74374185 6:-0.72650019 7:0.54061655 8:0.16661705 9:-0.0091418603 10:0 11:1.0817748 12:-0.47469378 
0.06861863336869597 1:-1.0143743 2:-0.47863457 3:1.7049 4:-1.5155855 5:3.2607667 6:2.1219842 7:1.0561742 8:2.4250377 9:0.77846456 10:0 11:-0.9244068 12:2.1066213 
-2.45517317136554 1:-0.54778538 2:-0.02440944 3:-0.17342477 4:0.79503364 5:1.7505646 6:1.7278561 7:1.5010093 8:1.7096374 9:-1.1905515 10:0 11:-0.9244068 12:-0.47469378 
2.873528317536425 1:0.31625474 2:0.58870483 3:0.16705187 4:1.009421 5:0.54683519 6:0.90973731 7:1.1313384 8:0.0076391954 9:0.01547084 10:0 11:1.0817748 12:-0.47469378 
3.861785535657752 1:-0.33528601 2:0.48532944 3:0.16206415 4:-0.32454469 5:0.1305987 6:0.90973731 7:1.1354383 8:-0.011064081 9:0.43388675 10:0 11:-0.9244068 12:-0.47469378 
-3.931089610390936 1:0.086403094 2:0.075835959 3:0.026704171 4:-1.3488398 5:-0.31850675 6:-0.27574606 7:-0.30634669 8:0.03569411 9:0.40927405 10:0 11:-0.9244068 12:2.1066213 
0.003461495521174229 1:0.083682465 2:1.1903004 3:0.45576424 4:-1.3250189 5:0.13963183 6:-0.33124516 7:0.096806448 8:0.16661705 9:0.77846456 10:0 11:-0.9244068 12:-0.47469378 
0.4274578935075218 1:-0.30714447 2:0.30724763 3:-0.71493968 4:1.009421 5:0.88868801 6:-0.33124516 7:0.096806448 8:0.16661705 9:-1.6680379 10:0 11:1.0817748 12:-0.47469378 
0.5461652047418338 1:-1.7592867 2:-2.2404489 3:-0.022971825 4:0.056588358 5:-0.93097345 6:0.96410953 7:1.0394331 8:-1.4932987 9:-2.0766087 10:0 11:-0.9244068 12:-0.47469378 
0.1139416930636121 1:-0.26697545 2:-0.20144507 3:0.7412449 4:-0.44364877 5:0.58775988 6:-0.22024696 7:0.10090631 8:-0.13263538 9:0.77846456 10:0 11:1.0817748 12:-0.47469378 
-3.32302895538388 1:0.88673003 2:0.58122637 3:-0.17205417 4:-0.84860263 5:0.46256835 6:-2.3340021 7:-2.8024796 8:0.059073206 9:0.77846456 10:0 11:-0.9244068 12:2.1066213 
-0.2851755749135579 1:1.2766947 2:0.77969455 3:-1.0300779 4:-1.5632271 5:-0.31931688 6:-1.8274672 7:-1.8482366 8:-2.5593855 9:-0.10759266 10:0 11:-0.9244068 12:-0.47469378 
-1.974534258695778 1:-0.34265055 2:-2.0580126 3:-0.36193467 4:-1.444123 5:0.39100261 6:0.1462725 7:-0.41260145 8:-0.1373112 9:-1.1905515 10:0 11:1.0817748 12:-0.47469378 
-1.056254958097477 1:-1.0384735 2:-1.439193 3:-0.058064666 4:3.6535315 5:0.31649223 6:0.42855727 7:-0.070262945 8:0.31156744 9:1.2707186 10:0 11:-0.9244068 12:2.1066213 
-0.08498196900534566 1:-1.4735079 2:-1.3751164 3:-0.41168025 4:0.34243814 5:-1.1218154 6:-1.4612294 7:0.094073206 8:0.021666653 9:-0.20604347 10:0 11:-0.9244068 12:-0.47469378 
-6.679459647915172 1:0.76292298 2:0.30424468 3:0.081859506 4:1.009421 5:0.66305332 6:0.48687359 7:-0.92679253 8:3.7249154 9:-1.185629 10:0 11:1.0817748 12:-0.47469378 
2.891079463390297 1:0.24265488 2:1.1135773 3:0.13804653 4:-1.3011981 5:0.1267199 6:1.8681533 7:1.1272385 8:-0.22615176 9:0.77846456 10:0 11:-0.9244068 12:2.1066213 
-0.00301262802681144 1:-2.6579781 2:-0.80344128 3:-0.063468647 4:1.009421 5:-1.1011239 6:0.68266991 7:-0.31044655 8:-0.21680012 9:-0.0091418603 10:0 11:1.0817748 12:-0.47469378 
0.1425803762125514 1:-0.071043061 2:-0.18129475 3:-0.025642294 4:0.74739201 5:-1.0478422 6:0.82409402 7:-1.4836905 8:0.20869942 9:2.7474806 10:0 11:1.0817748 12:-0.47469378 
0.4254672922067889 1:0.071184822 2:0.13424425 3:-0.033400753 4:1.009421 5:0.011124701 6:0.96523641 7:1.5385914 8:-0.1373112 9:-1.4366785 10:0 11:-0.9244068 12:-0.47469378 
0.7895241776990005 1:-0.30470127 2:-0.73295533 3:1.3396997 4:1.009421 5:0.06150088 6:-0.67071937 7:1.0527577 8:0.0029633763 9:-0.058367262 10:0 11:1.0817748 12:-0.47469378 
1.607964127108327 1:-1.9438233 2:-0.62204571 3:-0.13251812 4:-0.84860263 5:-1.1281724 6:-0.55803084 7:-0.30942158 8:-0.41318453 9:0.77846456 10:0 11:-0.9244068 12:2.1066213 
-7.5 1:-0.2012938 2:-0.23198867 3:0.0027740284 4:-0.32454469 5:-0.71789862 6:0.17500807 7:-1.488132 8:0.10115558 9:0.43388675 10:0 11:-0.9244068 12:-0.47469378 
3.776267282080026 1:-1.0843105 2:-1.0604445 3:-0.42824631 4:-0.32454469 5:-0.77742588 6:-0.75720782 7:-1.0258725 8:-0.1373112 9:-0.40294507 10:0 11:1.0817748 12:-0.47469378 
1.055874121631115 1:0.86466472 2:-0.51438492 3:2.1377405 4:-0.41982795 5:-0.18753681 6:0.17500807 7:1.0489995 8:-0.13263538 9:0.77846456 10:0 11:-0.9244068 12:-0.47469378 
-0.02092297553938697 1:0.46961181 2:-1.6123941 3:-1.1052035 4:-1.5632271 5:-0.31931688 6:-2.0243904 7:-2.0870536 8:0.0076391954 9:-0.10759266 10:0 11:-0.9244068 12:-0.47469378 
7.5 1:-1.4186299 2:-1.6636309 3:-0.15991453 4:0.19951325 5:-1.1281724 6:-1.4612294 7:-0.35042021 8:0.026342472 9:-1.3382277 10:0 11:1.0817748 12:-0.47469378 
-0.218733924680329 1:0.85317557 2:-0.2509816 3:0.39757239 4:1.009421 5:-0.32819802 6:-1.0662561 7:0.12858038 8:0.03569411 9:-1.2742347 10:0 11:1.0817748 12:-0.47469378 
7.5 1:-0.48346864 2:-0.05763704 3:-0.41926062 4:-1.5394063 5:1.3660697 6:0.17500807 7:-1.488132 8:0.10115558 9:0.77846456 10:0 11:-0.9244068 12:-0.47469378 
-3.738315136191969 1:-1.5462057 2:-1.3439738 3:-0.46155294 4:-0.038694904 5:-1.1276742 6:-1.4612294 7:-0.35042021 8:0.045045748 9:-1.6828055 10:0 11:1.0817748 12:-0.47469378 
2.20904706801938 1:0.99094926 2:0.9034654 3:0.26351642 4:0.74739201 5:-1.0370537 6:0.90973731 7:1.1313384 8:0.0076391954 9:1.1722678 10:0 11:1.0817748 12:-0.47469378 
-3.803290454151794 1:0.29607098 2:-0.30706451 3:0.076848191 4:1.009421 5:0.1626012 6:1.3317559 7:1.0250836 8:-0.14666284 9:-1.4366785 10:0 11:1.0817748 12:-0.47469378 
0.491194079946921 1:0.63899718 2:0.48334748 3:-0.14859091 4:-1.0868108 5:-0.07618431 6:-1.3755861 7:-2.8065794 8:-0.17471775 9:-0.20604347 10:0 11:-0.9244068 12:2.1066213 
-7.5 1:-0.22673762 2:0.011568121 3:-0.43931732 4:1.009421 5:0.011124701 6:-1.8274672 7:-1.8482366 8:-2.5593855 9:-1.1905515 10:0 11:-0.9244068 12:-0.47469378 
-1.313253561743317 1:-1.1344826 2:-0.20121066 3:3.5525795 4:-1.5632271 5:1.5999657 6:-0.89722332 7:-1.2178828 8:-2.1806442 9:0.77846456 10:0 11:-0.9244068 12:-0.47469378 
1.033231742953257 1:-0.15502577 2:-0.071401683 3:0.18080417 4:-0.32454469 5:0.54314894 6:0.51335539 7:0.49278482 8:-1.3436725 9:0.43388675 10:0 11:1.0817748 12:-0.47469378 
-1.148418459471111 1:-0.28048357 2:-0.13173313 3:-0.013370922 4:-1.3488398 5:-1.0880612 6:0.11922725 7:0.17675376 8:0.0076391954 9:-1.1905515 10:0 11:-0.9244068 12:2.1066213 
-4.404941845842862 1:-0.79537526 2:-0.22485921 3:0.0027740284 4:-0.32454469 5:0.15215728 6:0.17500807 7:-1.488132 8:0.10115558 9:0.43388675 10:0 11:-0.9244068 12:-0.47469378 
0.02971481660716348 1:-0.6609346 2:-0.14181875 3:-0.434306 4:1.009421 5:-0.10800889 6:0.51335539 7:0.49278482 8:-1.3436725 9:-0.0091418603 10:0 11:-0.9244068 12:2.1066213 
-0.531389528693835 1:-0.073472325 2:0.45932767 3:-0.088525225 4:1.009421 5:-0.68977402 6:0.11922725 7:0.17675376 8:0.0076391954 9:-1.6828055 10:0 11:1.0817748 12:-0.47469378 
-0.3889851465297883 1:0.97534029 2:0.8300844 3:0.30297548 4:-1.5155855 5:1.2359914 6:0.90973731 7:1.1313384 8:0.0076391954 9:0.77846456 10:0 11:1.0817748 12:-0.47469378 
-2.305003073188228 1:-0.3586826 2:-0.14655271 3:-0.31123266 4:-0.41982795 5:2.7184382 6:0.17500807 7:-1.488132 8:0.10115558 9:1.5168456 10:0 11:-0.9244068 12:-0.47469378 
-0.4899232313195787 1:-0.90823003 2:0.37703196 3:0.56771793 4:-1.3488398 5:-0.01877824 6:0.514764 7:1.122797 8:-0.0017124429 9:0.43388675 10:0 11:1.0817748 12:-0.47469378 
-0.1608065034927222 1:-0.41718399 2:0.030154158 3:-2.1710677 4:-0.32454469 5:3.0193723 6:-0.19066622 7:-0.83010411 8:-1.7831995 9:0.77846456 10:0 11:-0.9244068 12:-0.47469378 
-1.777769934623316 1:0.42950951 2:-0.0058381145 3:-0.29477466 4:0.19951325 5:0.86873327 6:-0.24813737 7:-0.43070918 8:-1.2174254 9:-0.45217047 10:0 11:-0.9244068 12:-0.47469378 
-0.2661498222049201 1:-0.7397666 2:-1.0327489 3:0.15670256 4:3.6535315 5:-1.115123 6:-0.67071937 7:1.0527577 8:0.0029633763 9:1.2707186 10:0 11:-0.9244068 12:-0.47469378 
-7.5 1:0.22773469 2:0.34808514 3:0.26513423 4:-0.32454469 5:-1.087898 6:0.62745253 7:1.1282635 8:-0.44123944 9:0.28621055 10:0 11:1.0817748 12:-0.47469378 
3.057685917183572 1:-0.036550814 2:0.22030106 3:-0.008344175 4:1.009421 5:-0.68977402 6:-1.234162 7:-1.4645578 8:0.23207851 9:0.53233756 10:0 11:1.0817748 12:-0.47469378 
2.555255775277021 1:-0.021413281 2:0.39902401 3:-0.18233934 4:-0.41982795 5:0.095779571 6:-1.9108567 7:-0.89570191 8:1.3168686 9:0.77846456 10:0 11:1.0817748 12:-0.47469378 
7.5 1:0.09904219 2:-0.33214821 3:0.087104095 4:-0.32454469 5:-0.77742588 6:0.4857467 7:0.4815102 8:-0.10925628 9:-0.20604347 10:0 11:1.0817748 12:-0.47469378 
-7.5 1:-0.57397428 2:-0.04369086 3:0.30800237 4:0.74739201 5:-0.020646316 6:0.514764 7:1.122797 8:-0.0017124429 9:2.058325 10:0 11:1.0817748 12:-0.47469378 
-1.132390117090436 1:0.42552082 2:-0.76268428 3:2.3510596 4:-1.3488398 5:0.86989233 6:1.3593646 7:1.043533 8:-1.2828869 9:-0.62445938 10:0 11:-0.9244068 12:-0.47469378 
1.446311522789633 1:-1.0847866 2:-0.65550606 3:2.5603116 4:-1.5155855 5:1.4161339 6:0.96410953 7:1.0394331 8:-1.4932987 9:0.77846456 10:0 11:1.0817748 12:-0.47469378 
7.5 1:0.033377633 2:-0.52939779 3:0.0027740284 4:-0.32454469 5:-0.9167661 6:0.17500807 7:-1.488132 8:0.10115558 9:0.43388675 10:0 11:-0.9244068 12:-0.47469378 
-0.155956172056161 1:0.3625297 2:-0.19798507 3:2.1314876 4:1.009421 5:1.1916682 6:-0.5284501 7:-1.2353072 8:1.0082645 9:-0.0091418603 10:0 11:1.0817748 12:-0.47469378 
1.206154175095618 1:-0.22673762 2:0.011568121 3:-0.43931732 4:1.009421 5:0.011124701 6:-1.8274672 7:-1.8482366 8:-2.5593855 9:0.53233756 10:0 11:-0.9244068 12:-0.47469378 
1.57359515609901 1:0.49561124 2:-0.49809949 3:-0.38419285 4:1.009421 5:1.1916682 6:0.5992804 7:0.13233859 8:1.5553353 9:-0.0091418603 10:0 11:1.0817748 12:-0.47469378 
-2.263642726205652 1:-1.526521 2:-2.9628787 3:-1.8094987 4:0.79503364 5:-0.72814634 6:0.96410953 7:1.0394331 8:-1.4932987 9:-1.1905515 10:0 11:-0.9244068 12:2.1066213 
-5.622036875141255 1:0.042136558 2:-1.0347761 3:-0.0065959789 4:-0.32454469 5:-1.1281724 6:0.23247922 7:-0.316938 8:-0.095228825 9:-1.0921007 10:0 11:1.0817748 12:-0.47469378 
-7.5 1:-1.0522359 2:-2.4792117 3:3.7264609 4:-1.3250189 5:0.35979584 6:0.1462725 7:-0.41260145 8:-0.1373112 9:0.77846456 10:0 11:-0.9244068 12:-0.47469378 
-1.782817555723492 1:-1.3657709 2:-0.24293651 3:0.20917633 4:0.19951325 5:-0.85890838 6:1.7267292 7:1.5040842 8:-0.13263538 9:-1.3382277 10:0 11:-0.9244068 12:2.1066213 
-1.267098834755676 1:-1.8037482 2:-1.42635 3:2.9911907 4:-1.0868108 5:0.0098811059 6:0.17388119 7:-0.39415207 8:-1.254832 9:-1.1905515 10:0 11:-0.9244068 12:-0.47469378 
-7.428805022453514 1:-1.0532452 2:-1.0143668 3:0.01199694 4:0.79503364 5:-1.094189 6:-0.67071937 7:-0.31488807 8:0.0076391954 9:0.040083541 10:0 11:1.0817748 12:-0.47469378 
-0.1875874733390677 1:0.42950951 2:-0.0058381145 3:-0.29477466 4:0.19951325 5:0.86873327 6:-0.24813737 7:-0.43070918 8:-1.2174254 9:-1.5843547 10:0 11:-0.9244068 12:-0.47469378 
-7.5 1:-0.90775786 2:2.2433787 3:0.74789299 4:-1.5632271 5:-0.23116531 6:0.063728146 7:0.10944769 8:0.15726541 9:-0.10759266 10:0 11:-0.9244068 12:-0.47469378 
-6.109530696106424 1:-0.5463679 2:-0.19369426 3:0.40568434 4:-0.32454469 5:3.0193723 6:0.23247922 7:-0.316938 8:-0.095228825 9:2.0090996 10:0 11:-0.9244068 12:-0.47469378 
-2.84116626278949 1:-0.71743936 2:-0.15338596 3:-0.29477466 4:0.19951325 5:-0.010329595 6:-0.24813737 7:-0.43070918 8:-1.2174254 9:-1.3382277 10:0 11:1.0817748 12:-0.47469378 
-7.5 1:-1.2164812 2:-1.3990666 3:-0.31580622 4:-0.32454469 5:-0.77742588 6:-0.24898253 7:-0.40952656 8:-0.23082758 9:0.28621055 10:0 11:1.0817748 12:-0.47469378 
-0.722671315830467 1:-1.0532452 2:-1.0143668 3:0.01199694 4:0.79503364 5:-1.094189 6:-0.67071937 7:-0.31488807 8:0.0076391954 9:-1.1905515 10:0 11:1.0817748 12:-0.47469378 
2.466875990858694 1:-0.81266614 2:-0.59378882 3:-0.053446016 4:0.74739201 5:-1.0268194 6:-0.27574606 7:-0.30224683 8:-0.0017124429 9:1.1722678 10:0 11:1.0817748 12:-0.47469378 
2.896362274304038 1:-0.41091347 2:-0.74128945 3:0.82820604 4:-1.3488398 5:0.084157969 6:-0.22024696 7:0.10090631 8:-0.13263538 9:0.40927405 10:0 11:-0.9244068 12:-0.47469378 
1.015389545396017 1:1.4698014 2:0.3491598 3:-0.013370922 4:-1.3488398 5:-1.1281724 6:0.11922725 7:0.17675376 8:0.0076391954 9:0.40927405 10:0 11:1.0817748 12:-0.47469378 
-3.008150647160884 1:-0.81091798 2:-1.3510073 3:-0.22884206 4:1.009421 5:-0.41947475 6:-0.3343441 7:-1.0104981 8:-1.1613156 9:-0.0091418603 10:0 11:1.0817748 12:-0.47469378 
-7.5 1:-0.57488707 2:-1.5049703 3:-0.24493856 4:-1.3011981 5:0.49933862 6:-1.0383657 7:-1.8642944 8:-3.6909337 9:0.77846456 10:0 11:-0.9244068 12:2.1066213 
