svm_type epsilon_svr
kernel_type rbf
gamma 0.38
nr_class 2
total_sv 1601
rho -1.08691
SV
8.362045012499372 1:-0.71688181 2:-0.06000952 3:-0.22110812 4:-0.61039448 5:-0.76003533 6:-0.30335475 7:-0.47546601 8:1.2514071 9:0.77846456 10:0 11:-0.9244068 12:-0.47469378 
-1.242364842360294 1:0.77607616 2:-0.090323339 3:-0.51469996 4:-0.84860263 5:0.66179282 6:1.4179626 7:1.1207471 8:-0.10458046 9:0.77846456 10:0 11:-0.9244068 12:2.1066213 
-0.07243690623051867 1:-0.027337293 2:-0.052440764 3:-0.64017288 4:-1.0868108 5:1.7290438 6:0.51448228 7:-0.89331032 8:2.5886914 9:-0.20604347 10:0 11:-0.9244068 12:-0.47469378 
-1.431362285749047 1:-1.0528782 2:-0.52365134 3:-0.13391487 4:-0.87242345 5:0.75544319 6:-0.27461917 7:-0.92747584 8:1.8592636 9:0.77846456 10:0 11:1.0817748 12:-0.47469378 
-4.984815717532912 1:-0.50600548 2:0.028460198 3:-0.023701402 4:-0.41982795 5:0.70887583 6:-0.27687295 7:-0.92576756 8:-1.8252819 9:0.77846456 10:0 11:1.0817748 12:-0.47469378 
-2.041774084287968 1:-0.54135751 2:-0.70165536 3:-0.19849303 4:5.916509 5:0.048330799 6:-0.61522027 7:-0.37809428 8:-0.12328374 9:1.073817 10:0 11:1.0817748 12:-0.47469378 
-0.07456898785195452 1:-1.5943494 2:-0.54550945 3:-0.0038716603 4:-0.41982795 5:0.78609465 6:-0.67100109 7:-0.94353363 8:-0.19342103 9:1.5168456 10:0 11:1.0817748 12:-0.47469378 
5.264447047169624 1:0.85009904 2:0.87711392 3:-0.11022923 4:0.19951325 5:-1.0743734 6:-0.78397134 7:-0.91859281 8:0.11050722 9:-1.3382277 10:0 11:-0.9244068 12:2.1066213 
-0.7000378089669157 1:-0.88592478 2:0.14841555 3:-2.3034807 4:0.19951325 5:0.67001713 6:-0.72509159 7:-0.38082752 8:1.5085771 9:-1.3382277 10:0 11:1.0817748 12:-0.47469378 
-0.2280925472534857 1:-0.41485635 2:-0.037860721 3:-2.2272877 4:-0.32454469 5:3.0193723 6:-0.21714802 7:-0.8622197 8:1.1952973 9:0.77846456 10:0 11:-0.9244068 12:-0.47469378 
-2.211690186614703 1:-2.8048801 2:-1.9522033 3:-0.29758261 4:0.17569244 5:-1.1121082 6:0.17500807 7:1.0489995 8:-0.13263538 9:0.48311215 10:0 11:1.0817748 12:-0.47469378 
4.384659955101759 1:-2.0060271 2:-1.1119447 3:3.0292864 4:-0.32454469 5:0.92422087 6:-0.72762708 7:-0.39141883 8:0.16661705 9:-0.40294507 10:0 11:-0.9244068 12:-0.47469378 
9.279914069377968 1:-0.31952257 2:-0.0010482479 3:-0.66386552 4:0.19951325 5:0.67001713 6:0.514764 7:1.122797 8:-0.0017124429 9:-1.3382277 10:0 11:1.0817748 12:-0.47469378 
-0.1189672749672676 1:-0.30329805 2:-0.39828785 3:-0.19540404 4:0.19951325 5:1.6098182 6:0.17500807 7:-1.488132 8:0.10115558 9:-0.45217047 10:0 11:-0.9244068 12:2.1066213 
-0.5669172690724616 1:-0.33296521 2:-0.14270879 3:1.7049 4:-1.5155855 5:2.8278199 6:2.1219842 7:1.0561742 8:2.4250377 9:0.77846456 10:0 11:-0.9244068 12:-0.47469378 
-1.832608397696568 1:0.044081167 2:-0.26157683 3:2.417743 4:-1.5155855 5:3.2804545 6:1.3328828 7:1.0220087 8:1.6956099 9:0.77846456 10:0 11:-0.9244068 12:-0.47469378 
6.204644600485451 1:-1.4913779 2:-1.0767368 3:-0.75476015 4:-1.3488398 5:0.051435723 6:-0.22024696 7:0.10090631 8:-0.13263538 9:0.43388675 10:0 11:-0.9244068 12:-0.47469378 
-9.800000000000004 1:0.87631305 2:1.798366 3:0.046780297 4:1.009421 5:-1.0730414 6:-0.19066622 7:-0.83010411 8:-1.7831995 9:-1.6828055 10:0 11:1.0817748 12:-0.47469378 
-9.800000000000004 1:0.39452835 2:0.36288565 3:0.23721029 4:1.009421 5:-1.1238569 6:0.514764 7:1.122797 8:-0.0017124429 9:-1.1905515 10:0 11:1.0817748 12:-0.47469378 
5.829723317754547 1:-1.5847825 2:-0.71469313 3:2.6916979 4:-1.3488398 5:1.1387846 6:0.45785629 7:1.0462662 8:0.15726541 9:0.40927405 10:0 11:-0.9244068 12:-0.47469378 
-2.840588195095417 1:-0.87501576 2:-1.3947028 3:-0.42601589 4:0.74739201 5:-0.99391271 6:-0.61522027 7:-0.37809428 8:-0.14198702 9:0.53233756 10:0 11:-0.9244068 12:2.1066213 
0.4997352413975295 1:-0.1435513 2:0.24058321 3:-3.4547587 4:-0.32454469 5:1.5021671 6:1.8681533 7:0.56521573 8:0.0076391954 9:0.43388675 10:0 11:-0.9244068 12:-0.47469378 
-9.800000000000004 1:0.72110559 2:0.39920564 3:-0.1565161 4:-0.32454469 5:-1.1281724 6:0.11922725 7:0.17675376 8:0.0076391954 9:0.43388675 10:0 11:-0.9244068 12:2.1066213 
-9.800000000000004 1:-0.48778542 2:-0.40284207 3:-0.13777608 4:-0.32454469 5:-0.59762271 6:-0.30335475 7:-0.47546601 8:1.2514071 9:0.43388675 10:0 11:-0.9244068 12:-0.47469378 
2.160118737450361 1:-0.17640557 2:0.21238022 3:-2.3034807 4:0.19951325 5:1.0779375 6:0.90973731 7:1.6017976 8:0.012315015 9:-1.3382277 10:0 11:-0.9244068 12:-0.47469378 
-9.800000000000004 1:-0.080856627 2:-0.46284262 3:-0.018366806 4:1.009421 5:-0.68977402 6:-0.27574606 7:-0.30224683 8:-0.0017124429 9:-1.1905515 10:0 11:1.0817748 12:-0.47469378 
9.800000000000004 1:0.2269051 2:0.40828012 3:-1.0813834 4:-0.84860263 5:0.83249896 6:0.063728146 7:0.10944769 8:0.15726541 9:0.77846456 10:0 11:-0.9244068 12:2.1066213 
-0.982384699149198 1:1.3915435 2:-0.93600201 3:-0.25382148 4:-1.3488398 5:-0.64338779 6:0.17500807 7:1.0489995 8:-0.13263538 9:-1.1905515 10:0 11:-0.9244068 12:-0.47469378 
6.107224168830907 1:2.5962562 2:2.1305539 3:0.16206415 4:-0.32454469 5:-1.1281724 6:0.90973731 7:1.1354383 8:-0.011064081 9:0.43388675 10:0 11:-0.9244068 12:2.1066213 
5.038676029416838 1:0.83561734 2:2.1233382 3:0.10190477 4:1.009421 5:-0.68977402 6:-0.72537331 7:-0.84752852 8:1.2888136 9:-1.4366785 10:0 11:1.0817748 12:-0.47469378 
-9.800000000000004 1:-0.46895052 2:-0.71598242 3:0.019716905 4:-1.5394063 5:0.54251463 6:0.17500807 7:-1.488132 8:0.10115558 9:0.77846456 10:0 11:1.0817748 12:-0.47469378 
-9.800000000000004 1:-0.028111926 2:0.058615486 3:-0.10197096 4:-1.1106316 5:0.37497128 6:-0.24813737 7:-0.43070918 8:-1.2174254 9:0.77846456 10:0 11:-0.9244068 12:-0.47469378 
0.1551078380166813 1:-0.16301284 2:-1.2222247 3:-0.20959984 4:0.19951325 5:-0.30504032 6:-0.67071937 7:1.0527577 8:0.0029633763 9:-1.3382277 10:0 11:-0.9244068 12:-0.47469378 
2.765786681764623 1:-0.34367393 2:-0.55826431 3:-0.025642294 4:0.74739201 5:-0.74426796 6:0.82409402 7:-1.4836905 8:0.20869942 9:2.058325 10:0 11:1.0817748 12:-0.47469378 
1.699667094107501 1:-0.19854835 2:-0.11252303 3:-0.33157858 4:0.79503364 5:-1.11337 6:-2.8703995 7:-2.0593795 8:0.17596868 9:-1.0921007 10:0 11:1.0817748 12:-0.47469378 
9.800000000000004 1:0.53974135 2:-0.317934 3:-0.15887549 4:-0.84860263 5:0.39581215 6:1.0776432 7:0.16855404 8:-0.20744848 9:0.77846456 10:0 11:-0.9244068 12:2.1066213 
9.800000000000004 1:2.2480459 2:1.70676 3:0.35509319 4:-0.84860263 5:-1.0937154 6:0.90973731 7:1.1354383 8:-0.011064081 9:0.77846456 10:0 11:-0.9244068 12:2.1066213 
-9.800000000000004 1:-0.34787091 2:-0.32945622 3:-0.044076008 4:-0.32454469 5:-1.1281724 6:-0.27574606 7:-0.30224683 8:-0.0017124429 9:0.43388675 10:0 11:-0.9244068 12:2.1066213 
0.01170860599862716 1:2.6143932 2:1.4895051 3:0.16206415 4:-0.32454469 5:-1.1136103 6:0.90973731 7:1.1354383 8:-0.011064081 9:0.43388675 10:0 11:-0.9244068 12:-0.47469378 
0.9463643244780703 1:1.0097416 2:0.59445761 3:-0.015965986 4:-0.32454469 5:-0.3567304 6:0.96523641 7:1.5385914 8:-0.1373112 9:-0.50139587 10:0 11:-0.9244068 12:-0.47469378 
0.5828588074370871 1:-0.92890367 2:-0.033568049 3:-1.318397 4:-0.32454469 5:1.0709724 6:0.96523641 7:1.5385914 8:-0.1373112 9:0.43388675 10:0 11:1.0817748 12:-0.47469378 
2.979489995038564 1:0.27063616 2:0.45924425 3:-1.9377007 4:1.009421 5:0.4740808 6:-0.72650019 7:0.54061655 8:0.16661705 9:-1.1905515 10:0 11:1.0817748 12:-0.47469378 
-0.4750354574869536 1:-0.45051112 2:0.14600791 3:-0.14849175 4:-1.5155855 5:-1.1174345 6:-1.1214735 7:0.50610938 8:0.15258959 9:-0.40294507 10:0 11:-0.9244068 12:2.1066213 
9.800000000000004 1:0.1738693 2:0.32324568 3:0.095609909 4:0.19951325 5:-0.65859944 6:0.62745253 7:1.1282635 8:-0.44123944 9:-1.1905515 10:0 11:-0.9244068 12:-0.47469378 
0.006468571459962815 1:0.39332597 2:-0.049248021 3:0.077325907 4:-0.44364877 5:1.7960201 6:-0.24926425 7:-0.90731818 8:-2.961506 9:0.77846456 10:0 11:1.0817748 12:-0.47469378 
-9.800000000000004 1:1.2003641 2:0.57910769 3:0.26351642 4:0.74739201 5:-1.0529699 6:0.90973731 7:1.1354383 8:-0.011064081 9:2.7474806 10:0 11:1.0817748 12:-0.47469378 
0.6425196363228257 1:-0.84742909 2:-1.6588616 3:0.46930551 4:-1.5155855 5:-0.29951697 6:2.1219842 7:1.0561742 8:2.4250377 9:0.77846456 10:0 11:-0.9244068 12:2.1066213 
3.687957833972451 1:-1.392788 2:-0.90351984 3:-0.07218603 4:-0.32454469 5:-0.59762271 6:0.93650084 7:1.0281585 8:-0.2588825 9:0.43388675 10:0 11:-0.9244068 12:-0.47469378 
0.9548926547381872 1:-1.3726172 2:-0.24241763 3:-1.3112862 4:1.009421 5:0.70663313 6:-1.0648475 7:-0.92337598 8:1.1485391 9:0.040083541 10:0 11:1.0817748 12:-0.47469378 
-9.800000000000004 1:0.86153561 2:0.85026461 3:0.34009429 4:-0.32454469 5:-1.087898 6:-0.21855663 7:0.10227293 8:-0.27290995 9:-0.35371967 10:0 11:1.0817748 12:-0.47469378 
-3.319406575331063 1:3.0021423 2:1.0166195 3:0.60779303 4:-1.3488398 5:-1.0880612 6:0.90973731 7:1.1354383 8:-0.011064081 9:0.43388675 10:0 11:-0.9244068 12:2.1066213 
1.538843132861041 1:-0.35405168 2:-0.36190482 3:-0.025054411 4:0.19951325 5:-0.70101686 6:0.17500807 7:-1.488132 8:0.10115558 9:-1.3382277 10:0 11:1.0817748 12:-0.47469378 
0.1618056408168834 1:0.049312472 2:-1.1584994 3:0.21012767 4:-0.84860263 5:0.89260607 6:0.68238819 7:-0.013889837 8:1.1625665 9:0.77846456 10:0 11:-0.9244068 12:-0.47469378 
-4.600438636527732 1:1.3915435 2:-0.93600201 3:-0.25382148 4:-1.3488398 5:-0.64338779 6:0.17500807 7:1.0489995 8:-0.13263538 9:0.43388675 10:0 11:-0.9244068 12:-0.47469378 
-3.296208909562818 1:-1.6689739 2:-1.0107979 3:-0.21881943 4:1.009421 5:-1.0970636 6:0.17500807 7:1.0489995 8:-0.13263538 9:-1.185629 10:0 11:1.0817748 12:-0.47469378 
-9.800000000000004 1:-0.96713385 2:-0.63657256 3:0.18700455 4:-1.3488398 5:0.084157969 6:0.5702631 7:1.0595908 8:-0.15133866 9:0.40927405 10:0 11:-0.9244068 12:-0.47469378 
9.800000000000004 1:1.5356492 2:0.85217212 3:0.16705187 4:1.009421 5:-1.1023205 6:0.90973731 7:1.1313384 8:0.0076391954 9:-1.185629 10:0 11:1.0817748 12:-0.47469378 
9.800000000000004 1:-1.2217814 2:-1.2028618 3:-0.081556038 4:-0.32454469 5:-0.51024112 6:0.68266991 7:-0.31044655 8:-0.21680012 9:0.36004865 10:0 11:1.0817748 12:-0.47469378 
9.473439683967028 1:2.5962562 2:2.1305539 3:0.16206415 4:-0.32454469 5:-1.1281724 6:0.90973731 7:1.1354383 8:-0.011064081 9:0.43388675 10:0 11:-0.9244068 12:2.1066213 
-3.64693253421042 1:-1.1606346 2:0.0019131832 3:2.9265334 4:-1.5632271 5:1.5999657 6:0.060910933 7:-0.055913426 8:-1.0350685 9:0.77846456 10:0 11:-0.9244068 12:-0.47469378 
2.348765328721528 1:1.2948224 2:0.68546959 3:-0.29255803 4:0.74739201 5:-0.99391271 6:-1.0372388 7:-0.88989377 8:0.012315015 9:0.53233756 10:0 11:-0.9244068 12:2.1066213 
-1.994691436124224 1:-0.23912862 2:-0.5056555 3:2.3558677 4:-0.41982795 5:2.0326173 6:-0.89722332 7:-1.2178828 8:-2.1806442 9:0.77846456 10:0 11:-0.9244068 12:-0.47469378 
0.7969031905205211 1:-1.6512597 2:-0.30092893 3:0.0066666247 4:-1.3488398 5:-0.37216147 6:1.0776432 7:0.16855404 8:-0.20744848 9:0.40927405 10:0 11:-0.9244068 12:2.1066213 
-1.10522109381407 1:-0.94851327 2:-0.88229614 3:0.9231859 4:-1.5632271 5:1.5999657 6:-1.4336207 7:-1.8683943 8:-3.9013456 9:0.77846456 10:0 11:-0.9244068 12:-0.47469378 
0.4439888497652663 1:1.1182225 2:0.13917826 3:0.20287223 4:0.79503364 5:0.94854575 6:0.59815351 7:0.13541349 8:-0.28693741 9:0.040083541 10:0 11:1.0817748 12:-0.47469378 
3.748584568165724 1:3.814603 2:4.4386167 3:0.59671077 4:-1.0868108 5:-1.1281724 6:-0.6974829 7:-0.34734531 8:0.27416089 9:-0.82136098 10:0 11:-0.9244068 12:2.1066213 
8.586217541621366 1:-0.020961731 2:-0.6440207 3:1.5902655 4:1.009421 5:1.2849827 6:0.93650084 7:1.0281585 8:-0.2588825 9:-1.185629 10:0 11:1.0817748 12:-0.47469378 
1.873843535527819 1:-0.25526097 2:0.22172977 3:0.096474102 4:-0.32454469 5:0.54314894 6:1.3590828 7:1.5184337 8:-1.4792713 9:-0.50139587 10:0 11:1.0817748 12:-0.47469378 
7.436866490569693 1:0.050419858 2:0.37844261 3:-1.4866823 4:1.009421 5:0.30073563 6:-0.64198379 7:-0.41055152 8:0.12453467 9:0.53233756 10:0 11:-0.9244068 12:-0.47469378 
0.09451781971988545 1:0.37168945 2:0.28545124 3:-0.23147616 4:-0.32454469 5:0.40431493 6:-1.0648475 7:-0.92337598 8:1.1485391 9:-0.50139587 10:0 11:-0.9244068 12:-0.47469378 
-5.180223022219349 1:-0.30470127 2:-0.73295533 3:1.3396997 4:1.009421 5:0.06150088 6:-0.67071937 7:1.0527577 8:0.0029633763 9:-1.4366785 10:0 11:1.0817748 12:-0.47469378 
1.2437406134053 1:0.31413365 2:0.066838463 3:-0.023701402 4:-0.41982795 5:-0.71575891 6:0.17500807 7:-1.488132 8:0.10115558 9:0.77846456 10:0 11:-0.9244068 12:-0.47469378 
9.800000000000004 1:0.4261988 2:-0.12698473 3:-0.13362707 4:1.009421 5:2.0103392 6:-0.30222787 7:-0.96095805 8:2.9954876 9:-1.6828055 10:0 11:1.0817748 12:-0.47469378 
-2.223715446028228 1:-2.5071918 2:-1.4682298 3:2.1377405 4:-0.41982795 5:0.23234934 6:0.17500807 7:1.0489995 8:-0.13263538 9:0.77846456 10:0 11:1.0817748 12:-0.47469378 
3.581607401356675 1:-0.3500688 2:-0.320601 3:0.037088392 4:-0.44364877 5:-0.39883212 6:-0.67071937 7:-0.31488807 8:0.026342472 9:0.77846456 10:0 11:1.0817748 12:-0.47469378 
-3.521847000457561 1:0.79492163 2:0.16207717 3:-0.043423384 4:1.009421 5:1.3500396 6:0.26065136 7:-1.2011417 8:1.7376923 9:-0.0091418603 10:0 11:1.0817748 12:-0.47469378 
1.78203565307513 1:0.91400889 2:3.521811 3:-0.07218603 4:-0.32454469 5:-1.1094078 6:-0.6988915 7:-0.8195128 8:-1.6709799 9:0.77846456 10:0 11:-0.9244068 12:2.1066213 
-0.03215354729334786 1:0.28433541 2:-0.22403537 3:0.049624065 4:-0.32454469 5:0.398049 6:0.51448228 7:-0.89331032 8:2.5886914 9:-0.50139587 10:0 11:-0.9244068 12:-0.47469378 
9.800000000000004 1:-0.89396183 2:0.096198045 3:0.040254058 4:-0.32454469 5:0.26457578 6:-0.67071937 7:-0.31488807 8:0.0076391954 9:2.0090996 10:0 11:-0.9244068 12:2.1066213 
-4.786976896650142 1:0.85317557 2:-0.2509816 3:0.39757239 4:1.009421 5:-0.32819802 6:-1.0662561 7:0.12858038 8:0.03569411 9:-0.0091418603 10:0 11:1.0817748 12:-0.47469378 
0.7007145109056246 1:-0.45023584 2:0.10254643 3:0.021723719 4:1.009421 5:0.75647334 6:-0.30222787 7:-0.96095805 8:2.9954876 9:-1.185629 10:0 11:1.0817748 12:-0.47469378 
9.800000000000004 1:-0.34393799 2:-0.042357985 3:-0.033371021 4:2.7721613 5:-0.56039044 6:0.82409402 7:-1.4836905 8:0.20869942 9:0.77846456 10:0 11:1.0817748 12:-0.47469378 
0.836302609095523 1:-0.88129832 2:-0.51645597 3:0.045622526 4:-0.94388589 5:-0.95698816 6:-0.67071937 7:-0.31488807 8:0.026342472 9:-0.20604347 10:0 11:1.0817748 12:-0.47469378 
6.574042302640365 1:-0.73639906 2:-0.30943298 3:-0.027444955 4:0.91413772 5:0.36690384 6:-0.24813737 7:-0.90595156 8:-1.1192332 9:1.1722678 10:0 11:-0.9244068 12:2.1066213 
5.435752616826758 1:-0.60563227 2:0.65896267 3:-0.37898999 4:-1.5632271 5:1.5999657 6:0.23050718 7:0.149763 8:-1.6335733 9:0.77846456 10:0 11:-0.9244068 12:-0.47469378 
-6.153024181012312 1:1.0776158 2:-0.21755002 3:0.14760765 4:0.17569244 5:-1.0803141 6:-0.72593675 7:-1.479249 8:0.13856213 9:-1.3382277 10:0 11:1.0817748 12:-0.47469378 
-9.800000000000004 1:0.36453611 2:1.368423 3:0.20115911 4:-1.3250189 5:2.2627799 6:0.48687359 7:-0.92679253 8:3.7249154 9:0.77846456 10:0 11:-0.9244068 12:2.1066213 
-0.8278562241135814 1:1.8734101 2:2.7626327 3:-0.10252823 4:0.79503364 5:-1.11337 6:-1.5156016 7:-0.41635966 8:1.5272804 9:-1.0921007 10:0 11:1.0817748 12:-0.47469378 
3.063830201971425 1:-0.3721028 2:-1.4088589 3:0.32873583 4:-0.84860263 5:0.34728495 6:1.3328828 7:1.0220087 8:1.6956099 9:-0.058367262 10:0 11:1.0817748 12:-0.47469378 
-0.108595117296652 1:-0.12070355 2:-0.42626866 3:-0.31606836 4:0.19951325 5:-0.30504032 6:-2.2782213 7:-0.89672687 8:0.16661705 9:-1.3382277 10:0 11:-0.9244068 12:-0.47469378 
1.850034856528652 1:0.57806219 2:2.8310926 3:-0.13777608 4:-0.32454469 5:-1.1094078 6:-1.487993 7:-1.776489 8:-2.4004077 9:0.77846456 10:0 11:-0.9244068 12:2.1066213 
9.800000000000004 1:-0.37336339 2:-0.24363669 3:-0.033371021 4:2.7721613 5:-1.1281724 6:0.82409402 7:-1.4836905 8:0.20869942 9:0.77846456 10:0 11:1.0817748 12:-0.47469378 
1.664092727132839 1:-0.39856511 2:-0.76585024 3:-0.025054411 4:0.19951325 5:-0.71533178 6:0.17500807 7:-1.488132 8:0.10115558 9:-1.3382277 10:0 11:-0.9244068 12:2.1066213 
-6.593022184443631 1:-0.2237839 2:0.27617542 3:-0.088525225 4:1.009421 5:0.90861106 6:-0.30335475 7:-0.95788315 8:1.1532149 9:-1.6828055 10:0 11:1.0817748 12:-0.47469378 
-1.946756323648865 1:1.2173255 2:-0.26341517 3:-0.79145233 4:-0.84860263 5:0.66179282 6:0.57195343 7:0.094756517 8:0.063749025 9:0.77846456 10:0 11:-0.9244068 12:2.1066213 
-1.126612015222183 1:-0.64645633 2:0.011069946 3:-0.5406864 4:-0.32454469 5:3.0193723 6:1.4179626 7:1.1207471 8:-0.10458046 9:2.0090996 10:0 11:-0.9244068 12:-0.47469378 
-0.8372101622640455 1:0.12138925 2:-0.34653068 3:-0.063360887 4:-0.41982795 5:-0.89092915 6:-0.92483201 7:-2.8219539 8:-0.090553006 9:0.28621055 10:0 11:-0.9244068 12:-0.47469378 
-3.206659496231844 1:0.45048495 2:0.32483436 3:-1.7723273 4:1.009421 5:0.74374185 6:-1.0093484 7:0.19759473 8:-0.12328374 9:-1.6828055 10:0 11:1.0817748 12:-0.47469378 
-1.534606975653791 1:1.4504473 2:0.71404957 3:-0.69464751 4:-1.3488398 5:0.5361045 6:0.514764 7:1.122797 8:-0.0017124429 9:0.43388675 10:0 11:-0.9244068 12:2.1066213 
3.760609378929222 1:0.072897138 2:0.30251144 3:0.11787688 4:-0.84860263 5:0.34728495 6:-0.30222787 7:-0.96095805 8:2.9954876 9:-0.058367262 10:0 11:1.0817748 12:-0.47469378 
3.587516760916631 1:0.0184883 2:-0.47368834 3:0.35113435 4:0.19951325 5:1.0779375 6:-0.67071937 7:-0.31488807 8:0.0076391954 9:-1.3382277 10:0 11:-0.9244068 12:-0.47469378 
9.800000000000004 1:-0.76054063 2:-0.22228673 3:-0.018366806 4:1.009421 5:-1.1238569 6:-0.67071937 7:-0.31488807 8:0.026342472 9:-1.185629 10:0 11:1.0817748 12:-0.47469378 
4.496037882106263 1:-0.56214904 2:-0.16606481 3:0.076848191 4:1.009421 5:0.97632637 6:-0.30335475 7:-0.47546601 8:1.2514071 9:-1.6828055 10:0 11:1.0817748 12:-0.47469378 
9.800000000000004 1:0.45048495 2:0.32483436 3:-1.7723273 4:1.009421 5:0.74374185 6:-1.0093484 7:0.19759473 8:-0.12328374 9:-1.6828055 10:0 11:1.0817748 12:-0.47469378 
7.453412340100425 1:-0.76177895 2:-2.7150315 3:-1.0300779 4:-1.5632271 5:-0.31931688 6:-0.61522027 7:-0.37809428 8:-0.12328374 9:-0.10759266 10:0 11:-0.9244068 12:-0.47469378 
-8.655007115860492 1:-2.5739095 2:0.38065763 3:-2.4344814 4:-0.800961 5:0.46309261 6:-1.1203466 7:-0.86016977 8:1.2981653 9:0.77846456 10:0 11:1.0817748 12:-0.47469378 
0.8399616448063385 1:-1.0375484 2:-0.059851623 3:0.96788479 4:-0.32454469 5:0.92422087 6:-1.939874 7:-1.8615612 8:-2.2507814 9:-0.40294507 10:0 11:-0.9244068 12:-0.47469378 
3.536544902206329 1:-0.81931442 2:-0.79827663 3:-0.37520722 4:0.79503364 5:-1.11337 6:-1.0662561 7:0.12858038 8:0.03569411 9:-1.0921007 10:0 11:1.0817748 12:-0.47469378 
2.060095103647631 1:-0.58336201 2:-0.037540056 3:-0.033371021 4:2.7721613 5:-0.9268643 6:0.82409402 7:-1.4836905 8:0.20869942 9:0.77846456 10:0 11:-0.9244068 12:2.1066213 
0.731130866976251 1:1.5043069 2:0.040791289 3:-0.25890996 4:1.009421 5:0.39350622 6:0.23050718 7:0.149763 8:-1.6335733 9:-1.1905515 10:0 11:1.0817748 12:-0.47469378 
-9.800000000000004 1:-1.2485052 2:-1.3201642 3:-0.026910147 4:0.34243814 5:0.90500447 6:0.40010342 7:-0.35622835 8:0.71368788 9:-0.20604347 10:0 11:1.0817748 12:-0.47469378 
-1.633549095502076 1:2.7537997 2:2.715809 3:0.43813595 4:-1.0868108 5:-1.1281724 6:0.063728146 7:0.10534783 8:0.17596868 9:-0.82136098 10:0 11:-0.9244068 12:-0.47469378 
9.800000000000004 1:-0.19506717 2:0.15974154 3:0.23721029 4:1.009421 5:-1.1281724 6:0.514764 7:1.122797 8:-0.0017124429 9:-1.1905515 10:0 11:1.0817748 12:-0.47469378 
0.2439013464589021 1:-1.3653 2:-0.96893274 3:0.18416831 4:-1.5155855 5:1.021964 6:1.3328828 7:1.0220087 8:1.6956099 9:0.77846456 10:0 11:-0.9244068 12:-0.47469378 
-2.693930902244813 1:-0.073249731 2:0.77157887 3:0.24784616 4:-1.0868108 5:0.28496928 6:0.48687359 7:-0.92679253 8:3.7249154 9:-0.20604347 10:0 11:-0.9244068 12:2.1066213 
1.111279624558977 1:-0.29558752 2:-0.058664371 3:-0.54889969 4:0.17569244 5:1.9849653 6:0.51448228 7:-0.89331032 8:2.5886914 9:0.48311215 10:0 11:-0.9244068 12:-0.47469378 
0.4869189482218446 1:-0.84467378 2:-1.2003925 3:1.79072 4:-0.41982795 5:-0.0068731312 6:0.93650084 7:1.0281585 8:-0.2588825 9:-1.4366785 10:0 11:-0.9244068 12:2.1066213 
-1.423092059886107 1:-0.24849272 2:0.14390676 3:0.035787824 4:-0.41982795 5:2.4650581 6:-0.92483201 7:-2.8219539 8:-0.090553006 9:0.28621055 10:0 11:-0.9244068 12:-0.47469378 
-6.696617184091892 1:0.69388977 2:0.93090677 3:-0.097931971 4:0.74739201 5:-1.0370537 6:0.11922725 7:0.1726539 8:0.026342472 9:2.7474806 10:0 11:1.0817748 12:-0.47469378 
-3.189750001312681 1:-0.23756793 2:0.43111406 3:-0.078702847 4:-0.13397817 5:-0.87121012 6:-1.1214735 7:0.50610938 8:0.15258959 9:1.0245916 10:0 11:-0.9244068 12:-0.47469378 
1.62606858319106 1:-0.36912027 2:-0.087163822 3:-0.48313996 4:1.7716871 5:2.2680895 6:0.51448228 7:-0.89331032 8:2.5886914 9:0.87691537 10:0 11:-0.9244068 12:-0.47469378 
-7.932685368003909 1:-0.5724587 2:-0.25309502 3:0.12400151 4:0.19951325 5:0.67001713 6:-0.67071937 7:-0.31488807 8:0.026342472 9:-1.3382277 10:0 11:1.0817748 12:-0.47469378 
5.374714985577184 1:2.2480459 2:1.70676 3:0.35509319 4:-0.84860263 5:-1.0937154 6:0.90973731 7:1.1354383 8:-0.011064081 9:0.77846456 10:0 11:-0.9244068 12:2.1066213 
-9.800000000000004 1:-0.17920031 2:-0.28861467 3:-2.2888653 4:0.74739201 5:-0.23349847 6:-0.021915139 7:-0.86802784 8:0.86798992 9:1.1722678 10:0 11:-0.9244068 12:-0.47469378 
-0.3606211303998016 1:0.01350382 2:-0.1102612 3:3.0171874 4:-0.84860263 5:-0.71893304 6:-0.89722332 7:-1.2178828 8:-2.1806442 9:-0.058367262 10:0 11:1.0817748 12:-0.47469378 
-1.650395304973327 1:-0.13678564 2:-0.10675806 3:-0.088085891 4:3.6535315 5:-0.45688384 6:-0.72593675 7:-1.479249 8:0.13856213 9:1.2707186 10:0 11:-0.9244068 12:2.1066213 
0.1664870963632484 1:-0.56577999 2:-0.65706669 3:1.7049 4:-1.5155855 5:2.319128 6:2.1219842 7:1.0561742 8:2.4250377 9:0.77846456 10:0 11:-0.9244068 12:-0.47469378 
-2.630094211771353 1:0.42735847 2:1.0801875 3:0.31993936 4:0.17569244 5:-1.125093 6:0.57195343 7:0.094756517 8:0.063749025 9:2.0090996 10:0 11:1.0817748 12:-0.47469378 
-9.800000000000004 1:0.093027581 2:-0.56701736 3:-0.013909963 4:-0.84860263 5:0.66179282 6:0.62745253 7:0.16206259 8:-0.085877187 9:0.77846456 10:0 11:-0.9244068 12:2.1066213 
-7.274552512322994 1:-0.86870482 2:-0.63674906 3:-0.22476891 4:-0.84860263 5:-1.1281724 6:-0.16305753 7:0.16957901 8:-0.42253616 9:0.77846456 10:0 11:-0.9244068 12:2.1066213 
-1.259251249908901 1:0.3081911 2:0.56938416 3:-0.0931055 4:-0.41982795 5:-0.097285278 6:0.11950897 7:0.51294248 8:-0.0017124429 9:1.5168456 10:0 11:-0.9244068 12:-0.47469378 
-6.033782263507799 1:0.0096884036 2:0.58672611 3:-0.081556038 4:-0.32454469 5:-0.3567304 6:-0.64198379 7:-0.41055152 8:0.12453467 9:0.43388675 10:0 11:-0.9244068 12:-0.47469378 
9.800000000000004 1:1.226098 2:0.55266678 3:0.29688088 4:0.74739201 5:-1.1281724 6:1.4179626 7:1.1207471 8:-0.10458046 9:1.1722678 10:0 11:1.0817748 12:-0.47469378 
0.3209686398355218 1:1.1475536 2:0.66515016 3:-2.6881118 4:-0.75331937 5:0.10500095 6:-0.72650019 7:0.54061655 8:0.16661705 9:0.77846456 10:0 11:1.0817748 12:-0.47469378 
-0.5524748140665509 1:2.3319061 2:0.99532286 3:-0.053446016 4:-1.3488398 5:1.7873373 6:1.7278561 7:1.5010093 8:1.7096374 9:0.43388675 10:0 11:1.0817748 12:-0.47469378 
-1.515211677059581 1:0.52033133 2:0.8231071 3:-1.8163179 4:0.91413772 5:-0.24930912 6:-1.487993 7:-1.776489 8:-2.4004077 9:1.1722678 10:0 11:1.0817748 12:-0.47469378 
0.7621838944331849 1:5.0562028 2:1.7710326 3:0.68794322 4:-1.3488398 5:-1.1271835 6:0.90973731 7:1.1313384 8:0.0076391954 9:-0.94442449 10:0 11:-0.9244068 12:2.1066213 
4.762481664485687 1:1.3773418 2:1.0453543 3:0.46657519 4:0.91413772 5:-1.0394844 6:0.064009867 7:0.57614869 8:0.14791377 9:1.1722678 10:0 11:-0.9244068 12:2.1066213 
-2.591338765487806 1:1.2955694 2:0.074799648 3:0.44316437 4:-0.32454469 5:0.75953649 6:-1.0662561 7:0.12858038 8:0.03569411 9:0.43388675 10:0 11:1.0817748 12:-0.47469378 
0.3812308649829485 1:0.10122416 2:0.39153869 3:-0.33019838 4:-0.84860263 5:0.9609635 6:-1.1217552 7:0.061274307 8:0.18532032 9:0.77846456 10:0 11:-0.9244068 12:-0.47469378 
-1.796674057104824 1:-0.64645633 2:0.011069946 3:-0.5406864 4:-0.32454469 5:3.0193723 6:1.4179626 7:1.1207471 8:-0.10458046 9:0.77846456 10:0 11:-0.9244068 12:-0.47469378 
-1.797064601257056 1:-0.095285203 2:-0.16128542 3:1.3589831 4:0.74739201 5:1.6714638 6:1.3328828 7:1.0220087 8:1.6956099 9:-0.59984668 10:0 11:1.0817748 12:-0.47469378 
-0.02300847453111457 1:-1.6178357 2:-0.47448515 3:-0.015965986 4:-0.32454469 5:0.15371876 6:1.78251 7:-0.32137952 8:-0.025091539 9:0.18775975 10:0 11:-0.9244068 12:-0.47469378 
9.800000000000004 1:0.53007132 2:-0.66759943 3:-0.45936258 4:1.009421 5:0.011124701 6:-0.61522027 7:-0.37809428 8:-0.12328374 9:-0.69829748 10:0 11:-0.9244068 12:-0.47469378 
4.552574436004297 1:1.6610182 2:0.100183 3:-0.033400753 4:1.009421 5:0.29032682 6:-0.55859428 7:0.15932935 8:-0.27290995 9:-1.185629 10:0 11:1.0817748 12:-0.47469378 
3.299460495564377 1:-2.3050727 2:-0.087566501 3:-0.26729891 4:-1.5155855 5:-0.32361484 6:-0.67071937 7:1.0527577 8:0.0029633763 9:0.77846456 10:0 11:-0.9244068 12:-0.47469378 
-5.009168023129446 1:0.14083654 2:-0.059168072 3:0.076848191 4:1.009421 5:0.56838499 6:-0.30335475 7:-0.47546601 8:1.2514071 9:-0.0091418603 10:0 11:1.0817748 12:-0.47469378 
6.582883957923743 1:-0.14215479 2:-2.5775082 3:-1.1052035 4:-1.5632271 5:-0.31931688 6:-0.22024696 7:0.10090631 8:-0.13263538 9:-0.10759266 10:0 11:-0.9244068 12:-0.47469378 
6.276455822631808 1:-0.64001343 2:-0.53592032 3:-0.033616274 4:-0.41982795 5:-1.1281724 6:0.23247922 7:-0.316938 8:-0.095228825 9:-1.6828055 10:0 11:-0.9244068 12:-0.47469378 
6.051472731263555 1:-0.60305711 2:-0.0016101724 3:0.27415154 4:0.056588358 5:-0.99706478 6:2.7138807 7:1.5908646 8:-0.12795956 9:-0.20604347 10:0 11:-0.9244068 12:-0.47469378 
1.167981748014551 1:-0.12065298 2:0.2089065 3:-0.50581676 4:0.17569244 5:2.0963394 6:0.51335539 7:-0.89467694 8:0.74641862 9:0.48311215 10:0 11:-0.9244068 12:-0.47469378 
1.221484551511495 1:-0.74920862 2:0.34476513 3:-0.091644445 4:-0.800961 5:-0.64178128 6:-0.72650019 7:-2.0194059 8:-0.067173911 9:0.77846456 10:0 11:1.0817748 12:-0.47469378 
6.49077457269873 1:-1.0507161 2:0.85050266 3:0.27921405 4:-1.5155855 5:-0.69723844 6:1.8681533 7:1.1272385 8:-0.22615176 9:-1.6828055 10:0 11:-0.9244068 12:-0.47469378 
4.250484247675043 1:0.2691503 2:1.4938582 3:0.31805615 4:0.34243814 5:-1.1281724 6:1.8681533 7:0.56521573 8:0.0076391954 9:0.77846456 10:0 11:-0.9244068 12:2.1066213 
1.891218866113007 1:-0.49088366 2:-0.15724623 3:-0.26886066 4:0.17569244 5:0.96575679 6:-0.24813737 7:-0.43070918 8:-1.2174254 9:0.48311215 10:0 11:1.0817748 12:-0.47469378 
0.915009806233441 1:0.394252 2:1.7638992 3:0.34191451 4:-0.84860263 5:-1.1281724 6:-0.21855663 7:0.10227293 8:-0.27290995 9:0.77846456 10:0 11:-0.9244068 12:2.1066213 
0.3009275186533064 1:0.32987286 2:2.3554045 3:0.25835044 4:0.34243814 5:-0.84328295 6:1.3047106 7:1.610339 8:0.021666653 9:0.77846456 10:0 11:-0.9244068 12:-0.47469378 
9.690215155872728 1:-0.81230095 2:-0.60477474 3:-0.1335962 4:-1.3488398 5:0.051435723 6:0.5702631 7:1.0595908 8:-0.15133866 9:0.43388675 10:0 11:-0.9244068 12:-0.47469378 
9.800000000000004 1:-0.63454659 2:0.17663183 3:-0.51118975 4:0.34243814 5:-0.79198208 6:-1.1214735 7:0.50610938 8:0.15258959 9:0.77846456 10:0 11:-0.9244068 12:-0.47469378 
9.800000000000004 1:-0.64001343 2:-0.53592032 3:-0.033616274 4:-0.41982795 5:-1.1281724 6:0.23247922 7:-0.316938 8:-0.095228825 9:0.28621055 10:0 11:-0.9244068 12:-0.47469378 
-5.26154443809884 1:2.2824331 2:1.3752201 3:0.13819732 4:0.19951325 5:-1.1281724 6:-0.72650019 7:0.54061655 8:0.16661705 9:-1.3382277 10:0 11:1.0817748 12:-0.47469378 
5.589853904650718 1:0.72110559 2:0.39920564 3:-0.1565161 4:-0.32454469 5:-1.1281724 6:0.11922725 7:0.17675376 8:0.0076391954 9:-0.50139587 10:0 11:-0.9244068 12:2.1066213 
-4.656177454827487 1:2.6085063 2:0.73352773 3:0.1119274 4:1.009421 5:-1.1281724 6:-0.72650019 7:0.54061655 8:0.16661705 9:0.53233756 10:0 11:1.0817748 12:-0.47469378 
-1.785840459982458 1:-0.10964401 2:0.14471452 3:1.5202447 4:0.74739201 5:1.188601 6:0.96410953 7:1.0394331 8:-1.4932987 9:-0.69829748 10:0 11:1.0817748 12:-0.47469378 
2.685570341559361 1:0.098491969 2:-0.045194267 3:-0.11933944 4:-0.84860263 5:-1.0937154 6:-0.27574606 7:-0.30224683 8:-0.0017124429 9:0.77846456 10:0 11:-0.9244068 12:2.1066213 
9.800000000000004 1:-0.22673762 2:0.011568121 3:-0.43931732 4:1.009421 5:0.011124701 6:-1.8274672 7:-1.8482366 8:-2.5593855 9:-1.1905515 10:0 11:-0.9244068 12:-0.47469378 
-1.224519870256673 1:0.20004881 2:-1.3103716 3:-0.037085277 4:0.79503364 5:1.4660996 6:1.2187856 7:-0.039172322 8:2.883268 9:0.040083541 10:0 11:-0.9244068 12:-0.47469378 
-9.198125629607516 1:-0.87162497 2:0.33472369 3:0.18080417 4:-0.32454469 5:-0.23447661 6:2.3189074 7:1.111864 8:-0.14198702 9:0.43388675 10:0 11:1.0817748 12:-0.47469378 
9.727748402329263 1:0.24126305 2:0.54165859 3:-0.088525225 4:1.009421 5:-1.121174 6:-0.27574606 7:-0.30634669 8:0.03569411 9:-1.6828055 10:0 11:1.0817748 12:-0.47469378 
5.356988269424867 1:0.013334251 2:-0.19534358 3:-0.40924943 4:1.009421 5:0.011124701 6:-0.33293549 7:-0.03575577 8:0.30689162 9:-1.4366785 10:0 11:-0.9244068 12:-0.47469378 
0.04798350827149091 1:-1.3882659 2:1.0996472 3:0.10685436 4:-1.3488398 5:-0.14374551 6:0.11922725 7:1.5662655 8:0.031018291 9:0.43388675 10:0 11:-0.9244068 12:-0.47469378 
-3.249439915645323 1:-1.7690941 2:-0.56570955 3:-0.066178825 4:-0.800961 5:-0.64178128 6:0.68266991 7:-0.31044655 8:-0.21680012 9:0.77846456 10:0 11:1.0817748 12:-0.47469378 
0.5236085992274687 1:-1.6502396 2:0.13256712 3:-0.70281931 4:-0.800961 5:0.46309261 6:-0.33124516 7:0.096806448 8:0.16661705 9:0.77846456 10:0 11:1.0817748 12:-0.47469378 
-6.609976618735494 1:0.10122416 2:0.56463052 3:0.038804774 4:-0.84860263 5:-0.9406044 6:-1.1789447 7:-0.93123405 8:0.11985885 9:0.77846456 10:0 11:-0.9244068 12:2.1066213 
6.782234482751406 1:0.09630215 2:0.31609205 3:-0.26895618 4:-0.32454469 5:-0.16701099 6:0.11922725 7:0.17675376 8:0.0076391954 9:0.43388675 10:0 11:-0.9244068 12:-0.47469378 
1.635236639130793 1:0.64854835 2:0.37717748 3:-1.9377007 4:1.009421 5:-0.32819802 6:-0.72650019 7:0.54061655 8:0.16661705 9:0.13853434 10:0 11:1.0817748 12:-0.47469378 
9.800000000000004 1:-0.78673899 2:-0.31676938 3:0.39462925 4:-0.84860263 5:-0.18907619 6:-0.67071937 7:-0.31488807 8:0.0076391954 9:0.77846456 10:0 11:-0.9244068 12:2.1066213 
-1.129453282187123 1:0.3413725 2:-1.3640949 3:2.4111722 4:-1.3488398 5:-0.44853603 6:0.96410953 7:1.0394331 8:-1.4932987 9:0.40927405 10:0 11:-0.9244068 12:-0.47469378 
2.725263156040344 1:-0.72378322 2:0.67066038 3:0.24723292 4:1.009421 5:-0.37527875 6:0.37333989 7:-0.38868559 8:0.98020957 9:0.040083541 10:0 11:-0.9244068 12:-0.47469378 
9.800000000000004 1:-1.3836717 2:-0.90836462 3:-0.0070082451 4:0.34243814 5:-1.0642396 6:-0.67071937 7:-0.31488807 8:0.0076391954 9:-0.20604347 10:0 11:1.0817748 12:-0.47469378 
3.51212272993899 1:-0.77705724 2:-2.0800901 3:0.24966372 4:-0.84860263 5:-1.1281724 6:1.3317559 7:1.0250836 8:-0.14666284 9:-0.058367262 10:0 11:1.0817748 12:-0.47469378 
4.077430771134561 1:0.74479482 2:-0.40109931 3:-0.10029605 4:-0.32454469 5:-0.3567304 6:0.5702631 7:1.0595908 8:-0.15133866 9:0.43388675 10:0 11:-0.9244068 12:-0.47469378 
-9.800000000000004 1:0.040745016 2:0.35100695 3:0.23756793 4:0.19951325 5:-0.79723826 6:0.514764 7:1.122797 8:-0.0017124429 9:-1.3382277 10:0 11:-0.9244068 12:-0.47469378 
1.380389097734546 1:-0.32909087 2:-0.076887802 3:-1.0045648 4:0.19951325 5:2.1026224 6:1.5855868 7:1.0814567 8:0.70433625 9:-1.3382277 10:0 11:-0.9244068 12:-0.47469378 
1.177912611762286 1:-0.4588366 2:-0.34149338 3:-0.072628781 4:1.7716871 5:-1.0606542 6:0.26065136 7:-1.2011417 8:1.7376923 9:0.87691537 10:0 11:-0.9244068 12:-0.47469378 
-5.083231944945354 1:-0.080856627 2:-0.46284262 3:-0.018366806 4:1.009421 5:-0.68977402 6:-0.27574606 7:-0.30224683 8:-0.0017124429 9:-1.6828055 10:0 11:1.0817748 12:-0.47469378 
9.800000000000004 1:-0.06879424 2:0.019124943 3:-0.097074653 4:0.79503364 5:0.099991701 6:-0.67100109 7:-0.94353363 8:-0.19342103 9:-1.1905515 10:0 11:-0.9244068 12:2.1066213 
-0.1871352610691508 1:-0.91602095 2:0.87343245 3:-0.013642212 4:0.34243814 5:-1.1260423 6:0.96523641 7:1.5385914 8:-0.1373112 9:0.77846456 10:0 11:1.0817748 12:-0.47469378 
-1.588396140973025 1:-1.6030299 2:-0.70009276 3:-0.7936766 4:-0.32454469 5:1.0709724 6:-1.8274672 7:-1.8482366 8:-2.5593855 9:0.43388675 10:0 11:1.0817748 12:-0.47469378 
9.800000000000004 1:-0.78499088 2:0.15609907 3:0.15702924 4:1.009421 5:-0.40919623 6:1.8681533 7:1.1272385 8:-0.22615176 9:-1.1905515 10:0 11:1.0817748 12:-0.47469378 
6.304416857838703 1:-0.87534555 2:-0.79043599 3:-0.16833382 4:0.17569244 5:-1.1121082 6:-0.67100109 7:0.023008925 8:0.03569411 9:0.48311215 10:0 11:1.0817748 12:-0.47469378 
-1.634810929887148 1:0.02338374 2:0.53257395 3:-2.8082282 4:-0.32454469 5:1.0573773 6:0.37333989 7:-0.38868559 8:0.98020957 9:0.43388675 10:0 11:-0.9244068 12:-0.47469378 
-0.30987703026755 1:-0.70617051 2:-0.00463831 3:-1.7587874 4:-0.32454469 5:0.75953649 6:-1.883248 7:-0.8622197 8:0.1806445 9:0.43388675 10:0 11:1.0817748 12:-0.47469378 
-3.324505566373861 1:1.8242235 2:0.37573859 3:0.51742336 4:-1.0868108 5:-1.1281724 6:0.88100173 7:0.47843531 8:0.0029633763 9:-0.82136098 10:0 11:-0.9244068 12:2.1066213 
-9.800000000000004 1:0.45048495 2:0.32483436 3:-1.7723273 4:1.009421 5:0.74374185 6:-1.0093484 7:0.19759473 8:-0.12328374 9:-1.6828055 10:0 11:1.0817748 12:-0.47469378 
2.621944266228107 1:-1.6066611 2:-0.93413733 3:-0.11355866 4:-1.3488398 5:-0.37216147 6:0.68266991 7:-0.31044655 8:-0.21680012 9:0.43388675 10:0 11:-0.9244068 12:2.1066213 
1.096930446462471 1:0.43325491 2:-0.59405492 3:-0.2739439 4:1.009421 5:-1.1220955 6:-1.4612294 7:-0.35042021 8:0.026342472 9:-1.6828055 10:0 11:1.0817748 12:-0.47469378 
-2.932314374562965 1:-0.28480216 2:-0.53350051 3:0.033811259 4:0.79503364 5:0.099991701 6:-0.24813737 7:-0.43070918 8:-1.2174254 9:1.7629726 10:0 11:-0.9244068 12:2.1066213 
7.506151578395121 1:-0.2059353 2:1.1056338 3:0.72801831 4:-1.3488398 5:-0.29514081 6:0.90973731 7:1.6017976 8:0.012315015 9:0.43388675 10:0 11:-0.9244068 12:-0.47469378 
-3.633742935993733 1:-1.059721 2:-0.25637748 3:1.786022 4:-1.0868108 5:0.0098811059 6:0.51335539 7:0.017542442 8:-1.1145574 9:-1.1905515 10:0 11:-0.9244068 12:-0.47469378 
1.463051639106754 1:0.028266951 2:-0.099930359 3:1.3797903 4:1.009421 5:0.90861106 6:1.3317559 7:1.0250836 8:-0.14666284 9:-1.185629 10:0 11:1.0817748 12:-0.47469378 
9.800000000000004 1:0.20673519 2:0.082705858 3:-0.013370922 4:-1.3488398 5:-0.28808378 6:0.11922725 7:0.17675376 8:0.0076391954 9:0.43388675 10:0 11:-0.9244068 12:2.1066213 
9.800000000000004 1:0.88322875 2:0.059653519 3:-0.0065959789 4:-0.32454469 5:0.40431493 6:-0.16333925 7:0.16992066 8:-0.29161323 9:0.43388675 10:0 11:-0.9244068 12:-0.47469378 
1.039481373765128 1:2.4478567 2:1.1099533 3:0.16705187 4:1.009421 5:-1.1281724 6:0.90973731 7:1.1313384 8:0.0076391954 9:-1.1905515 10:0 11:1.0817748 12:-0.47469378 
-1.323752887758355 1:-0.044479952 2:0.46171958 3:0.13561929 4:0.74739201 5:1.017042 6:1.7543379 7:1.5225336 8:-1.2688594 9:-0.59984668 10:0 11:1.0817748 12:-0.47469378 
-7.817706297147329 1:-0.9324001 2:-0.70868893 3:2.6260313 4:-1.5632271 5:0.59445823 6:0.96410953 7:1.0394331 8:-1.4932987 9:0.77846456 10:0 11:1.0817748 12:-0.47469378 
5.736163053104895 1:1.4485144 2:1.0159303 3:0.16705187 4:1.009421 5:-1.1281724 6:0.90973731 7:1.1313384 8:0.0076391954 9:0.63078836 10:0 11:1.0817748 12:-0.47469378 
9.800000000000004 1:0.36453611 2:1.368423 3:0.20115911 4:-1.3250189 5:2.2627799 6:0.48687359 7:-0.92679253 8:3.7249154 9:0.77846456 10:0 11:-0.9244068 12:2.1066213 
-5.118440576786027 1:-0.38935637 2:0.077090856 3:-0.18374022 4:1.009421 5:-0.10800889 6:-0.24813737 7:-0.43070918 8:-1.2174254 9:-0.0091418603 10:0 11:-0.9244068 12:2.1066213 
-2.741437849766847 1:-1.4674406 2:-0.83459509 3:3.4352002 4:-1.0868108 5:0.0098811059 6:-1.8843749 7:-2.890285 8:-1.2314529 9:-1.1905515 10:0 11:-0.9244068 12:-0.47469378 
9.800000000000004 1:0.82796747 2:0.5898111 3:0.26351642 4:0.74739201 5:-1.0268194 6:0.90973731 7:1.1354383 8:-0.011064081 9:2.7474806 10:0 11:1.0817748 12:-0.47469378 
-0.4179623582124278 1:-0.24872643 2:-0.39185618 3:0.18208582 4:1.009421 5:1.3500396 6:2.1219842 7:1.0561742 8:2.4250377 9:-1.185629 10:0 11:1.0817748 12:-0.47469378 
2.099641811061844 1:0.0035655411 2:2.1320498 3:-0.0007312789 4:-0.84860263 5:-0.99230284 6:0.11922725 7:1.5662655 8:0.031018291 9:-0.058367262 10:0 11:1.0817748 12:-0.47469378 
-4.610490524330655 1:-0.23920889 2:-0.29318976 3:0.32741397 4:1.009421 5:-0.055824134 6:-1.0648475 7:-0.45462504 8:1.3776542 9:0.13853434 10:0 11:-0.9244068 12:-0.47469378 
0.8171941415002534 1:-1.081063 2:-1.9019748 3:0.039264839 4:0.79503364 5:-0.69130291 6:1.3593646 7:1.043533 8:-1.2828869 9:-1.1905515 10:0 11:1.0817748 12:-0.47469378 
2.269778669760803 1:-0.26352378 2:-0.34195431 3:-0.25112628 4:-0.84860263 5:3.0105943 6:0.17500807 7:-1.488132 8:0.10115558 9:0.77846456 10:0 11:-0.9244068 12:-0.47469378 
0.1860801993705452 1:0.91696361 2:2.4934451 3:-0.015270958 4:0.79503364 5:-1.11337 6:-1.487993 7:-0.38287745 8:0.29286416 9:-1.0921007 10:0 11:1.0817748 12:-0.47469378 
2.439261177129206 1:-0.19506717 2:0.15974154 3:0.23721029 4:1.009421 5:-1.1281724 6:0.514764 7:1.122797 8:-0.0017124429 9:-0.0091418603 10:0 11:1.0817748 12:-0.47469378 
-4.256390095833695 1:0.61720608 2:0.5515155 3:-0.043423384 4:1.009421 5:-1.0844513 6:-1.234162 7:-1.4686577 8:0.25078179 9:-1.185629 10:0 11:1.0817748 12:-0.47469378 
-2.348743322716131 1:1.0097416 2:0.59445761 3:-0.015965986 4:-0.32454469 5:-0.3567304 6:0.96523641 7:1.5385914 8:-0.1373112 9:0.43388675 10:0 11:-0.9244068 12:-0.47469378 
-3.161184676352104 1:-0.21114854 2:-0.96995216 3:0.0016784562 4:1.009421 5:-1.0730414 6:0.23247922 7:-0.316938 8:-0.095228825 9:-1.185629 10:0 11:1.0817748 12:-0.47469378 
-2.27177193053428 1:-0.46351592 2:-0.12290273 3:-0.5417192 4:0.17569244 5:-1.0670871 6:0.11922725 7:0.17675376 8:0.0076391954 9:0.48311215 10:0 11:-0.9244068 12:-0.47469378 
9.583335250413047 1:-0.96562674 2:-0.45527429 3:-0.023701402 4:-0.41982795 5:-0.95176586 6:0.17500807 7:-1.488132 8:0.10115558 9:0.77846456 10:0 11:-0.9244068 12:-0.47469378 
-1.743513942467164 1:0.89324173 2:0.1382539 3:-0.093521109 4:-1.3488398 5:-0.64338779 6:0.56998138 7:1.5280001 8:-0.11860792 9:0.40927405 10:0 11:-0.9244068 12:-0.47469378 
-9.800000000000004 1:-0.14583698 2:-0.33893342 3:0.98284755 4:0.19951325 5:2.0143918 6:2.1219842 7:1.0561742 8:2.4250377 9:-1.3382277 10:0 11:-0.9244068 12:-0.47469378 
-4.442784019376711 1:-0.23175208 2:0.32365698 3:-1.4704908 4:-1.3011981 5:2.3480831 6:1.8681533 7:1.1272385 8:-0.22615176 9:0.77846456 10:0 11:-0.9244068 12:-0.47469378 
8.268768241623807 1:-0.27386324 2:-3.0138285 3:3.3120483 4:-1.5394063 5:1.1644807 6:-0.81101659 7:-1.5779873 8:1.9387525 9:0.77846456 10:0 11:-0.9244068 12:-0.47469378 
-9.800000000000004 1:-0.7302241 2:-1.6035735 3:-0.80470133 4:-1.5632271 5:-0.1751259 6:-1.5736362 7:-1.5404053 8:0.09180394 9:-0.10759266 10:0 11:-0.9244068 12:-0.47469378 
0.214623432037203 1:-0.88153537 2:0.17376685 3:0.19201077 4:0.34243814 5:0.1199549 6:1.8681533 7:1.1272385 8:-0.22615176 9:0.77846456 10:0 11:1.0817748 12:-0.47469378 
-0.7102212397365854 1:-0.51215346 2:0.25411339 3:-0.15887549 4:-0.84860263 5:0.0037736708 6:-0.38843459 7:0.027450442 8:0.45651783 9:0.77846456 10:0 11:-0.9244068 12:2.1066213 
2.489128902036271 1:-0.27188062 2:-0.10248555 3:0.29911245 4:-1.444123 5:2.3130371 6:0.71140549 7:-0.83762052 8:0.021666653 9:0.77846456 10:0 11:-0.9244068 12:-0.47469378 
3.361068536317322 1:2.2653824 2:3.126046 3:0.1119274 4:1.009421 5:-1.0844513 6:-0.33011828 7:-0.37228614 8:1.5179288 9:-1.1905515 10:0 11:1.0817748 12:-0.47469378 
-1.495373718136205 1:-0.56372683 2:-0.29943065 3:0.35557246 4:0.79503364 5:1.2839403 6:-1.0648475 7:-1.8858187 8:-0.71243695 9:0.040083541 10:0 11:-0.9244068 12:2.1066213 
-0.8880524308611063 1:0.64165633 2:0.88110334 3:-0.023378122 4:1.009421 5:-0.68977402 6:-2.3340021 7:-2.7983797 8:0.040369929 9:0.53233756 10:0 11:1.0817748 12:-0.47469378 
5.243487748036076 1:0.29614213 2:0.4804921 3:-0.77138364 4:1.8193287 5:1.0648735 6:0.063728146 7:0.10944769 8:0.15726541 9:1.1722678 10:0 11:1.0817748 12:-0.47469378 
9.800000000000004 1:0.39516164 2:-0.66814028 3:-0.053446016 4:-0.32454469 5:-1.1281724 6:0.23247922 7:-0.316938 8:-0.076525549 9:2.0090996 10:0 11:1.0817748 12:-0.47469378 
9.800000000000004 1:-0.34367393 2:-0.55826431 3:-0.025642294 4:0.74739201 5:-0.74426796 6:0.82409402 7:-1.4836905 8:0.20869942 9:1.1722678 10:0 11:1.0817748 12:-0.47469378 
1.681813721898487 1:0.059657873 2:0.048785063 3:-1.271547 4:-0.32454469 5:-0.27735366 6:1.6712301 7:0.50952593 8:2.5746639 9:0.43388675 10:0 11:-0.9244068 12:-0.47469378 
-0.6356084037623039 1:0.46255686 2:0.53995511 3:-2.4651452 4:-0.84860263 5:0.86431761 6:-0.078822848 7:-1.7959634 8:-2.5500339 9:0.77846456 10:0 11:-0.9244068 12:2.1066213 
1.321917099698579 1:-0.071478208 2:-0.10020904 3:-0.60331653 4:-0.87242345 5:0.75544319 6:0.12063586 7:-0.4481336 8:1.9714832 9:0.77846456 10:0 11:1.0817748 12:-0.47469378 
-1.918639313650775 1:-1.1676902 2:-1.0447103 3:-0.15161045 4:0.79503364 5:-0.034109008 6:-0.6433924 7:-0.91005143 8:-1.3296451 9:-1.1905515 10:0 11:1.0817748 12:-0.47469378 
2.085776407828624 1:5.0562028 2:1.7710326 3:0.68794322 4:-1.3488398 5:-1.1271835 6:0.90973731 7:1.1313384 8:0.0076391954 9:0.43388675 10:0 11:-0.9244068 12:2.1066213 
0.01746355929385112 1:0.16922056 2:0.23066535 3:-2.5083879 4:-0.32454469 5:1.0573773 6:-0.023042024 7:-0.86939446 8:-0.97428282 9:0.43388675 10:0 11:-0.9244068 12:-0.47469378 
0.02243953903145028 1:1.9047909 2:1.1267446 3:0.27956112 4:-1.0868108 5:-1.1281724 6:0.11950897 7:-0.4450587 8:0.12921049 9:-0.82136098 10:0 11:-0.9244068 12:2.1066213 
-0.9773923815573493 1:-0.92720428 2:-0.13599825 3:-0.30386446 4:-1.5632271 5:1.5999657 6:-0.24813737 7:-0.43070918 8:-1.2174254 9:0.77846456 10:0 11:-0.9244068 12:-0.47469378 
0.2098852843313075 1:-0.1781578 2:-0.0090313589 3:0.29435114 4:0.19951325 5:0.37283458 6:0.8528296 7:1.5252668 8:0.17129287 9:-1.2890023 10:0 11:-0.9244068 12:-0.47469378 
-2.27397205353568 1:-0.14204478 2:0.5383282 3:0.25953431 4:-0.77714019 5:-0.43468116 6:0.62745253 7:1.1282635 8:-0.44123944 9:0.97536617 10:0 11:-0.9244068 12:-0.47469378 
-0.3435490937705839 1:-1.8358591 2:-0.38808859 3:-0.098547856 4:1.009421 5:-1.1011239 6:0.68266991 7:-0.31044655 8:-0.19809685 9:-1.2890023 10:0 11:1.0817748 12:-0.47469378 
-9.800000000000004 1:0.53007132 2:-0.66759943 3:-0.45936258 4:1.009421 5:0.011124701 6:-0.61522027 7:-0.37809428 8:-0.12328374 9:-1.1905515 10:0 11:-0.9244068 12:-0.47469378 
4.149789317327796 1:-0.3896972 2:0.044760883 3:-0.1565161 4:-0.32454469 5:-1.1281724 6:0.11922725 7:0.17675376 8:0.0076391954 9:-0.50139587 10:0 11:-0.9244068 12:2.1066213 
-9.800000000000004 1:0.15049283 2:0.59459111 3:-0.086810482 4:0.74739201 5:-1.0847028 6:-0.78397134 7:-0.91859281 8:0.11050722 9:2.7474806 10:0 11:1.0817748 12:-0.47469378 
-6.040143988551923 1:0.088655428 2:0.083731652 3:-0.50581676 4:0.17569244 5:1.352288 6:0.51335539 7:-0.89467694 8:0.74641862 9:0.48311215 10:0 11:-0.9244068 12:-0.47469378 
9.800000000000004 1:-0.54093448 2:-0.10969976 3:0.076559286 4:0.91413772 5:0.10638687 6:-0.67071937 7:-0.31488807 8:0.026342472 9:0.87691537 10:0 11:-0.9244068 12:-0.47469378 
-3.162413393501013 1:0.48199242 2:0.54176302 3:-0.23147616 4:-0.32454469 5:-0.3567304 6:-1.0648475 7:-0.92337598 8:1.1485391 9:0.43388675 10:0 11:-0.9244068 12:-0.47469378 
2.561843340240475 1:0.30506349 2:0.28117357 3:-3.1923985 4:-0.32454469 5:1.0573773 6:1.1348327 7:0.53480841 8:0.85396246 9:0.43388675 10:0 11:-0.9244068 12:-0.47469378 
-3.272319693237009 1:2.0689989 2:-0.56852893 3:3.3120483 4:-1.5394063 5:2.1863926 6:-0.81101659 7:-1.5779873 8:1.9387525 9:0.77846456 10:0 11:-0.9244068 12:-0.47469378 
-9.800000000000004 1:-0.25102377 2:0.3097918 3:0.30235739 4:1.009421 5:-1.0369649 6:-0.21855663 7:0.10227293 8:-0.27290995 9:0.28621055 10:0 11:-0.9244068 12:-0.47469378 
-1.135009307625123 1:0.020842396 2:0.18052817 3:0.31986784 4:2.2004618 5:0.058735059 6:2.5169575 7:1.5351748 8:2.4390651 9:0.97536617 10:0 11:-0.9244068 12:-0.47469378 
2.651687375209907 1:0.20673519 2:0.082705858 3:-0.013370922 4:-1.3488398 5:-0.28808378 6:0.11922725 7:0.17675376 8:0.0076391954 9:-0.94442449 10:0 11:-0.9244068 12:2.1066213 
-9.800000000000004 1:0.1012895 2:1.451678 3:0.35247055 4:1.009421 5:-0.68977402 6:0.063728146 7:0.10944769 8:0.15726541 9:-1.1905515 10:0 11:1.0817748 12:-0.47469378 
-9.800000000000004 1:0.10122416 2:0.56463052 3:0.038804774 4:-0.84860263 5:-0.9406044 6:-1.1789447 7:-0.93123405 8:0.11985885 9:0.77846456 10:0 11:-0.9244068 12:2.1066213 
-0.4760688967607247 1:-1.2085759 2:-1.4246369 3:0.041599717 4:-1.5155855 5:-0.034901495 6:0.96410953 7:1.0394331 8:-1.4932987 9:0.77846456 10:0 11:1.0817748 12:-0.47469378 
-5.434217408821377 1:-0.7955256 2:-1.03485 3:-0.20097225 4:-0.87242345 5:-0.52122296 6:0.17500807 7:1.0489995 8:-0.13263538 9:0.77846456 10:0 11:-0.9244068 12:-0.47469378 
-0.856618893317842 1:-0.51189145 2:0.1079282 3:2.3109845 4:-1.3488398 5:1.9428625 6:1.3317559 7:1.0250836 8:-0.14666284 9:0.40927405 10:0 11:1.0817748 12:-0.47469378 
0.19346611345836 1:-1.138357 2:-0.64016306 3:3.6777887 4:-1.5632271 5:1.5999657 6:-2.2796299 7:-2.8943848 8:-1.4418647 9:0.77846456 10:0 11:-0.9244068 12:-0.47469378 
-1.444357839936504 1:0.27506674 2:0.49868579 3:-0.10857049 4:1.009421 5:-1.0050431 6:-0.78397134 7:-0.92269267 8:0.12921049 9:-1.185629 10:0 11:-0.9244068 12:-0.47469378 
4.826421615848944 1:-0.23756793 2:0.020045443 3:1.248985 4:-0.32454469 5:-0.34588398 6:-1.5167285 7:0.026767132 8:0.17129287 9:0.43388675 10:0 11:-0.9244068 12:-0.47469378 
-6.550212435325959 1:-1.3512848 2:-0.59729421 3:-0.21881943 4:1.009421 5:0.29032682 6:0.17500807 7:1.0489995 8:-0.13263538 9:-1.1905515 10:0 11:1.0817748 12:-0.47469378 
1.420516470449773 1:0.18641062 2:-0.18970405 3:-0.13849511 4:2.295745 5:0.40756454 6:-0.30335475 7:-0.47546601 8:1.2514071 9:1.0245916 10:0 11:-0.9244068 12:-0.47469378 
-0.01279636119132951 1:-0.29335393 2:-0.14549024 3:-2.2861372 4:-1.3250189 5:0.95969812 6:0.11950897 7:0.51294248 8:-0.0017124429 9:0.77846456 10:0 11:1.0817748 12:-0.47469378 
5.141549321568681 1:-0.38100221 2:0.69762518 3:-0.40231063 4:-1.0868108 5:0.0098811059 6:0.62576221 7:0.15386287 8:-1.4231615 9:-1.1905515 10:0 11:-0.9244068 12:-0.47469378 
-9.800000000000004 1:1.3799623 2:1.4695743 3:0.16206415 4:-0.32454469 5:-1.1281724 6:0.90973731 7:1.1354383 8:-0.011064081 9:0.43388675 10:0 11:-0.9244068 12:2.1066213 
-0.6600581534298744 1:-0.15539096 2:-0.051281974 3:0.18788262 4:0.19951325 5:2.1230931 6:1.3314741 7:1.5071591 8:-0.24485504 9:-1.3382277 10:0 11:-0.9244068 12:-0.47469378 
-1.264502703366586 1:-1.4842136 2:0.78565371 3:-0.95296672 4:-0.32454469 5:0.32086611 6:-0.33124516 7:0.096806448 8:0.16661705 9:0.43388675 10:0 11:-0.9244068 12:-0.47469378 
-9.800000000000004 1:-0.57488707 2:-1.5049703 3:-0.24493856 4:-1.3011981 5:0.49933862 6:-1.0383657 7:-1.8642944 8:-3.6909337 9:0.77846456 10:0 11:-0.9244068 12:2.1066213 
2.250189268380604 1:3.2871224 2:1.183057 3:0.81382984 4:-1.6585104 5:-1.1281724 6:0.514764 7:1.122797 8:-0.0017124429 9:1.0245916 10:0 11:1.0817748 12:-0.47469378 
-6.497998061168835 1:-0.63662717 2:-0.96405792 3:3.0767845 4:-1.5632271 5:1.5999657 6:-0.72959913 7:-1.0145979 8:-1.3717274 9:0.77846456 10:0 11:-0.9244068 12:-0.47469378 
-1.259436719991811 1:1.226098 2:0.55266678 3:0.29688088 4:0.74739201 5:-1.1281724 6:1.4179626 7:1.1207471 8:-0.10458046 9:1.1722678 10:0 11:1.0817748 12:-0.47469378 
-0.5743610252329671 1:0.36835555 2:0.91317763 3:0.23756793 4:0.19951325 5:-0.52726334 6:0.514764 7:1.122797 8:-0.0017124429 9:-1.3382277 10:0 11:1.0817748 12:-0.47469378 
-9.800000000000004 1:-0.88213018 2:-1.2956055 3:-0.13276498 4:-0.41982795 5:-0.43102596 6:0.93650084 7:1.0281585 8:-0.2588825 9:0.77846456 10:0 11:-0.9244068 12:-0.47469378 
9.800000000000004 1:0.53007132 2:-0.66759943 3:-0.45936258 4:1.009421 5:0.011124701 6:-0.61522027 7:-0.37809428 8:-0.12328374 9:-1.6828055 10:0 11:-0.9244068 12:-0.47469378 
-9.800000000000004 1:-0.34393799 2:-0.042357985 3:-0.033371021 4:2.7721613 5:-0.56039044 6:0.82409402 7:-1.4836905 8:0.20869942 9:0.77846456 10:0 11:1.0817748 12:-0.47469378 
2.223419825212441 1:0.38458007 2:0.25087878 3:0.28725324 4:0.19951325 5:0.77166585 6:-1.6291353 7:-1.4771991 8:0.24143015 9:-1.3382277 10:0 11:-0.9244068 12:2.1066213 
-6.312089956929597 1:0.24070059 2:0.56064815 3:-0.015965986 4:-0.32454469 5:0.40431493 6:0.96523641 7:1.5385914 8:-0.1373112 9:0.43388675 10:0 11:-0.9244068 12:-0.47469378 
0.05115743568211197 1:-0.32666039 2:-0.081167354 3:-0.086810482 4:0.74739201 5:0.64341541 6:-1.0648475 7:-1.8858187 8:-0.71243695 9:0.53233756 10:0 11:1.0817748 12:-0.47469378 
-6.973553791682045 1:0.20995803 2:0.034071967 3:0.20434063 4:-0.41982795 5:0.22435668 6:0.73957762 7:0.055466169 8:0.87266573 9:0.28621055 10:0 11:-0.9244068 12:-0.47469378 
-1.249442762390151 1:-1.4780784 2:-1.8023355 3:-0.15887549 4:-0.84860263 5:-0.05599271 6:-0.3608259 7:-1.0320223 8:1.8171812 9:-0.058367262 10:0 11:1.0817748 12:-0.47469378 
9.800000000000004 1:0.45278229 2:1.1700679 3:0.16705187 4:1.009421 5:-1.0844513 6:0.90973731 7:1.1313384 8:0.0076391954 9:-1.185629 10:0 11:1.0817748 12:-0.47469378 
3.587127226436906 1:-0.092795278 2:-0.37206333 3:0.28725324 4:0.19951325 5:1.0779375 6:-1.6291353 7:-1.4771991 8:0.24143015 9:-1.3382277 10:0 11:-0.9244068 12:-0.47469378 
-1.471377918086566 1:0.48231615 2:2.0871461 3:0.10685436 4:-1.3488398 5:-1.1281724 6:0.11922725 7:1.5662655 8:0.031018291 9:0.40927405 10:0 11:1.0817748 12:-0.47469378 
0.8848583121631186 1:-1.9623888 2:-0.64750535 3:0.0025072651 4:-1.6585104 5:-1.1281724 6:-0.67071937 7:-0.31488807 8:0.026342472 9:1.0245916 10:0 11:1.0817748 12:-0.47469378 
-5.029779609592708 1:-0.24335553 2:0.33760798 3:0.0065433606 4:0.79503364 5:-0.72814634 6:-0.67100109 7:-0.94353363 8:-0.19342103 9:-1.1905515 10:0 11:-0.9244068 12:2.1066213 
-0.1858645694721308 1:0.20004881 2:-1.3103716 3:-0.037085277 4:0.79503364 5:1.4660996 6:1.2187856 7:-0.039172322 8:2.883268 9:-1.1905515 10:0 11:-0.9244068 12:-0.47469378 
-1.672158813487888 1:1.8682708 2:3.0312983 3:0.67138162 4:-0.84860263 5:-1.1281724 6:0.1766984 7:0.58161518 8:-0.29161323 9:0.77846456 10:0 11:-0.9244068 12:2.1066213 
-4.888235602911139 1:0.11306487 2:0.66963648 3:-0.097515824 4:-1.444123 5:2.3130371 6:0.45757457 7:-1.1454519 8:-0.82933243 9:0.77846456 10:0 11:-0.9244068 12:-0.47469378 
-0.5912276913124428 1:0.74072323 2:0.018429434 3:0.9866248 4:-0.32454469 5:0.75953649 6:-2.8703995 7:-2.0593795 8:0.17596868 9:0.43388675 10:0 11:1.0817748 12:-0.47469378 
0.5629947518181891 1:-1.5399948 2:0.12213513 3:-0.31904574 4:1.009421 5:0.29032682 6:-1.4601025 7:-0.93396729 8:1.1672423 9:0.63078836 10:0 11:1.0817748 12:-0.47469378 
-9.800000000000004 1:0.22956776 2:4.4748212 3:0.5225164 4:-1.5632271 5:-0.23116531 6:-0.30250959 7:-0.33470407 8:0.26480925 9:-0.10759266 10:0 11:-0.9244068 12:-0.47469378 
-1.407232040963594 1:0.16758232 2:0.86106749 3:0.03088405 4:-0.32454469 5:0.72264771 6:1.3590828 7:1.5184337 8:-1.4792713 9:0.43388675 10:0 11:1.0817748 12:-0.47469378 
5.167854189863541 1:0.30613874 2:0.10154801 3:-0.83098838 4:-0.84860263 5:0.97041401 6:-0.33124516 7:0.096806448 8:0.16661705 9:0.77846456 10:0 11:-0.9244068 12:2.1066213 
0.3045325181958146 1:1.1545617 2:-0.60710382 3:-0.10302037 4:-0.41982795 5:0.095779571 6:-1.4612294 7:-0.35042021 8:0.045045748 9:-1.4366785 10:0 11:1.0817748 12:-0.47469378 
-7.727542416521489 1:-0.79356139 2:-0.084523418 3:-0.023701402 4:-0.41982795 5:-0.49685158 6:0.17500807 7:-1.488132 8:0.10115558 9:0.77846456 10:0 11:-0.9244068 12:2.1066213 
6.370564440833927 1:-0.085783627 2:-0.44309411 3:-0.069806755 4:0.79503364 5:-1.0876884 6:-0.67100109 7:0.023008925 8:0.03569411 9:-1.1905515 10:0 11:-0.9244068 12:2.1066213 
-4.775910804507822 1:-0.44062216 2:-2.181019 3:-1.0300779 4:-1.5632271 5:-0.1751259 6:-0.22024696 7:0.10090631 8:-0.13263538 9:-0.10759266 10:0 11:-0.9244068 12:-0.47469378 
-9.800000000000004 1:0.50037001 2:-0.28457017 3:-0.20378548 4:1.009421 5:0.011124701 6:0.5702631 7:1.0595908 8:-0.15133866 9:-1.6828055 10:0 11:-0.9244068 12:-0.47469378 
-1.598669577492047 1:-0.047226963 2:1.0176496 3:-0.0049501903 4:3.6535315 5:0.33210414 6:0.71027861 7:-0.83898714 8:-1.8206061 9:1.2707186 10:0 11:-0.9244068 12:2.1066213 
2.685187906584986 1:-0.11219005 2:-0.54891102 3:1.6050458 4:0.34243814 5:-0.37857168 6:0.96410953 7:1.0394331 8:-1.4932987 9:0.77846456 10:0 11:-0.9244068 12:-0.47469378 
-9.800000000000004 1:-0.020961731 2:-0.6440207 3:1.5902655 4:1.009421 5:1.2849827 6:0.93650084 7:1.0281585 8:-0.2588825 9:-1.1905515 10:0 11:1.0817748 12:-0.47469378 
0.4828137680004743 1:-0.35778448 2:-2.031019 3:-0.027088647 4:-0.84860263 5:0.2753128 6:1.2187856 7:-0.039172322 8:2.883268 9:0.77846456 10:0 11:-0.9244068 12:-0.47469378 
-2.897549230229792 1:0.17467242 2:-1.1281852 3:0.12939913 4:0.056588358 5:0.33235189 6:1.5855868 7:1.0814567 8:0.70433625 9:-2.0766087 10:0 11:-0.9244068 12:-0.47469378 
9.800000000000004 1:-0.88213018 2:-1.2956055 3:-0.13276498 4:-0.41982795 5:-0.43102596 6:0.93650084 7:1.0281585 8:-0.2588825 9:0.77846456 10:0 11:-0.9244068 12:-0.47469378 
2.284969064985654 1:3.0815948 2:3.4118115 3:0.35113435 4:0.19951325 5:-1.0743734 6:0.45898318 7:0.58878994 8:0.13856213 9:-1.3382277 10:0 11:-0.9244068 12:2.1066213 
-2.150879423979017 1:1.0691142 2:1.0107068 3:-0.15259473 4:-0.41982795 5:0.095779571 6:-2.1370789 7:-1.170051 8:-0.67035458 9:0.77846456 10:0 11:1.0817748 12:-0.47469378 
8.289052253265435 1:0.83561734 2:2.1233382 3:0.10190477 4:1.009421 5:-0.68977402 6:-0.72537331 7:-0.84752852 8:1.2888136 9:-1.6828055 10:0 11:1.0817748 12:-0.47469378 
1.371458580028088 1:-0.7649086 2:-0.95646142 3:-0.13251812 4:-0.84860263 5:-0.20513182 6:0.5702631 7:1.0595908 8:-0.15133866 9:-0.058367262 10:0 11:-0.9244068 12:-0.47469378 
2.235725082687558 1:0.17693757 2:0.63167762 3:-0.023378122 4:1.009421 5:0.1626012 6:-0.30335475 7:-0.95788315 8:1.1532149 9:0.040083541 10:0 11:1.0817748 12:-0.47469378 
-5.404604237689363 1:-0.37251583 2:-0.25908909 3:0.36230974 4:-0.87242345 5:0.75544319 6:-1.0648475 7:-1.8858187 8:-0.71243695 9:0.77846456 10:0 11:1.0817748 12:-0.47469378 
1.492278353327639 1:1.2452 2:0.21209855 3:0.23721029 4:1.009421 5:-0.98525535 6:0.514764 7:1.122797 8:-0.0017124429 9:0.18775975 10:0 11:1.0817748 12:-0.47469378 
-7.747942148977303 1:-1.0023143 2:-0.37205043 3:-0.053446016 4:0.74739201 5:-1.0847028 6:-0.27574606 7:-0.30224683 8:-0.0017124429 9:-0.59984668 10:0 11:1.0817748 12:-0.47469378 
-1.556239760952778 1:0.62803639 2:-1.1996502 3:-0.38419285 4:1.009421 5:-0.20631649 6:-0.24898253 7:-0.40952656 8:-0.23082758 9:-0.0091418603 10:0 11:1.0817748 12:-0.47469378 
-5.583344471656436 1:0.19515218 2:-0.43393921 3:-0.50947574 4:1.009421 5:0.29032682 6:-0.61550199 7:0.090314999 8:-0.1139321 9:-1.2890023 10:0 11:1.0817748 12:-0.47469378 
-9.800000000000004 1:0.56023281 2:-0.022192998 3:-0.83098838 4:-0.84860263 5:0.95250315 6:-0.33124516 7:0.096806448 8:0.16661705 9:0.77846456 10:0 11:-0.9244068 12:2.1066213 
9.800000000000004 1:-0.030334748 2:-1.3630627 3:-0.33703216 4:0.79503364 5:-0.034109008 6:-0.89722332 7:-1.2178828 8:-2.1806442 9:0.040083541 10:0 11:1.0817748 12:-0.47469378 
-9.800000000000004 1:0.10327331 2:-0.50274483 3:-0.15887549 4:-0.84860263 5:0.95250315 6:-0.38843459 7:0.027450442 8:0.45651783 9:0.77846456 10:0 11:-0.9244068 12:2.1066213 
2.159803051776163 1:1.0780109 2:1.6888462 3:-0.85478502 4:-1.5632271 5:-0.31931688 6:-1.0372388 7:-0.88989377 8:0.012315015 9:-0.10759266 10:0 11:-0.9244068 12:-0.47469378 
-2.025679960144271 1:1.3305287 2:1.1066057 3:0.025872953 4:-0.41982795 5:0.095779571 6:-1.487993 7:-0.38287745 8:0.29286416 9:-1.4366785 10:0 11:1.0817748 12:-0.47469378 
-1.863000215315394 1:1.6080293 2:2.0251383 3:0.48688004 4:-0.84860263 5:-0.59823378 6:0.063728146 7:0.10534783 8:0.17596868 9:0.77846456 10:0 11:-0.9244068 12:-0.47469378 
9.800000000000004 1:0.65225876 2:0.65950991 3:0.26513423 4:-0.32454469 5:-1.1281724 6:0.514764 7:1.122797 8:-0.0017124429 9:0.43388675 10:0 11:1.0817748 12:-0.47469378 
-0.1432073068029514 1:-0.2313323 2:-0.12834718 3:2.6476531 4:1.009421 5:-0.32479382 6:-1.6863248 7:-1.2083164 8:-0.81998079 9:-1.6828055 10:0 11:1.0817748 12:-0.47469378 
-6.803022780081961 1:-0.92933845 2:-0.57658746 3:-0.0065959789 4:-0.32454469 5:-0.77742588 6:0.090491673 7:0.0021679575 8:-0.090553006 9:-0.40294507 10:0 11:1.0817748 12:-0.47469378 
-9.800000000000004 1:0.35219168 2:-0.93484822 3:-0.42428337 4:1.009421 5:0.011124701 6:-0.61522027 7:-0.37809428 8:-0.14198702 9:-1.6828055 10:0 11:-0.9244068 12:-0.47469378 
5.172514564571999 1:1.6405244 2:1.2898607 3:0.031728798 4:0.19951325 5:-1.0743734 6:-1.6849162 7:-2.0112061 8:0.14791377 9:-1.3382277 10:0 11:-0.9244068 12:2.1066213 
-4.139206739633452 1:-1.526521 2:-2.9628787 3:-1.8094987 4:0.79503364 5:-0.72814634 6:0.96410953 7:1.0394331 8:-1.4932987 9:1.7629726 10:0 11:-0.9244068 12:2.1066213 
0.8395751089648 1:-0.51467427 2:-0.49055017 3:-0.053446016 4:0.74739201 5:-1.0529699 6:-0.27574606 7:-0.30224683 8:-0.0017124429 9:2.7474806 10:0 11:1.0817748 12:-0.47469378 
-1.92589708846072 1:0.22660692 2:-0.91964282 3:2.6315959 4:-1.5155855 5:-0.2600724 6:-0.67071937 7:1.0527577 8:0.0029633763 9:0.77846456 10:0 11:-0.9244068 12:-0.47469378 
-8.041944381723685 1:-0.24335553 2:0.33760798 3:0.0065433606 4:0.79503364 5:-0.72814634 6:-0.67100109 7:-0.94353363 8:-0.19342103 9:1.7629726 10:0 11:-0.9244068 12:2.1066213 
-1.233554091466387 1:-1.758338 2:-0.41720498 3:1.5621638 4:0.17569244 5:0.96575679 6:0.96410953 7:1.0394331 8:-1.4932987 9:0.48311215 10:0 11:1.0817748 12:-0.47469378 
1.505375249083151 1:0.57082703 2:0.71892203 3:-2.620828 4:-0.32454469 5:1.0573773 6:0.3457312 7:-0.4221678 8:2.2146258 9:0.43388675 10:0 11:-0.9244068 12:-0.47469378 
5.015898241171737 1:-0.23756793 2:-0.067567622 3:0.49001441 4:-0.32454469 5:-0.34588398 6:-3.0684496 7:-1.8550697 8:-2.4050835 9:0.43388675 10:0 11:-0.9244068 12:-0.47469378 
9.800000000000004 1:-0.59253271 2:-0.041740135 3:0.2182842 4:-0.32454469 5:3.0193723 6:0.23247922 7:-0.316938 8:-0.076525549 9:2.0090996 10:0 11:-0.9244068 12:-0.47469378 
4.946171494330439 1:-0.45098279 2:-0.23036311 3:-0.025054411 4:0.19951325 5:0.019563268 6:-0.24813737 7:-0.90595156 8:-1.1192332 9:-1.5351293 10:0 11:1.0817748 12:-0.47469378 
-4.249000728773475 1:-0.20121349 2:-0.21668006 3:2.1509638 4:0.17569244 5:0.18919325 6:-1.4612294 7:0.094073206 8:0.021666653 9:0.48311215 10:0 11:-0.9244068 12:-0.47469378 
-7.267456358970612 1:-1.2263129 2:-1.6308862 3:-0.0043637988 4:0.79503364 5:-0.034109008 6:0.96410953 7:1.0394331 8:-1.4932987 9:1.7629726 10:0 11:1.0817748 12:-0.47469378 
3.011044934309441 1:-0.044265184 2:0.39357678 3:0.012447405 4:-0.84860263 5:-1.0078064 6:-0.27574606 7:-0.30634669 8:0.03569411 9:0.77846456 10:0 11:-0.9244068 12:-0.47469378 
-0.01907903916821212 1:-1.1826046 2:0.075447296 3:-0.07498748 4:0.17569244 5:0.96575679 6:1.3590828 7:1.5184337 8:-1.4792713 9:0.48311215 10:0 11:1.0817748 12:-0.47469378 
0.4880774963679051 1:0.45243559 2:-0.01679852 3:-0.23768574 4:-0.56275285 5:0.66500325 6:0.82409402 7:-1.4836905 8:0.20869942 9:1.0245916 10:0 11:1.0817748 12:-0.47469378 
6.43547592602665 1:-0.7302241 2:-1.6035735 3:-0.80470133 4:-1.5632271 5:-0.1751259 6:-1.5736362 7:-1.5404053 8:0.09180394 9:-0.10759266 10:0 11:-0.9244068 12:-0.47469378 
1.684261311387031 1:-0.31994393 2:-0.098984985 3:-0.10355917 4:1.009421 5:1.713801 6:-0.5284501 7:-1.2353072 8:1.0082645 9:0.53233756 10:0 11:1.0817748 12:-0.47469378 
-0.2642995409912171 1:1.3444284 2:0.32762592 3:-0.70934653 4:-0.32454469 5:1.0930732 6:0.88100173 7:0.47843531 8:0.0029633763 9:0.43388675 10:0 11:1.0817748 12:-0.47469378 
9.800000000000004 1:0.36453611 2:1.368423 3:0.20115911 4:-1.3250189 5:2.2627799 6:0.48687359 7:-0.92679253 8:3.7249154 9:0.77846456 10:0 11:-0.9244068 12:2.1066213 
-2.543706517333598 1:0.050357212 2:0.70619551 3:-2.3034807 4:0.19951325 5:0.67001713 6:0.90973731 7:1.6017976 8:0.012315015 9:-1.3382277 10:0 11:1.0817748 12:-0.47469378 
0.3134721876419069 1:-0.71743936 2:-0.15338596 3:-0.29477466 4:0.19951325 5:-0.010329595 6:-0.24813737 7:-0.43070918 8:-1.2174254 9:-0.69829748 10:0 11:1.0817748 12:-0.47469378 
-9.800000000000004 1:-0.23756793 2:-0.20568891 3:-0.72808654 4:-0.32454469 5:0.18857649 6:-1.1214735 7:0.50610938 8:0.15258959 9:0.43388675 10:0 11:-0.9244068 12:-0.47469378 
0.7177491732120249 1:-0.92933845 2:-0.57658746 3:-0.0065959789 4:-0.32454469 5:-0.77742588 6:0.090491673 7:0.0021679575 8:-0.090553006 9:-0.94442449 10:0 11:1.0817748 12:-0.47469378 
-4.232855151954876 1:-0.22942476 2:-0.28164135 3:-0.1565161 4:-0.32454469 5:0.88796738 6:0.11922725 7:0.17675376 8:0.0076391954 9:0.43388675 10:0 11:-0.9244068 12:-0.47469378 
7.024103245080481 1:-0.86699135 2:-0.17396894 3:-0.031411112 4:-1.444123 5:2.3130371 6:1.5283974 7:0.15317956 8:-0.12328374 9:0.77846456 10:0 11:-0.9244068 12:-0.47469378 
1.414852083410175 1:0.96541696 2:0.065384906 3:0.03174635 4:1.009421 5:-1.1281724 6:-0.38843459 7:0.027450442 8:0.45651783 9:-0.0091418603 10:0 11:1.0817748 12:-0.47469378 
0.8493206444165856 1:-1.3726172 2:-0.24241763 3:-1.3112862 4:1.009421 5:0.70663313 6:-1.0648475 7:-0.92337598 8:1.1485391 9:-1.6828055 10:0 11:1.0817748 12:-0.47469378 
0.1327013618026881 1:0.88604523 2:-0.49709241 3:-0.13129644 4:0.74739201 5:-0.99391271 6:0.5702631 7:1.0595908 8:-0.15133866 9:0.53233756 10:0 11:-0.9244068 12:2.1066213 
-0.7699205662359376 1:-1.117048 2:-0.84466602 3:2.4757802 4:-1.5632271 5:1.5999657 6:0.96410953 7:1.0394331 8:-1.4932987 9:0.77846456 10:0 11:-0.9244068 12:-0.47469378 
9.800000000000004 1:0.41100262 2:0.49141598 3:-0.053446016 4:0.74739201 5:-1.0971325 6:-0.27574606 7:-0.30634669 8:0.03569411 9:2.7474806 10:0 11:1.0817748 12:-0.47469378 
-0.07618937644143631 1:-1.3657709 2:-0.24293651 3:0.20917633 4:0.19951325 5:-0.85890838 6:1.7267292 7:1.5040842 8:-0.13263538 9:-1.3382277 10:0 11:-0.9244068 12:2.1066213 
-8.094186322929794 1:0.6876031 2:-0.50840129 3:-0.49444179 4:1.009421 5:0.011124701 6:-0.22024696 7:0.10090631 8:-0.13263538 9:0.53233756 10:0 11:-0.9244068 12:-0.47469378 
0.03596823641164883 1:0.30802464 2:0.013866583 3:-0.36265626 4:-0.32454469 5:0.40431493 6:-1.2910697 7:-1.1977251 8:-0.83868407 9:1.7137472 10:0 11:-0.9244068 12:-0.47469378 
9.800000000000004 1:-0.23756793 2:-0.64432458 3:-0.13777608 4:-0.32454469 5:-1.087083 6:-0.67071937 7:1.0527577 8:0.0029633763 9:0.43388675 10:0 11:-0.9244068 12:-0.47469378 
-3.655568934177196 1:-0.86883097 2:-0.65105226 3:-0.073347917 4:0.34243814 5:-1.1260423 6:0.5702631 7:1.0595908 8:-0.15133866 9:0.77846456 10:0 11:1.0817748 12:-0.47469378 
-0.4028099035458937 1:-0.35200965 2:-0.92314549 3:0.36734247 4:-1.3488398 5:0.66216785 6:1.3328828 7:1.0220087 8:1.6956099 9:0.40927405 10:0 11:-0.9244068 12:-0.47469378 
9.800000000000004 1:-0.75308828 2:-0.78449028 3:-0.041291619 4:1.6049414 5:-0.013031529 6:-1.0090667 7:-2.0651877 8:0.8633141 9:0.77846456 10:0 11:1.0817748 12:-0.47469378 
1.259593516570528 1:0.69834351 2:0.21956057 3:-0.17415856 4:-0.44364877 5:1.5871998 6:0.26065136 7:-1.2011417 8:1.7376923 9:0.77846456 10:0 11:1.0817748 12:-0.47469378 
9.800000000000004 1:-0.012890393 2:-0.24060739 3:-1.0935168 4:-0.32454469 5:1.5021671 6:2.3189074 7:1.111864 8:-0.14198702 9:0.43388675 10:0 11:-0.9244068 12:-0.47469378 
3.301786968377531 1:-0.66203604 2:1.8124771 3:0.40759502 4:1.009421 5:-1.1281724 6:0.90973731 7:1.6017976 8:0.012315015 9:-0.0091418603 10:0 11:1.0817748 12:-0.47469378 
-2.222873982894733 1:0.0058986786 2:-0.25992238 3:2.1377405 4:-0.41982795 5:0.62215204 6:0.17500807 7:1.0489995 8:-0.13263538 9:0.77846456 10:0 11:-0.9244068 12:-0.47469378 
7.048613457477847 1:-0.45958929 2:-0.11558463 3:-0.1436497 4:1.009421 5:0.29032682 6:-1.0372388 7:-0.42114283 8:0.14323795 9:-1.185629 10:0 11:1.0817748 12:-0.47469378 
0.7591534315963553 1:2.0653498 2:0.99563257 3:0.20213108 4:1.009421 5:-0.63945742 6:0.90973731 7:1.1354383 8:-0.011064081 9:-1.6828055 10:0 11:-0.9244068 12:-0.47469378 
4.577382471305522 1:0.90005393 2:1.0342577 3:-0.96536799 4:0.17569244 5:-1.0670871 6:0.90973731 7:1.1354383 8:-0.011064081 9:0.48311215 10:0 11:-0.9244068 12:-0.47469378 
3.843615645845171 1:-0.23756793 2:-2.4598637 3:-0.45635633 4:-0.32454469 5:-0.71799429 6:-1.4612294 7:0.094073206 8:0.021666653 9:0.43388675 10:0 11:-0.9244068 12:-0.47469378 
-1.101289952469633 1:-0.69851249 2:-0.82531 3:0.34745923 4:1.009421 5:0.068392512 6:0.23247922 7:-0.316938 8:-0.095228825 9:-1.1905515 10:0 11:-0.9244068 12:-0.47469378 
-0.5167177736769707 1:1.366951 2:0.58606791 3:0.34299105 4:-1.0868108 5:-0.11314429 6:0.12063586 7:-0.4481336 8:1.9714832 9:-0.20604347 10:0 11:1.0817748 12:-0.47469378 
-6.090010381433437 1:-0.62636638 2:0.095905333 3:-0.51331301 4:-1.0868108 5:0.0098811059 6:0.90861042 7:0.49688469 8:-1.1332607 9:-1.1905515 10:0 11:-0.9244068 12:-0.47469378 
-2.257521237731814 1:-0.81872216 2:-0.79088056 3:0.071763204 4:-1.5632271 5:1.5999657 6:-0.64451928 7:-0.91141805 8:-3.1719178 9:0.77846456 10:0 11:-0.9244068 12:-0.47469378 
-0.09963751428196198 1:-0.61351254 2:0.48825027 3:-2.140229 4:0.19951325 5:0.96827844 6:-1.0938648 7:-0.82805418 8:-1.6803315 9:-0.45217047 10:0 11:1.0817748 12:-0.47469378 
-0.05946143292812092 1:-0.44225768 2:-1.0135352 3:1.0896949 4:-0.32454469 5:0.35145416 6:2.1219842 7:1.0561742 8:2.4250377 9:0.43388675 10:0 11:-0.9244068 12:-0.47469378 
-1.950876317480871 1:-0.68582638 2:-0.96813328 3:0.033811259 4:0.79503364 5:-0.034109008 6:-0.24813737 7:-0.43070918 8:-1.2174254 9:1.7629726 10:0 11:1.0817748 12:-0.47469378 
-0.08252891571733735 1:-1.2439663 2:-0.26666368 3:-0.45435127 4:1.009421 5:0.29032682 6:-2.2227222 7:-1.8588279 8:-2.5406822 9:-1.185629 10:0 11:1.0817748 12:-0.47469378 
-0.254069860373568 1:0.15348464 2:-0.10730346 3:0.42921126 4:0.19951325 5:0.67001713 6:-2.0798895 7:-2.0238474 8:0.15726541 9:-1.3382277 10:0 11:1.0817748 12:-0.47469378 
0.9373835869202851 1:0.4261988 2:-0.12698473 3:-0.13362707 4:1.009421 5:2.0103392 6:-0.30222787 7:-0.96095805 8:2.9954876 9:-0.058367262 10:0 11:1.0817748 12:-0.47469378 
1.510705350048634 1:-0.60554686 2:-0.20030286 3:-0.11888897 4:0.79503364 5:0.64191968 6:-1.0648475 7:-1.8858187 8:-0.71243695 9:0.040083541 10:0 11:-0.9244068 12:-0.47469378 
4.053570305941085 1:-1.485647 2:-1.7575715 3:0.089122583 4:-1.5155855 5:-1.0886287 6:1.3314741 7:1.5071591 8:-0.24485504 9:-1.6828055 10:0 11:-0.9244068 12:-0.47469378 
-9.360029361044683 1:0.36453611 2:1.368423 3:0.20115911 4:-1.3250189 5:2.2627799 6:0.48687359 7:-0.92679253 8:3.7249154 9:0.77846456 10:0 11:-0.9244068 12:2.1066213 
0.971367619284916 1:-1.2825019 2:-0.34443251 3:0.073413846 4:-1.0868108 5:0.0098811059 6:-0.24926425 7:-0.90731818 8:-2.961506 9:-1.1905515 10:0 11:-0.9244068 12:-0.47469378 
9.800000000000004 1:-1.0889481 2:-1.355547 3:-0.42824631 4:-0.32454469 5:-0.77742588 6:0.14599078 7:0.069474032 8:-0.24017922 9:-0.40294507 10:0 11:1.0817748 12:-0.47469378 
7.837520833772573 1:-0.64162989 2:-1.1503164 3:-0.5575781 4:-0.038694904 5:-0.45101119 6:-0.61522027 7:-0.37809428 8:-0.12328374 9:-1.6828055 10:0 11:1.0817748 12:-0.47469378 
-0.2993483298338159 1:-0.23290052 2:-1.1494975 3:-0.0043637988 4:0.79503364 5:0.099991701 6:0.96410953 7:1.0394331 8:-1.4932987 9:-1.1905515 10:0 11:-0.9244068 12:2.1066213 
9.800000000000004 1:0.2075551 2:1.7945002 3:-0.020081549 4:0.74739201 5:-1.0906758 6:0.25952447 7:-0.82361266 8:-1.9047708 9:2.058325 10:0 11:1.0817748 12:-0.47469378 
-1.703518250250979 1:-0.10369041 2:-0.2286949 3:0.34191451 4:-0.84860263 5:0.66179282 6:-0.72593675 7:-1.479249 8:0.13856213 9:0.77846456 10:0 11:-0.9244068 12:2.1066213 
-0.8670605498237228 1:-0.41718399 2:0.030154158 3:-2.1710677 4:-0.32454469 5:3.0193723 6:-0.19066622 7:-0.83010411 8:-1.7831995 9:2.0090996 10:0 11:-0.9244068 12:-0.47469378 
-3.672422710108628 1:-0.6067927 2:0.10340839 3:-0.0484347 4:1.009421 5:0.29032682 6:0.56998138 7:1.5280001 8:-0.11860792 9:-1.185629 10:0 11:1.0817748 12:-0.47469378 
-0.0391837768246056 1:3.3084422 2:0.4439644 3:0.56771793 4:-1.3488398 5:-0.85051697 6:0.514764 7:1.122797 8:-0.0017124429 9:0.43388675 10:0 11:-0.9244068 12:-0.47469378 
-8.06495604216104 1:0.65722571 2:1.1820253 3:0.27602109 4:-0.84860263 5:-1.1281724 6:0.62745253 7:1.1282635 8:-0.44123944 9:0.77846456 10:0 11:-0.9244068 12:2.1066213 
-0.8520720259450049 1:1.4714878 2:0.77809932 3:0.38754976 4:1.009421 5:-1.0644592 6:-0.33124516 7:0.096806448 8:0.16661705 9:-1.1905515 10:0 11:1.0817748 12:-0.47469378 
1.640346676521838 1:0.17255186 2:0.12492763 3:-0.044076008 4:-0.32454469 5:0.15371876 6:0.37333989 7:-2.0303388 8:0.12453467 9:1.7629726 10:0 11:-0.9244068 12:-0.47469378 
3.499295505704861 1:0.76120973 2:3.1556033 3:0.25835044 4:0.34243814 5:-1.1070726 6:1.3047106 7:1.610339 8:0.021666653 9:0.77846456 10:0 11:-0.9244068 12:-0.47469378 
3.915874889119719 1:-0.89396183 2:0.096198045 3:0.040254058 4:-0.32454469 5:0.26457578 6:-0.67071937 7:-0.31488807 8:0.0076391954 9:0.77846456 10:0 11:-0.9244068 12:2.1066213 
-0.4961975252141681 1:-0.22673762 2:0.011568121 3:-0.43931732 4:1.009421 5:0.011124701 6:-1.8274672 7:-1.8482366 8:-2.5593855 9:-1.6828055 10:0 11:-0.9244068 12:-0.47469378 
-3.39549241905462 1:-2.9199038 2:-1.4698083 3:0.030483906 4:-1.6585104 5:-1.1281724 6:-0.67071937 7:-0.31488807 8:0.0076391954 9:1.0245916 10:0 11:1.0817748 12:-0.47469378 
9.222906580759201 1:-0.74560793 2:-0.26057437 3:-0.038412069 4:1.009421 5:-0.91744913 6:-1.1789447 7:-0.93123405 8:0.11985885 9:0.00070322002 10:0 11:1.0817748 12:-0.47469378 
9.122558262427802 1:-1.0388696 2:-2.4818528 3:-0.27704278 4:0.79503364 5:-0.034109008 6:-0.22137384 7:-0.39825194 8:-1.4652438 9:0.040083541 10:0 11:1.0817748 12:-0.47469378 
-3.902877958650113 1:1.2132013 2:1.8525721 3:0.3675045 4:1.009421 5:-0.68977402 6:0.45898318 7:0.58878994 8:0.13856213 9:0.53233756 10:0 11:1.0817748 12:-0.47469378 
6.008081732735616 1:-0.59253271 2:-0.041740135 3:0.2182842 4:-0.32454469 5:3.0193723 6:0.23247922 7:-0.316938 8:-0.076525549 9:0.77846456 10:0 11:-0.9244068 12:-0.47469378 
-9.800000000000004 1:0.73026796 2:0.78600987 3:0.20213108 4:1.009421 5:-1.1281724 6:0.90973731 7:1.1354383 8:-0.011064081 9:0.00070322002 10:0 11:1.0817748 12:-0.47469378 
-9.74094221044602 1:0.61720608 2:0.5515155 3:-0.043423384 4:1.009421 5:-1.0844513 6:-1.234162 7:-1.4686577 8:0.25078179 9:0.13853434 10:0 11:1.0817748 12:-0.47469378 
-1.714792520520541 1:-0.23290052 2:-1.1494975 3:-0.0043637988 4:0.79503364 5:0.099991701 6:0.96410953 7:1.0394331 8:-1.4932987 9:1.7629726 10:0 11:-0.9244068 12:2.1066213 
-0.6430949903931006 1:-0.28201129 2:-0.42419489 3:-0.072628781 4:1.7716871 5:0.092110558 6:0.26065136 7:-1.2011417 8:1.7376923 9:0.87691537 10:0 11:-0.9244068 12:2.1066213 
3.151732507238051 1:-0.21114854 2:-0.96995216 3:0.0016784562 4:1.009421 5:-1.0730414 6:0.23247922 7:-0.316938 8:-0.095228825 9:0.13853434 10:0 11:1.0817748 12:-0.47469378 
-1.42986107355005 1:0.9017571 2:0.31023357 3:0.09151951 4:-0.84860263 5:-1.0078064 6:0.0065387155 7:0.035991822 8:0.46586947 9:0.77846456 10:0 11:-0.9244068 12:-0.47469378 
0.8140372495101644 1:2.7302652 2:0.77896128 3:-0.33909101 4:1.009421 5:0.88694747 6:0.59815351 7:0.13541349 8:-0.28693741 9:0.53233756 10:0 11:1.0817748 12:-0.47469378 
-0.4889427615062197 1:1.4698014 2:0.3491598 3:-0.013370922 4:-1.3488398 5:-1.1281724 6:0.11922725 7:0.17675376 8:0.0076391954 9:0.43388675 10:0 11:1.0817748 12:-0.47469378 
-0.556779789151134 1:-0.57362174 2:-0.021768354 3:-0.34248574 4:0.79503364 5:1.7505646 6:0.12063586 7:-0.4481336 8:1.9714832 9:-1.1905515 10:0 11:-0.9244068 12:-0.47469378 
-9.800000000000004 1:1.5356492 2:0.85217212 3:0.16705187 4:1.009421 5:-1.1023205 6:0.90973731 7:1.1313384 8:0.0076391954 9:-1.185629 10:0 11:1.0817748 12:-0.47469378 
2.126446882673265 1:-0.75317882 2:0.3328225 3:0.03088405 4:-0.32454469 5:-0.51681543 6:-0.24813737 7:-0.43070918 8:-1.2174254 9:0.43388675 10:0 11:-0.9244068 12:-0.47469378 
-3.598122955694627 1:0.63782314 2:0.45703343 3:-0.081556038 4:-0.32454469 5:0.40431493 6:-0.64198379 7:-0.41055152 8:0.12453467 9:0.43388675 10:0 11:-0.9244068 12:-0.47469378 
6.046744853738359 1:-0.45372258 2:-3.0201333 3:0.0060432108 4:-0.41982795 5:-1.0462221 6:0.96410953 7:1.0394331 8:-1.4932987 9:0.77846456 10:0 11:-0.9244068 12:2.1066213 
-1.469102402516204 1:-0.32563023 2:0.1195371 3:-2.2741378 4:-0.32454469 5:3.0193723 6:0.17810701 7:-0.38287745 8:1.4057091 9:-1.0921007 10:0 11:-0.9244068 12:-0.47469378 
9.800000000000004 1:-1.3764971 2:-1.033142 3:-0.037588533 4:-1.0868108 5:-1.1281724 6:-0.27574606 7:-0.30224683 8:-0.0017124429 9:-1.1905515 10:0 11:1.0817748 12:-0.47469378 
1.782703952429371 1:-0.23756793 2:-0.053150282 3:2.4296059 4:-0.32454469 5:-0.34588398 6:-2.5320522 7:-1.2045582 8:-0.68438204 9:1.7137472 10:0 11:-0.9244068 12:-0.47469378 
2.811934642442814 1:-1.6201248 2:-0.44578565 3:2.6916979 4:-1.3488398 5:0.37910246 6:0.45785629 7:1.0462662 8:0.15726541 9:0.40927405 10:0 11:1.0817748 12:-0.47469378 
-9.800000000000004 1:0.74479482 2:-0.40109931 3:-0.10029605 4:-0.32454469 5:-0.3567304 6:0.5702631 7:1.0595908 8:-0.15133866 9:0.43388675 10:0 11:-0.9244068 12:-0.47469378 
-1.907016845875485 1:-0.32563023 2:0.1195371 3:-2.2741378 4:-0.32454469 5:3.0193723 6:0.17810701 7:-0.38287745 8:1.4057091 9:2.0090996 10:0 11:-0.9244068 12:-0.47469378 
-4.040700322101841 1:1.162199 2:1.6402365 3:-0.27882261 4:-1.5632271 5:-0.31931688 6:-0.64198379 7:-0.41055152 8:0.12453467 9:-0.10759266 10:0 11:-0.9244068 12:-0.47469378 
2.202005005675398 1:-0.13220785 2:-0.79327873 3:0.091133339 4:0.74739201 5:0.71191524 6:1.3593646 7:1.043533 8:-1.2828869 9:-0.59984668 10:0 11:1.0817748 12:-0.47469378 
0.6409115193252701 1:0.28433541 2:-0.22403537 3:0.049624065 4:-0.32454469 5:0.398049 6:0.51448228 7:-0.89331032 8:2.5886914 9:0.43388675 10:0 11:-0.9244068 12:-0.47469378 
-0.01494272657850705 1:-0.15082914 2:-0.20958707 3:-0.11022923 4:0.19951325 5:1.0779375 6:-1.1789447 7:-0.93123405 8:0.11985885 9:-1.3382277 10:0 11:-0.9244068 12:-0.47469378 
-8.952172338237689 1:0.90950899 2:0.28408872 3:0.06836408 4:-0.32454469 5:0.40431493 6:0.11950897 7:0.51294248 8:-0.0017124429 9:0.43388675 10:0 11:-0.9244068 12:-0.47469378 
9.800000000000004 1:-1.3726172 2:-0.24241763 3:-1.3112862 4:1.009421 5:0.70663313 6:-1.0648475 7:-0.92337598 8:1.1485391 9:0.53233756 10:0 11:1.0817748 12:-0.47469378 
1.980332336996376 1:-0.1853776 2:-0.82094492 3:1.5675653 4:-0.32454469 5:-0.27735366 6:0.42827555 7:-0.99785681 8:2.546609 9:-0.50139587 10:0 11:-0.9244068 12:-0.47469378 
-4.903946209762044 1:0.94171906 2:0.73649859 3:0.26351642 4:0.74739201 5:-0.38235806 6:0.90973731 7:1.1313384 8:0.0076391954 9:2.058325 10:0 11:1.0817748 12:-0.47469378 
-4.081373099510498 1:-0.78548316 2:0.39267882 3:0.15702924 4:1.009421 5:-0.85497343 6:1.8681533 7:1.1272385 8:-0.22615176 9:-1.6828055 10:0 11:1.0817748 12:-0.47469378 
0.479586828335845 1:-0.69231016 2:0.21171408 3:-0.082167968 4:0.17569244 5:0.39597683 6:-0.72650019 7:-2.0194059 8:-0.067173911 9:0.48311215 10:0 11:1.0817748 12:-0.47469378 
-0.3794292070230866 1:0.37109037 2:-0.65114492 3:0.25740802 4:0.79503364 5:-1.1281724 6:-0.67071937 7:1.0527577 8:0.0029633763 9:-1.1905515 10:0 11:-0.9244068 12:2.1066213 
9.800000000000004 1:0.010798836 2:0.29375309 3:-0.13777608 4:-0.32454469 5:-0.51109302 6:-0.30335475 7:-0.47546601 8:1.2514071 9:0.43388675 10:0 11:-0.9244068 12:-0.47469378 
-9.800000000000004 1:-0.48486001 2:0.13126911 3:0.22217634 4:1.009421 5:-0.46866171 6:1.4179626 7:1.1207471 8:-0.10458046 9:-1.2890023 10:0 11:1.0817748 12:-0.47469378 
-8.153674725875829 1:0.15219393 2:-0.16164472 3:-0.1565161 4:-0.32454469 5:-0.72885579 6:0.11922725 7:0.17675376 8:0.0076391954 9:0.43388675 10:0 11:-0.9244068 12:-0.47469378 
-1.357361576779709 1:0.10922285 2:0.21410297 3:0.42774404 4:-0.94388589 5:1.0502641 6:-1.0659744 7:-1.8827438 8:-2.5547097 9:-0.20604347 10:0 11:-0.9244068 12:-0.47469378 
-9.368887018824184 1:0.0013552717 2:0.22310938 3:-1.7272254 4:1.009421 5:0.30073563 6:0.11950897 7:0.51294248 8:-0.0017124429 9:0.13853434 10:0 11:-0.9244068 12:-0.47469378 
9.800000000000004 1:-0.92933845 2:-0.57658746 3:-0.0065959789 4:-0.32454469 5:-0.77742588 6:0.090491673 7:0.0021679575 8:-0.090553006 9:-0.20604347 10:0 11:1.0817748 12:-0.47469378 
-2.673085694907201 1:-0.75317882 2:0.3328225 3:0.03088405 4:-0.32454469 5:-0.51681543 6:-0.24813737 7:-0.43070918 8:-1.2174254 9:-0.50139587 10:0 11:-0.9244068 12:-0.47469378 
1.721559937250482 1:0.040745016 2:0.35100695 3:0.23756793 4:0.19951325 5:-0.79723826 6:0.514764 7:1.122797 8:-0.0017124429 9:-1.3382277 10:0 11:-0.9244068 12:-0.47469378 
0.6585224643620631 1:0.52270829 2:-0.59052097 3:-0.10029605 4:-0.32454469 5:0.40431493 6:0.5702631 7:1.0595908 8:-0.15133866 9:0.43388675 10:0 11:-0.9244068 12:-0.47469378 
-5.4676864514565 1:-1.0532452 2:-1.0143668 3:0.01199694 4:0.79503364 5:-1.094189 6:-0.67071937 7:-0.31488807 8:0.0076391954 9:0.040083541 10:0 11:1.0817748 12:-0.47469378 
-0.7686045862468747 1:-1.7290329 2:-1.4942731 3:-0.47439653 4:1.009421 5:-1.0970636 6:-1.0104753 7:-0.38868559 8:-0.10458046 9:-0.0091418603 10:0 11:1.0817748 12:-0.47469378 
-3.0003672335614 1:-1.7321253 2:-1.174936 3:-0.12473031 4:-1.5155855 5:-0.048723936 6:0.5702631 7:1.0595908 8:-0.15133866 9:0.77846456 10:0 11:1.0817748 12:-0.47469378 
-1.275524821889114 1:-1.079273 2:-1.2379106 3:3.4273703 4:-1.5632271 5:1.5999657 6:-0.22137384 7:-0.39825194 8:-1.4839471 9:0.77846456 10:0 11:-0.9244068 12:-0.47469378 
-9.800000000000004 1:-0.080856627 2:-0.46284262 3:-0.018366806 4:1.009421 5:-0.68977402 6:-0.27574606 7:-0.30224683 8:-0.0017124429 9:-0.0091418603 10:0 11:1.0817748 12:-0.47469378 
0.09507198153689875 1:0.34081802 2:0.073920219 3:-0.0098173784 4:0.79503364 5:-0.69130291 6:0.11950897 7:-0.46009153 8:0.22740269 9:1.7629726 10:0 11:1.0817748 12:-0.47469378 
9.800000000000004 1:0.60473482 2:0.053359197 3:0.096893453 4:1.009421 5:-0.77952962 6:-1.1217552 7:0.061274307 8:0.18532032 9:0.28621055 10:0 11:1.0817748 12:-0.47469378 
9.800000000000004 1:0.36835555 2:0.91317763 3:0.23756793 4:0.19951325 5:-0.52726334 6:0.514764 7:1.122797 8:-0.0017124429 9:-1.3382277 10:0 11:1.0817748 12:-0.47469378 
-0.713541319028407 1:0.61117275 2:0.51707927 3:-0.1658861 4:-0.32454469 5:0.40431493 6:-0.66959248 7:-0.44403373 8:1.3589509 9:0.43388675 10:0 11:-0.9244068 12:-0.47469378 
-3.096536266607544 1:1.1014522 2:-0.28184527 3:-0.34410232 4:1.009421 5:-1.1220955 6:-1.0662561 7:0.12858038 8:0.03569411 9:-0.058367262 10:0 11:1.0817748 12:-0.47469378 
-1.02276710614226 1:-0.71361437 2:0.61325956 3:0.47370135 4:-0.84860263 5:-0.063723078 6:2.3189074 7:1.111864 8:-0.14198702 9:-0.058367262 10:0 11:1.0817748 12:-0.47469378 
-1.792332883498552 1:-0.37035321 2:0.14388564 3:-0.21438373 4:-0.87242345 5:-0.52122296 6:-1.0648475 7:-0.45462504 8:1.3776542 9:0.77846456 10:0 11:-0.9244068 12:-0.47469378 
9.800000000000004 1:-0.20751379 2:-0.13086672 3:-0.40927049 4:-0.84860263 5:0.83249896 6:0.0065387155 7:0.040091685 8:0.44716619 9:0.77846456 10:0 11:-0.9244068 12:2.1066213 
-0.0534075766985913 1:0.77150873 2:0.64217742 3:-1.7400473 4:-0.32454469 5:0.75953649 6:0.11922725 7:1.5662655 8:0.031018291 9:0.43388675 10:0 11:1.0817748 12:-0.47469378 
-9.800000000000004 1:0.056507904 2:0.95837991 3:-0.32036175 4:0.74739201 5:-1.126986 6:-1.8843749 7:-0.86358632 8:-1.6616282 9:1.1722678 10:0 11:1.0817748 12:-0.47469378 
-3.535256303525599 1:-0.88213018 2:-1.2956055 3:-0.13276498 4:-0.41982795 5:-0.43102596 6:0.93650084 7:1.0281585 8:-0.2588825 9:0.77846456 10:0 11:-0.9244068 12:-0.47469378 
-3.487794567282827 1:-0.83484131 2:-0.15534815 3:-0.56326066 4:0.17569244 5:0.96575679 6:0.51335539 7:0.49278482 8:-1.3436725 9:0.48311215 10:0 11:1.0817748 12:-0.47469378 
-0.2235552485998243 1:0.41241477 2:-0.6167995 3:-0.093536541 4:1.009421 5:1.3500396 6:0.42827555 7:-0.99785681 8:2.546609 9:-1.185629 10:0 11:1.0817748 12:-0.47469378 
7.399420877082363 1:0.87204656 2:0.73666971 3:0.15702924 4:1.009421 5:-1.1011239 6:1.8681533 7:1.1272385 8:-0.22615176 9:-1.185629 10:0 11:1.0817748 12:-0.47469378 
-0.1170587672685739 1:-0.020961731 2:-0.6440207 3:1.5902655 4:1.009421 5:1.2849827 6:0.93650084 7:1.0281585 8:-0.2588825 9:0.63078836 10:0 11:1.0817748 12:-0.47469378 
-0.7165508506977434 1:-0.25512616 2:0.024594814 3:-1.4866823 4:1.009421 5:1.3326916 6:-0.64198379 7:-0.41055152 8:0.12453467 9:0.63078836 10:0 11:1.0817748 12:-0.47469378 
-3.324687746445076 1:-0.306475 2:0.067131524 3:-2.536498 4:-0.32454469 5:1.0573773 6:1.9805601 7:1.5604573 8:0.7183637 9:0.43388675 10:0 11:-0.9244068 12:-0.47469378 
9.800000000000004 1:0.52270829 2:-0.59052097 3:-0.10029605 4:-0.32454469 5:0.40431493 6:0.5702631 7:1.0595908 8:-0.15133866 9:0.43388675 10:0 11:-0.9244068 12:-0.47469378 
9.800000000000004 1:1.5356492 2:0.85217212 3:0.16705187 4:1.009421 5:-1.1023205 6:0.90973731 7:1.1313384 8:0.0076391954 9:-1.185629 10:0 11:1.0817748 12:-0.47469378 
-9.800000000000004 1:-1.0889481 2:-1.355547 3:-0.42824631 4:-0.32454469 5:-0.77742588 6:0.14599078 7:0.069474032 8:-0.24017922 9:-0.69829748 10:0 11:1.0817748 12:-0.47469378 
-2.154250020067059 1:-0.31967327 2:1.1094211 3:0.45221241 4:-0.41982795 5:0.37379206 6:0.1766984 7:0.58161518 8:-0.29161323 9:1.5168456 10:0 11:-0.9244068 12:-0.47469378 
5.927705749834542 1:1.0738842 2:0.88762363 3:0.20213108 4:1.009421 5:-1.005342 6:0.90973731 7:1.1354383 8:-0.011064081 9:-1.1905515 10:0 11:-0.9244068 12:-0.47469378 
-5.901897930437425 1:0.36679619 2:0.65461684 3:-0.038412069 4:1.009421 5:-1.0046591 6:0.11950897 7:0.51294248 8:-0.0017124429 9:-0.0091418603 10:0 11:-0.9244068 12:2.1066213 
-8.069489224934207 1:0.3265462 2:0.32721728 3:-0.13152293 4:0.19951325 5:-0.98706586 6:0.11922725 7:0.17675376 8:0.0076391954 9:-1.3382277 10:0 11:-0.9244068 12:-0.47469378 
-4.417450117880557 1:0.76390756 2:1.3864056 3:-0.10857049 4:1.009421 5:-1.121174 6:-0.78397134 7:-0.92269267 8:0.12921049 9:0.53233756 10:0 11:1.0817748 12:-0.47469378 
3.512861612360966 1:2.2653824 2:3.126046 3:0.1119274 4:1.009421 5:-1.0844513 6:-0.33011828 7:-0.37228614 8:1.5179288 9:0.53233756 10:0 11:1.0817748 12:-0.47469378 
-9.800000000000004 1:0.50037001 2:-0.28457017 3:-0.20378548 4:1.009421 5:0.011124701 6:0.5702631 7:1.0595908 8:-0.15133866 9:-1.1905515 10:0 11:-0.9244068 12:-0.47469378 
-9.800000000000004 1:2.6946565 2:2.3563589 3:0.16705187 4:1.009421 5:-1.121174 6:0.90973731 7:1.1313384 8:0.0076391954 9:-0.0091418603 10:0 11:1.0817748 12:-0.47469378 
-7.428158831248255 1:0.48577172 2:0.68857641 3:0.25171648 4:0.34243814 5:-0.13747893 6:1.3047106 7:1.6144388 8:0.0029633763 9:0.77846456 10:0 11:-0.9244068 12:2.1066213 
1.0558359952926 1:0.31098579 2:-1.4189318 3:-0.07218603 4:-0.32454469 5:-0.80568888 6:0.93650084 7:1.0281585 8:-0.2588825 9:0.43388675 10:0 11:-0.9244068 12:-0.47469378 
8.928328479529538 1:2.6946565 2:2.3563589 3:0.16705187 4:1.009421 5:-1.121174 6:0.90973731 7:1.1313384 8:0.0076391954 9:0.13853434 10:0 11:1.0817748 12:-0.47469378 
-0.144405383898474 1:-0.52991272 2:-0.63012527 3:2.0287861 4:-0.84860263 5:-1.1281724 6:-0.67100109 7:0.023008925 8:0.03569411 9:0.77846456 10:0 11:1.0817748 12:-0.47469378 
6.205491260106125 1:2.0936198 2:1.4230419 3:0.46052267 4:-0.84860263 5:-1.1139539 6:0.90973731 7:1.1313384 8:0.0076391954 9:-0.058367262 10:0 11:1.0817748 12:-0.47469378 
0.1618600562475254 1:-1.1987227 2:-0.34586857 3:0.054261305 4:0.17569244 5:0.96575679 6:-0.64451928 7:-0.91141805 8:-3.1719178 9:0.48311215 10:0 11:1.0817748 12:-0.47469378 
-2.411548858443394 1:-0.50456356 2:-0.079544956 3:0.14486812 4:-1.444123 5:2.3130371 6:1.4157088 7:0.016517476 8:0.31624326 9:-1.1905515 10:0 11:-0.9244068 12:-0.47469378 
-1.709523317597221 1:-1.413146 2:0.24169224 3:0.58371448 4:-0.32454469 5:0.55269065 6:-1.4601025 7:-0.93396729 8:1.1672423 9:0.43388675 10:0 11:1.0817748 12:-0.47469378 
7.383275941060489 1:-0.78198409 2:-2.307908 3:-1.0300779 4:-1.5632271 5:-0.31931688 6:-0.33293549 7:-0.03575577 8:0.30689162 9:-0.10759266 10:0 11:-0.9244068 12:-0.47469378 
9.800000000000004 1:1.5653505 2:1.0786586 3:0.20213108 4:1.009421 5:-0.91998108 6:0.90973731 7:1.1354383 8:-0.011064081 9:-0.0091418603 10:0 11:1.0817748 12:-0.47469378 
0.9390188283903925 1:-0.23756793 2:-0.053150282 3:2.4296059 4:-0.32454469 5:-0.34588398 6:-2.5320522 7:-1.2045582 8:-0.68438204 9:-0.50139587 10:0 11:-0.9244068 12:-0.47469378 
3.228580071647682 1:0.16512269 2:-0.50891568 3:-0.42428337 4:1.009421 5:0.29032682 6:-0.72819052 7:-0.046347081 8:0.3255949 9:-1.185629 10:0 11:1.0817748 12:-0.47469378 
-9.800000000000004 1:0.94867921 2:0.76885412 3:-0.0033328594 4:1.009421 5:-0.68977402 6:0.0065387155 7:0.040091685 8:0.44716619 9:-1.6828055 10:0 11:1.0817748 12:-0.47469378 
6.745171458857881 1:-1.0269533 2:-0.91020485 3:-0.32316626 4:0.19951325 5:-1.1281724 6:-1.9694547 7:-0.96676619 8:0.13856213 9:-1.3382277 10:0 11:1.0817748 12:-0.47469378 
9.79831406008139 1:-1.0040585 2:-1.1710526 3:0.0016784562 4:1.009421 5:-0.36636063 6:0.96410953 7:1.0394331 8:-1.4932987 9:-1.1905515 10:0 11:1.0817748 12:-0.47469378 
0.2509383510287269 1:0.45240479 2:-0.35604229 3:0.059778861 4:-1.1106316 5:1.6797177 6:-0.24813737 7:-0.90595156 8:-1.1192332 9:0.77846456 10:0 11:1.0817748 12:-0.47469378 
1.157873112411522 1:0.85350939 2:-1.0721045 3:2.6260313 4:-1.5632271 5:0.3306037 6:0.96410953 7:1.0394331 8:-1.4932987 9:0.77846456 10:0 11:-0.9244068 12:-0.47469378 
-9.800000000000004 1:-0.31952257 2:-0.0010482479 3:-0.66386552 4:0.19951325 5:0.67001713 6:0.514764 7:1.122797 8:-0.0017124429 9:-1.3382277 10:0 11:1.0817748 12:-0.47469378 
2.251376628331939 1:-0.23756793 2:0.32502763 3:-0.32517623 4:-0.32454469 5:-0.34588398 6:-1.8829663 7:-0.41738463 8:0.27883671 9:0.43388675 10:0 11:-0.9244068 12:-0.47469378 
-0.6874559379532308 1:-1.3318118 2:0.48186962 3:0.40780793 4:-0.84860263 5:-0.072161726 6:1.0221441 7:0.10124797 8:-0.057822272 9:0.77846456 10:0 11:-0.9244068 12:-0.47469378 
-6.909888020013537 1:-1.5847825 2:-0.71469313 3:2.6916979 4:-1.3488398 5:1.1387846 6:0.45785629 7:1.0462662 8:0.15726541 9:-0.62445938 10:0 11:-0.9244068 12:-0.47469378 
0.4678983362384163 1:-1.106267 2:-1.6481113 3:1.9152962 4:0.79503364 5:0.093781527 6:0.5688545 7:0.084848516 8:-1.2641836 9:-1.1905515 10:0 11:-0.9244068 12:2.1066213 
0.7333925260649851 1:-2.2856068 2:-1.6316806 3:0.089122583 4:-1.5155855 5:-0.65834788 6:1.3314741 7:1.5071591 8:-0.24485504 9:-1.6828055 10:0 11:-0.9244068 12:-0.47469378 
0.7614662157627323 1:0.75285251 2:1.2597638 3:-3.2295089 4:-0.84860263 5:1.9652934 6:0.17613496 7:0.24166825 8:-0.13263538 9:0.77846456 10:0 11:1.0817748 12:-0.47469378 
-0.9363903451053626 1:0.92643749 2:0.30159149 3:-2.6512778 4:0.19951325 5:0.67001713 6:-0.21883835 7:0.23312687 8:-0.14198702 9:-1.2890023 10:0 11:1.0817748 12:-0.47469378 
4.258140945287684 1:-1.4643467 2:-0.069108398 3:-0.50446442 4:1.009421 5:0.88868801 6:0.514764 7:1.122797 8:-0.0017124429 9:-1.185629 10:0 11:1.0817748 12:-0.47469378 
-1.182574667294135 1:-0.36615025 2:-0.24844138 3:0.08280416 4:3.6535315 5:0.82932966 6:0.4857467 7:0.4815102 8:-0.10925628 9:1.2707186 10:0 11:-0.9244068 12:2.1066213 
1.15559013153002 1:0.53630695 2:-0.57283962 3:-0.41426074 4:1.009421 5:0.011124701 6:-1.5736362 7:-1.5404053 8:0.09180394 9:-1.6828055 10:0 11:-0.9244068 12:-0.47469378 
-9.800000000000004 1:1.8384919 2:0.78687131 3:0.26351642 4:0.74739201 5:-1.0847028 6:0.90973731 7:1.1354383 8:-0.011064081 9:1.1722678 10:0 11:1.0817748 12:-0.47469378 
4.677349906523577 1:-0.30382364 2:0.5621557 3:-0.50152128 4:-0.84860263 5:1.2026807 6:0.11922725 7:0.1726539 8:0.026342472 9:0.77846456 10:0 11:-0.9244068 12:-0.47469378 
-4.464392440588091 1:-1.6709427 2:0.27608912 3:0.16855874 4:-1.0868108 5:0.0098811059 6:1.7543379 7:1.5225336 8:-1.2688594 9:-1.1905515 10:0 11:-0.9244068 12:-0.47469378 
-1.068183694523986 1:-0.67690031 2:0.26178508 3:-0.22199882 4:-0.41982795 5:0.095779571 6:-1.883248 7:-0.8622197 8:0.1806445 9:0.77846456 10:0 11:1.0817748 12:-0.47469378 
-0.3087749483848695 1:0.53575511 2:-0.40711794 3:-0.41412186 4:-1.3488398 5:3.3220576 6:0.12063586 7:-0.4481336 8:1.9714832 9:0.40927405 10:0 11:-0.9244068 12:-0.47469378 
3.721824423954138 1:-0.56440527 2:-0.31025423 3:2.3265359 4:-0.32454469 5:0.087139509 6:0.17500807 7:1.0489995 8:-0.13263538 9:-0.50139587 10:0 11:-0.9244068 12:-0.47469378 
9.800000000000004 1:-0.20086193 2:-0.055141707 3:0.14463623 4:0.056588358 5:0.88525211 6:0.8528296 7:1.5252668 8:0.17129287 9:0.28621055 10:0 11:-0.9244068 12:-0.47469378 
9.800000000000004 1:1.8648556 2:0.62213369 3:0.025626089 4:-0.84860263 5:-1.0937154 6:0.0065387155 7:0.040091685 8:0.44716619 9:0.77846456 10:0 11:-0.9244068 12:2.1066213 
9.800000000000004 1:1.3799623 2:1.4695743 3:0.16206415 4:-0.32454469 5:-1.1281724 6:0.90973731 7:1.1354383 8:-0.011064081 9:0.43388675 10:0 11:-0.9244068 12:2.1066213 
2.364176556600903 1:-0.069487018 2:-0.55939721 3:2.417743 4:-1.5155855 5:2.8237286 6:1.3328828 7:1.0220087 8:1.6956099 9:0.77846456 10:0 11:-0.9244068 12:-0.47469378 
1.054840869402633 1:-0.61348146 2:-0.056882362 3:0.049624065 4:-0.32454469 5:3.0193723 6:0.62745253 7:0.16206259 8:-0.085877187 9:-1.0921007 10:0 11:-0.9244068 12:-0.47469378 
4.312424553073176 1:0.28951743 2:-0.52882743 3:0.84607469 4:-0.32454469 5:0.63315436 6:-0.22024696 7:0.10090631 8:-0.13263538 9:0.43388675 10:0 11:-0.9244068 12:-0.47469378 
3.123641100903474 1:-0.036550814 2:0.22030106 3:-0.008344175 4:1.009421 5:-0.68977402 6:-1.234162 7:-1.4645578 8:0.23207851 9:-1.6828055 10:0 11:1.0817748 12:-0.47469378 
-1.017392853284362 1:-0.35511189 2:0.11612697 3:-2.545868 4:-0.32454469 5:3.0193723 6:1.8129359 7:1.5997477 8:-0.090553006 9:0.77846456 10:0 11:-0.9244068 12:-0.47469378 
9.800000000000004 1:1.6779284 2:1.6853591 3:0.15269415 4:-0.32454469 5:-1.1274398 6:0.90973731 7:1.1313384 8:0.0076391954 9:0.43388675 10:0 11:1.0817748 12:-0.47469378 
9.800000000000004 1:-1.2164812 2:-1.3990666 3:-0.31580622 4:-0.32454469 5:-0.77742588 6:-0.24898253 7:-0.40952656 8:-0.23082758 9:-0.20604347 10:0 11:1.0817748 12:-0.47469378 
1.157512279259801 1:-0.24738609 2:0.76621263 3:-1.8976102 4:1.009421 5:0.88868801 6:0.90973731 7:1.6017976 8:0.012315015 9:-1.185629 10:0 11:1.0817748 12:-0.47469378 
0.8531453704339631 1:-0.15962252 2:-0.45365303 3:1.3346884 4:1.009421 5:2.0504886 6:1.3328828 7:1.0220087 8:1.6956099 9:-1.1905515 10:0 11:1.0817748 12:-0.47469378 
3.110844031472852 1:-0.56214904 2:-0.16606481 3:0.076848191 4:1.009421 5:0.97632637 6:-0.30335475 7:-0.47546601 8:1.2514071 9:-0.0091418603 10:0 11:1.0817748 12:-0.47469378 
1.274255033718374 1:3.3084422 2:0.4439644 3:0.56771793 4:-1.3488398 5:-0.85051697 6:0.514764 7:1.122797 8:-0.0017124429 9:-1.1905515 10:0 11:-0.9244068 12:-0.47469378 
3.245875033987773 1:0.60121572 2:0.56208291 3:-0.079803384 4:-0.84860263 5:-1.0078064 6:0.11922725 7:0.1726539 8:0.026342472 9:0.77846456 10:0 11:-0.9244068 12:-0.47469378 
-1.49979178056535 1:0.99424377 2:1.6935032 3:0.19442576 4:-0.41982795 5:0.095779571 6:0.11922725 7:1.5662655 8:0.031018291 9:0.77846456 10:0 11:1.0817748 12:-0.47469378 
0.5741780476800775 1:-0.0036367881 2:0.18830055 3:-0.56879642 4:-0.32454469 5:-0.27735366 6:0.51335539 7:-0.89467694 8:0.74641862 9:0.43388675 10:0 11:-0.9244068 12:-0.47469378 
-0.342713514775055 1:0.057640065 2:0.85449385 3:0.046780297 4:1.009421 5:-0.46866171 6:-0.19066622 7:-0.83010411 8:-1.7831995 9:-1.4366785 10:0 11:1.0817748 12:-0.47469378 
8.896099495415282 1:0.42703834 2:1.7441734 3:0.48688004 4:-0.84860263 5:-1.0078064 6:0.063728146 7:0.10534783 8:0.17596868 9:0.77846456 10:0 11:-0.9244068 12:-0.47469378 
-9.800000000000004 1:2.0907249 2:1.8061098 3:0.055625577 4:0.79503364 5:-1.11337 6:-1.0093484 7:0.19759473 8:-0.12328374 9:-1.0921007 10:0 11:1.0817748 12:-0.47469378 
-1.779323194863742 1:0.73174481 2:0.15684716 3:0.30800237 4:0.74739201 5:-1.0572411 6:0.514764 7:1.122797 8:-0.0017124429 9:1.1722678 10:0 11:1.0817748 12:-0.47469378 
-9.800000000000004 1:-0.71744928 2:0.108462 3:-0.0065959789 4:-0.32454469 5:0.26457578 6:-0.67071937 7:-0.31488807 8:0.026342472 9:0.77846456 10:0 11:-0.9244068 12:2.1066213 
3.91634572377733 1:-2.3050727 2:-0.087566501 3:-0.26729891 4:-1.5155855 5:-0.32361484 6:-0.67071937 7:1.0527577 8:0.0029633763 9:-1.6828055 10:0 11:-0.9244068 12:-0.47469378 
3.41618258032726 1:-2.0191452 2:-2.5972957 3:-0.088935522 4:0.19951325 5:-0.32636465 6:0.17388119 7:-0.39415207 8:-1.2735352 9:-1.3382277 10:0 11:1.0817748 12:-0.47469378 
9.800000000000004 1:-1.6030299 2:-0.70009276 3:-0.7936766 4:-0.32454469 5:1.0709724 6:-1.8274672 7:-1.8482366 8:-2.5593855 9:0.43388675 10:0 11:1.0817748 12:-0.47469378 
8.946667717428884 1:-0.17920031 2:-0.28861467 3:-2.2888653 4:0.74739201 5:-0.23349847 6:-0.021915139 7:-0.86802784 8:0.86798992 9:1.1722678 10:0 11:-0.9244068 12:-0.47469378 
9.800000000000004 1:-0.64001343 2:-0.53592032 3:-0.033616274 4:-0.41982795 5:-1.1281724 6:0.23247922 7:-0.316938 8:-0.095228825 9:-0.94442449 10:0 11:-0.9244068 12:-0.47469378 
1.976103682747892 1:1.2656843 2:1.5175599 3:0.021679516 4:-1.5632271 5:0.67163169 6:0.11922725 7:0.1726539 8:0.026342472 9:0.28621055 10:0 11:1.0817748 12:-0.47469378 
-9.800000000000004 1:-0.58336201 2:-0.037540056 3:-0.033371021 4:2.7721613 5:-0.9268643 6:0.82409402 7:-1.4836905 8:0.20869942 9:0.77846456 10:0 11:-0.9244068 12:2.1066213 
-9.757051697091363 1:0.050419858 2:0.37844261 3:-1.4866823 4:1.009421 5:0.30073563 6:-0.64198379 7:-0.41055152 8:0.12453467 9:0.13853434 10:0 11:-0.9244068 12:-0.47469378 
-9.800000000000004 1:-1.4023411 2:-2.1890678 3:0.14240408 4:-1.3250189 5:2.2627799 6:0.93650084 7:-0.38151083 8:2.4343893 9:0.77846456 10:0 11:-0.9244068 12:2.1066213 
-3.362322818754906 1:-0.88504509 2:-0.78877593 3:2.0024287 4:-0.84860263 5:-0.71893304 6:0.96410953 7:1.0394331 8:-1.4932987 9:-0.058367262 10:0 11:1.0817748 12:-0.47469378 
1.059965597141549 1:3.0021423 2:1.0166195 3:0.60779303 4:-1.3488398 5:-1.0880612 6:0.90973731 7:1.1354383 8:-0.011064081 9:-0.94442449 10:0 11:-0.9244068 12:2.1066213 
9.800000000000004 1:0.39516164 2:-0.66814028 3:-0.053446016 4:-0.32454469 5:-1.1281724 6:0.23247922 7:-0.316938 8:-0.076525549 9:-1.0921007 10:0 11:1.0817748 12:-0.47469378 
2.346175214028457 1:-1.081063 2:-1.9019748 3:0.039264839 4:0.79503364 5:-0.69130291 6:1.3593646 7:1.043533 8:-1.2828869 9:1.7629726 10:0 11:1.0817748 12:-0.47469378 
5.167515981925611 1:-0.2237839 2:0.27617542 3:-0.088525225 4:1.009421 5:0.90861106 6:-0.30335475 7:-0.95788315 8:1.1532149 9:0.13853434 10:0 11:1.0817748 12:-0.47469378 
-6.05005815188285 1:-0.50456356 2:-0.079544956 3:0.14486812 4:-1.444123 5:2.3130371 6:1.4157088 7:0.016517476 8:0.31624326 9:0.77846456 10:0 11:-0.9244068 12:-0.47469378 
2.64754202270874 1:-0.31316238 2:-1.0340419 3:-0.097931971 4:0.74739201 5:-0.85116602 6:-0.67071937 7:1.0527577 8:0.0029633763 9:2.7474806 10:0 11:1.0817748 12:-0.47469378 
-1.383345169331672 1:0.4370591 2:-0.53331267 3:-1.0551198 4:-1.5632271 5:-0.31931688 6:-1.1234456 7:-0.99444026 8:-0.029767358 9:-0.10759266 10:0 11:-0.9244068 12:-0.47469378 
-9.800000000000004 1:0.82281788 2:0.6277293 3:0.22217634 4:1.009421 5:-1.1281724 6:1.4179626 7:1.1207471 8:-0.10458046 9:-1.1905515 10:0 11:1.0817748 12:-0.47469378 
3.581543175788632 1:0.058633591 2:-0.026035385 3:-0.5432012 4:0.19951325 5:-1.1054878 6:0.11922725 7:0.17675376 8:0.0076391954 9:-1.3382277 10:0 11:-0.9244068 12:-0.47469378 
4.487323732192372 1:-0.80981089 2:0.19992948 3:0.26513423 4:-0.32454469 5:-0.23022904 6:0.514764 7:1.122797 8:-0.0017124429 9:0.43388675 10:0 11:1.0817748 12:-0.47469378 
-9.800000000000004 1:-0.75308828 2:-0.78449028 3:-0.041291619 4:1.6049414 5:-0.013031529 6:-1.0090667 7:-2.0651877 8:0.8633141 9:0.77846456 10:0 11:1.0817748 12:-0.47469378 
-9.800000000000004 1:-0.71744928 2:0.108462 3:-0.0065959789 4:-0.32454469 5:0.26457578 6:-0.67071937 7:-0.31488807 8:0.026342472 9:2.0090996 10:0 11:-0.9244068 12:2.1066213 
-1.357402663153795 1:0.21373129 2:-0.65017042 3:-0.15887549 4:-0.84860263 5:0.81452746 6:-0.3608259 7:-1.0320223 8:1.8171812 9:-0.058367262 10:0 11:1.0817748 12:-0.47469378 
-4.77469486324673 1:0.12754479 2:0.65745296 3:-0.10857049 4:1.009421 5:-0.85799799 6:-0.78397134 7:-0.92269267 8:0.12921049 9:-1.6828055 10:0 11:1.0817748 12:-0.47469378 
4.389636791508484 1:-0.3361046 2:0.94034592 3:-0.0065959789 4:-0.32454469 5:0.26457578 6:-1.1789447 7:-0.93123405 8:0.11985885 9:0.77846456 10:0 11:-0.9244068 12:2.1066213 
4.997227611417724 1:1.558453 2:2.018543 3:0.039264839 4:0.79503364 5:-1.11337 6:-0.72650019 7:0.54061655 8:0.16661705 9:-1.0921007 10:0 11:1.0817748 12:-0.47469378 
-0.2323121832187269 1:-0.23167755 2:-1.6787362 3:0.36734247 4:-1.3488398 5:0.78425104 6:1.3328828 7:1.0220087 8:1.6956099 9:0.40927405 10:0 11:1.0817748 12:-0.47469378 
-4.624440081394396 1:0.42950951 2:-0.0058381145 3:-0.29477466 4:0.19951325 5:0.86873327 6:-0.24813737 7:-0.43070918 8:-1.2174254 9:-1.3382277 10:0 11:-0.9244068 12:-0.47469378 
-1.760217310151521 1:-0.64001343 2:-0.53592032 3:-0.033616274 4:-0.41982795 5:-1.1281724 6:0.23247922 7:-0.316938 8:-0.095228825 9:-0.20604347 10:0 11:-0.9244068 12:-0.47469378 
-9.800000000000004 1:-0.37336339 2:-0.24363669 3:-0.033371021 4:2.7721613 5:-1.1281724 6:0.82409402 7:-1.4836905 8:0.20869942 9:0.77846456 10:0 11:1.0817748 12:-0.47469378 
-1.072695992777185 1:0.53154818 2:0.45706155 3:-1.5668633 4:1.009421 5:-0.32819802 6:-1.5156016 7:-0.41635966 8:1.5272804 9:-0.0091418603 10:0 11:1.0817748 12:-0.47469378 
3.49810824107032 1:0.023769613 2:2.2580638 3:0.3494643 4:-0.32454469 5:0.26457578 6:0.90973731 7:1.6017976 8:0.012315015 9:2.0090996 10:0 11:-0.9244068 12:2.1066213 
4.290675060091215 1:-0.35823495 2:-0.17381233 3:0.46190439 4:-0.32454469 5:0.71509055 6:-1.0648475 7:-1.8858187 8:-0.71243695 9:0.43388675 10:0 11:-0.9244068 12:-0.47469378 
9.800000000000004 1:1.0235068 2:1.0315429 3:0.16705187 4:1.009421 5:-1.0534306 6:0.90973731 7:1.1313384 8:0.0076391954 9:-1.1905515 10:0 11:1.0817748 12:-0.47469378 
5.028465269660916 1:-0.37660229 2:-0.49096433 3:-0.13251812 4:-0.84860263 5:0.34728495 6:-1.0648475 7:-1.8858187 8:-0.71243695 9:-0.058367262 10:0 11:1.0817748 12:-0.47469378 
-4.518048629404571 1:-1.3836717 2:-0.90836462 3:-0.0070082451 4:0.34243814 5:-1.0642396 6:-0.67071937 7:-0.31488807 8:0.0076391954 9:0.77846456 10:0 11:1.0817748 12:-0.47469378 
-3.906092493428981 1:-0.24698243 2:-0.043202875 3:0.16196862 4:0.17569244 5:1.0100216 6:-0.30335475 7:-0.47546601 8:1.2514071 9:2.0090996 10:0 11:-0.9244068 12:-0.47469378 
-9.084783215199955 1:0.14083654 2:-0.059168072 3:0.076848191 4:1.009421 5:0.56838499 6:-0.30335475 7:-0.47546601 8:1.2514071 9:0.72923916 10:0 11:1.0817748 12:-0.47469378 
0.4881974144773338 1:0.59370219 2:-0.12751843 3:-0.14569681 4:-0.84860263 5:0.010617266 6:-0.24813737 7:-0.43070918 8:-1.2174254 9:0.77846456 10:0 11:-0.9244068 12:-0.47469378 
-1.190604700799701 1:-1.4643467 2:-0.069108398 3:-0.50446442 4:1.009421 5:0.88868801 6:0.514764 7:1.122797 8:-0.0017124429 9:-0.0091418603 10:0 11:1.0817748 12:-0.47469378 
0.383000761417898 1:0.1984341 2:0.7251862 3:-0.10857049 4:1.009421 5:-1.1023205 6:-0.78397134 7:-0.92269267 8:0.12921049 9:0.00070322002 10:0 11:1.0817748 12:-0.47469378 
-7.891633720806215 1:-0.2237839 2:0.27617542 3:-0.088525225 4:1.009421 5:0.90861106 6:-0.30335475 7:-0.95788315 8:1.1532149 9:0.53233756 10:0 11:1.0817748 12:-0.47469378 
0.1200100589521146 1:1.4916693 2:-0.20648586 3:-0.11293524 4:-0.41982795 5:0.095779571 6:-2.4196454 7:-1.5127312 8:0.26013343 9:-1.4366785 10:0 11:1.0817748 12:-0.47469378 
-1.31015093306681 1:-1.2517066 2:-0.52687879 3:2.5028077 4:0.17569244 5:0.96575679 6:-1.1797898 7:-1.5605629 8:-1.2501562 9:0.48311215 10:0 11:1.0817748 12:-0.47469378 
