svm_type epsilon_svr
kernel_type rbf
gamma 0.5
nr_class 2
total_sv 2558
rho -2.37153
SV
-4 1:0.36538188 2:-0.46108134 3:-0.12990005 4:-0.050229123 5:-0.816253 6:0.25778415 7:0.55322961 8:-0.1279066 9:0.43904106 10:0 11:-0.86040723 12:1.7044348 
3.507973532352556 1:2.7710396 2:1.3019242 3:0.5661022 4:-0.80341882 5:-0.58796667 6:0.79997302 7:-0.42724 8:-0.031071416 9:0.026287253 10:0 11:-0.86040723 12:1.7044348 
-2.255889834548245 1:0.13449267 2:-0.69896642 3:-0.14258744 4:-0.050229123 5:0.37426815 6:0.17480242 7:0.54968574 8:0.10034776 9:0.43904106 10:0 11:-0.86040723 12:1.7044348 
-4 1:0.58521489 2:1.2995825 3:0.49533226 4:-0.46395304 5:-1.0158192 6:0.50839312 7:0.57231197 8:-0.01032102 9:1.0286894 10:0 11:1.1622404 12:-0.58670475 
-0.6002184098606937 1:0.93695693 2:-0.60468811 3:1.6199454 4:-0.80341882 5:1.3878035 6:1.4033063 7:0.55232093 8:1.7776715 9:-0.0031951619 10:0 11:-0.86040723 12:-0.58670475 
1.705804471437626 1:1.1186025 2:0.82896585 3:-0.36620964 4:-0.10327065 5:-0.95234242 6:-0.94929841 7:0.025829646 8:0.83352843 9:1.0286894 10:0 11:-0.86040723 12:1.7044348 
-4 1:-0.30323477 2:-0.039760404 3:-0.11721267 4:-0.050229123 5:0.54692379 6:-0.36676253 7:0.19102833 8:-0.017237818 9:0.43904106 10:0 11:-0.86040723 12:1.7044348 
-1.245494435111133 1:2.9372603 2:1.2945217 3:0.49533226 4:-0.46395304 5:-0.91587974 6:0.50839312 7:0.57231197 8:-0.01032102 9:1.0286894 10:0 11:1.1622404 12:-0.58670475 
-0.2387900462751735 1:0.32080718 2:0.41364193 3:0.15531512 4:-0.34726168 5:1.1942995 6:0.50839312 7:0.57340239 8:-0.024154617 9:0.026287253 10:0 11:-0.86040723 12:-0.58670475 
4 1:1.0416563 2:0.0187648 3:-0.12611947 4:-0.16692048 5:1.5981161 6:-0.55331543 7:-0.057133167 8:0.72977645 9:0.14421691 10:0 11:1.1622404 12:-0.58670475 
-2.124016925724548 1:-0.21746986 2:-1.1690154 3:0.07724726 4:2.8988798 5:0.48832528 6:2.0083034 7:-0.23259997 8:2.4797265 9:0.67490038 10:0 11:-0.86040723 12:1.7044348 
4 1:-0.76020298 2:0.051353431 3:-0.53589633 4:-0.050229123 5:-0.83164914 6:-0.36676253 7:0.18993791 8:0.010429377 9:0.43904106 10:0 11:-0.86040723 12:-0.58670475 
2.503889489325518 1:1.5998652 2:0.42802398 3:0.34362684 4:0.087678849 5:-1.0204224 6:0.21681322 7:0.57004026 8:-0.017237818 9:-0.44543138 10:0 11:-0.86040723 12:1.7044348 
-4 1:-0.18446003 2:0.26897309 3:-0.072806828 4:-0.050229123 5:0.17159352 6:-0.074974655 7:0.40784023 8:-0.017237818 9:0.43904106 10:0 11:-0.86040723 12:-0.58670475 
-0.6499269788894978 1:-3.2418553 2:-2.991198 3:-0.44892769 4:-0.90950187 5:-0.97498451 6:-2.0330522 7:-6.4833436 8:-0.037988215 9:0.43904106 10:0 11:-0.86040723 12:1.7044348 
-4 1:-0.065315287 2:-0.50597778 3:-0.066463136 4:-0.050229123 5:-1.0204224 6:-0.65834243 7:0.1876662 8:-0.01032102 9:0.43904106 10:0 11:1.1622404 12:-0.58670475 
0.7468113706489518 1:0.69213641 2:0.079366348 3:-0.069716583 4:0.20437021 5:-1.0204224 6:-1.3658708 7:-0.12146797 8:0.16259895 9:0.91075969 10:0 11:-0.86040723 12:1.7044348 
4 1:-0.46271112 2:-0.36553747 3:-0.14258744 4:-0.050229123 5:-0.29345269 6:-0.34638105 7:0.030463933 8:-0.84379527 9:0.43904106 10:0 11:1.1622404 12:-0.58670475 
-2.309095278474368 1:-0.26967326 2:-0.010827336 3:-0.40882612 4:0.087678849 5:0.86247956 6:0.88357867 7:0.56949505 8:-0.093322605 9:-0.44543138 10:0 11:-0.86040723 12:-0.58670475 
-0.6988007696087593 1:-0.096700751 2:-0.37765968 3:-0.22172074 4:2.8988798 5:0.26457015 6:0.71636737 7:-0.21969666 8:0.20409974 9:0.67490038 10:0 11:-0.86040723 12:-0.58670475 
-1.687096524913284 1:0.20784604 2:1.2683328 3:0.010003791 4:0.29984496 5:-1.0204224 6:-0.075182629 7:0.68798739 8:0.0069709773 9:0.43904106 10:0 11:-0.86040723 12:1.7044348 
-4 1:1.7027675 2:0.40577567 3:-0.18985462 4:-0.3896949 5:-0.99954893 6:-0.075182629 7:0.31733535 8:0.003512578 9:0.43904106 10:0 11:1.1622404 12:-0.58670475 
4 1:-0.98609698 2:-0.38109899 3:-0.091837903 4:-0.050229123 5:-0.9925273 6:-0.36676253 7:-0.81406661 8:0.010429377 9:0.43904106 10:0 11:1.1622404 12:1.7044348 
-2.727569524900044 1:0.15677943 2:-0.025335065 3:-0.10690839 4:2.9094881 5:0.71110086 6:-0.8459352 7:-0.47912583 8:-0.082947406 9:0.7338652 10:0 11:1.1622404 12:-0.58670475 
4 1:0.96628582 2:0.33647078 3:0.11116024 4:-0.050229123 5:0.047271232 6:0.50839312 7:0.57231197 8:-0.01032102 9:0.43904106 10:0 11:-0.86040723 12:-0.58670475 
-1.675882425138921 1:0.63664151 2:0.7939995 3:0.058404103 4:0.24680343 5:-0.80794185 6:-0.075182629 7:0.68798739 8:0.0069709773 9:-0.15060724 10:0 11:1.1622404 12:-0.58670475 
4 1:1.9099555 2:1.0622013 3:0.19530344 4:-0.35786998 5:-1.0204224 6:0.50839312 7:0.57340239 8:-0.024154617 9:0.7338652 10:0 11:-0.86040723 12:1.7044348 
-1.056529915465987 1:0.18999489 2:0.27084176 3:-0.19333697 4:-0.050229123 5:-0.93819861 6:0.21639727 7:-2.8153514 8:-0.0034042208 9:0.43904106 10:0 11:-0.86040723 12:1.7044348 
0.7936052289383604 1:1.8419872 2:3.5895786 3:0.53996254 4:-0.40030321 5:-0.92644944 6:-0.11594558 7:0.42465088 8:0.093430962 9:0.43904106 10:0 11:-0.86040723 12:1.7044348 
4 1:1.2511354 2:0.86034502 3:0.069558912 4:0.29984496 5:-1.0204224 6:0.50839312 7:0.57231197 8:-0.01032102 9:0.43904106 10:0 11:-0.86040723 12:1.7044348 
-0.5661623015636164 1:-0.16930301 2:-1.4560159 3:0.29785121 4:-0.80341882 5:0.85878402 6:0.82077045 7:0.54323409 8:1.2381612 9:-0.0031951619 10:0 11:1.1622404 12:-0.58670475 
2.16108968432542 1:-0.81330009 2:-1.6889272 3:-0.28214866 4:-0.050229123 5:-0.58015364 6:0.54853215 7:-0.61724574 8:-0.96483925 9:0.43904106 10:0 11:-0.86040723 12:1.7044348 
1.016035444218554 1:0.12404788 2:-0.38268838 3:0.21358686 4:0.15132868 5:-0.47593984 6:1.0073233 7:0.55904519 8:0.50498049 9:-0.44543138 10:0 11:-0.86040723 12:-0.58670475 
4 1:1.8086244 2:0.69625444 3:-1.531856 4:-0.050229123 5:-0.83164914 6:0.50839312 7:0.57231197 8:-0.01032102 9:0.43904106 10:0 11:-0.86040723 12:-0.58670475 
-0.6146538777117215 1:1.4589192 2:2.0790945 3:-0.024962535 4:0.20437021 5:-1.0204224 6:-1.5532556 7:-0.20334036 8:-1.7983135 9:0.91075969 10:0 11:-0.86040723 12:1.7044348 
2.937959791706512 1:-0.076736091 2:0.79695327 3:-0.066463136 4:-0.050229123 5:-1.0204224 6:-0.075182629 7:0.68798739 8:0.0069709773 9:0.43904106 10:0 11:1.1622404 12:-0.58670475 
0.9682815352090943 1:-1.5612849 2:-2.4111526 3:-0.36461665 4:-0.050229123 5:-0.78330603 6:0.54832418 7:-0.70666021 8:-0.95792245 9:0.43904106 10:0 11:-0.86040723 12:1.7044348 
-4 1:0.20220775 2:0.58186726 3:0.19856816 4:0.13011207 5:-0.76006849 6:0.50839312 7:0.57340239 8:-0.024154617 9:-0.15060724 10:0 11:1.1622404 12:-0.58670475 
4 1:-1.2476974 2:-0.47749665 3:-0.015713601 4:-0.050229123 5:-0.92666738 6:-0.94992233 7:-3.2009058 8:-0.0034042208 9:0.43904106 10:0 11:1.1622404 12:1.7044348 
1.430123479417424 1:4.5105452 2:0.42353098 3:1.9661695 4:0.28923665 5:1.2591057 6:6.7135129 7:-1.7479208 8:7.1208985 9:0.43904106 10:0 11:-0.86040723 12:-0.58670475 
1.486224978325122 1:0.69691509 2:0.3220208 3:-0.10452529 4:-0.050229123 5:-0.22970449 6:-1.0742909 7:-1.1221104 8:0.15568215 9:0.43904106 10:0 11:-0.86040723 12:1.7044348 
3.544485554293862 1:0.042380886 2:-1.0456444 3:0.029121962 4:1.2439842 5:-0.9948225 6:0.50756122 7:0.40356942 8:-0.85417047 9:0.43904106 10:0 11:-0.86040723 12:1.7044348 
3.054787754657791 1:-1.4185281 2:-0.79585401 3:-0.16200764 4:-0.80341882 5:-0.27754271 6:0.34076587 7:0.18884748 8:-0.17632419 9:-0.0031951619 10:0 11:-0.86040723 12:1.7044348 
-4 1:-0.16290046 2:-0.1142334 3:-0.12355636 4:-0.050229123 5:-0.83921219 6:0.25757617 7:0.67781013 8:-0.1036978 9:0.43904106 10:0 11:1.1622404 12:-0.58670475 
0.4169930380606721 1:-0.90313071 2:-0.78499597 3:1.5276337 4:0.087678849 5:0.75520215 6:0.56953755 7:-1.0058897 8:1.1620764 9:-0.44543138 10:0 11:-0.86040723 12:1.7044348 
-1.011485089426112 1:1.7742216 2:0.60633825 3:0.15896057 4:-0.35786998 5:-0.74966224 6:0.50839312 7:0.57231197 8:-0.01032102 9:0.7338652 10:0 11:-0.86040723 12:1.7044348 
-4 1:-0.55040462 2:-0.72612659 3:2.1855475 4:-0.050229123 5:0.10932855 6:-0.74236403 7:-0.14254943 8:-0.78500248 9:0.43904106 10:0 11:-0.86040723 12:-0.58670475 
-4 1:-1.2256815 2:-2.0183289 3:-0.36461665 4:-0.050229123 5:-0.9310435 6:0.54832418 7:-0.70666021 8:-0.95792245 9:0.43904106 10:0 11:-0.86040723 12:1.7044348 
-2.637190924038249 1:-0.57593922 2:0.25165566 3:-1.4937938 4:-0.050229123 5:1.1723288 6:0.92434162 7:-0.34591282 8:-0.020696218 9:0.43904106 10:0 11:-0.86040723 12:-0.58670475 
0.5688494907346983 1:0.74379452 2:1.6113058 3:0.31228366 4:-0.13509557 5:-0.54952189 6:0.50839312 7:0.6974377 8:-0.0068626202 9:0.43904106 10:0 11:1.1622404 12:-0.58670475 
4 1:-0.2304601 2:-0.14648066 3:-0.012701798 4:-0.21996201 5:-0.38221539 6:0.44516895 7:-0.12319446 8:0.13839015 9:0.7338652 10:0 11:1.1622404 12:-0.58670475 
-1.908895810843467 1:0.11661135 2:0.13123228 3:-0.13933399 4:0.20437021 5:-1.0204224 6:0.63234577 7:0.31624493 8:-0.16940739 9:0.91075969 10:0 11:1.1622404 12:-0.58670475 
4 1:0.63314214 2:0.70050071 3:-0.2521421 4:-0.10327065 5:0.011091172 6:0.46742219 7:-1.0898521 8:0.10034776 9:0.67490038 10:0 11:-0.86040723 12:-0.58670475 
0.08147120898020038 1:-0.5347434 2:-0.77932168 3:2.2522513 4:-0.80341882 5:0.294505 6:0.54853215 7:0.54786838 8:-1.1204672 9:-0.0031951619 10:0 11:1.1622404 12:-0.58670475 
-4 1:-1.6454633 2:-0.55707627 3:-0.066463136 4:-0.050229123 5:-0.92666738 6:-0.65834243 7:-3.0735084 8:-0.01032102 9:0.43904106 10:0 11:1.1622404 12:1.7044348 
4 1:-0.13717791 2:0.1427089 3:-0.091837903 4:-0.050229123 5:-0.30897738 6:0.54936405 7:0.68062705 8:-0.1175314 9:0.43904106 10:0 11:-0.86040723 12:1.7044348 
1.536655417094054 1:-0.59892366 2:0.020877514 3:0.27060276 4:-0.13509557 5:-0.86147088 6:1.2989032 7:0.68644263 8:0.51535569 9:0.43904106 10:0 11:1.1622404 12:-0.58670475 
0.6284870918251044 1:-0.026278731 2:-0.070674026 3:-0.15527482 4:-0.050229123 5:-0.016816192 6:-0.075182629 7:0.31842577 8:-0.01032102 9:0.43904106 10:0 11:1.1622404 12:-0.58670475 
-2.627055299264772 1:-0.91435094 2:-0.3785596 3:-0.15123051 4:2.4321144 5:-0.96248603 6:0.17480242 7:0.54968574 8:0.10034776 9:0.49800589 10:0 11:1.1622404 12:-0.58670475 
-4 1:0.011889176 2:-0.29494527 3:0.50381634 4:-0.72916068 5:0.15628615 6:1.4033063 7:0.55232093 8:1.7776715 9:0.7338652 10:0 11:-0.86040723 12:1.7044348 
1.635911585725901 1:-1.3823828 2:-1.9563728 3:-1.1702655 4:-0.050229123 5:-0.37354334 6:1.1318999 7:-0.45277401 8:-0.95792245 9:0.43904106 10:0 11:-0.86040723 12:1.7044348 
4 1:-1.2562077 2:-0.84069547 3:-0.066463136 4:-0.050229123 5:-0.92666738 6:-0.65834243 7:-3.0735084 8:-0.01032102 9:0.43904106 10:0 11:1.1622404 12:1.7044348 
4 1:-0.79130092 2:-0.31455021 3:-0.10452529 4:-0.45334473 5:-0.95511389 6:0.34076587 7:0.18884748 8:-0.17632419 9:-0.44543138 10:0 11:-0.86040723 12:-0.58670475 
0.0148700198895911 1:0.3064625 2:-0.23436718 3:0.2029856 4:0.67113566 5:0.18403894 6:1.0705475 7:0.40693155 8:1.8883402 9:0.55697072 10:0 11:-0.86040723 12:-0.58670475 
-4 1:-0.33157043 2:-0.35772449 3:-0.22505543 4:-0.050229123 5:-0.4544572 6:1.1318999 7:0.67635624 8:-0.95446405 9:0.43904106 10:0 11:-0.86040723 12:-0.58670475 
-0.4154487320296669 1:-3.2692373 2:-2.0858551 3:-0.65738876 4:-0.36847829 5:-0.86886583 6:0.29875507 7:-0.21824277 8:-0.22474178 9:0.7338652 10:0 11:1.1622404 12:-0.58670475 
-0.4130682623505492 1:0.3844153 2:-0.58449046 3:0.37462305 4:-0.36847829 5:1.0612299 6:3.756535 7:0.040368584 8:3.5794975 9:0.7338652 10:0 11:1.1622404 12:-0.58670475 
-0.9614769607111049 1:0.034588694 2:-0.38361203 3:0.136535 4:-0.050229123 5:1.4731071 6:1.4033063 7:0.55232093 8:1.7776715 9:0.43904106 10:0 11:-0.86040723 12:-0.58670475 
-1.167074467859378 1:0.30436565 2:0.30817931 3:-0.3332682 4:0.20437021 5:-0.82699769 6:-0.67893188 7:0.017469757 8:0.75398524 9:0.91075969 10:0 11:-0.86040723 12:-0.58670475 
-4 1:-1.1063518 2:-0.46670346 3:-0.07915052 4:-0.050229123 5:-0.83995717 6:-0.65834243 7:-0.94037363 8:-0.024154617 9:0.43904106 10:0 11:1.1622404 12:1.7044348 
-3.296122737738624 1:-1.8820877 2:-1.3663881 3:-0.041088368 4:-0.050229123 5:-0.92572535 6:-0.94992233 7:-3.1998154 8:-0.031071416 9:0.43904106 10:0 11:1.1622404 12:1.7044348 
0.8166757958436038 1:1.4465613 2:-0.75897385 3:-0.21204545 4:-0.34726168 5:-0.28481753 6:0.3623952 7:-0.78617002 8:1.9090906 9:0.43904106 10:0 11:-0.86040723 12:1.7044348 
-4 1:-0.4018437 2:-0.32832513 3:-0.066463136 4:-0.050229123 5:-0.060442304 6:0.0084230198 7:0.18712099 8:-0.072572208 9:0.43904106 10:0 11:-0.86040723 12:1.7044348 
-0.7354621834168376 1:-4.8290718 2:-3.0370964 3:-0.47352786 4:-0.90950187 5:-0.97498451 6:-2.3246321 7:-6.6107411 8:-0.017237818 9:0.43904106 10:0 11:-0.86040723 12:1.7044348 
-0.2207057082095743 1:-0.10274245 2:-0.4055562 3:0.06756817 4:0.15132868 5:0.90956488 6:1.4033063 7:0.55232093 8:1.7776715 9:1.0286894 10:0 11:-0.86040723 12:-0.58670475 
0.2284569828129445 1:-1.4182846 2:-1.0129861 3:0.13061936 4:-0.47456135 5:1.5106644 6:-0.89168954 7:-2.5500158 8:-6.9236614 9:0.43904106 10:0 11:1.1622404 12:-0.58670475 
3.870751447789129 1:-1.0552897 2:-0.84488387 3:-0.12355636 4:-0.050229123 5:-0.79392155 6:0.52815067 7:0.54486972 8:-0.20744978 9:0.43904106 10:0 11:1.1622404 12:-0.58670475 
-2.4621695140618 1:-0.53078338 2:-0.55395891 3:0.21870314 4:-0.54881948 5:-0.18516242 6:0.82077045 7:0.54323409 8:1.2381612 9:1.0286894 10:0 11:1.1622404 12:-0.58670475 
4 1:3.1609446 2:1.613428 3:0.48945906 4:-0.80341882 5:-1.0204224 6:0.21681322 7:0.57004026 8:-0.017237818 9:0.026287253 10:0 11:-0.86040723 12:1.7044348 
0.1264711204266946 1:3.8401226 2:1.7683703 3:-2.0579762 4:-0.36847829 5:-0.92154265 6:1.3835488 7:-0.17444422 8:-0.017237818 9:0.7338652 10:0 11:-0.86040723 12:-0.58670475 
4 1:-0.12655058 2:0.69437666 3:-0.085286844 4:-0.40030321 5:-0.92644944 6:-0.44995223 7:0.27871629 8:0.32168532 9:0.43904106 10:0 11:-0.86040723 12:1.7044348 
0.02841176036415693 1:-0.82109798 2:-2.7416038 3:0.055800611 4:-0.47456135 5:1.1662975 6:6.0694166 7:-3.5694679 8:10.824844 9:0.43904106 10:0 11:-0.86040723 12:1.7044348 
4 1:-0.090018997 2:-0.041158973 3:-0.54297991 4:2.7079303 5:2.3327532 6:1.2159215 7:0.57122155 8:-0.18324099 9:0.7338652 10:0 11:-0.86040723 12:-0.58670475 
4 1:-1.0556597 2:-0.78392652 3:-0.066463136 4:-0.050229123 5:-0.98769465 6:-0.65834243 7:-0.94037363 8:-0.01032102 9:0.43904106 10:0 11:1.1622404 12:1.7044348 
0.7272564045936505 1:1.4433045 2:0.16524905 3:0.33776549 4:-0.36847829 5:0.20670093 6:2.0469866 7:0.031463485 8:-2.2167798 9:0.7338652 10:0 11:1.1622404 12:-0.58670475 
3.461567438438502 1:-0.3753595 2:1.0218267 3:-3.0124119 4:-0.53821118 5:0.40948829 6:0.63338564 7:0.16722082 8:0.9960732 9:0.43904106 10:0 11:-0.86040723 12:-0.58670475 
4 1:0.53984383 2:0.42031935 3:-0.14258744 4:-0.050229123 5:-1.0031911 6:-0.075182629 7:0.31733535 8:0.003512578 9:0.43904106 10:0 11:-0.86040723 12:-0.58670475 
-1.463361817193864 1:1.1485039 2:1.0711195 3:-2.6133292 4:-0.34726168 5:1.1591064 6:-0.67830796 7:0.053817101 8:0.11072296 9:0.026287253 10:0 11:1.1622404 12:-0.58670475 
4 1:3.2858551 2:2.8277279 3:0.53996254 4:-0.40030321 5:-0.97345723 6:-0.11594558 7:0.42465088 8:0.093430962 9:0.43904106 10:0 11:1.1622404 12:-0.58670475 
-1.286699735681378 1:-1.2335144 2:-1.1434679 3:2.5588239 4:-0.80341882 5:0.74227723 6:-0.42957075 7:-0.0030664923 8:1.3280795 9:-0.0031951619 10:0 11:-0.86040723 12:-0.58670475 
-2.212530095826274 1:0.77590126 2:1.154999 3:-0.11447063 4:0.20437021 5:-0.82059931 6:-1.1572727 7:-0.030327 8:-0.52562253 9:0.91075969 10:0 11:-0.86040723 12:1.7044348 
1.560893263013742 1:-0.77204345 2:-0.46369104 3:-0.14258744 4:-0.050229123 5:-0.013318331 6:-0.34638105 7:0.030463933 8:-0.84379527 9:0.43904106 10:0 11:-0.86040723 12:1.7044348 
-0.110079418684315 1:3.6848236 2:0.54806538 3:1.2592046 4:-0.36847829 5:1.2500404 6:3.756535 7:0.040368584 8:3.5794975 9:0.7338652 10:0 11:1.1622404 12:-0.58670475 
-4 1:-0.87642122 2:-1.4672896 3:-0.0024547081 4:-0.44273643 5:-0.94053339 6:0.84032002 7:0.5489588 8:-0.96483925 9:0.67490038 10:0 11:1.1622404 12:-0.58670475 
-4 1:-1.4091289 2:-0.61796918 3:-0.085494211 4:-0.050229123 5:-0.79392155 6:0.81973057 7:0.67226716 8:-0.19707459 9:0.43904106 10:0 11:1.1622404 12:-0.58670475 
-4 1:0.99755207 2:1.0599849 3:0.11116024 4:-0.050229123 5:-0.7318263 6:0.50839312 7:0.57231197 8:-0.01032102 9:0.43904106 10:0 11:-0.86040723 12:-0.58670475 
4 1:1.3313926 2:0.26801253 3:-0.063071605 4:-0.45334473 5:0.16361221 6:-0.074974655 7:0.14904714 8:0.15222375 9:-0.44543138 10:0 11:1.1622404 12:-0.58670475 
4 1:-0.23317537 2:0.16442415 3:-0.59298956 4:-0.050229123 5:-0.6609681 6:-0.69952133 7:-0.59461952 8:0.089972562 9:0.43904106 10:0 11:-0.86040723 12:1.7044348 
2.528651482570161 1:-0.29104779 2:0.69016581 3:-2.8689856 4:-0.10327065 5:0.76323006 6:0.88316272 7:0.42583217 8:-0.072572208 9:1.0286894 10:0 11:-0.86040723 12:-0.58670475 
2.637106480818304 1:-1.4994924 2:-0.51304973 3:-0.0030262174 4:-0.050229123 5:-0.92666738 6:-0.94992233 7:-3.2009058 8:0.010429377 9:0.43904106 10:0 11:1.1622404 12:1.7044348 
3.811132951106117 1:2.3659935 2:1.623474 3:-1.0659193 4:0.28923665 5:-0.31027054 6:4.6346023 7:-1.6792243 8:-0.36307776 9:0.43904106 10:0 11:1.1622404 12:-0.58670475 
-4 1:0.21938164 2:0.91751333 3:0.11777282 4:-0.13509557 5:-1.0131574 6:0.50839312 7:0.57231197 8:-0.01032102 9:0.43904106 10:0 11:-0.86040723 12:-0.58670475 
4 1:1.1671163 2:2.4536109 3:0.18728454 4:-0.050229123 5:-1.0204224 6:0.50839312 7:0.6974377 8:-0.0068626202 9:0.43904106 10:0 11:-0.86040723 12:1.7044348 
-2.273382549690877 1:-0.2834522 2:0.75290478 3:0.03019918 4:-0.45334473 5:-0.98804873 6:-0.074974655 7:0.40784023 8:-0.017237818 9:-0.44543138 10:0 11:-0.86040723 12:1.7044348 
-1.538266581413283 1:-0.23700213 2:-0.49892194 3:2.1221106 4:-0.050229123 5:1.5055962 6:-0.7627455 7:-0.14745632 8:0.055388569 9:0.43904106 10:0 11:-0.86040723 12:-0.58670475 
-4 1:0.41163372 2:-0.72883294 3:-0.12990005 4:-0.050229123 5:0.9531989 6:-0.76191361 7:-0.14827413 8:1.4179979 9:0.43904106 10:0 11:1.1622404 12:-0.58670475 
4 1:0.22838681 2:-0.55432873 3:-0.010342725 4:-0.53821118 5:-0.62200474 6:-0.034003727 7:-0.12437575 8:0.058846968 9:0.43904106 10:0 11:-0.86040723 12:1.7044348 
-1.488395893226413 1:-0.52279322 2:-0.30008564 3:0.17459715 4:-0.050229123 5:-0.2010137 6:1.6948862 7:0.67971837 8:1.7880467 9:0.43904106 10:0 11:-0.86040723 12:-0.58670475 
-1.122369010848242 1:-0.65894622 2:-0.65734015 3:-0.36461665 4:-0.050229123 5:1.4086867 6:1.1123503 7:0.67063153 8:1.2485364 9:0.43904106 10:0 11:-0.86040723 12:-0.58670475 
0.7507905662897342 1:-0.55336473 2:-1.0116789 3:-0.12355636 4:-0.050229123 5:-0.074862567 6:0.52815067 7:0.54486972 8:-0.20744978 9:0.43904106 10:0 11:1.1622404 12:-0.58670475 
-4 1:0.27232317 2:0.24780555 3:-0.072806828 4:-0.050229123 5:-0.83030518 6:-0.074974655 7:0.40784023 8:-0.017237818 9:0.43904106 10:0 11:-0.86040723 12:-0.58670475 
-3.28063307156238 1:-1.2645532 2:-1.6370049 3:-0.54212042 4:0.20437021 5:-1.0204224 6:-0.3257916 7:0.29825299 8:-0.114073 9:0.91075969 10:0 11:-0.86040723 12:1.7044348 
-1.617419766461324 1:-0.35004886 2:-1.0160974 3:0.85377139 4:-0.36847829 5:1.4781001 6:3.1733752 7:-0.2144263 8:3.5587471 9:0.7338652 10:0 11:-0.86040723 12:-0.58670475 
4 1:-0.39059597 2:0.20875715 3:-0.079661927 4:0.20437021 5:-0.5764327 6:-0.36676253 7:0.19102833 8:-0.017237818 9:0.91075969 10:0 11:-0.86040723 12:1.7044348 
1.480533318607585 1:0.68421298 2:0.55987366 3:-0.066463136 4:-0.050229123 5:-0.034856357 6:-0.075182629 7:0.68798739 8:0.0069709773 9:0.43904106 10:0 11:1.1622404 12:-0.58670475 
1.046507830932943 1:2.5591876 2:-0.31047369 3:0.70896195 4:0.28923665 5:0.9933795 6:2.1314242 7:-1.744286 8:-0.50141373 9:0.43904106 10:0 11:-0.86040723 12:-0.58670475 
3.375316755787014 1:-1.5534981 2:-0.46826606 3:-0.52955264 4:-0.050229123 5:-0.78564311 6:-1.2826811 7:-0.72537909 8:0.089972562 9:0.43904106 10:0 11:1.1622404 12:-0.58670475 
-4 1:1.5039172 2:1.3857297 3:0.060410701 4:-0.050229123 5:-0.87129171 6:0.79997302 7:-0.42833042 8:-0.017237818 9:0.43904106 10:0 11:-0.86040723 12:1.7044348 
1.233405641460686 1:0.75648746 2:0.16627671 3:-0.14258744 4:-0.050229123 5:-0.16638459 6:-0.075182629 7:0.31733535 8:0.003512578 9:0.43904106 10:0 11:-0.86040723 12:1.7044348 
0.3447493536988621 1:-0.26456823 2:-0.21216144 3:-0.10452529 4:-0.050229123 5:-0.91401245 6:-0.36676253 7:-1.9421064 8:-0.0034042208 9:0.43904106 10:0 11:-0.86040723 12:1.7044348 
-2.702130761403938 1:0.27384996 2:0.37156525 3:-0.86105499 4:-0.45334473 5:1.9256664 6:0.21681322 7:0.57004026 8:-0.017237818 9:-0.44543138 10:0 11:-0.86040723 12:-0.58670475 
2.266290599913833 1:0.76254013 2:0.84988072 3:0.056754965 4:-0.34726168 5:-0.28924254 6:0.79997302 7:-0.42724 8:-0.031071416 9:0.026287253 10:0 11:-0.86040723 12:-0.58670475 
4 1:0.72989474 2:0.41894918 3:-0.20308544 4:-0.34726168 5:-1.0204224 6:-0.075182629 7:0.31842577 8:-0.01032102 9:0.026287253 10:0 11:-0.86040723 12:1.7044348 
1.073311440650506 1:-1.4843218 2:-1.3739434 3:-0.25677389 4:-0.050229123 5:-0.93587615 6:-0.076014526 7:-0.6098854 8:-0.84033687 9:0.43904106 10:0 11:-0.86040723 12:1.7044348 
-0.6339987408579801 1:-1.7353768 2:-2.3529983 3:2.4710136 4:-0.050229123 5:-0.34428258 6:-0.076846423 7:-0.85777429 8:-0.84033687 9:0.43904106 10:0 11:1.1622404 12:1.7044348 
-0.870835234481806 1:1.0097515 2:-2.1274777 3:5.5898854 4:0.28923665 5:1.309095 6:4.3800418 7:-1.7809968 8:-0.48758013 9:0.43904106 10:0 11:-0.86040723 12:-0.58670475 
-4 1:-0.33170593 2:0.30099892 3:-0.013262769 4:0.91512668 5:-0.91490968 6:0.88357867 7:0.56949505 8:-0.093322605 9:-0.15060724 10:0 11:1.1622404 12:-0.58670475 
3.738282602810393 1:0.59460601 2:0.38404136 3:-1.0116732 4:-0.050229123 5:-0.30551947 6:0.79997302 7:-0.42833042 8:-0.017237818 9:0.43904106 10:0 11:-0.86040723 12:1.7044348 
0.2561452408570684 1:-0.26031306 2:-0.33781347 3:-0.14258744 4:-0.050229123 5:-0.95300488 6:-0.075182629 7:-3.9467533 8:0.003512578 9:0.43904106 10:0 11:1.1622404 12:1.7044348 
0.7175196155876149 1:-0.37354611 2:1.1799342 3:0.136535 4:-0.050229123 5:-0.76209237 6:1.5075014 7:0.69861899 8:-0.17286579 9:0.43904106 10:0 11:-0.86040723 12:-0.58670475 
4 1:-1.6902036 2:-1.6809371 3:-0.42170988 4:-0.050229123 5:-1.019818 6:-0.6173715 7:-0.46940292 8:-0.1244482 9:0.43904106 10:0 11:1.1622404 12:-0.58670475 
-4 1:0.8678619 2:0.71328191 3:-1.0116732 4:-0.050229123 5:-0.45325695 6:0.79997302 7:-0.42833042 8:-0.017237818 9:0.43904106 10:0 11:-0.86040723 12:1.7044348 
-4 1:-0.40480381 2:-0.65291011 3:-0.10452529 4:-0.050229123 5:-0.86375606 6:-0.36676253 7:-0.81297619 8:-0.0034042208 9:0.43904106 10:0 11:1.1622404 12:1.7044348 
-1.339940267284627 1:-0.54149485 2:-0.24553997 3:-0.042596291 4:-0.5700361 5:-0.85761722 6:-0.28315688 7:-1.9482855 8:-0.06565541 9:0.43904106 10:0 11:1.1622404 12:-0.58670475 
-0.1013157581787934 1:-0.55187724 2:0.71393338 3:0.7431987 4:-0.36847829 5:-0.64899394 6:2.7986056 7:-0.17662506 8:-0.36307776 9:0.7338652 10:0 11:1.1622404 12:-0.58670475 
-1.434327164688757 1:-0.75151757 2:0.10424229 3:-0.064272462 4:-0.26239523 5:1.5054886 6:-0.40586169 7:-1.2873999 8:4.4025966 9:0.7338652 10:0 11:1.1622404 12:-0.58670475 
2.745889598905567 1:3.2164359 2:1.6745309 3:-0.47429221 4:0.28923665 5:-0.59331142 6:-3.1968761 7:-4.4339895 8:0.68827565 9:0.43904106 10:0 11:-0.86040723 12:-0.58670475 
-4 1:1.3054554 2:-0.79750724 3:-0.29613314 4:-0.80341882 5:-0.54405809 6:-0.034003727 7:0.55041269 8:-0.114073 9:-0.0031951619 10:0 11:-0.86040723 12:-0.58670475 
-4 1:-0.20242115 2:-0.14553364 3:1.5258035 4:-0.050229123 5:-0.0024305919 6:-0.65834243 7:0.55141224 8:-0.013779419 9:0.43904106 10:0 11:-0.86040723 12:-0.58670475 
-0.2141680647924024 1:1.4274697 2:-0.74247923 3:3.6918039 4:-0.36847829 5:-0.12003834 6:0.71636737 7:-0.21969666 8:0.20409974 9:0.7338652 10:0 11:-0.86040723 12:-0.58670475 
-3.04073501910525 1:-0.55801711 2:0.084195818 3:0.016233188 4:-0.26239523 5:1.0880989 6:-0.38631211 7:0.015834127 8:2.1995962 9:0.7338652 10:0 11:1.1622404 12:-0.58670475 
-4 1:-1.7033024 2:-1.3627441 3:-0.010656129 4:0.15132868 5:-0.9350498 6:0.84032002 7:0.5489588 8:-0.96483925 9:1.0286894 10:0 11:-0.86040723 12:1.7044348 
-1.424615727313653 1:-0.50382185 2:-0.2195852 3:-0.049825895 4:0.20437021 5:0.46441834 6:-0.34721295 7:0.030100459 8:-2.2064046 9:0.91075969 10:0 11:-0.86040723 12:1.7044348 
0.7220338007972681 1:-0.065500294 2:-0.66534644 3:-0.23774282 4:-0.050229123 5:-0.013318331 6:-0.34721295 7:0.030100459 8:-2.2064046 9:0.43904106 10:0 11:-0.86040723 12:1.7044348 
4 1:-0.76279308 2:-0.91578061 3:-0.085494211 4:-0.050229123 5:-0.87424185 6:0.54853215 7:0.54786838 8:-1.1204672 9:0.43904106 10:0 11:-0.86040723 12:-0.58670475 
4 1:3.0955357 2:1.7905226 3:0.36490791 4:-0.050229123 5:-0.90823444 6:1.0919689 7:-0.17671593 8:-0.024154617 9:0.43904106 10:0 11:-0.86040723 12:-0.58670475 
1.021581959759449 1:-1.0843826 2:-0.62432205 3:-0.042596291 4:-0.5700361 5:-0.85761722 6:-0.28315688 7:-1.9482855 8:-0.079489007 9:0.43904106 10:0 11:1.1622404 12:-0.58670475 
1.489051856399 1:3.1664332 2:1.1417649 3:0.56056565 4:-0.69733576 5:-1.0204224 6:0.50839312 7:0.57231197 8:-0.01032102 9:0.43904106 10:0 11:-0.86040723 12:-0.58670475 
4 1:-0.15517656 2:-0.057746652 3:-0.14211481 4:0.11950377 5:1.2466747 6:-0.94929841 7:-0.23014653 8:-0.54291452 9:0.14421691 10:0 11:1.1622404 12:-0.58670475 
0.6172964995271415 1:-2.2032077 2:-1.2640481 3:-0.27672649 4:-0.90950187 5:-0.93669366 6:-2.7405806 7:-9.0507383 8:0.10726456 9:0.43904106 10:0 11:-0.86040723 12:1.7044348 
4 1:-2.9104386 2:0.67027067 3:1.4484958 4:0.28923665 5:-0.2181258 6:5.9639737 7:-1.6723183 8:-0.72275129 9:0.43904106 10:0 11:1.1622404 12:-0.58670475 
1.490986097720456 1:3.8125223 2:-0.99649335 3:0.63500857 4:0.28923665 5:0.24773807 6:4.4615677 7:-1.7613693 8:-3.8491443 9:0.43904106 10:0 11:1.1622404 12:-0.58670475 
2.318958122517364 1:-1.3048821 2:-0.21375931 3:-0.17706923 4:-0.45334473 5:0.74787333 6:0.34076587 7:0.18884748 8:-0.16249059 9:0.7338652 10:0 11:-0.86040723 12:-0.58670475 
-1.43068053559533 1:-0.60831992 2:-0.025758299 3:-0.027189132 4:-0.69733576 5:-0.63564916 6:-0.034003727 7:-0.12437575 8:0.058846968 9:0.49800589 10:0 11:1.1622404 12:-0.58670475 
-4 1:0.26083951 2:0.83672097 3:-0.117945 4:-0.10327065 5:-1.003753 6:-0.15837233 7:0.280988 8:0.32860212 9:0.55697072 10:0 11:-0.86040723 12:1.7044348 
-1.121456110864241 1:0.0022613225 2:-1.5273787 3:1.4253649 4:-0.17752879 5:0.32320033 6:1.8398443 7:-0.79707423 8:4.2365934 9:1.0286894 10:0 11:1.1622404 12:-0.58670475 
4 1:0.45373917 2:0.45636332 3:0.21819077 4:-0.12448726 5:-0.49581775 6:0.11241015 7:0.16803863 8:0.70902605 9:0.43904106 10:0 11:1.1622404 12:-0.58670475 
-4 1:-0.058840029 2:-0.20943898 3:-0.11721267 4:-0.050229123 5:-0.86080746 6:-0.36676253 7:-0.81297619 8:-0.017237818 9:0.43904106 10:0 11:-0.86040723 12:1.7044348 
4 1:-1.2250881 2:-1.1479309 3:-0.52564594 4:-0.34726168 5:-0.98859905 6:-0.3257916 7:0.29825299 8:-0.114073 9:0.026287253 10:0 11:-0.86040723 12:1.7044348 
0.263734244483356 1:2.1751201 2:-0.021128975 3:-0.17308677 4:0.45896954 5:-0.15833231 6:-0.34638105 7:-0.88358091 8:-0.84379527 9:1.0286894 10:0 11:1.1622404 12:-0.58670475 
1.066073808495693 1:-0.25012293 2:0.0013567485 3:-0.032696747 4:-0.54881948 5:-0.18516242 6:-0.36593063 7:0.024739226 8:1.3592051 9:1.0286894 10:0 11:1.1622404 12:-0.58670475 
-0.8988388294029273 1:4.5274145 2:-0.61626074 3:4.5323848 4:-0.80341882 5:0.45006201 6:2.6717413 7:-0.86240858 8:-2.0265679 9:-0.0031951619 10:0 11:1.1622404 12:-0.58670475 
-0.9300669698808325 1:0.049992021 2:-0.31549676 3:-0.010468667 4:0.087678849 5:-0.84344165 6:-0.65834243 7:0.1876662 8:-0.01032102 9:-0.44543138 10:0 11:-0.86040723 12:-0.58670475 
2.766246717047911 1:0.19349027 2:0.38540553 3:0.18103926 4:0.33166988 5:-1.0045947 6:-2.3649791 7:-3.8180837 8:0.30093492 9:0.43904106 10:0 11:-0.86040723 12:1.7044348 
-4 1:-0.7927413 2:-1.6514999 3:-0.59732606 4:-0.34726168 5:-0.89901536 6:-0.3257916 7:0.29825299 8:-0.114073 9:0.43904106 10:0 11:-0.86040723 12:1.7044348 
4 1:0.84418095 2:0.012562392 3:-0.35827296 4:-0.050229123 5:-0.034856357 6:-0.95033828 7:0.30561333 8:0.010429377 9:0.43904106 10:0 11:1.1622404 12:-0.58670475 
4 1:0.18332912 2:0.735097 3:-0.085286844 4:-0.40030321 5:-0.97345723 6:-0.44995223 7:0.27871629 8:0.32168532 9:0.43904106 10:0 11:1.1622404 12:-0.58670475 
4 1:0.87692726 2:0.71943563 3:-0.072806828 4:-0.050229123 5:-1.0192136 6:-0.074974655 7:0.40784023 8:-0.017237818 9:0.43904106 10:0 11:1.1622404 12:-0.58670475 
-4 1:1.5864305 2:0.9424841 3:0.11116024 4:-0.050229123 5:-0.79892949 6:0.50839312 7:0.57231197 8:-0.01032102 9:0.43904106 10:0 11:-0.86040723 12:-0.58670475 
3.701899442016066 1:0.25959707 2:-0.42857305 3:-0.13140533 4:-0.34726168 5:-0.075882973 6:0.52815067 7:0.54486972 8:-0.20744978 9:0.026287253 10:0 11:-0.86040723 12:-0.58670475 
4 1:0.17465651 2:-0.64558923 3:-0.34891937 4:0.24680343 5:-1.0204224 6:-1.2419182 7:0.17821589 8:0.017346175 9:0.43904106 10:0 11:1.1622404 12:-0.58670475 
-1.316797397043757 1:0.79885415 2:-0.36304054 3:2.1221106 4:-0.050229123 5:1.5048771 6:-0.7627455 7:-0.14745632 8:0.055388569 9:0.43904106 10:0 11:1.1622404 12:-0.58670475 
-2.132880944443824 1:0.45046771 2:0.32035116 3:-1.7481953 4:0.24680343 5:0.81897845 6:-0.90832748 7:0.32396874 8:-0.1071562 9:0.43904106 10:0 11:1.1622404 12:-0.58670475 
-4 1:-1.4589758 2:-0.52529275 3:-0.07915052 4:-0.050229123 5:-0.92666738 6:-0.65834243 7:-3.0735084 8:-0.024154617 9:0.43904106 10:0 11:1.1622404 12:1.7044348 
1.375989638208902 1:0.061044748 2:-0.13005267 3:-0.23774282 4:-0.050229123 5:-0.29345269 6:-0.34721295 7:0.030100459 8:-2.2064046 9:0.43904106 10:0 11:1.1622404 12:-0.58670475 
-4 1:0.44179137 2:1.6413394 3:0.26451674 4:-0.10327065 5:-0.72740036 6:-0.67809998 7:0.1790337 8:0.18680774 9:0.43904106 10:0 11:-0.86040723 12:1.7044348 
4 1:-1.6563787 2:-1.5957998 3:-0.07915052 4:-0.050229123 5:-0.92572535 6:-0.65834243 7:-3.072418 8:-0.024154617 9:0.43904106 10:0 11:1.1622404 12:1.7044348 
-3.636433709340632 1:-0.055585993 2:0.17782854 3:1.8230709 4:-0.45334473 5:0.22275335 6:0.17480242 7:0.54968574 8:0.10034776 9:-0.44543138 10:0 11:-0.86040723 12:-0.58670475 
-0.5688556283459024 1:-0.40884835 2:-4.4331303 3:2.4799456 4:-0.79281051 5:0.37268846 6:-1.0343599 7:-1.5636397 8:-0.70891769 9:0.43904106 10:0 11:-0.86040723 12:1.7044348 
2.934079776247685 1:-1.6624839 2:-1.191023 3:-0.091837903 4:-0.050229123 5:-0.99192289 6:-0.033795753 7:-0.57817235 8:-0.1348234 9:0.43904106 10:0 11:1.1622404 12:-0.58670475 
1.384607189783333 1:0.73262151 2:-1.1115239 3:-0.066463136 4:-0.050229123 5:0.50416578 6:-0.17937773 7:-0.1391873 8:1.9575082 9:0.43904106 10:0 11:1.1622404 12:-0.58670475 
2.849040877901616 1:0.48941366 2:0.34636474 3:-0.13806957 4:0.24680343 5:-0.71295713 6:-0.075182629 7:0.31842577 8:-0.01032102 9:-0.15060724 10:0 11:1.1622404 12:-0.58670475 
-4 1:-0.20352504 2:-0.43938017 3:-0.61173783 4:0.20437021 5:-0.50399961 6:-1.2419182 7:0.29643562 8:5.417858e-05 9:0.43904106 10:0 11:-0.86040723 12:-0.58670475 
1.182657261110923 1:1.6585834 2:0.90786536 3:-0.022057293 4:-0.050229123 5:-0.65765507 6:-1.074083 7:-1.0326959 8:0.14876535 9:0.43904106 10:0 11:-0.86040723 12:1.7044348 
4 1:-4.0429055 2:-1.5029311 3:-0.32638544 4:0.28923665 5:-1.0204224 6:2.4633511 7:-3.2018145 8:-0.63974971 9:0.43904106 10:0 11:1.1622404 12:-0.58670475 
-1.678290227788173 1:0.0175877 2:0.76065741 3:-0.31058304 4:0.24680343 5:-1.0204224 6:-1.5542955 7:0.041731609 8:-1.2449696 9:0.67490038 10:0 11:1.1622404 12:-0.58670475 
-0.6211037009747041 1:1.5875632 2:-2.117309 3:-0.12368607 4:-0.80341882 5:-0.09316614 6:0.52815067 7:0.54486972 8:-0.20744978 9:-0.0031951619 10:0 11:-0.86040723 12:1.7044348 
1.893343535089854 1:-0.85085659 2:-2.0620332 3:-0.59298956 4:-0.050229123 5:-0.68499696 6:-0.3678024 7:-0.73737371 8:-0.82650327 9:0.43904106 10:0 11:-0.86040723 12:1.7044348 
-4 1:-1.7492524 2:-1.3113912 3:-0.015713601 4:-0.050229123 5:-0.98843107 6:-0.94992233 7:-0.94373576 8:-0.0034042208 9:0.43904106 10:0 11:1.1622404 12:-0.58670475 
-4 1:-1.3905231 2:-1.7085161 3:-0.091837903 4:-0.050229123 5:-0.92572535 6:-0.65834243 7:-3.072418 8:-0.037988215 9:0.43904106 10:0 11:1.1622404 12:1.7044348 
-2.716223990409868 1:0.079028645 2:-0.71709459 3:-0.044853223 4:0.20437021 5:-0.82699769 6:-0.013414277 7:0.30824851 8:-0.31120177 9:0.91075969 10:0 11:-0.86040723 12:-0.58670475 
-4 1:-0.33820116 2:-0.20011173 3:-0.10452529 4:-0.050229123 5:-0.86080746 6:-0.36676253 7:-0.81297619 8:-0.0034042208 9:0.43904106 10:0 11:-0.86040723 12:1.7044348 
-2.839325726870209 1:1.021048 2:-0.015564332 3:-0.34558558 4:-0.050229123 5:-0.034856357 6:-1.033528 7:0.26926598 8:0.33551892 9:0.43904106 10:0 11:1.1622404 12:-0.58670475 
1.031059160829897 1:0.4331786 2:0.50829458 3:0.38630307 4:-0.54881948 5:2.7052915 6:1.0071154 7:0.33051126 8:-0.22474178 9:0.67490038 10:0 11:-0.86040723 12:-0.58670475 
-1.480760092740967 1:0.11968542 2:0.099589001 3:-0.027882146 4:-0.80341882 5:-0.22481992 6:-0.36676253 7:0.18993791 8:0.010429377 9:-0.0031951619 10:0 11:-0.86040723 12:1.7044348 
4 1:1.2006177 2:2.1818175 3:0.18388969 4:0.20437021 5:-0.5764327 6:-0.40690156 7:0.17349073 8:1.0929084 9:0.91075969 10:0 11:-0.86040723 12:1.7044348 
-4 1:-0.41405418 2:0.073841923 3:-0.053775752 4:-0.050229123 5:-0.73386022 6:-0.65834243 7:0.1876662 8:0.003512578 9:0.43904106 10:0 11:-0.86040723 12:-0.58670475 
4 1:0.17723735 2:0.67294438 3:-0.066463136 4:-0.050229123 5:-1.0204224 6:-0.075182629 7:0.68798739 8:0.0069709773 9:0.43904106 10:0 11:1.1622404 12:-0.58670475 
-1.980506445926022 1:-0.8222924 2:-0.30206493 3:-0.1513192 4:0.92573499 5:-0.88827075 6:-0.74153213 7:-1.4316989 8:-1.2622616 9:0.7338652 10:0 11:-0.86040723 12:1.7044348 
4 1:-0.13350659 2:-0.97046597 3:-0.63644182 4:0.24680343 5:0.13725318 6:0.0071751743 7:-0.59498299 8:-0.23165858 9:0.43904106 10:0 11:1.1622404 12:-0.58670475 
-2.767392881318557 1:1.8686358 2:1.647537 3:0.14922239 4:-0.050229123 5:-1.0204224 6:0.79997302 7:0.69970941 8:5.417858e-05 9:0.43904106 10:0 11:-0.86040723 12:1.7044348 
4 1:0.54039885 2:1.0865973 3:0.12384762 4:-0.050229123 5:-0.69988765 6:0.63338564 7:0.16722082 8:0.9960732 9:0.43904106 10:0 11:-0.86040723 12:1.7044348 
1.451605558605362 1:-0.74429234 2:-0.80161446 3:-0.11721267 4:-0.050229123 5:-0.89689048 6:-0.36676253 7:-1.941016 8:-0.017237818 9:0.43904106 10:0 11:1.1622404 12:1.7044348 
4 1:-0.63183979 2:0.33601973 3:-2.559534 4:-0.050229123 5:-0.24379024 6:1.2989032 7:0.68644263 8:0.51535569 9:0.43904106 10:0 11:-0.86040723 12:-0.58670475 
-4 1:0.24512708 2:-0.4480973 3:0.136535 4:-0.050229123 5:0.25250263 6:1.4033063 7:0.55232093 8:1.7776715 9:0.43904106 10:0 11:-0.86040723 12:-0.58670475 
-1.489225074000863 1:-0.75446775 2:-0.080565097 3:-0.091837903 4:-0.050229123 5:-1.0133776 6:-0.36676253 7:-0.81406661 8:0.010429377 9:0.43904106 10:0 11:-0.86040723 12:1.7044348 
1.785319042864159 1:0.59349597 2:-1.0489073 3:-0.12990005 4:-0.050229123 5:0.83458436 6:-0.76191361 7:-0.14827413 8:1.4179979 9:0.43904106 10:0 11:1.1622404 12:-0.58670475 
-4 1:2.7060554 2:0.7128513 3:0.60442377 4:-0.80341882 5:-0.22481992 6:0.50839312 7:0.57231197 8:-0.01032102 9:-0.0031951619 10:0 11:-0.86040723 12:1.7044348 
-1.719948561266626 1:0.45395014 2:1.0967075 3:-0.050981934 4:0.33166988 5:-1.0045947 6:-1.7002934 7:-3.5276685 8:0.14876535 9:0.43904106 10:0 11:-0.86040723 12:1.7044348 
0.03736214207649896 1:-1.3541358 2:-1.8795391 3:0.35106994 4:-0.7609856 5:-0.75827151 6:0.82077045 7:0.54323409 8:1.2381612 9:-0.32750172 10:0 11:1.1622404 12:-0.58670475 
4 1:-0.83772107 2:-0.18985015 3:-0.10452529 4:-0.050229123 5:-0.90011225 6:-0.36676253 7:-1.9421064 8:-0.0034042208 9:0.43904106 10:0 11:1.1622404 12:1.7044348 
4 1:-0.54775439 2:0.18815306 3:-0.55492741 4:-0.050229123 5:-0.60665404 6:-0.99110123 7:0.40602287 8:0.096889361 9:0.43904106 10:0 11:-0.86040723 12:-0.58670475 
-4 1:1.9174071 2:1.0396663 3:0.51637989 4:-0.46395304 5:-0.82649941 6:0.21681322 7:0.57004026 8:-0.017237818 9:1.0286894 10:0 11:-0.86040723 12:1.7044348 
-1.401538234661833 1:1.0371436 2:1.1179137 3:0.060410701 4:-0.050229123 5:-0.092451253 6:0.79997302 7:-0.42833042 8:-0.017237818 9:0.43904106 10:0 11:-0.86040723 12:1.7044348 
0.1517294520555789 1:0.55546163 2:-1.7492472 3:3.976722 4:-0.80341882 5:0.51760641 6:2.318601 7:-0.21887885 8:0.66060846 9:-0.0031951619 10:0 11:-0.86040723 12:-0.58670475 
-4 1:-0.83319829 2:1.9546358 3:0.50877598 4:-0.7609856 5:-1.0204224 6:0.50839312 7:0.57231197 8:-0.01032102 9:-0.32750172 10:0 11:1.1622404 12:-0.58670475 
-0.7340027754804276 1:-1.8178901 2:-2.3388221 3:-0.36461665 4:-0.050229123 5:-0.15220305 6:0.54832418 7:-0.70666021 8:-0.95792245 9:0.43904106 10:0 11:-0.86040723 12:1.7044348 
0.8692941807790505 1:4.6349385 2:1.6025515 3:0.60442377 4:-0.80341882 5:-1.0194507 6:0.50839312 7:0.57231197 8:-0.01032102 9:0.026287253 10:0 11:-0.86040723 12:1.7044348 
-4 1:-0.16077909 2:0.88722943 3:-0.04743206 4:-0.050229123 5:-1.0204224 6:-0.69952133 7:0.41520057 8:0.10726456 9:0.43904106 10:0 11:-0.86040723 12:-0.58670475 
-1.550936792771867 1:0.51522303 2:-1.0010784 3:-0.053489998 4:-0.44273643 5:0.37461175 6:0.54853215 7:0.54786838 8:-1.1204672 9:0.67490038 10:0 11:-0.86040723 12:1.7044348 
2.230944603808179 1:0.46262292 2:1.3521514 3:1.1486319 4:-0.36847829 5:-1.0154314 6:0.80038897 7:-0.17898764 8:-0.031071416 9:0.7338652 10:0 11:1.1622404 12:-0.58670475 
2.65724767661307 1:-0.73722915 2:0.12959599 3:-1.4937938 4:-0.050229123 5:0.79199413 6:0.92434162 7:-0.34591282 8:-0.020696218 9:0.43904106 10:0 11:-0.86040723 12:-0.58670475 
4 1:0.44639041 2:0.45814316 3:-0.034716168 4:0.11950377 5:-0.93503933 6:0.54936405 7:0.68062705 8:-0.1175314 9:0.14421691 10:0 11:-0.86040723 12:-0.58670475 
-1.178219221861101 1:-0.79276427 2:-0.41072387 3:1.4052734 4:-0.050229123 5:0.51600731 6:0.84032002 7:0.5489588 8:-0.96483925 9:0.43904106 10:0 11:1.1622404 12:-0.58670475 
-0.3543530987574303 1:2.8942876 2:1.3978972 3:-0.66670858 4:-0.82463543 5:0.22722298 6:1.0919689 7:-0.17671593 8:-0.024154617 9:0.43904106 10:0 11:1.1622404 12:1.7044348 
4 1:-0.48733485 2:-0.11821537 3:-0.080225787 4:1.2439842 5:-0.92585378 6:0.44516895 7:-0.12319446 8:0.13839015 9:0.7338652 10:0 11:1.1622404 12:-0.58670475 
4 1:2.5421651 2:0.8265348 3:0.54509842 4:-0.69733576 5:-1.0173957 6:0.21681322 7:0.57004026 8:-0.017237818 9:0.43904106 10:0 11:-0.86040723 12:-0.58670475 
-4 1:0.59821379 2:0.80289051 3:-0.016721254 4:0.16193699 5:0.18109617 6:0.32100832 7:0.18021499 8:0.020804575 9:0.7338652 10:0 11:1.1622404 12:-0.58670475 
-0.1901887319036094 1:1.0149428 2:0.72093379 3:-0.11086898 4:-0.050229123 5:-0.19949459 6:-0.4501602 7:-0.88412612 8:0.051930169 9:0.43904106 10:0 11:-0.86040723 12:1.7044348 
-3.503787447083666 1:-0.2803891 2:0.57383516 3:-0.48602244 4:-0.16692048 5:-0.35865652 6:-1.7408484 7:-0.03977731 8:-0.51178893 9:0.14421691 10:0 11:-0.86040723 12:-0.58670475 
-0.8738317564533717 1:0.61865697 2:0.29684207 3:-0.99264215 4:-0.050229123 5:0.97248939 6:0.54957202 7:-0.87340365 8:0.04501337 9:0.43904106 10:0 11:-0.86040723 12:1.7044348 
-4 1:1.0245631 2:1.079912 3:0.11116024 4:-0.050229123 5:-0.16638459 6:0.50839312 7:0.57231197 8:-0.01032102 9:0.43904106 10:0 11:-0.86040723 12:1.7044348 
1.013118882147981 1:0.45719535 2:0.77180247 3:0.51637989 4:-0.46395304 5:-0.70058818 6:0.21681322 7:0.57004026 8:-0.017237818 9:1.0286894 10:0 11:-0.86040723 12:1.7044348 
4 1:-0.0355291 2:1.0225631 3:0.060410701 4:-0.050229123 5:-0.69988765 6:0.36197925 7:0.048637605 8:5.417858e-05 9:0.43904106 10:0 11:-0.86040723 12:1.7044348 
3.359755028629669 1:-0.33321813 2:0.079843665 3:0.014360728 4:2.4321144 5:-0.50557594 6:2.027853 7:0.56831376 8:-0.041446614 9:0.79283003 10:0 11:-0.86040723 12:1.7044348 
-4 1:0.15617865 2:-0.87187115 3:0.068001161 4:1.2439842 5:-0.9948225 6:0.29875507 7:0.31233759 8:-1.0685912 9:0.43904106 10:0 11:-0.86040723 12:1.7044348 
-0.5707940426938416 1:2.6121114 2:2.7335089 3:0.20631561 4:-0.050229123 5:-1.01223 6:-0.11594558 7:0.42465088 8:0.093430962 9:0.43904106 10:0 11:1.1622404 12:-0.58670475 
-4 1:2.501666 2:0.8829402 3:0.10574943 4:-0.7609856 5:-0.86637559 6:-0.075182629 7:0.68798739 8:0.0069709773 9:-0.32750172 10:0 11:1.1622404 12:-0.58670475 
0.9483187446506927 1:0.21923533 2:-0.35141595 3:-0.13957107 4:-0.7609856 5:1.1838113 6:1.1318999 7:0.67635624 8:-0.95446405 9:-0.32750172 10:0 11:1.1622404 12:-0.58670475 
-4 1:0.11869328 2:-0.095830628 3:1.3984823 4:-0.10327065 5:-0.019110269 6:-0.65834243 7:0.55141224 8:-0.013779419 9:0.67490038 10:0 11:-0.86040723 12:-0.58670475 
1.598688918184823 1:2.1862302 2:3.5952132 3:0.92868191 4:-0.90950187 5:-0.96224774 6:-0.88607423 7:-4.2197219 8:0.11763976 9:0.43904106 10:0 11:-0.86040723 12:1.7044348 
4 1:0.50047152 2:0.81162879 3:0.14922239 4:-0.050229123 5:0.047271232 6:0.79997302 7:0.69970941 8:5.417858e-05 9:0.43904106 10:0 11:-0.86040723 12:-0.58670475 
-4 1:0.68673968 2:0.26871534 3:-0.20602436 4:-0.050229123 5:-0.86301964 6:0.21639727 7:-0.68221662 8:-0.017237818 9:0.43904106 10:0 11:-0.86040723 12:1.7044348 
0.3047779541234319 1:2.155838 2:0.82431001 3:-1.9842611 4:-0.36847829 5:-0.47551526 6:2.7986056 7:-0.17662506 8:-0.36307776 9:0.7338652 10:0 11:-0.86040723 12:-0.58670475 
0.7042634430650584 1:-0.68233972 2:0.23054234 3:0.26842511 4:0.20437021 5:-0.75738888 6:2.027853 7:0.56831376 8:-0.041446614 9:0.91075969 10:0 11:1.1622404 12:-0.58670475 
0.5323669798031428 1:1.4206478 2:0.69537 3:-0.33006244 4:0.11950377 5:-0.93503933 6:-0.92891693 7:0.034734746 8:-0.0068626202 9:0.14421691 10:0 11:-0.86040723 12:-0.58670475 
4 1:1.2389396 2:0.40477221 3:0.058404103 4:0.24680343 5:-1.0204224 6:-0.075182629 7:0.68798739 8:0.0069709773 9:-0.15060724 10:0 11:1.1622404 12:-0.58670475 
-0.8410719267359209 1:0.65968896 2:0.43807173 3:-0.28849235 4:-0.050229123 5:1.5048771 6:1.1115184 7:0.67144935 8:-0.114073 9:0.43904106 10:0 11:1.1622404 12:-0.58670475 
-2.44454054120658 1:0.4732287 2:0.55850437 3:-1.7348541 4:-0.050229123 5:-0.51866403 6:-0.075182629 7:0.68798739 8:0.0069709773 9:0.43904106 10:0 11:-0.86040723 12:-0.58670475 
4 1:0.1402279 2:-0.049812566 3:-0.15527482 4:-0.050229123 5:-0.71528216 6:-0.075182629 7:0.31842577 8:-0.01032102 9:0.43904106 10:0 11:-0.86040723 12:1.7044348 
-4 1:-0.071957684 2:-0.43777604 3:-0.059725217 4:-0.34726168 5:-0.8069115 6:-0.034003727 7:-0.12437575 8:0.058846968 9:0.026287253 10:0 11:-0.86040723 12:-0.58670475 
4 1:-1.7770878 2:-1.1746183 3:-0.25781157 4:-0.80341882 5:-0.95763257 6:0.17480242 7:0.54968574 8:0.10034776 9:-0.0031951619 10:0 11:-0.86040723 12:-0.58670475 
-0.7068462130233322 1:-0.15600734 2:-0.54065481 3:2.7309334 4:-0.5806444 5:1.612939 6:-0.034835624 7:0.16658474 8:-0.95792245 9:-0.15060724 10:0 11:1.1622404 12:-0.58670475 
-4 1:-1.0571004 2:0.74415923 3:-0.89300652 4:-0.34726168 5:0.4117497 6:-0.40773346 7:0.29716257 8:0.10726456 9:0.026287253 10:0 11:-0.86040723 12:-0.58670475 
-4 1:1.1227285 2:1.6427679 3:0.11777282 4:-0.13509557 5:-1.0204224 6:0.50839312 7:0.57231197 8:-0.01032102 9:0.43904106 10:0 11:-0.86040723 12:1.7044348 
-1.178724077088393 1:-0.15650028 2:0.83077467 3:0.31317916 4:0.20437021 5:-0.75738888 6:1.1329398 7:0.1773072 8:0.16259895 9:0.91075969 10:0 11:1.1622404 12:-0.58670475 
4 1:0.21863722 2:0.22436849 3:-0.10452529 4:0.24680343 5:-0.77055538 6:0.11241015 7:-0.26858384 8:0.076138965 9:0.43904106 10:0 11:1.1622404 12:-0.58670475 
3.080221126682957 1:1.5358364 2:2.3961319 3:-0.11447063 4:0.20437021 5:-1.0204224 6:-1.1572727 7:-0.030327 8:-0.52562253 9:0.91075969 10:0 11:-0.86040723 12:1.7044348 
-4 1:0.17112413 2:-0.26000587 3:0.073098085 4:-0.050229123 5:0.95082471 6:0.82077045 7:0.54323409 8:1.2381612 9:0.43904106 10:0 11:-0.86040723 12:-0.58670475 
-3.715337737231911 1:2.0620845 2:1.7695483 3:0.1428787 4:-0.050229123 5:-0.52040184 6:0.80018099 7:-0.33891595 8:-0.024154617 9:0.43904106 10:0 11:-0.86040723 12:1.7044348 
-4 1:-0.04204497 2:-0.08792793 3:-0.14995388 4:-0.35786998 5:-1.0204224 6:-0.075182629 7:0.31842577 8:-0.01032102 9:0.7338652 10:0 11:-0.86040723 12:1.7044348 
-0.4250405402542011 1:2.2898821 2:6.3567835 3:1.4199664 4:-0.7609856 5:0.2922736 6:3.3830132 7:-1.3606398 8:-0.21090818 9:0.43904106 10:0 11:-0.86040723 12:1.7044348 
1.824521761003176 1:0.24179695 2:0.0047816316 3:-0.20602436 4:-0.050229123 5:-0.084179183 6:0.21639727 7:-0.68221662 8:-0.017237818 9:0.43904106 10:0 11:-0.86040723 12:1.7044348 
4 1:0.32674969 2:1.5531415 3:0.10574943 4:-0.7609856 5:-1.0204224 6:-0.075182629 7:0.68798739 8:0.0069709773 9:-0.32750172 10:0 11:1.1622404 12:-0.58670475 
0.1739743778054624 1:-0.076600737 2:-0.13462769 3:-0.098181595 4:-0.050229123 5:-0.69988765 6:0.88191487 7:0.27580851 8:0.21793334 9:0.43904106 10:0 11:-0.86040723 12:1.7044348 
4 1:-0.46336232 2:-0.28155101 3:2.1533982 4:-0.34726168 5:0.36320726 6:-0.034003727 7:0.55041269 8:-0.114073 9:0.026287253 10:0 11:-0.86040723 12:-0.58670475 
4 1:1.3726652 2:1.2548583 3:0.30895949 4:0.11950377 5:-1.0191602 6:-0.032755882 7:0.42610477 8:-0.23165858 9:0.14421691 10:0 11:-0.86040723 12:1.7044348 
4 1:1.9522338 2:0.37555229 3:0.4737302 4:-0.7609856 5:-0.99740496 6:0.21681322 7:0.57004026 8:-0.017237818 9:-0.32750172 10:0 11:-0.86040723 12:-0.58670475 
2.993016638798658 1:-3.2634335 2:-0.62733161 3:-0.4360458 4:-0.34726168 5:-1.0162483 6:-0.70035323 7:0.16731168 8:0.12109816 9:-0.15060724 10:0 11:1.1622404 12:-0.58670475 
3.55659270240982 1:1.2193453 2:0.3555632 3:-0.05486425 4:1.3818921 5:-1.0204224 6:-0.99130921 7:0.28771226 8:0.12109816 9:0.85179486 10:0 11:1.1622404 12:-0.58670475 
-2.443157938786419 1:0.01776163 2:0.98663315 3:0.097478359 4:-0.40030321 5:-0.97345723 6:0.21681322 7:0.57004026 8:-0.017237818 9:0.43904106 10:0 11:1.1622404 12:-0.58670475 
-4 1:-1.5989135 2:-1.1127429 3:-0.10452529 4:-0.45334473 5:-0.9924412 6:0.34076587 7:0.18884748 8:-0.17632419 9:-0.44543138 10:0 11:-0.86040723 12:-0.58670475 
4 1:2.768746 2:0.93368838 3:0.52778063 4:-0.80341882 5:-0.98100798 6:0.50839312 7:0.57340239 8:-0.024154617 9:0.026287253 10:0 11:-0.86040723 12:1.7044348 
2.477539982923221 1:0.17288697 2:-0.14660638 3:0.42884221 4:3.7157194 5:0.16657196 6:-1.5318343 7:-1.0180661 8:2.0093842 9:1.0286894 10:0 11:-0.86040723 12:-0.58670475 
4 1:-0.76464315 2:-0.029708241 3:-0.053775752 4:-0.050229123 5:-0.91401245 6:-0.65834243 7:-2.0695039 8:0.003512578 9:0.43904106 10:0 11:-0.86040723 12:1.7044348 
-4 1:0.6339685 2:0.099520464 3:-0.077645245 4:-0.34726168 5:-0.74402984 6:-0.44995223 7:0.27871629 8:0.32168532 9:0.55697072 10:0 11:-0.86040723 12:-0.58670475 
-0.5978020430483687 1:0.038658856 2:0.98527023 3:-0.085494211 4:-0.050229123 5:-0.55521711 6:-1.0747069 7:-0.87676578 8:0.17643255 9:0.43904106 10:0 11:-0.86040723 12:1.7044348 
4 1:-0.50587942 2:-0.42592667 3:-0.085563214 4:-0.3896949 5:-1.0204224 6:0.0084230198 7:0.18712099 8:-0.086405806 9:-0.15060724 10:0 11:1.1622404 12:-0.58670475 
4 1:0.18900826 2:0.82822881 3:-0.37571416 4:0.13011207 5:-0.94604058 6:-1.5542955 7:0.041731609 8:-1.2449696 9:0.7338652 10:0 11:1.1622404 12:-0.58670475 
0.1455272005160978 1:0.84660771 2:1.8837627 3:0.01481884 4:0.20437021 5:-0.5764327 6:-0.67913985 7:0.054544048 8:-1.26572 9:0.91075969 10:0 11:-0.86040723 12:1.7044348 
-4 1:0.16729 2:-1.5012492 3:-0.23878743 4:0.20437021 5:-0.98755078 6:-0.65834243 7:0.55141224 8:-0.013779419 9:0.91075969 10:0 11:-0.86040723 12:-0.58670475 
-0.5821669481660646 1:0.10082133 2:-0.33567095 3:1.6970832 4:-0.050229123 5:2.1178619 6:0.154005 7:0.25191013 8:1.5770843 9:0.43904106 10:0 11:1.1622404 12:-0.58670475 
-4 1:-1.0216184 2:-0.95101151 3:-0.091837903 4:-0.050229123 5:-0.92572535 6:-0.65834243 7:-3.072418 8:-0.037988215 9:0.43904106 10:0 11:1.1622404 12:1.7044348 
-1.064221868038932 1:-0.36877889 2:-0.010626776 3:-0.10949796 4:0.20437021 5:-0.82059931 6:-0.65834243 7:0.1876662 8:0.003512578 9:0.91075969 10:0 11:-0.86040723 12:1.7044348 
-0.1474815175896465 1:-0.10988948 2:0.6583333 3:-1.4113258 4:-0.050229123 5:-0.25120542 6:-0.11594558 7:-0.34073332 8:0.089972562 9:0.43904106 10:0 11:-0.86040723 12:-0.58670475 
4 1:0.96433134 2:1.1189627 3:0.23067457 4:-0.54881948 5:-1.019734 6:0.50839312 7:0.57231197 8:-0.01032102 9:0.67490038 10:0 11:-0.86040723 12:1.7044348 
4 1:-1.8811626 2:-0.89725499 3:-0.0030262174 4:-0.050229123 5:-0.99712912 6:-0.94992233 7:-2.072866 8:0.010429377 9:0.43904106 10:0 11:1.1622404 12:1.7044348 
-0.9122740048157024 1:1.3365187 2:0.44462819 3:0.016004858 4:-0.050229123 5:0.33315943 6:1.1115184 7:0.67144935 8:-0.114073 9:0.43904106 10:0 11:1.1622404 12:-0.58670475 
1.121191327594792 1:-0.53376479 2:0.038034573 3:-0.03433442 4:0.92573499 5:0.032901206 6:-0.36676253 7:-0.9370115 8:-0.031071416 9:0.7338652 10:0 11:-0.86040723 12:-0.58670475 
-4 1:-0.18383616 2:-0.20699547 3:-0.20308544 4:-0.34726168 5:1.1942995 6:-0.075182629 7:0.31842577 8:-0.01032102 9:0.026287253 10:0 11:-0.86040723 12:-0.58670475 
-1.471790097155596 1:-0.32099037 2:-3.3352722 3:-0.31131758 4:11.067275 5:-0.76796706 6:0.88274677 7:-3.3137643 8:4.9905245 9:0.67490038 10:0 11:1.1622404 12:-0.58670475 
1.578987330359107 1:0.36345567 2:-0.4577262 3:-0.24971432 4:0.45896954 5:-0.2840216 6:-0.034003727 7:0.55041269 8:-0.114073 9:1.0286894 10:0 11:-0.86040723 12:-0.58670475 
-4 1:-1.664149 2:-1.0756648 3:-0.028400985 4:-0.050229123 5:-0.89738143 6:-0.94992233 7:-2.0717756 8:-0.017237818 9:0.43904106 10:0 11:1.1622404 12:1.7044348 
4 1:2.8214296 2:2.3740422 3:0.16319148 4:0.33166988 5:-0.98876698 6:1.3835488 7:-0.17226338 8:-0.044905013 9:0.43904106 10:0 11:-0.86040723 12:1.7044348 
-1.985338845245641 1:0.43395584 2:0.99627353 3:0.034411028 4:-0.13509557 5:-0.80185781 6:-0.075182629 7:0.68798739 8:0.0069709773 9:0.43904106 10:0 11:-0.86040723 12:-0.58670475 
-4 1:-0.4194194 2:-0.15379768 3:-0.12990005 4:-0.050229123 5:-0.86301964 6:-0.36676253 7:-0.9370115 8:-0.031071416 9:0.43904106 10:0 11:-0.86040723 12:1.7044348 
4 1:-0.95760584 2:-0.56638741 3:-0.07915052 4:-0.050229123 5:-0.89689048 6:-0.65834243 7:-2.0684135 8:-0.024154617 9:0.43904106 10:0 11:1.1622404 12:1.7044348 
4 1:0.51486783 2:-0.52113657 3:-0.35827296 4:-0.050229123 5:-1.0204224 6:-0.95033828 7:0.30561333 8:0.010429377 9:0.43904106 10:0 11:1.1622404 12:-0.58670475 
4 1:1.8588812 2:0.69709975 3:-2.1294884 4:-0.34726168 5:0.91072761 6:-0.90832748 7:0.32396874 8:-0.1071562 9:0.026287253 10:0 11:1.1622404 12:-0.58670475 
4 1:-0.25698292 2:-0.79715221 3:-0.11721267 4:-0.050229123 5:-0.86375606 6:-0.36676253 7:-0.81297619 8:-0.017237818 9:0.43904106 10:0 11:1.1622404 12:1.7044348 
4 1:1.498367 2:2.6836991 3:0.20631561 4:-0.050229123 5:-1.0204224 6:-0.11594558 7:0.42465088 8:0.093430962 9:0.43904106 10:0 11:-0.86040723 12:1.7044348 
1.12743325645624 1:-1.458996 2:0.76901884 3:0.084436248 4:0.20437021 5:-0.75738888 6:0.82077045 7:0.040913794 8:0.91998841 9:0.91075969 10:0 11:1.1622404 12:-0.58670475 
0.4862556212597695 1:0.67436251 2:0.46134637 3:-0.62685774 4:0.24680343 5:-0.26305751 6:0.50839312 7:0.57340239 8:-0.024154617 9:-0.15060724 10:0 11:1.1622404 12:-0.58670475 
-0.1299329355292496 1:1.2134546 2:-0.0151159 3:0.91691631 4:-0.34726168 5:0.91072761 6:-2.7613781 7:-0.48566835 8:0.034638172 9:0.026287253 10:0 11:1.1622404 12:-0.58670475 
1.849171567713221 1:0.23783129 2:0.2588351 3:-0.12611947 4:-0.16692048 5:1.7452964 6:-0.55331543 7:-0.057133167 8:0.72977645 9:0.14421691 10:0 11:-0.86040723 12:-0.58670475 
-2.388800816548734 1:0.83570887 2:0.45979535 3:-0.075773042 4:0.24680343 5:-0.89972546 6:-1.4070497 7:-0.26349521 8:0.093430962 9:0.43904106 10:0 11:-0.86040723 12:-0.58670475 
4 1:1.3324154 2:1.7868819 3:0.17459715 4:-0.050229123 5:-1.01223 6:-0.40773346 7:0.29716257 8:0.10726456 9:0.43904106 10:0 11:1.1622404 12:-0.58670475 
-4 1:0.50048059 2:0.097928271 3:-0.14043956 4:-0.54881948 5:-1.0136598 6:-0.075182629 7:0.31842577 8:-0.01032102 9:1.0286894 10:0 11:-0.86040723 12:1.7044348 
4 1:0.5842456 2:-1.5359378 3:-0.26311758 4:-0.050229123 5:-0.58506901 6:-0.74236403 7:-0.14254943 8:-0.78500248 9:0.43904106 10:0 11:1.1622404 12:-0.58670475 
2.690797297223635 1:2.6475619 2:0.56714464 3:0.17081745 4:-0.54881948 5:-0.94713815 6:0.21681322 7:0.57004026 8:-0.017237818 9:0.67490038 10:0 11:-0.86040723 12:-0.58670475 
2.612464976995408 1:-0.10343079 2:-0.31901025 3:0.03014381 4:-0.40030321 5:0.060903189 6:-0.38714401 7:0.14495807 8:0.90961321 9:0.43904106 10:0 11:-0.86040723 12:-0.58670475 
4 1:-0.11249217 2:-0.52687146 3:-0.066463136 4:-0.050229123 5:-0.57254061 6:0.0084230198 7:0.18712099 8:-0.072572208 9:0.43904106 10:0 11:-0.86040723 12:-0.58670475 
-0.8930097421653693 1:0.13845665 2:-0.72268032 3:0.10620822 4:0.29984496 5:-0.30365124 6:1.3400822 7:-0.88439872 8:0.56723168 9:-0.15060724 10:0 11:-0.86040723 12:1.7044348 
-4 1:1.392269 2:1.1105428 3:0.10574943 4:-0.7609856 5:-1.0204224 6:-0.075182629 7:0.68798739 8:0.0069709773 9:-0.32750172 10:0 11:1.1622404 12:-0.58670475 
1.320572665047017 1:1.2088313 2:0.34954892 3:-0.13136471 4:-0.10327065 5:0.011091172 6:-0.94929841 7:-1.7088474 8:5.417858e-05 9:0.67490038 10:0 11:-0.86040723 12:-0.58670475 
-4 1:1.0177841 2:-0.34024397 3:-0.16359454 4:0.11950377 5:-0.93503933 6:0.25778415 7:0.55322961 8:-0.1279066 9:0.14421691 10:0 11:-0.86040723 12:-0.58670475 
4 1:0.65234065 2:0.79235501 3:0.0072841791 4:2.4321144 5:-0.96406031 6:0.50839312 7:0.57231197 8:-0.01032102 9:1.0286894 10:0 11:-0.86040723 12:1.7044348 
-4 1:0.37587614 2:-0.62331491 3:-0.61173783 4:0.20437021 5:-0.28046448 6:-1.2419182 7:0.29643562 8:5.417858e-05 9:0.43904106 10:0 11:-0.86040723 12:-0.58670475 
-1.161321839240639 1:-0.40073365 2:-1.6540508 3:-0.060119444 4:-0.050229123 5:-0.013318331 6:0.84032002 7:0.5489588 8:-0.96483925 9:0.43904106 10:0 11:-0.86040723 12:1.7044348 
4 1:-1.4578646 2:-1.057558 3:-0.022057293 4:-0.050229123 5:-0.85132989 6:1.1318999 7:0.67635624 8:-0.95446405 9:0.43904106 10:0 11:-0.86040723 12:1.7044348 
-0.05939733923087568 1:0.61734663 2:0.4648239 3:0.16335005 4:2.8988798 5:-0.59797368 6:0.80038897 7:-0.17898764 8:-0.031071416 9:0.67490038 10:0 11:-0.86040723 12:1.7044348 
-3.407442054786795 1:-0.68880587 2:-0.54103148 3:-0.04743206 4:-0.050229123 5:-0.87424185 6:0.84011205 7:0.67526582 8:-1.110092 9:0.43904106 10:0 11:-0.86040723 12:-0.58670475 
0.8966867831864875 1:1.4140172 2:-0.10262746 3:-0.085364502 4:-0.80341882 5:-0.089638727 6:1.7994973 7:-1.3069366 8:-0.19707459 9:-0.0031951619 10:0 11:-0.86040723 12:1.7044348 
-4 1:-0.6007735 2:-0.38319575 3:-0.12059242 4:1.3500672 5:-0.72540585 6:0.34076587 7:0.18884748 8:-0.17632419 9:0.91075969 10:0 11:-0.86040723 12:1.7044348 
-3.388331953820287 1:2.3148325 2:1.240343 3:0.37736489 4:0.33166988 5:-1.0204224 6:0.80038897 7:-0.17898764 8:-0.031071416 9:0.43904106 10:0 11:-0.86040723 12:1.7044348 
2.893739344195985 1:0.029807356 2:0.093527408 3:2.1157669 4:-0.050229123 5:0.29812475 6:-1.2419182 7:0.29643562 8:5.417858e-05 9:0.43904106 10:0 11:-0.86040723 12:-0.58670475 
-2.064418944368425 1:2.6016465 2:1.0592728 3:1.1486319 4:-0.36847829 5:-0.19653073 6:0.80038897 7:-0.17898764 8:-0.031071416 9:0.7338652 10:0 11:1.1622404 12:-0.58670475 
4 1:0.11221586 2:-0.062443405 3:-0.45396583 4:-0.34726168 5:-0.89007385 6:0.30000292 7:0.57149415 8:-0.34232736 9:0.43904106 10:0 11:-0.86040723 12:-0.58670475 
-4 1:-0.85807188 2:-0.40131608 3:-0.15527482 4:-0.050229123 5:-0.94348533 6:-0.075182629 7:-3.9467533 8:-0.01032102 9:0.43904106 10:0 11:1.1622404 12:1.7044348 
-4 1:0.15403714 2:0.27273517 3:-0.99577945 4:-0.45334473 5:0.74787333 6:1.2159215 7:0.57122155 8:-0.18324099 9:0.7338652 10:0 11:-0.86040723 12:-0.58670475 
1.498717156082495 1:-1.0195833 2:-0.39471129 3:0.48543805 4:-0.050229123 5:-0.65635894 6:-0.95033828 7:0.30561333 8:0.010429377 9:0.43904106 10:0 11:-0.86040723 12:-0.58670475 
4 1:1.2921119 2:1.551973 3:0.12508214 4:2.8988798 5:-0.95350605 6:1.3835488 7:-0.17444422 8:-0.017237818 9:0.67490038 10:0 11:-0.86040723 12:1.7044348 
-4 1:0.23163709 2:0.18190341 3:-0.6833352 4:-0.46395304 5:-0.28481965 6:0.50839312 7:0.57340239 8:-0.024154617 9:1.0286894 10:0 11:-0.86040723 12:-0.58670475 
-4 1:0.12903276 2:0.36801696 3:-0.094579943 4:0.20437021 5:-0.82059931 6:-1.6986296 7:-0.26685734 8:0.10034776 9:0.91075969 10:0 11:-0.86040723 12:1.7044348 
-4 1:-0.85788687 2:-0.5330413 3:-0.11721267 4:-0.050229123 5:-0.92425105 6:-0.36676253 7:-2.9450205 8:-0.017237818 9:0.43904106 10:0 11:1.1622404 12:1.7044348 
-4 1:0.093421038 2:-1.067433 3:-0.36461665 4:-0.050229123 5:-0.83921219 6:-1.6166878 7:-0.14109553 8:0.065763767 9:0.43904106 10:0 11:1.1622404 12:-0.58670475 
0.8778572775230334 1:-0.98613189 2:-0.62985651 3:0.27892127 4:-0.45334473 5:0.69855264 6:1.4033063 7:0.55232093 8:1.7776715 9:0.7338652 10:0 11:-0.86040723 12:-0.58670475 
2.115916006315138 1:0.77852277 2:-0.45640787 3:1.6068374 4:-0.34726168 5:-0.37117099 6:0.54853215 7:0.54786838 8:-1.1204672 9:0.026287253 10:0 11:-0.86040723 12:-0.58670475 
-1.279769152897276 1:-0.20606142 2:-0.29032345 3:-0.04743206 4:-0.050229123 5:0.10990217 6:0.84011205 7:0.67526582 8:-1.110092 9:0.43904106 10:0 11:-0.86040723 12:-0.58670475 
4 1:2.0398857 2:1.4892394 3:0.28363002 4:0.24680343 5:-0.8994318 6:-0.03317183 7:0.33569076 8:-0.114073 9:0.43904106 10:0 11:-0.86040723 12:-0.58670475 
-3.110845607237983 1:-0.77019337 2:-0.20251201 3:0.32684576 4:-0.050229123 5:-0.65635894 6:-1.033528 7:0.26926598 8:0.33551892 9:0.43904106 10:0 11:-0.86040723 12:-0.58670475 
2.043683869045554 1:0.73740441 2:1.4408015 3:0.62382241 4:0.51201107 5:-0.92258702 6:0.30125077 7:-0.4668586 8:-0.45991294 9:0.7338652 10:0 11:1.1622404 12:-0.58670475 
-1.071386347371637 1:-2.2547084 2:1.9056172 3:1.7383529 4:-0.36847829 5:-0.10096028 6:6.2563855 7:-4.002183 8:3.4134944 9:0.7338652 10:0 11:1.1622404 12:-0.58670475 
4 1:0.10450845 2:0.73300913 3:0.27339778 4:0.20437021 5:-0.5764327 6:0.50839312 7:0.57340239 8:-0.024154617 9:0.91075969 10:0 11:-0.86040723 12:1.7044348 
-3.168416388286819 1:2.6553931 2:1.3687924 3:0.39521267 4:0.33166988 5:-1.0045947 6:0.80038897 7:-2.4350673 8:-0.058738611 9:0.43904106 10:0 11:-0.86040723 12:1.7044348 
-3.497210962103039 1:-0.71056758 2:-0.44558152 3:-0.20497854 4:2.8988798 5:-0.97375368 6:0.88233082 7:-0.21260893 8:-0.25240898 9:0.67490038 10:0 11:-0.86040723 12:-0.58670475 
3.77427318688851 1:0.22253095 2:-0.78483614 3:-0.13140533 4:-0.34726168 5:-0.85717848 6:0.52815067 7:0.54486972 8:-0.20744978 9:0.026287253 10:0 11:-0.86040723 12:-0.58670475 
-4 1:0.72909654 2:0.51374986 3:0.11689993 4:-0.10327065 5:-0.4789531 6:0.50839312 7:0.57231197 8:-0.01032102 9:0.67490038 10:0 11:-0.86040723 12:-0.58670475 
-4 1:1.3547 2:1.2158525 3:-0.10452529 4:-0.54881948 5:-0.9851431 6:-0.075182629 7:0.31733535 8:0.003512578 9:1.0286894 10:0 11:1.1622404 12:-0.58670475 
-4 1:-0.4949024 2:-0.69553515 3:-0.35827296 4:-0.050229123 5:-0.73651469 6:-0.95033828 7:0.30561333 8:0.010429377 9:0.43904106 10:0 11:-0.86040723 12:-0.58670475 
-4 1:0.12022768 2:-0.035507566 3:-0.091837903 4:-0.050229123 5:-0.83030518 6:0.54936405 7:0.68062705 8:-0.1175314 9:0.43904106 10:0 11:-0.86040723 12:-0.58670475 
2.307851747380275 1:0.5952315 2:0.51957994 3:-0.3186987 4:0.33166988 5:-0.98876698 6:0.21639727 7:-0.68221662 8:-0.017237818 9:0.43904106 10:0 11:-0.86040723 12:1.7044348 
4 1:0.52763334 2:1.722155 3:0.17459715 4:-0.050229123 5:-1.0204224 6:-0.40773346 7:0.29716257 8:0.10726456 9:0.43904106 10:0 11:-0.86040723 12:1.7044348 
4 1:1.6908611 2:2.5812927 3:0.136535 4:-0.050229123 5:-1.0107571 6:0.79997302 7:0.70079983 8:-0.013779419 9:0.43904106 10:0 11:-0.86040723 12:1.7044348 
4 1:-0.035043797 2:-0.3650998 3:-0.13561555 4:-0.45334473 5:-0.067323335 6:-0.075182629 7:0.31842577 8:-0.01032102 9:-0.44543138 10:0 11:-0.86040723 12:-0.58670475 
-4 1:-0.24300593 2:0.015626613 3:-0.20308544 4:-0.34726168 5:-1.0204224 6:-0.075182629 7:0.31842577 8:-0.01032102 9:0.026287253 10:0 11:-0.86040723 12:-0.58670475 
-0.4996609359706101 1:-0.9294616 2:-1.4221554 3:0.07724726 4:2.8988798 5:-0.44473335 6:2.0083034 7:-0.23259997 8:2.4797265 9:0.67490038 10:0 11:-0.86040723 12:1.7044348 
-4 1:1.0055074 2:0.073406974 3:-0.066463136 4:-0.050229123 5:-0.36161715 6:-0.69910538 7:-0.12201318 8:0.086514163 9:0.43904106 10:0 11:1.1622404 12:-0.58670475 
4 1:0.59060962 2:0.079661089 3:0.039235939 4:0.24680343 5:-0.67783527 6:-0.99130921 7:0.28771226 8:0.12109816 9:0.43904106 10:0 11:1.1622404 12:-0.58670475 
4 1:0.85842652 2:1.2539239 3:-0.32021081 4:-0.050229123 5:-0.76954322 6:-1.324068 7:-0.61615532 8:0.23176694 9:0.43904106 10:0 11:-0.86040723 12:-0.58670475 
-4 1:0.58784756 2:0.8858806 3:0.25964856 4:0.51201107 5:-1.0204224 6:-0.032755882 7:0.42610477 8:-0.23165858 9:0.7338652 10:0 11:1.1622404 12:-0.58670475 
-4 1:0.004247485 2:-0.099412902 3:-0.11721267 4:-0.050229123 5:-0.91275641 6:-0.36676253 7:-1.941016 8:-0.017237818 9:0.43904106 10:0 11:1.1622404 12:1.7044348 
-0.2499075816731845 1:0.54628739 2:-0.34460851 3:2.194769 4:-0.80341882 5:0.76142374 6:0.84032002 7:0.5489588 8:-0.96483925 9:-0.0031951619 10:0 11:1.1622404 12:-0.58670475 
-0.6451988816215453 1:-0.062624712 2:-0.34516692 3:-3.0430283 4:-0.13509557 5:-1.0113462 6:1.2989032 7:0.68644263 8:0.51535569 9:0.43904106 10:0 11:-0.86040723 12:-0.58670475 
2.528452803074482 1:0.14997901 2:-0.046924809 3:0.095360532 4:-0.35786998 5:-0.69712007 6:1.1318999 7:0.67635624 8:-0.95446405 9:0.7338652 10:0 11:1.1622404 12:-0.58670475 
4 1:1.2691831 2:1.0070436 3:0.17081745 4:-0.54881948 5:-1.0167329 6:0.21681322 7:0.57004026 8:-0.017237818 9:0.67490038 10:0 11:-0.86040723 12:-0.58670475 
-0.9722604734353778 1:0.4006045 2:1.2036874 3:-0.027882146 4:-0.80341882 5:1.9972715 6:1.1115184 7:0.67144935 8:-0.114073 9:-0.0031951619 10:0 11:1.1622404 12:-0.58670475 
2.396511045528461 1:-1.3196653 2:-1.2405589 3:-0.015713601 4:-0.050229123 5:-0.98843107 6:-0.94992233 7:-0.94373576 8:-0.0034042208 9:0.43904106 10:0 11:1.1622404 12:-0.58670475 
-0.3833826030890482 1:-0.15799172 2:-0.10136212 3:-0.28849235 4:-0.050229123 5:1.5055962 6:1.1115184 7:0.67144935 8:-0.114073 9:0.43904106 10:0 11:-0.86040723 12:-0.58670475 
4 1:-0.61719228 2:-0.51749588 3:-0.091837903 4:-0.050229123 5:-0.90011225 6:-0.36676253 7:-1.9421064 8:0.010429377 9:0.43904106 10:0 11:1.1622404 12:1.7044348 
-4 1:-1.1400921 2:-2.5458914 3:0.020524589 4:-0.40030321 5:-0.85308865 6:0.84032002 7:0.5489588 8:-0.96483925 9:0.43904106 10:0 11:-0.86040723 12:1.7044348 
-0.9507928874212898 1:-0.74118232 2:-1.1398794 3:0.060396586 4:0.29984496 5:-0.51995982 6:1.7148518 7:-0.57117548 8:0.33206052 9:-0.15060724 10:0 11:-0.86040723 12:1.7044348 
4 1:0.25858651 2:0.41388651 3:-0.13136471 4:-0.10327065 5:-0.12925877 6:-0.69952133 7:-0.26567605 8:-0.06565541 9:1.0286894 10:0 11:1.1622404 12:-0.58670475 
-0.3379111720388948 1:-0.47511087 2:-0.69265749 3:2.0798042 4:-0.80341882 5:0.74227723 6:0.82077045 7:0.54323409 8:1.2381612 9:-0.0031951619 10:0 11:-0.86040723 12:-0.58670475 
4 1:-1.3373886 2:-1.5304601 3:-0.50040674 4:-0.10327065 5:-0.95234242 6:-0.3257916 7:0.29825299 8:-0.114073 9:1.0286894 10:0 11:-0.86040723 12:1.7044348 
-0.9072277387741333 1:-0.82884071 2:-1.4508166 3:-0.060119444 4:-0.050229123 5:-0.85132989 6:0.84032002 7:0.5489588 8:-0.96483925 9:0.43904106 10:0 11:-0.86040723 12:1.7044348 
-1.194539226327086 1:1.0702514 2:-0.87278965 3:1.9594983 4:-0.36847829 5:1.8217737 6:2.0083034 7:-0.23259997 8:2.4797265 9:0.7338652 10:0 11:1.1622404 12:-0.58670475 
-2.19516529227328 1:-0.23903721 2:-0.10675871 3:0.035035934 4:-0.050229123 5:0.51600731 6:-0.34721295 7:0.030100459 8:-2.2064046 9:0.43904106 10:0 11:1.1622404 12:-0.58670475 
-4 1:0.69932572 2:1.0806445 3:0.110826 4:-0.13509557 5:-0.12271518 6:0.50839312 7:0.57340239 8:-0.024154617 9:0.43904106 10:0 11:-0.86040723 12:-0.58670475 
-4 1:3.0470312 2:0.42597193 3:0.48945906 4:-0.80341882 5:-0.74758964 6:0.21681322 7:0.57004026 8:-0.017237818 9:0.026287253 10:0 11:-0.86040723 12:-0.58670475 
4 1:0.073586351 2:1.0663204 3:0.21803522 4:-0.34726168 5:-1.0204224 6:-0.11615356 7:0.3005247 8:0.10034776 9:0.026287253 10:0 11:-0.86040723 12:-0.58670475 
-3.72488180249813 1:-1.1128035 2:-0.099896179 3:-0.14258744 4:-0.050229123 5:-1.0195463 6:-0.65834243 7:0.55141224 8:-0.013779419 9:0.43904106 10:0 11:1.1622404 12:-0.58670475 
-1.406168035112285 1:-1.0509113 2:-1.1086953 3:3.4706585 4:-0.36847829 5:0.20670093 6:1.4638268 7:-0.2233314 8:-2.2375302 9:0.7338652 10:0 11:1.1622404 12:-0.58670475 
2.879402239660785 1:0.083403869 2:0.069717959 3:2.1157669 4:-0.050229123 5:-0.60665404 6:-1.2419182 7:0.29643562 8:5.417858e-05 9:0.43904106 10:0 11:-0.86040723 12:-0.58670475 
-1.460281174940975 1:0.18206614 2:0.65364643 3:-0.056404757 4:2.4321144 5:-1.0204224 6:-0.075182629 7:0.68798739 8:0.0069709773 9:0.79283003 10:0 11:1.1622404 12:-0.58670475 
0.1541134667148459 1:0.14855324 2:0.10979774 3:-0.24408651 4:-0.050229123 5:2.4541368 6:-0.38631211 7:0.015834127 8:2.1995962 9:0.43904106 10:0 11:-0.86040723 12:-0.58670475 
-4 1:-0.018405245 2:0.38568936 3:0.14619394 4:-0.1881371 5:-0.78375123 6:1.2159215 7:0.57122155 8:-0.18324099 9:1.0286894 10:0 11:1.1622404 12:-0.58670475 
2.719306133028858 1:-0.41166056 2:0.26723939 3:-0.10695524 4:1.2439842 5:0.18611107 6:0.46638232 7:0.67708319 8:0.11072296 9:0.43904106 10:0 11:-0.86040723 12:-0.58670475 
4 1:-0.85326168 2:-0.37182007 3:-0.072806828 4:-0.050229123 5:-0.68773938 6:0.67352468 7:0.18475841 8:-0.114073 9:0.43904106 10:0 11:-0.86040723 12:1.7044348 
-4 1:0.71617731 2:0.038717179 3:-0.48698703 4:-0.10327065 5:-0.068903783 6:-1.1999074 7:0.31479103 8:-0.1175314 9:0.61593555 10:0 11:-0.86040723 12:-0.58670475 
-1.049471283776687 1:0.62359428 2:-0.40934585 3:1.6933675 4:-0.79281051 5:1.7753534 6:1.4033063 7:0.55232093 8:1.7776715 9:0.43904106 10:0 11:1.1622404 12:-0.58670475 
4 1:-0.83254086 2:0.16827426 3:0.098472852 4:-0.050229123 5:0.093001412 6:1.2159215 7:0.57122155 8:-0.18324099 9:0.43904106 10:0 11:1.1622404 12:-0.58670475 
2.788123459628471 1:1.5376775 2:-0.48896643 3:-0.022057293 4:-0.050229123 5:-0.58506901 6:1.1318999 7:0.67635624 8:-0.95446405 9:0.43904106 10:0 11:1.1622404 12:-0.58670475 
2.003539664881882 1:-0.71006598 2:-0.24507261 3:-0.053775752 4:-0.050229123 5:-1.0133776 6:-0.65834243 7:-0.94146405 8:0.003512578 9:0.43904106 10:0 11:-0.86040723 12:1.7044348 
-4 1:1.3168748 2:0.52659198 3:-0.10452529 4:-0.050229123 5:-1.0085449 6:-1.0742909 7:-1.1221104 8:0.15568215 9:0.43904106 10:0 11:-0.86040723 12:1.7044348 
0.4245650403673852 1:0.88858272 2:1.5613365 3:-0.015713601 4:-0.050229123 5:-0.6646999 6:-0.40773346 7:-0.49602735 8:0.093430962 9:0.43904106 10:0 11:-0.86040723 12:1.7044348 
-4 1:0.784053 2:0.18581814 3:-0.16200764 4:-0.80341882 5:0.98029045 6:-0.074974655 7:0.14904714 8:0.15222375 9:-0.0031951619 10:0 11:1.1622404 12:-0.58670475 
4 1:1.239259 2:1.1934923 3:0.23067457 4:-0.54881948 5:-1.0204224 6:0.50839312 7:0.57231197 8:-0.01032102 9:0.67490038 10:0 11:-0.86040723 12:1.7044348 
-3.169196704701158 1:-0.37086847 2:0.036259077 3:-0.091837903 4:-0.050229123 5:0.81546836 6:0.54936405 7:0.68062705 8:-0.1175314 9:0.43904106 10:0 11:-0.86040723 12:1.7044348 
-4 1:1.6548063 2:1.8210833 3:0.019835759 4:-0.45334473 5:-1.0204224 6:-0.075182629 7:0.68798739 8:0.0069709773 9:-0.44543138 10:0 11:1.1622404 12:-0.58670475 
-2.004878207209162 1:0.039217336 2:0.50774417 3:-0.59298956 4:-0.050229123 5:-0.80870558 6:-0.69952133 7:-0.59461952 8:0.089972562 9:0.43904106 10:0 11:-0.86040723 12:1.7044348 
0.02622274475845613 1:0.58109398 2:-1.9277239 3:-0.0024547081 4:-0.44273643 5:0.40086245 6:0.84032002 7:0.5489588 8:-0.96483925 9:0.67490038 10:0 11:-0.86040723 12:1.7044348 
-4 1:-0.92596958 2:-0.96604143 3:-0.066463136 4:-0.050229123 5:-1.0114935 6:-0.65834243 7:-0.94037363 8:-0.01032102 9:0.43904106 10:0 11:1.1622404 12:1.7044348 
4 1:-0.90802387 2:-0.65081591 3:-0.053775752 4:-0.050229123 5:-0.92666738 6:-0.65834243 7:-3.0735084 8:0.003512578 9:0.43904106 10:0 11:1.1622404 12:1.7044348 
4 1:0.080894879 2:0.51701765 3:-0.15193047 4:-0.3896949 5:-1.0047877 6:-0.69952133 7:-0.26567605 8:-0.06565541 9:-0.44543138 10:0 11:-0.86040723 12:1.7044348 
4 1:0.86988341 2:0.42548859 3:-1.1460391 4:-0.54881948 5:0.0087728688 6:0.50839312 7:0.57231197 8:-0.01032102 9:0.67490038 10:0 11:-0.86040723 12:-0.58670475 
0.4555740451310383 1:-0.8114646 2:1.0264427 3:0.26405036 4:-0.36847829 5:1.5906897 6:2.6305624 7:0.033644325 8:-1.9055239 9:0.7338652 10:0 11:1.1622404 12:-0.58670475 
0.7884255030491271 1:-0.37287301 2:0.20662672 3:0.49125309 4:-0.7609856 5:0.55795817 6:0.88357867 7:0.56949505 8:-0.093322605 9:-0.32750172 10:0 11:1.1622404 12:-0.58670475 
4 1:-0.83749318 2:-0.53203288 3:0.12540414 4:-0.80341882 5:0.1708509 6:0.25778415 7:0.55322961 8:-0.1279066 9:-0.0031951619 10:0 11:-0.86040723 12:-0.58670475 
-1.795099657587991 1:0.24623713 2:0.46900146 3:-1.8997901 4:-0.050229123 5:1.5277774 6:2.423836 7:-0.17962372 8:-0.1279066 9:0.43904106 10:0 11:-0.86040723 12:-0.58670475 
2.364995250304226 1:3.6033809 2:2.3691824 3:0.20631561 4:-0.050229123 5:-1.0063328 6:-0.11594558 7:0.42465088 8:0.093430962 9:0.43904106 10:0 11:-0.86040723 12:1.7044348 
-0.7967464187656099 1:-0.32115276 2:0.06237043 3:-0.080225787 4:1.2439842 5:0.17897389 6:0.44516895 7:-0.12319446 8:0.13839015 9:0.7338652 10:0 11:-0.86040723 12:-0.58670475 
-4 1:-0.81015497 2:-0.29414134 3:-0.33289819 4:-0.050229123 5:-0.23528739 6:-0.6173715 7:0.17085555 8:-0.1071562 9:0.43904106 10:0 11:-0.86040723 12:-0.58670475 
0.2022331184766318 1:-0.36134547 2:-0.12668101 3:-1.9592482 4:-0.34726168 5:0.97525887 6:-0.074974655 7:0.40784023 8:-0.017237818 9:0.026287253 10:0 11:1.1622404 12:-0.58670475 
-1.301889084962238 1:0.005007475 2:1.1667072 3:-1.1775293 4:-0.80341882 5:0.62476649 6:0.50839312 7:0.57231197 8:-0.01032102 9:-0.0031951619 10:0 11:1.1622404 12:-0.58670475 
0.3919192764113604 1:-0.05032969 2:-0.10506724 3:-1.0941412 4:-0.050229123 5:0.73768008 6:1.8402602 7:-0.43350992 8:-0.1279066 9:0.43904106 10:0 11:-0.86040723 12:1.7044348 
-4 1:0.18256401 2:0.67359441 3:0.17334734 4:-0.13509557 5:-0.5485752 6:0.21681322 7:0.57004026 8:-0.017237818 9:0.43904106 10:0 11:-0.86040723 12:1.7044348 
-4 1:-0.4974366 2:0.41398842 3:-2.6039399 4:-0.050229123 5:0.10424321 6:0.79997302 7:0.69970941 8:5.417858e-05 9:0.43904106 10:0 11:-0.86040723 12:-0.58670475 
-0.1404358371956371 1:0.67978735 2:0.92838999 3:0.17190645 4:-0.36847829 5:2.4642011 6:2.5914632 7:0.022194912 8:2.5004769 9:0.7338652 10:0 11:1.1622404 12:-0.58670475 
-1.760809714536593 1:1.7905374 2:0.66974684 3:0.15896057 4:-0.35786998 5:-0.23650763 6:0.50839312 7:0.57231197 8:-0.01032102 9:0.7338652 10:0 11:-0.86040723 12:-0.58670475 
4 1:-1.3790526 2:-0.34941212 3:0.073098085 4:-0.050229123 5:-0.4631061 6:1.8404682 7:-0.194617 8:-0.30774337 9:0.43904106 10:0 11:1.1622404 12:-0.58670475 
-1.236316906476647 1:-0.15522887 2:0.10067991 3:-1.0941412 4:-0.050229123 5:1.7491177 6:1.8402602 7:-0.43350992 8:-0.1279066 9:0.43904106 10:0 11:-0.86040723 12:1.7044348 
4 1:1.5987382 2:1.5443961 3:0.13739509 4:-0.34726168 5:-1.0203463 6:0.50839312 7:0.57231197 8:-0.01032102 9:0.026287253 10:0 11:1.1622404 12:-0.58670475 
0.1568483880421708 1:2.2321068 2:1.8817671 3:0.15896057 4:-0.35786998 5:-0.47617961 6:-0.40690156 7:0.17349073 8:1.0929084 9:0.7338652 10:0 11:-0.86040723 12:-0.58670475 
-1.243331026273587 1:0.87426632 2:-0.022924239 3:2.4246984 4:-0.80341882 5:1.0069137 6:1.4648667 7:-0.21687974 8:-1.0893416 9:0.026287253 10:0 11:-0.86040723 12:-0.58670475 
3.219116600259679 1:0.57865162 2:0.20673717 3:-0.022753816 4:-0.35786998 5:-0.8027925 6:-0.074974655 7:0.40784023 8:-0.017237818 9:0.7338652 10:0 11:-0.86040723 12:1.7044348 
-4 1:1.3906015 2:0.87628815 3:0.26842511 4:0.20437021 5:-1.0204224 6:0.21681322 7:0.57004026 8:-0.017237818 9:0.91075969 10:0 11:-0.86040723 12:1.7044348 
-1.165336785642492 1:1.3166682 2:1.3881835 3:-0.26515535 4:0.33166988 5:-0.98876698 6:-1.1171336 7:-1.2648645 8:0.13493175 9:0.43904106 10:0 11:-0.86040723 12:1.7044348 
2.978739121229038 1:-0.56401894 2:0.18526092 3:-0.25684552 4:-0.34726168 5:-0.37117099 6:-0.34638105 7:0.15686182 8:-0.91642166 9:0.026287253 10:0 11:-0.86040723 12:-0.58670475 
-2.138321563227207 1:1.0131787 2:0.6137366 3:-0.23088269 4:1.2439842 5:-1.0149899 6:-1.5736371 7:0.15150059 8:1.1032836 9:0.91075969 10:0 11:-0.86040723 12:1.7044348 
2.7764231426559 1:-0.22723524 2:0.060835951 3:-1.6151111 4:-0.12448726 5:0.86716308 6:-0.2837808 7:-0.32365007 8:-0.23165858 9:-0.44543138 10:0 11:-0.86040723 12:-0.58670475 
-0.1527668508031857 1:-0.21214638 2:-0.739563 3:0.19530344 4:-0.35786998 5:1.6517865 6:1.4033063 7:0.55232093 8:1.7776715 9:0.7338652 10:0 11:1.1622404 12:-0.58670475 
0.298784315628679 1:2.6410582 2:1.444812 3:0.54795134 4:-0.46395304 5:-1.0093262 6:0.50839312 7:0.57340239 8:-0.024154617 9:1.0286894 10:0 11:-0.86040723 12:1.7044348 
-4 1:-0.36798735 2:-0.28935689 3:-0.041088368 4:-0.050229123 5:0.51600731 6:-0.34638105 7:0.030463933 8:-0.84379527 9:0.43904106 10:0 11:1.1622404 12:-0.58670475 
-1.66113100797933 1:-0.81756423 2:-1.6477477 3:2.2183995 4:2.4108978 5:0.44701725 6:0.5682897 7:-0.98362697 8:0.70210925 9:0.43904106 10:0 11:-0.86040723 12:1.7044348 
-4 1:1.4974641 2:2.6311991 3:0.18728454 4:-0.050229123 5:-1.01223 6:0.50839312 7:0.6974377 8:-0.0068626202 9:0.43904106 10:0 11:1.1622404 12:-0.58670475 
4 1:-0.047924594 2:-1.3909386 3:-0.060119444 4:-0.050229123 5:-0.58506901 6:0.84032002 7:0.5489588 8:-0.96483925 9:0.43904106 10:0 11:1.1622404 12:-0.58670475 
-4 1:0.58680693 2:-0.090184704 3:0.12540414 4:-0.80341882 5:1.1515035 6:0.25778415 7:0.55322961 8:-0.1279066 9:0.026287253 10:0 11:-0.86040723 12:-0.58670475 
4 1:1.6047463 2:1.4838672 3:0.11116024 4:-0.050229123 5:-1.0204224 6:0.50839312 7:0.57231197 8:-0.01032102 9:0.43904106 10:0 11:1.1622404 12:-0.58670475 
-4 1:-0.29361438 2:-0.11914671 3:-0.14258744 4:-0.050229123 5:-0.85132989 6:-0.34638105 7:0.030463933 8:-0.84379527 9:0.43904106 10:0 11:-0.86040723 12:1.7044348 
-1.113858497336002 1:0.94006576 2:-0.21167607 3:0.56134466 4:-0.7609856 5:1.3174514 6:1.1123503 7:0.67063153 8:1.2485364 9:-0.32750172 10:0 11:1.1622404 12:-0.58670475 
1.143942189850091 1:-0.13062289 2:-0.073025974 3:1.2657122 4:-0.050229123 5:1.9716074 6:0.82077045 7:0.54323409 8:1.2381612 9:0.43904106 10:0 11:-0.86040723 12:-0.58670475 
4 1:0.8570625 2:0.67570692 3:0.24073204 4:-0.35786998 5:-0.12666391 6:0.21681322 7:0.57004026 8:-0.017237818 9:0.7338652 10:0 11:-0.86040723 12:1.7044348 
-0.839608513136939 1:-1.4301147 2:-0.80206552 3:-0.028400985 4:-0.050229123 5:-0.98548247 6:-0.94992233 7:-0.94373576 8:-0.017237818 9:0.43904106 10:0 11:1.1622404 12:1.7044348 
4 1:0.018517201 2:-0.28761523 3:-0.31738056 4:-0.12448726 5:3.0318952 6:0.44516895 7:-0.12319446 8:0.13839015 9:0.67490038 10:0 11:-0.86040723 12:-0.58670475 
-1.811370873990193 1:1.0809649 2:0.81891016 3:-0.066463136 4:-0.050229123 5:0.068910533 6:-0.075182629 7:0.68798739 8:0.0069709773 9:0.43904106 10:0 11:1.1622404 12:-0.58670475 
-0.7847139020236678 1:-1.1961833 2:-3.6427888 3:-0.16724538 4:-0.34726168 5:-0.69222159 6:-0.74236403 7:-0.14254943 8:-0.78500248 9:0.026287253 10:0 11:-0.86040723 12:1.7044348 
4 1:0.035183395 2:0.50720002 3:0.51416396 4:-0.69733576 5:-0.95497928 6:1.2159215 7:0.57122155 8:-0.18324099 9:0.43904106 10:0 11:1.1622404 12:-0.58670475 
2.825123042100594 1:3.4994635 2:2.5191783 3:0.7095315 4:-0.54881948 5:-1.0012425 6:0.30125077 7:-0.4668586 8:-0.45991294 9:0.61593555 10:0 11:-0.86040723 12:1.7044348 
4 1:0.56204471 2:0.37192721 3:0.136535 4:-0.050229123 5:-0.57254061 6:0.88357867 7:0.56949505 8:-0.093322605 9:0.43904106 10:0 11:-0.86040723 12:-0.58670475 
-4 1:0.93212062 2:0.55004948 3:-0.068685231 4:-0.34726168 5:-0.20028992 6:0.54936405 7:0.68062705 8:-0.1175314 9:0.026287253 10:0 11:-0.86040723 12:-0.58670475 
2.069201661549124 1:0.59879948 2:0.5771339 3:0.056511235 4:-0.10327065 5:0.25611331 6:-2.5727454 7:-1.2890355 8:1.2692868 9:0.67490038 10:0 11:-0.86040723 12:-0.58670475 
4 1:0.52657617 2:-0.13235629 3:-0.022057293 4:-0.050229123 5:0.95010845 6:1.1318999 7:0.67635624 8:-0.95446405 9:0.43904106 10:0 11:1.1622404 12:-0.58670475 
-4 1:0.0059481303 2:0.52864595 3:0.06756817 4:0.15132868 5:0.046387801 6:-0.075182629 7:0.68798739 8:0.0069709773 9:1.0286894 10:0 11:-0.86040723 12:1.7044348 
-4 1:1.5773147 2:1.1994815 3:0.15531512 4:-0.34726168 5:-1.0204224 6:0.50839312 7:0.57340239 8:-0.024154617 9:0.026287253 10:0 11:-0.86040723 12:1.7044348 
2.439921746973492 1:-0.7206114 2:-0.14725733 3:0.1428787 4:-0.050229123 5:-0.15522433 6:1.5486803 7:0.56713247 8:-0.1209898 9:0.43904106 10:0 11:-0.86040723 12:-0.58670475 
0.2303747064206135 1:0.33951316 2:-0.61766634 3:2.613891 4:0.71356888 5:-0.71556071 6:0.71636737 7:-0.21969666 8:0.20409974 9:0.7338652 10:0 11:-0.86040723 12:-0.58670475 
-1.268515112829485 1:-0.91632653 2:1.6336756 3:0.1281241 4:2.7079303 5:-0.948414 6:2.9670647 7:-2.4188019 8:-1.6980199 9:0.7338652 10:0 11:1.1622404 12:1.7044348 
1.536927436471487 1:2.2324763 2:0.59218878 3:-0.11721267 4:-0.050229123 5:-0.96463218 6:-2.1778023 7:-0.47621805 8:0.020804575 9:0.43904106 10:0 11:1.1622404 12:-0.58670475 
-4 1:-0.17465464 2:-0.46480946 3:-0.33136198 4:-0.5806444 5:-0.58373648 6:-0.65834243 7:0.55141224 8:-0.013779419 9:0.61593555 10:0 11:-0.86040723 12:-0.58670475 
4 1:-0.23330198 2:0.92724477 3:0.11116024 4:-0.050229123 5:-1.0204224 6:0.50839312 7:0.57231197 8:-0.01032102 9:0.43904106 10:0 11:1.1622404 12:-0.58670475 
2.752592837209771 1:1.797894 2:1.3518037 3:0.16190977 4:-0.050229123 5:-0.86907953 6:-0.49071518 7:-0.86822415 8:0.15568215 9:0.43904106 10:0 11:-0.86040723 12:1.7044348 
-3.909574873111981 1:-0.3291358 2:-0.91690826 3:-0.37096034 4:-0.050229123 5:-1.0192136 6:-0.4089813 7:0.26190565 8:0.21101654 9:0.43904106 10:0 11:1.1622404 12:-0.58670475 
4 1:0.64977623 2:1.3981486 3:-0.019989863 4:0.20437021 5:-0.5764327 6:-1.2616757 7:-0.19997823 8:-1.8052303 9:0.91075969 10:0 11:-0.86040723 12:1.7044348 
4 1:-0.32996056 2:-0.45505649 3:-0.10452529 4:-0.050229123 5:0.37426815 6:0.46638232 7:0.67708319 8:0.11072296 9:0.43904106 10:0 11:-0.86040723 12:1.7044348 
4 1:-0.13604108 2:0.17397974 3:0.17341308 4:0.24680343 5:-1.0204224 6:0.21681322 7:0.57004026 8:-0.017237818 9:0.43904106 10:0 11:1.1622404 12:-0.58670475 
4 1:-0.3969029 2:-0.43652154 3:0.039763031 4:-0.40030321 5:-0.96183687 6:-0.34638105 7:0.15686182 8:-0.91642166 9:0.43904106 10:0 11:-0.86040723 12:1.7044348 
0.2385428823187324 1:-3.3083216 2:-2.7205329 3:-0.44892769 4:-0.90950187 5:-0.92784877 6:-2.0330522 7:-7.6124739 8:-0.037988215 9:0.43904106 10:0 11:-0.86040723 12:1.7044348 
0.3980029515802312 1:-0.14680294 2:0.41548854 3:0.14057751 4:0.15132868 5:0.77653336 6:1.5486803 7:0.56713247 8:-0.1209898 9:1.0286894 10:0 11:-0.86040723 12:1.7044348 
4 1:-1.0950663 2:-0.68806047 3:-0.11721267 4:-0.050229123 5:-0.92666738 6:-0.36676253 7:-2.946111 8:-0.017237818 9:0.43904106 10:0 11:1.1622404 12:1.7044348 
-1.897226325149161 1:0.24097097 2:-1.0833089 3:0.010278427 4:2.8988798 5:0.13234104 6:2.0066396 7:-0.23096434 8:-0.24549218 9:0.67490038 10:0 11:-0.86040723 12:1.7044348 
-4 1:-1.0424406 2:-0.38173498 3:-0.012701798 4:-0.21996201 5:-0.88388926 6:0.44516895 7:-0.12319446 8:0.13839015 9:0.7338652 10:0 11:-0.86040723 12:-0.58670475 
3.516201087874077 1:1.0915358 2:0.65612634 3:-0.91017415 4:-0.050229123 5:-0.45104478 6:-0.49071518 7:-0.86822415 8:0.15568215 9:0.43904106 10:0 11:-0.86040723 12:1.7044348 
4 1:-0.086064709 2:0.49488809 3:-0.13264774 4:2.7079303 5:-0.87039833 6:-2.0946126 7:-0.47476415 8:-0.30428497 9:0.7338652 10:0 11:-0.86040723 12:-0.58670475 
-4 1:-0.62549723 2:-0.43536451 3:-0.05498209 4:-0.5700361 5:-0.7763167 6:0.0084230198 7:-0.81688353 8:-0.086405806 9:0.43904106 10:0 11:1.1622404 12:-0.58670475 
4 1:0.96362563 2:-0.79478329 3:-0.38246366 4:0.24680343 5:-1.0204224 6:-0.95033828 7:0.30561333 8:0.010429377 9:0.43904106 10:0 11:1.1622404 12:-0.58670475 
-4 1:-0.55253991 2:0.55726549 3:0.14899958 4:2.8988798 5:-0.73938799 6:3.4641232 7:-0.18480321 8:-0.23857538 9:0.67490038 10:0 11:-0.86040723 12:1.7044348 
-1.435723527093402 1:-0.94446319 2:0.40529715 3:-0.024962535 4:0.20437021 5:-0.75738888 6:0.25778415 7:-0.20506686 8:-1.8225223 9:0.91075969 10:0 11:1.1622404 12:-0.58670475 
4 1:-0.79165423 2:-0.65645415 3:-0.060119444 4:-0.050229123 5:-1.0204224 6:-0.034003727 7:-0.12437575 8:0.058846968 9:0.43904106 10:0 11:-0.86040723 12:1.7044348 
-1.793075002472958 1:0.71800593 2:-0.20568553 3:-0.12990005 4:-0.050229123 5:-0.30897738 6:0.25778415 7:0.55322961 8:-0.1279066 9:0.43904106 10:0 11:-0.86040723 12:1.7044348 
0.2690333535174522 1:1.7882266 2:0.53871881 3:0.039235939 4:0.24680343 5:-1.0204224 6:-0.99130921 7:0.28771226 8:0.12109816 9:0.43904106 10:0 11:1.1622404 12:-0.58670475 
4 1:0.049421699 2:-0.092683171 3:-0.20295388 4:2.7079303 5:1.3695811 6:-0.36676253 7:-1.2731336 8:-0.0034042208 9:0.7338652 10:0 11:1.1622404 12:-0.58670475 
-1.364771635206622 1:-0.77390686 2:-0.46839548 3:0.14534369 4:0.33166988 5:-1.0045947 6:-0.94992233 7:-3.1998154 8:-0.044905013 9:0.43904106 10:0 11:-0.86040723 12:1.7044348 
1.012411745683647 1:0.44323058 2:0.12845464 3:-0.40785828 4:0.20437021 5:-0.82699769 6:-0.6593823 7:0.026011383 8:-1.4490152 9:0.91075969 10:0 11:-0.86040723 12:-0.58670475 
-4 1:0.75402434 2:0.024579882 3:0.11116024 4:-0.050229123 5:0.83458436 6:1.1123503 7:0.67063153 8:1.2485364 9:0.43904106 10:0 11:1.1622404 12:-0.58670475 
3.651785286391993 1:0.87025977 2:2.8614645 3:0.14922239 4:-0.050229123 5:-1.0031911 6:0.79997302 7:0.69970941 8:5.417858e-05 9:0.43904106 10:0 11:-0.86040723 12:-0.58670475 
4 1:1.2339206 2:-0.31287314 3:-0.36808753 4:0.24680343 5:-1.0196855 6:-0.6585504 7:-0.60561459 8:-0.0034042208 9:0.43904106 10:0 11:1.1622404 12:-0.58670475 
2.891353477609631 1:1.647439 2:1.1455126 3:-0.53760776 4:-0.69733576 5:-0.71178885 6:-0.075182629 7:0.31733535 8:0.003512578 9:0.43904106 10:0 11:1.1622404 12:-0.58670475 
-4 1:0.28544134 2:0.28954268 3:-0.20308544 4:-0.34726168 5:-0.95325035 6:-0.075182629 7:0.31842577 8:-0.01032102 9:0.026287253 10:0 11:-0.86040723 12:-0.58670475 
-0.2873956358485635 1:1.2442938 2:0.21209583 3:-0.16200764 4:-0.80341882 5:-0.09316614 6:-0.38714401 7:0.14495807 8:0.90961321 9:-0.0031951619 10:0 11:-0.86040723 12:1.7044348 
2.319468039528638 1:2.1186948 2:2.2474556 3:0.63500857 4:0.28923665 5:-1.0204224 6:0.79955707 7:-1.2052549 8:0.038096572 9:0.43904106 10:0 11:1.1622404 12:-0.58670475 
-4 1:0.28804879 2:-0.33671805 3:-0.15527482 4:-0.050229123 5:-0.91275641 6:-0.075182629 7:-1.8136186 8:-0.01032102 9:0.43904106 10:0 11:1.1622404 12:1.7044348 
2.068319395591614 1:0.67854929 2:0.3724594 3:0.010439425 4:-0.80341882 5:-0.22481992 6:-0.075182629 7:0.31733535 8:0.003512578 9:-0.0031951619 10:0 11:-0.86040723 12:1.7044348 
-4 1:0.2997237 2:0.51213654 3:0.056754965 4:-0.34726168 5:-0.32282858 6:0.79997302 7:-0.42724 8:-0.031071416 9:0.026287253 10:0 11:-0.86040723 12:-0.58670475 
4 1:-0.040538127 2:-0.20905236 3:2.2933902 4:-0.050229123 5:0.15530528 6:-2.2410265 7:-0.14009598 8:0.16605735 9:0.43904106 10:0 11:-0.86040723 12:-0.58670475 
-0.1542662756336864 1:-0.20905803 2:-0.29179208 3:2.0798042 4:-0.80341882 5:1.8444477 6:0.82077045 7:0.54323409 8:1.2381612 9:-0.0031951619 10:0 11:1.1622404 12:-0.58670475 
-0.6083813508999879 1:1.6783129 2:-0.027743702 3:0.25466289 4:-0.5700361 5:-0.85761722 6:-1.9897936 7:-2.6939513 8:0.25943413 9:0.43904106 10:0 11:1.1622404 12:-0.58670475 
-1.327552410705621 1:0.51442965 2:-0.9802287 3:-0.0045823776 4:-0.35786998 5:0.40234561 6:0.84032002 7:0.5489588 8:-0.96483925 9:0.7338652 10:0 11:1.1622404 12:-0.58670475 
-2.882346200857376 1:0.78169786 2:2.6521193 3:0.40363862 4:-0.7609856 5:0.18774471 6:0.88316272 7:0.42583217 8:-0.072572208 9:0.43904106 10:0 11:-0.86040723 12:1.7044348 
-1.025882185499464 1:1.7028002 2:0.24635572 3:0.11116024 4:-0.050229123 5:-0.18470984 6:1.5081253 7:-0.1963435 8:-0.21782498 9:0.43904106 10:0 11:-0.86040723 12:1.7044348 
-1.399371272128491 1:-0.4382818 2:-1.479053 3:-0.17824042 4:-0.36847829 5:-0.56841023 6:1.4230639 7:-0.22932871 8:-0.41149535 9:0.7338652 10:0 11:1.1622404 12:-0.58670475 
-0.7924148792245117 1:-1.3986506 2:-0.60129463 3:2.5205023 4:-0.80341882 5:1.2071597 6:0.17480242 7:0.54968574 8:0.10034776 9:-0.0031951619 10:0 11:-0.86040723 12:-0.58670475 
4 1:0.11710198 2:0.26452694 3:0.1428787 4:-0.050229123 5:-1.0204224 6:1.5486803 7:0.56713247 8:-0.1209898 9:0.43904106 10:0 11:-0.86040723 12:1.7044348 
0.1764317002901886 1:-0.16891942 2:-0.54816787 3:-0.38364773 4:-0.050229123 5:0.17159352 6:-0.3257916 7:0.29825299 8:-0.114073 9:0.43904106 10:0 11:-0.86040723 12:-0.58670475 
-4 1:1.4041983 2:1.4123261 3:0.17459715 4:-0.050229123 5:-1.0175394 6:-0.40773346 7:0.29716257 8:0.10726456 9:0.43904106 10:0 11:-0.86040723 12:-0.58670475 
-3.814983161971206 1:1.7456961 2:-0.030980119 3:0.12132432 4:0.45896954 5:-0.032643028 6:0.50756122 7:0.40356942 8:-0.85417047 9:1.0286894 10:0 11:1.1622404 12:-0.58670475 
-2.139053353497512 1:-0.096318781 2:-0.99738193 3:0.12021131 4:-0.79281051 5:1.5022793 6:1.4033063 7:0.55232093 8:1.7776715 9:0.43904106 10:0 11:-0.86040723 12:1.7044348 
-1.576329769546247 1:1.9269717 2:1.1056422 3:-3.7377669 4:-0.79281051 5:0.77868802 6:0.50839312 7:-0.72519735 8:-0.01032102 9:0.43904106 10:0 11:-0.86040723 12:1.7044348 
0.6551160635046878 1:-3.4004883 2:-3.1375552 3:-0.20292597 4:-0.90950187 5:-0.96741153 6:-1.7414723 7:-5.3519417 8:-0.1002394 9:0.43904106 10:0 11:-0.86040723 12:1.7044348 
-4 1:0.16848857 2:0.71410141 3:0.15622237 4:0.15132868 5:-1.0204224 6:0.50839312 7:0.57340239 8:-0.024154617 9:-0.44543138 10:0 11:1.1622404 12:-0.58670475 
-4 1:-1.5947712 2:-0.66885826 3:-0.028400985 4:-0.050229123 5:-0.92666738 6:-0.94992233 7:-3.2009058 8:-0.017237818 9:0.43904106 10:0 11:1.1622404 12:1.7044348 
-1.833643316227578 1:-0.68692273 2:0.38463871 3:-0.033870434 4:0.91512668 5:-0.87312847 6:1.2159215 7:0.57122155 8:-0.18324099 9:-0.15060724 10:0 11:1.1622404 12:-0.58670475 
-0.6869185283391593 1:-1.1736945 2:-1.0198141 3:-0.12990005 4:-0.050229123 5:-0.89689048 6:-0.36676253 7:-1.941016 8:-0.031071416 9:0.43904106 10:0 11:1.1622404 12:1.7044348 
0.7040340456470098 1:-0.68953016 2:-0.87595859 3:-0.35827296 4:-0.050229123 5:-0.98081074 6:-0.95033828 7:0.30561333 8:0.010429377 9:0.43904106 10:0 11:-0.86040723 12:1.7044348 
0.6282582929562416 1:-2.2861983 2:-1.7062054 3:-0.17847867 4:0.28923665 5:-0.78370512 6:5.1304129 7:-11.732173 8:-0.99942324 9:0.43904106 10:0 11:1.1622404 12:-0.58670475 
1.668805522841639 1:0.48867203 2:0.21695544 3:1.9218509 4:-0.10327065 5:0.25611331 6:-2.4693822 7:-1.243874 8:0.010429377 9:0.67490038 10:0 11:-0.86040723 12:-0.58670475 
2.272270754109301 1:-1.0414142 2:-2.1437876 3:-0.26311758 4:-0.050229123 5:-0.92883133 6:-0.74236403 7:-1.1465539 8:-0.78500248 9:0.43904106 10:0 11:-0.86040723 12:1.7044348 
-1.266527313983694 1:0.13844571 2:-0.87139262 3:-0.07104087 4:2.8988798 5:-0.73583631 6:1.4638268 7:-0.2233314 8:-2.2375302 9:0.67490038 10:0 11:-0.86040723 12:1.7044348 
-4 1:0.80828952 2:0.42486216 3:0.136535 4:-0.050229123 5:-0.060442304 6:0.88357867 7:0.56949505 8:-0.093322605 9:0.43904106 10:0 11:-0.86040723 12:1.7044348 
-1.825367490613999 1:-0.67905934 2:0.070315353 3:-1.0905531 4:-0.3896949 5:-1.0063543 6:1.2159215 7:0.57122155 8:-0.18324099 9:-0.44543138 10:0 11:-0.86040723 12:-0.58670475 
1.14678399595012 1:0.87407855 2:0.62926297 3:0.31659537 4:-0.34726168 5:-0.091407745 6:-0.40773346 7:0.29716257 8:0.10726456 9:0.026287253 10:0 11:1.1622404 12:-0.58670475 
-1.757259849436407 1:0.55176796 2:1.7943973 3:0.40363862 4:-0.7609856 5:0.20458955 6:0.88316272 7:0.42583217 8:-0.072572208 9:0.43904106 10:0 11:-0.86040723 12:1.7044348 
4 1:-0.78147882 2:-0.50699266 3:-0.10452529 4:-0.050229123 5:-0.92666738 6:-0.36676253 7:-2.946111 8:-0.0034042208 9:0.43904106 10:0 11:1.1622404 12:1.7044348 
4 1:1.2902827 2:0.39054949 3:0.17459715 4:-0.050229123 5:1.0803166 6:1.6948862 7:0.67971837 8:1.7880467 9:0.43904106 10:0 11:1.1622404 12:-0.58670475 
-4 1:0.12503994 2:0.18079114 3:2.1157669 4:-0.050229123 5:-0.5652631 6:-1.2419182 7:0.29643562 8:5.417858e-05 9:0.43904106 10:0 11:-0.86040723 12:-0.58670475 
0.5053416310592351 1:0.79829913 2:-1.2108374 3:0.073098085 4:-0.050229123 5:1.0084524 6:0.82077045 7:0.54323409 8:1.2381612 9:0.43904106 10:0 11:-0.86040723 12:-0.58670475 
-1.569343650408081 1:1.1480937 2:0.59887632 3:-2.2598412 4:-0.7609856 5:-0.37295147 6:-0.075182629 7:0.68798739 8:0.0069709773 9:-0.32750172 10:0 11:1.1622404 12:-0.58670475 
4 1:-0.76445815 2:-0.30317862 3:-0.091837903 4:-0.050229123 5:-0.4291139 6:-0.36676253 7:0.18993791 8:0.010429377 9:0.43904106 10:0 11:-0.86040723 12:-0.58670475 
4 1:0.76925564 2:1.0655598 3:0.41231682 4:0.41653632 5:-1.0186597 6:2.7986056 7:-0.17662506 8:-0.36307776 9:0.55697072 10:0 11:1.1622404 12:-0.58670475 
-1.236579180056616 1:1.093581 2:2.2232864 3:0.97963641 4:-0.34726168 5:-0.098116053 6:1.1129743 7:-3.1544721 8:1.8226307 9:0.7338652 10:0 11:1.1622404 12:-0.58670475 
2.196444025113378 1:0.33060166 2:0.50537695 3:-0.30099896 4:0.24680343 5:0.09908615 6:-0.65751053 7:0.15331796 8:0.9891564 9:0.43904106 10:0 11:-0.86040723 12:-0.58670475 
1.367491838466475 1:0.20752386 2:-0.0043839521 3:-0.16588337 4:2.7079303 5:2.48139 6:-0.38631211 7:0.015834127 8:2.1995962 9:0.7338652 10:0 11:-0.86040723 12:-0.58670475 
0.3125675500424884 1:0.064767066 2:0.34653573 3:-0.12611947 4:-0.16692048 5:1.72259 6:-0.55331543 7:-0.057133167 8:0.72977645 9:0.14421691 10:0 11:1.1622404 12:-0.58670475 
-0.8740786617711267 1:2.567925 2:-0.66709516 3:3.9629109 4:0.28923665 5:1.6966022 6:6.7135129 7:-1.7479208 8:7.1208985 9:0.43904106 10:0 11:1.1622404 12:-0.58670475 
-1.806368311431302 1:-0.066980353 2:0.3351015 3:-0.24408651 4:-0.050229123 5:1.678879 6:-0.38631211 7:0.015834127 8:2.1995962 9:0.43904106 10:0 11:-0.86040723 12:-0.58670475 
4 1:0.83406891 2:0.80227364 3:0.039235939 4:0.24680343 5:-1.0204224 6:-0.99130921 7:0.28771226 8:0.12109816 9:0.43904106 10:0 11:1.1622404 12:-0.58670475 
-2.193531093723302 1:3.2661063 2:2.2744277 3:0.56056565 4:-0.69733576 5:-1.0204224 6:0.50839312 7:0.57231197 8:-0.01032102 9:0.43904106 10:0 11:1.1622404 12:-0.58670475 
-0.2534487216748844 1:-0.56826797 2:-0.52460659 3:1.6225732 4:0.29984496 5:0.69313481 6:-0.034003727 7:0.55041269 8:-0.114073 9:0.43904106 10:0 11:1.1622404 12:-0.58670475 
4 1:0.17787768 2:0.40695233 3:-0.077685867 4:-0.10327065 5:-0.68973099 6:0.21577335 7:0.033462589 8:0.53610608 9:1.0286894 10:0 11:-0.86040723 12:1.7044348 
2.625440527800931 1:2.3947192 2:3.3637824 3:-0.25416279 4:-0.47456135 5:0.9823397 6:1.1083988 7:-6.707425 8:-4.3367786 9:0.43904106 10:0 11:-0.86040723 12:-0.58670475 
4 1:2.0650446 2:1.2201429 3:0.098472852 4:-0.050229123 5:-1.0107571 6:0.50839312 7:0.57340239 8:-0.024154617 9:0.43904106 10:0 11:-0.86040723 12:1.7044348 
1.064249715260319 1:1.4696215 2:2.3278633 3:-2.0579762 4:-0.36847829 5:0.48404375 6:1.3835488 7:-0.17444422 8:-0.017237818 9:0.7338652 10:0 11:1.1622404 12:-0.58670475 
-2.585708901743542 1:0.92686909 2:2.1300761 3:0.08940892 4:0.20437021 5:-0.5764327 6:-0.69868943 7:0.046002422 8:0.93728041 9:0.91075969 10:0 11:-0.86040723 12:1.7044348 
4 1:-0.64235328 2:-0.019253347 3:-0.098181595 4:-0.050229123 5:-0.69988765 6:0.29833913 7:0.020831886 8:-0.031071416 9:0.43904106 10:0 11:-0.86040723 12:1.7044348 
2.161182317457439 1:-0.40588386 2:0.079590552 3:0.23361641 4:0.20437021 5:-1.0204224 6:1.2159215 7:0.57122155 8:-0.18324099 9:0.91075969 10:0 11:1.1622404 12:-0.58670475 
-4 1:1.7426139 2:0.70065293 3:0.11078938 4:0.29984496 5:-1.0204224 6:0.21681322 7:0.57004026 8:-0.017237818 9:0.43904106 10:0 11:-0.86040723 12:1.7044348 
4 1:2.3296547 2:0.86747791 3:0.24073204 4:-0.35786998 5:-0.94815945 6:0.21681322 7:0.57004026 8:-0.017237818 9:0.7338652 10:0 11:-0.86040723 12:1.7044348 
3.273657185981941 1:-0.41639557 2:0.027833947 3:-0.14258744 4:-0.050229123 5:-0.2730151 6:0.84011205 7:0.67526582 8:-1.110092 9:0.43904106 10:0 11:-0.86040723 12:-0.58670475 
-0.5892129761041924 1:1.590196 2:0.90916331 3:0.26405036 4:-0.36847829 5:1.0064008 6:2.6305624 7:0.033644325 8:-1.9055239 9:0.7338652 10:0 11:1.1622404 12:-0.58670475 
-4 1:1.8783936 2:0.445622 3:-2.1026183 4:-0.12448726 5:0.33952711 6:0.5699535 7:-0.32365007 8:-0.21782498 9:-0.44543138 10:0 11:1.1622404 12:-0.58670475 
4 1:-0.54614945 2:-0.091213301 3:-0.10452529 4:-0.050229123 5:-1.0133776 6:-0.36676253 7:-0.81406661 8:-0.0034042208 9:0.43904106 10:0 11:-0.86040723 12:1.7044348 
4 1:1.6273612 2:1.701969 3:0.80804135 4:-0.69733576 5:-1.0173957 6:0.50839312 7:0.6974377 8:-0.0068626202 9:0.43904106 10:0 11:-0.86040723 12:-0.58670475 
4 1:-0.028128805 2:0.63494269 3:-0.14258744 4:-0.050229123 5:-0.7318263 6:-0.075182629 7:0.31733535 8:0.003512578 9:0.43904106 10:0 11:-0.86040723 12:-0.58670475 
3.628394657248458 1:7.0065354 2:4.0143561 3:0.11733487 4:0.28923665 5:-1.0204224 6:-3.1968761 7:-4.4339895 8:0.68827565 9:0.43904106 10:0 11:1.1622404 12:-0.58670475 
1.82157146900278 1:3.0426348 2:1.8064468 3:0.16319148 4:0.33166988 5:-1.0045947 6:1.3835488 7:-2.1802724 8:-0.044905013 9:0.43904106 10:0 11:-0.86040723 12:1.7044348 
3.941199121005939 1:-0.9364172 2:-0.6853365 3:-0.1280769 4:0.91512668 5:-1.0088494 6:0.25778415 7:0.55322961 8:-0.1279066 9:-0.15060724 10:0 11:1.1622404 12:-0.58670475 
1.088730819461929 1:1.1929978 2:1.6325235 3:-0.023261772 4:1.3818921 5:-0.99576836 6:-0.99026933 7:0.042640293 8:0.94419721 9:0.85179486 10:0 11:1.1622404 12:-0.58670475 
-4 1:-1.6595238 2:-1.7032806 3:-0.041088368 4:-0.050229123 5:-0.99587308 6:-0.94992233 7:-2.0717756 8:-0.031071416 9:0.43904106 10:0 11:1.1622404 12:1.7044348 
4 1:-1.4343698 2:-0.86682465 3:-0.053775752 4:-0.050229123 5:-0.92666738 6:-0.65834243 7:-3.0735084 8:0.003512578 9:0.43904106 10:0 11:1.1622404 12:1.7044348 
0.0970339104001606 1:-0.12160783 2:0.27656017 3:0.16319148 4:0.33166988 5:-1.0204224 6:-2.3649791 7:-1.5620041 8:0.32860212 9:0.43904106 10:0 11:-0.86040723 12:1.7044348 
1.139617657678182 1:0.49144862 2:0.15635244 3:0.29524635 4:-0.35786998 5:1.6517865 6:1.6948862 7:0.67971837 8:1.7880467 9:0.7338652 10:0 11:1.1622404 12:-0.58670475 
2.373951628365044 1:0.76314773 2:1.9779213 3:0.16825346 4:-0.050229123 5:-0.87612436 6:0.17563432 7:-0.33155562 8:0.10034776 9:0.43904106 10:0 11:-0.86040723 12:-0.58670475 
-4 1:1.2458657 2:1.1184358 3:0.24073204 4:-0.35786998 5:-0.31843083 6:0.21681322 7:0.57004026 8:-0.017237818 9:0.7338652 10:0 11:-0.86040723 12:1.7044348 
-4 1:-0.70322071 2:-0.82851689 3:-0.091837903 4:-0.050229123 5:-0.91275641 6:-0.65834243 7:-2.0684135 8:-0.037988215 9:0.43904106 10:0 11:1.1622404 12:1.7044348 
-4 1:-0.54799952 2:-0.5391628 3:-0.07915052 4:-0.050229123 5:-0.86375606 6:-0.65834243 7:-0.94037363 8:-0.024154617 9:0.43904106 10:0 11:1.1622404 12:1.7044348 
4 1:-0.032500428 2:-0.65723426 3:0.33654607 4:-0.5806444 5:0.81663397 6:1.4033063 7:0.55232093 8:1.7776715 9:0.61593555 10:0 11:1.1622404 12:-0.58670475 
-4 1:-0.48787212 2:-0.76615804 3:-0.10452529 4:-0.050229123 5:-0.92572535 6:-0.36676253 7:-2.9450205 8:-0.0034042208 9:0.43904106 10:0 11:1.1622404 12:1.7044348 
-4 1:0.0799155 2:0.55982533 3:-0.14258744 4:-0.050229123 5:-1.0107571 6:-0.74194808 7:0.027101803 8:0.065763767 9:0.43904106 10:0 11:-0.86040723 12:1.7044348 
4 1:1.6882234 2:1.9039155 3:0.18728454 4:-0.050229123 5:-1.0063328 6:0.50839312 7:0.6974377 8:-0.0068626202 9:0.43904106 10:0 11:-0.86040723 12:1.7044348 
-0.9669977693422301 1:0.28668904 2:0.86812961 3:0.37782389 4:0.20437021 5:-0.75738888 6:1.6950942 7:0.42292438 8:0.069222166 9:0.91075969 10:0 11:1.1622404 12:-0.58670475 
4 1:1.1509218 2:1.4470898 3:0.18728454 4:-0.050229123 5:-1.0175394 6:0.50839312 7:0.6974377 8:-0.0068626202 9:0.43904106 10:0 11:-0.86040723 12:-0.58670475 
4 1:0.058609996 2:-0.14338755 3:-0.016311016 4:-0.5806444 5:-0.44893498 6:-0.074974655 7:0.14904714 8:0.15222375 9:0.61593555 10:0 11:-0.86040723 12:-0.58670475 
-3.460588156816845 1:-0.078448191 2:0.34155325 3:-0.22718554 4:-0.7609856 5:0.4645899 6:0.46638232 7:0.67708319 8:0.11072296 9:-0.32750172 10:0 11:-0.86040723 12:-0.58670475 
-1.718357709929567 1:-0.23903721 2:0.25871151 3:-0.15527482 4:-0.050229123 5:-0.86785229 6:-0.075182629 7:-0.81070448 8:-0.01032102 9:0.43904106 10:0 11:-0.86040723 12:1.7044348 
-0.9342673513746118 1:3.0728418 2:0.99452529 3:0.29182029 4:-0.5700361 5:-0.89698296 6:-2.697322 7:-4.1322157 8:0.4323541 9:0.43904106 10:0 11:1.1622404 12:-0.58670475 
3.543480171812468 1:1.9318691 2:1.4067304 3:0.16862104 4:0.24680343 5:-1.0204224 6:0.50839312 7:0.57340239 8:-0.024154617 9:-0.15060724 10:0 11:-0.86040723 12:1.7044348 
-1.259467759835062 1:-1.4608259 2:-0.69740382 3:-0.066463136 4:-0.050229123 5:-0.99712912 6:-0.65834243 7:-1.9454686 8:-0.01032102 9:0.43904106 10:0 11:1.1622404 12:1.7044348 
-0.3563983256746609 1:0.024120466 2:0.036070063 3:2.194769 4:-0.80341882 5:0.86232382 6:0.84032002 7:0.5489588 8:-0.96483925 9:0.026287253 10:0 11:-0.86040723 12:-0.58670475 
-0.3131420671831016 1:-0.72732795 2:-0.49711929 3:0.038373523 4:-0.44273643 5:1.1434866 6:0.82077045 7:0.54323409 8:1.2381612 9:0.67490038 10:0 11:-0.86040723 12:1.7044348 
-1.144093580372431 1:0.1614051 2:-1.1680905 3:-0.41555888 4:1.2439842 5:-1.0149899 6:-3.052958 7:-0.49484606 8:0.024262974 9:0.91075969 10:0 11:-0.86040723 12:1.7044348 
-3.935110599375456 1:2.3774668 2:2.9186627 3:0.20011519 4:-0.34726168 5:-1.0204224 6:-0.11615356 7:0.29943428 8:0.11418136 9:0.026287253 10:0 11:-0.86040723 12:1.7044348 
-4 1:0.97606863 2:1.5197263 3:0.14922239 4:-0.050229123 5:-0.79892949 6:0.79997302 7:0.69970941 8:5.417858e-05 9:0.43904106 10:0 11:-0.86040723 12:-0.58670475 
4 1:0.29622427 2:0.89187309 3:-0.03313415 4:0.33166988 5:-1.0045947 6:-1.7002934 7:-3.5276685 8:0.12109816 9:0.43904106 10:0 11:-0.86040723 12:1.7044348 
-0.9441532913729644 1:0.077325397 2:0.11690191 3:2.0459862 4:-0.050229123 5:2.6612297 6:-0.76191361 7:-0.14827413 8:1.4179979 9:0.43904106 10:0 11:-0.86040723 12:-0.58670475 
-4 1:1.1512932 2:0.81572053 3:-0.14258744 4:-0.050229123 5:-0.71528216 6:-0.74194808 7:0.027101803 8:0.065763767 9:0.43904106 10:0 11:-0.86040723 12:1.7044348 
-4 1:1.2535625 2:2.5097244 3:0.21502824 4:-0.13509557 5:-1.0204224 6:-0.11615356 7:0.29943428 8:0.11418136 9:0.43904106 10:0 11:-0.86040723 12:1.7044348 
4 1:1.3099321 2:-0.54791108 3:0.036630715 4:0.45896954 5:-0.032643028 6:0.21577335 7:0.27608111 8:-0.84033687 9:1.0286894 10:0 11:1.1622404 12:-0.58670475 
4 1:0.71363499 2:1.7590678 3:0.0396822 4:0.20437021 5:-0.5764327 6:-0.67830796 7:0.054907522 8:0.096889361 9:0.91075969 10:0 11:-0.86040723 12:1.7044348 
4 1:-0.72190645 2:-0.54111202 3:-0.12990005 4:-0.050229123 5:-1.0192136 6:0.25778415 7:0.55322961 8:-0.1279066 9:0.43904106 10:0 11:1.1622404 12:-0.58670475 
-3.623516538861866 1:-1.1565019 2:-1.2051186 3:-0.39633511 4:-0.050229123 5:-1.0204224 6:-1.2419182 7:0.29643562 8:5.417858e-05 9:0.43904106 10:0 11:-0.86040723 12:-0.58670475 
4 1:-0.056517712 2:-0.29518844 3:0.11116024 4:-0.050229123 5:1.0084524 6:1.1123503 7:0.67063153 8:1.2485364 9:0.43904106 10:0 11:-0.86040723 12:-0.58670475 
4 1:-1.6220663 2:-0.74391118 3:-0.085494211 4:-0.050229123 5:-1.0204224 6:0.81973057 7:0.67226716 8:-0.19707459 9:0.43904106 10:0 11:1.1622404 12:-0.58670475 
-2.093033648080715 1:-0.40646888 2:-0.71262705 3:1.2657122 4:-0.050229123 5:1.4086867 6:0.82077045 7:0.54323409 8:1.2381612 9:0.43904106 10:0 11:-0.86040723 12:-0.58670475 
2.612352782831888 1:0.48674671 2:-0.66077142 3:-0.30752343 4:-0.050229123 5:-0.62822829 6:-1.9494466 7:-0.13091828 8:0.17643255 9:0.43904106 10:0 11:1.1622404 12:-0.58670475 
-3.100680071558714 1:1.3933888 2:2.2194026 3:0.097478359 4:-0.40030321 5:-1.0204224 6:0.21681322 7:0.57004026 8:-0.017237818 9:0.43904106 10:0 11:-0.86040723 12:1.7044348 
4 1:1.0355225 2:1.0464423 3:0.12549267 4:0.24680343 5:-1.0204224 6:0.50839312 7:0.57231197 8:-0.01032102 9:-0.15060724 10:0 11:1.1622404 12:-0.58670475 
4 1:0.12458499 2:-0.56238868 3:-0.14995388 4:-0.35786998 5:-0.27616657 6:0.25778415 7:0.55322961 8:-0.1279066 9:0.7338652 10:0 11:-0.86040723 12:1.7044348 
-0.8359564698525481 1:-0.35186951 2:1.7103138 3:0.717558 4:-0.72916068 5:0.76373611 6:0.50839312 7:0.6974377 8:-0.0068626202 9:0.7338652 10:0 11:-0.86040723 12:-0.58670475 
-1.62827852426561 1:0.35133488 2:-1.1770547 3:2.2522513 4:-0.80341882 5:-0.35259071 6:0.54853215 7:0.54786838 8:-1.1204672 9:-0.0031951619 10:0 11:-0.86040723 12:-0.58670475 
