svm_type epsilon_svr
kernel_type rbf
gamma 0.53
nr_class 2
total_sv 2764
rho 0.111812
SV
-1.179673668202773 1:-0.87083941 2:0.60493074 3:-3.2163204 4:0.92573499 5:0.95930979 6:0.46846206 7:-3.3217608 8:4.0083391 9:0.7338652 10:0 11:-0.86040723 12:-0.58670475 
2.130159820668108 1:-0.033136918 2:-1.4504674 3:0.050991511 4:1.2439842 5:-0.9948225 6:0.21577335 7:0.27608111 8:-0.84033687 9:0.43904106 10:0 11:-0.86040723 12:1.7044348 
0.07716176385132682 1:0.14257068 2:-1.6738749 3:-0.68278077 4:-0.7609856 5:-0.83771343 6:-2.4286193 7:-0.49584561 8:-0.076030608 9:0.43904106 10:0 11:-0.86040723 12:1.7044348 
-0.5769852698764797 1:0.13449267 2:-0.69896642 3:-0.14258744 4:-0.050229123 5:0.37426815 6:0.17480242 7:0.54968574 8:0.10034776 9:0.43904106 10:0 11:-0.86040723 12:1.7044348 
2.799999999999997 1:-0.69933555 2:-1.0730068 3:-0.07915052 4:-0.050229123 5:-1.0114935 6:-0.65834243 7:-0.94037363 8:-0.024154617 9:0.43904106 10:0 11:1.1622404 12:1.7044348 
-0.08895510021318002 1:0.58521489 2:1.2995825 3:0.49533226 4:-0.46395304 5:-1.0158192 6:0.50839312 7:0.57231197 8:-0.01032102 9:1.0286894 10:0 11:1.1622404 12:-0.58670475 
1.961159586331857 1:0.93695693 2:-0.60468811 3:1.6199454 4:-0.80341882 5:1.3878035 6:1.4033063 7:0.55232093 8:1.7776715 9:-0.0031951619 10:0 11:-0.86040723 12:-0.58670475 
-0.9382484966454048 1:-0.039599262 2:-0.0061887575 3:2.6803554 4:-0.050229123 5:0.16276473 6:-0.70035323 7:0.16731168 8:0.10726456 9:0.43904106 10:0 11:1.1622404 12:-0.58670475 
-1.090241806874688 1:-0.30323477 2:-0.039760404 3:-0.11721267 4:-0.050229123 5:0.54692379 6:-0.36676253 7:0.19102833 8:-0.017237818 9:0.43904106 10:0 11:-0.86040723 12:1.7044348 
-2.799999999999997 1:-0.11404242 2:-0.49726801 3:-0.20966265 4:-0.7609856 5:-0.36077545 6:-0.034003727 7:0.55041269 8:-0.114073 9:-0.32750172 10:0 11:-0.86040723 12:-0.58670475 
-2.799999999999997 1:-0.79456335 2:-0.37724551 3:-0.054132493 4:0.29984496 5:-1.0204224 6:-0.65834243 7:0.1876662 8:0.003512578 9:0.43904106 10:0 11:1.1622404 12:-0.58670475 
1.281598937068477 1:0.20781274 2:0.8708775 3:0.42221734 4:-0.54881948 5:2.7052915 6:1.2159215 7:0.42174309 8:-0.01032102 9:0.67490038 10:0 11:-0.86040723 12:-0.58670475 
-2.799999999999997 1:-0.24902761 2:-0.1807001 3:-0.18064959 4:-0.050229123 5:2.7991576 6:-0.36593063 7:0.024739226 8:1.3592051 9:0.43904106 10:0 11:-0.86040723 12:-0.58670475 
2.67199332252499 1:0.32080718 2:0.41364193 3:0.15531512 4:-0.34726168 5:1.1942995 6:0.50839312 7:0.57340239 8:-0.024154617 9:0.026287253 10:0 11:-0.86040723 12:-0.58670475 
0.7298541635624469 1:-0.71101244 2:-0.087245072 3:1.3291794 4:0.91512668 5:1.1636751 6:0.17480242 7:0.54968574 8:0.10034776 9:-0.15060724 10:0 11:1.1622404 12:-0.58670475 
0.1800636599506941 1:-0.41188656 2:-0.1261578 3:-0.010468667 4:0.087678849 5:-1.0204224 6:-0.65834243 7:0.1876662 8:0.003512578 9:-0.44543138 10:0 11:-0.86040723 12:1.7044348 
0.594820040582126 1:-0.21746986 2:-1.1690154 3:0.07724726 4:2.8988798 5:0.48832528 6:2.0083034 7:-0.23259997 8:2.4797265 9:0.67490038 10:0 11:-0.86040723 12:1.7044348 
2.11194827487333 1:-0.81630915 2:-0.63856433 3:-0.045646243 4:0.91512668 5:0.61643999 6:0.82077045 7:0.54323409 8:1.2381612 9:-0.15060724 10:0 11:1.1622404 12:-0.58670475 
2.799999999999997 1:-0.18446003 2:0.26897309 3:-0.072806828 4:-0.050229123 5:0.17159352 6:-0.074974655 7:0.40784023 8:-0.017237818 9:0.43904106 10:0 11:-0.86040723 12:-0.58670475 
1.338972623878047 1:0.11519407 2:0.24576332 3:-0.12938865 4:0.20437021 5:-0.50399961 6:-0.99110123 7:0.40602287 8:0.096889361 9:0.43904106 10:0 11:-0.86040723 12:-0.58670475 
2.799999999999997 1:-0.065315287 2:-0.50597778 3:-0.066463136 4:-0.050229123 5:-1.0204224 6:-0.65834243 7:0.1876662 8:-0.01032102 9:0.43904106 10:0 11:1.1622404 12:-0.58670475 
1.35883711226813 1:-0.26967326 2:-0.010827336 3:-0.40882612 4:0.087678849 5:0.86247956 6:0.88357867 7:0.56949505 8:-0.093322605 9:-0.44543138 10:0 11:-0.86040723 12:-0.58670475 
-1.820306003716463 1:1.7027675 2:0.40577567 3:-0.18985462 4:-0.3896949 5:-0.99954893 6:-0.075182629 7:0.31733535 8:0.003512578 9:0.43904106 10:0 11:1.1622404 12:-0.58670475 
-2.799999999999997 1:0.47730982 2:0.55459232 3:-0.12441597 4:0.20437021 5:-0.97662537 6:-0.075182629 7:0.31733535 8:0.003512578 9:0.91075969 10:0 11:-0.86040723 12:-0.58670475 
1.983727642994172 1:0.15677943 2:-0.025335065 3:-0.10690839 4:2.9094881 5:0.71110086 6:-0.8459352 7:-0.47912583 8:-0.082947406 9:0.7338652 10:0 11:1.1622404 12:-0.58670475 
-2.799999999999997 1:-0.59479492 2:-0.27218445 3:0.11116024 4:-0.050229123 5:1.763804 6:1.1123503 7:0.67063153 8:1.2485364 9:0.43904106 10:0 11:-0.86040723 12:-0.58670475 
-0.05432071687104398 1:0.25024588 2:-0.28347965 3:-0.74074958 4:0.15132868 5:1.8254443 6:1.0073233 7:0.55904519 8:0.50498049 9:-0.44543138 10:0 11:-0.86040723 12:-0.58670475 
-2.799999999999997 1:0.58243462 2:-0.0099666183 3:-0.12938865 4:0.20437021 5:-0.28046448 6:-0.99110123 7:0.40602287 8:0.096889361 9:0.43904106 10:0 11:-0.86040723 12:-0.58670475 
-2.799999999999997 1:-0.47915353 2:-0.43121347 3:-0.14273865 4:2.4321144 5:-0.72132916 6:0.25778415 7:0.55322961 8:-0.1279066 9:0.14421691 10:0 11:1.1622404 12:-0.58670475 
-2.799999999999997 1:-0.84720952 2:0.76698813 3:-2.7026344 4:-0.13509557 5:1.4411993 6:1.8001212 7:-0.46822163 8:1.2727451 9:1.0286894 10:0 11:-0.86040723 12:-0.58670475 
-0.1184235972274566 1:-1.0930423 2:-2.1633744 3:-0.52222973 4:0.20437021 5:-0.82699769 6:-0.055425075 7:0.2898931 8:-0.19361619 9:0.91075969 10:0 11:-0.86040723 12:-0.58670475 
-1.254199853183988 1:0.21345936 2:1.511358 3:-0.64802355 4:-0.10327065 5:-0.55991723 6:-0.15837233 7:0.280988 8:0.32860212 9:0.55697072 10:0 11:-0.86040723 12:1.7044348 
2.248516087566656 1:-0.16930301 2:-1.4560159 3:0.29785121 4:-0.80341882 5:0.85878402 6:0.82077045 7:0.54323409 8:1.2381612 9:-0.0031951619 10:0 11:1.1622404 12:-0.58670475 
0.7199814579894777 1:0.7040272 2:0.17092144 3:-1.6743399 4:-0.9519351 5:2.9130441 6:0.92413365 7:0.29425478 8:0.003512578 9:1.0286894 10:0 11:-0.86040723 12:-0.58670475 
-2.799999999999997 1:0.39418718 2:-0.27842052 3:-0.15634239 4:-0.45334473 5:-0.26179878 6:0.25778415 7:0.55322961 8:-0.1279066 9:0.7338652 10:0 11:-0.86040723 12:-0.58670475 
-2.799999999999997 1:0.64609791 2:0.36219362 3:-0.022094625 4:0.91512668 5:0.20549678 6:0.50839312 7:0.57231197 8:-0.01032102 9:-0.15060724 10:0 11:1.1622404 12:-0.58670475 
-2.241283484480091 1:-0.39494046 2:-0.6265738 3:0.21870314 4:-0.54881948 5:1.205471 6:0.82077045 7:0.54323409 8:1.2381612 9:1.0286894 10:0 11:1.1622404 12:-0.58670475 
2.632535479401197 1:-0.30012397 2:-1.8382577 3:-0.017047088 4:1.2439842 5:-0.9948225 6:0.84032002 7:0.5489588 8:-0.96483925 9:0.43904106 10:0 11:-0.86040723 12:1.7044348 
-0.9908002482687496 1:1.0366728 2:-1.2250319 3:1.7383529 4:-0.36847829 5:1.0612299 6:3.1733752 7:-0.2144263 8:3.5587471 9:0.7338652 10:0 11:1.1622404 12:-0.58670475 
-2.799999999999997 1:-0.64332103 2:-0.173565 3:-0.042344764 4:-0.45334473 5:-0.52857421 6:0.44516895 7:-0.12319446 8:0.13839015 9:-0.44543138 10:0 11:-0.86040723 12:-0.58670475 
-2.799999999999997 1:-1.3636021 2:-1.1592153 3:-0.49477511 4:-0.21996201 5:-1.0199329 6:-1.2419182 7:0.17821589 8:0.017346175 9:0.43904106 10:0 11:1.1622404 12:-0.58670475 
2.799999999999997 1:-1.2555485 2:-0.14083174 3:0.22725365 4:0.53322768 5:0.71707091 6:1.0073233 7:0.55904519 8:0.50498049 9:0.91075969 10:0 11:1.1622404 12:-0.58670475 
-0.4185592359668814 1:-0.44513964 2:-1.0722106 3:-0.38544603 4:-0.79281051 5:1.795281 6:-0.92974883 7:-0.22442182 8:-2.7459149 9:0.43904106 10:0 11:-0.86040723 12:1.7044348 
2.799999999999997 1:0.042380886 2:-1.0456444 3:0.029121962 4:1.2439842 5:-0.9948225 6:0.50756122 7:0.40356942 8:-0.85417047 9:0.43904106 10:0 11:-0.86040723 12:1.7044348 
0.6059828015205168 1:-0.55040462 2:-0.72612659 3:2.1855475 4:-0.050229123 5:0.10932855 6:-0.74236403 7:-0.14254943 8:-0.78500248 9:0.43904106 10:0 11:-0.86040723 12:-0.58670475 
-2.799999999999997 1:0.30616605 2:0.53336069 3:0.27060276 4:-0.13509557 5:-0.5485752 6:-0.40773346 7:0.29716257 8:0.10726456 9:0.43904106 10:0 11:-0.86040723 12:1.7044348 
-2.799999999999997 1:-0.88896811 2:-0.061846165 3:-0.066463136 4:-0.050229123 5:-0.87128016 6:-0.34638105 7:0.15686182 8:-0.91642166 9:0.43904106 10:0 11:-0.86040723 12:-0.58670475 
2.799999999999997 1:0.11661135 2:0.13123228 3:-0.13933399 4:0.20437021 5:-1.0204224 6:0.63234577 7:0.31624493 8:-0.16940739 9:0.91075969 10:0 11:1.1622404 12:-0.58670475 
2.799999999999997 1:-0.5347434 2:-0.77932168 3:2.2522513 4:-0.80341882 5:0.294505 6:0.54853215 7:0.54786838 8:-1.1204672 9:-0.0031951619 10:0 11:1.1622404 12:-0.58670475 
-2.799999999999997 1:-0.70357311 2:-0.1897486 3:0.00061207358 4:-0.7609856 5:0.34353218 6:0.25757617 7:0.67781013 8:-0.1036978 9:-0.32750172 10:0 11:1.1622404 12:-0.58670475 
2.799999999999997 1:-1.675371 2:-0.58590858 3:0.55903258 4:0.53322768 5:0.13617982 6:2.3814092 7:-0.20097778 8:1.0133652 9:0.91075969 10:0 11:1.1622404 12:-0.58670475 
2.799999999999997 1:-0.026278731 2:-0.070674026 3:-0.15527482 4:-0.050229123 5:-0.016816192 6:-0.075182629 7:0.31842577 8:-0.01032102 9:0.43904106 10:0 11:1.1622404 12:-0.58670475 
-2.799999999999997 1:0.17434057 2:0.3372478 3:-0.1293144 4:-0.28361185 5:-0.14824091 6:-0.69952133 7:-0.26567605 8:-0.06565541 9:0.67490038 10:0 11:-0.86040723 12:-0.58670475 
-2.799999999999997 1:0.092013485 2:0.6999331 3:0.22710417 4:-0.45334473 5:-0.61301289 6:0.21681322 7:0.57004026 8:-0.017237818 9:-0.44543138 10:0 11:-0.86040723 12:-0.58670475 
2.597790579064489 1:-0.91435094 2:-0.3785596 3:-0.15123051 4:2.4321144 5:-0.96248603 6:0.17480242 7:0.54968574 8:0.10034776 9:0.49800589 10:0 11:1.1622404 12:-0.58670475 
-0.2463599061469404 1:0.011889176 2:-0.29494527 3:0.50381634 4:-0.72916068 5:0.15628615 6:1.4033063 7:0.55232093 8:1.7776715 9:0.7338652 10:0 11:-0.86040723 12:1.7044348 
-2.799999999999997 1:-0.20507116 2:0.10224764 3:1.5165658 4:0.20437021 5:1.0367359 6:0.17480242 7:0.54968574 8:0.10034776 9:0.91075969 10:0 11:-0.86040723 12:-0.58670475 
0.06394338693226589 1:0.87781916 2:0.41739653 3:-0.47188586 4:-0.34726168 5:0.91072761 6:-0.99130921 7:0.28771226 8:0.12109816 9:0.026287253 10:0 11:1.1622404 12:-0.58670475 
-2.799999999999997 1:-1.1564867 2:0.38704015 3:-1.0701327 4:-0.13509557 5:1.1252205 6:0.029428419 7:-0.58744092 8:0.010429377 9:1.0286894 10:0 11:1.1622404 12:-0.58670475 
1.174685783126203 1:0.3844153 2:-0.58449046 3:0.37462305 4:-0.36847829 5:1.0612299 6:3.756535 7:0.040368584 8:3.5794975 9:0.7338652 10:0 11:1.1622404 12:-0.58670475 
-2.799999999999997 1:0.5259359 2:1.1731316 3:-2.5005582 4:-0.9519351 5:1.6894126 6:-0.44891236 7:-2.5552861 8:0.30093492 9:1.0286894 10:0 11:1.1622404 12:-0.58670475 
1.501733162329848 1:-4.8290718 2:-3.0370964 3:-0.47352786 4:-0.90950187 5:-0.97498451 6:-2.3246321 7:-6.6107411 8:-0.017237818 9:0.43904106 10:0 11:-0.86040723 12:1.7044348 
-0.3278974247587865 1:0.23567316 2:-0.5687947 3:1.0386652 4:-0.44273643 5:1.1913875 6:1.4033063 7:0.55232093 8:1.7776715 9:0.67490038 10:0 11:1.1622404 12:-0.58670475 
-0.7751028933171363 1:-1.951219 2:0.97504443 3:-0.29289041 4:-0.53821118 5:0.40102716 6:-1.0123146 7:-3.8804194 8:0.9891564 9:-0.44543138 10:0 11:1.1622404 12:1.7044348 
-0.8356726865636307 1:-0.037431281 2:0.025918822 3:-0.74074958 4:0.15132868 5:2.2587491 6:1.0073233 7:0.55904519 8:0.50498049 9:-0.44543138 10:0 11:1.1622404 12:-0.58670475 
1.363252689806853 1:-0.10274245 2:-0.4055562 3:0.06756817 4:0.15132868 5:0.90956488 6:1.4033063 7:0.55232093 8:1.7776715 9:1.0286894 10:0 11:-0.86040723 12:-0.58670475 
-2.799999999999997 1:-1.8198326 2:-0.55132383 3:0.55903258 4:0.53322768 5:0.84691565 6:2.3814092 7:-0.20097778 8:1.0133652 9:0.91075969 10:0 11:1.1622404 12:-0.58670475 
-1.077520574562663 1:1.4938964 2:1.4823212 3:0.20388559 4:0.13011207 5:-0.9725593 6:0.50839312 7:0.57231197 8:-0.01032102 9:-0.15060724 10:0 11:1.1622404 12:-0.58670475 
2.589673390172222 1:-0.53078338 2:-0.55395891 3:0.21870314 4:-0.54881948 5:-0.18516242 6:0.82077045 7:0.54323409 8:1.2381612 9:1.0286894 10:0 11:1.1622404 12:-0.58670475 
-2.055780293123165 1:-0.43255492 2:-0.019929935 3:2.0459862 4:-0.050229123 5:2.7991576 6:-0.76191361 7:-0.14827413 8:1.4179979 9:0.43904106 10:0 11:-0.86040723 12:-0.58670475 
-2.799999999999997 1:-0.32721496 2:-0.071510705 3:0.0048734964 4:0.20437021 5:0.088749906 6:-0.65834243 7:0.1876662 8:0.003512578 9:0.55697072 10:0 11:-0.86040723 12:-0.58670475 
2.799999999999997 1:-0.55156283 2:-0.66724991 3:-0.25781157 4:-0.80341882 5:0.68029635 6:0.17480242 7:0.54968574 8:0.10034776 9:-0.0031951619 10:0 11:-0.86040723 12:1.7044348 
-2.799999999999997 1:-1.5888345 2:-0.34454485 3:-0.45724226 4:-0.47456135 5:1.2518074 6:1.1485379 7:-5.5618476 8:-5.4330912 9:0.43904106 10:0 11:-0.86040723 12:-0.58670475 
2.369833681802362 1:0.56164148 2:0.38195239 3:-0.022753816 4:-0.35786998 5:-0.34798427 6:-0.074974655 7:0.40784023 8:-0.017237818 9:0.7338652 10:0 11:-0.86040723 12:1.7044348 
-2.799999999999997 1:-0.26333603 2:-0.82687362 3:0.26654893 4:0.29984496 5:-1.0204224 6:-0.95033828 7:0.30561333 8:0.010429377 9:0.43904106 10:0 11:1.1622404 12:-0.58670475 
-2.799999999999997 1:-0.50549131 2:0.13156951 3:-0.032696747 4:-0.54881948 5:1.205471 6:-0.36593063 7:0.024739226 8:1.3592051 9:1.0286894 10:0 11:1.1622404 12:-0.58670475 
0.5698081084943194 1:-0.23977349 2:-0.72982308 3:-1.2554022 4:2.8458383 5:-0.95556504 6:1.4033063 7:0.55232093 8:1.7776715 9:0.43904106 10:0 11:1.1622404 12:-0.58670475 
-2.799999999999997 1:0.69206956 2:1.2063816 3:0.069558912 4:0.29984496 5:-1.0204224 6:0.50839312 7:0.57231197 8:-0.01032102 9:0.43904106 10:0 11:-0.86040723 12:1.7044348 
0.4744155950627972 1:-1.0661921 2:0.34892322 3:-0.10452529 4:-0.050229123 5:-0.66936892 6:0.46638232 7:0.67708319 8:0.11072296 9:0.43904106 10:0 11:-0.86040723 12:-0.58670475 
2.20062317442255 1:1.1485039 2:1.0711195 3:-2.6133292 4:-0.34726168 5:1.1591064 6:-0.67830796 7:0.053817101 8:0.11072296 9:0.026287253 10:0 11:1.1622404 12:-0.58670475 
1.010612194828941 1:-1.2335144 2:-1.1434679 3:2.5588239 4:-0.80341882 5:0.74227723 6:-0.42957075 7:-0.0030664923 8:1.3280795 9:-0.0031951619 10:0 11:-0.86040723 12:-0.58670475 
2.799999999999997 1:-0.096724009 2:0.21071627 3:0.27695623 4:-0.82463543 5:0.22220633 6:0.21681322 7:0.57004026 8:-0.017237818 9:0.43904106 10:0 11:-0.86040723 12:-0.58670475 
2.799999999999997 1:-0.77204345 2:-0.46369104 3:-0.14258744 4:-0.050229123 5:-0.013318331 6:-0.34638105 7:0.030463933 8:-0.84379527 9:0.43904106 10:0 11:-0.86040723 12:1.7044348 
0.707753677064055 1:-0.87642122 2:-1.4672896 3:-0.0024547081 4:-0.44273643 5:-0.94053339 6:0.84032002 7:0.5489588 8:-0.96483925 9:0.67490038 10:0 11:1.1622404 12:-0.58670475 
-2.799999999999997 1:0.22059406 2:0.30954693 3:-1.6536652 4:-0.13509557 5:0.92232299 6:-0.075182629 7:0.68798739 8:0.0069709773 9:1.0286894 10:0 11:1.1622404 12:-0.58670475 
1.790518580435266 1:-0.2834522 2:0.75290478 3:0.03019918 4:-0.45334473 5:-0.98804873 6:-0.074974655 7:0.40784023 8:-0.017237818 9:-0.44543138 10:0 11:-0.86040723 12:1.7044348 
1.045440345021658 1:-0.23700213 2:-0.49892194 3:2.1221106 4:-0.050229123 5:1.5055962 6:-0.7627455 7:-0.14745632 8:0.055388569 9:0.43904106 10:0 11:-0.86040723 12:-0.58670475 
2.799999999999997 1:0.41163372 2:-0.72883294 3:-0.12990005 4:-0.050229123 5:0.9531989 6:-0.76191361 7:-0.14827413 8:1.4179979 9:0.43904106 10:0 11:1.1622404 12:-0.58670475 
-2.799999999999997 1:-0.69014543 2:0.52894266 3:-2.6331662 4:-0.13509557 5:1.7694443 6:0.32100832 7:0.18021499 8:0.020804575 9:0.43904106 10:0 11:-0.86040723 12:-0.58670475 
0.9965985223045888 1:-0.34910345 2:0.18401879 3:-1.2514071 4:-0.34726168 5:0.91072761 6:-2.1368314 7:-0.21279067 8:-1.7844799 9:0.026287253 10:0 11:1.1622404 12:-0.58670475 
2.350450763207629 1:-0.65894622 2:-0.65734015 3:-0.36461665 4:-0.050229123 5:1.4086867 6:1.1123503 7:0.67063153 8:1.2485364 9:0.43904106 10:0 11:-0.86040723 12:-0.58670475 
2.799999999999997 1:-0.55336473 2:-1.0116789 3:-0.12355636 4:-0.050229123 5:-0.074862567 6:0.52815067 7:0.54486972 8:-0.20744978 9:0.43904106 10:0 11:1.1622404 12:-0.58670475 
2.799999999999997 1:0.27232317 2:0.24780555 3:-0.072806828 4:-0.050229123 5:-0.83030518 6:-0.074974655 7:0.40784023 8:-0.017237818 9:0.43904106 10:0 11:-0.86040723 12:-0.58670475 
2.783084460796396 1:-1.2645532 2:-1.6370049 3:-0.54212042 4:0.20437021 5:-1.0204224 6:-0.3257916 7:0.29825299 8:-0.114073 9:0.91075969 10:0 11:-0.86040723 12:1.7044348 
0.5579979394382056 1:-0.35004886 2:-1.0160974 3:0.85377139 4:-0.36847829 5:1.4781001 6:3.1733752 7:-0.2144263 8:3.5587471 9:0.7338652 10:0 11:-0.86040723 12:-0.58670475 
2.799999999999997 1:0.68421298 2:0.55987366 3:-0.066463136 4:-0.050229123 5:-0.034856357 6:-0.075182629 7:0.68798739 8:0.0069709773 9:0.43904106 10:0 11:1.1622404 12:-0.58670475 
-2.799999999999997 1:0.38081393 2:0.49249852 3:-0.94643061 4:-0.46395304 5:0.83064203 6:0.50839312 7:0.57231197 8:-0.01032102 9:1.0286894 10:0 11:1.1622404 12:-0.58670475 
2.799999999999997 1:0.75648746 2:0.16627671 3:-0.14258744 4:-0.050229123 5:-0.16638459 6:-0.075182629 7:0.31733535 8:0.003512578 9:0.43904106 10:0 11:-0.86040723 12:1.7044348 
2.799999999999997 1:-0.60054161 2:-0.068612044 3:-0.23139912 4:-0.050229123 5:0.10424321 6:-0.36676253 7:0.18993791 8:0.010429377 9:0.43904106 10:0 11:-0.86040723 12:-0.58670475 
-2.799999999999997 1:-1.1389131 2:-0.34201798 3:-0.07915052 4:-0.050229123 5:-0.21780271 6:-0.074974655 7:0.14904714 8:0.15222375 9:0.43904106 10:0 11:-0.86040723 12:-0.58670475 
-0.510798395559514 1:0.31327047 2:0.14272754 3:-2.0472423 4:3.7157194 5:0.95315066 6:-1.4498924 7:-0.67113068 8:-0.21090818 9:1.0286894 10:0 11:1.1622404 12:-0.58670475 
-1.857046894202115 1:-5.6735112 2:-5.9815601 3:-2.1159989 4:-0.89889357 5:0.025519706 6:-1.7420963 7:-3.4019975 8:0.63294126 9:1.3235135 10:0 11:1.1622404 12:1.7044348 
-2.375137279839903 1:-0.74210799 2:-0.36841289 3:-0.14273865 4:2.4321144 5:-0.84746966 6:0.25778415 7:0.55322961 8:-0.1279066 9:0.14421691 10:0 11:-0.86040723 12:-0.58670475 
-0.2942426389004951 1:0.84161259 2:0.43807756 3:-0.94643061 4:-0.46395304 5:-0.71522911 6:0.50839312 7:0.57231197 8:-0.01032102 9:1.0286894 10:0 11:-0.86040723 12:-0.58670475 
1.904109805699187 1:-0.68574798 2:-0.63480649 3:2.9830587 4:0.71356888 5:-0.83292445 6:0.29875507 7:-0.21824277 8:-0.22474178 9:0.7338652 10:0 11:-0.86040723 12:-0.58670475 
-2.799999999999997 1:0.15197403 2:0.017017007 3:0.49579565 4:-0.34726168 5:-0.23801019 6:-0.2005911 7:-0.7761745 8:0.54302288 9:0.43904106 10:0 11:-0.86040723 12:1.7044348 
1.411754111634832 1:1.0097515 2:-2.1274777 3:5.5898854 4:0.28923665 5:1.309095 6:4.3800418 7:-1.7809968 8:-0.48758013 9:0.43904106 10:0 11:-0.86040723 12:-0.58670475 
1.097130517837869 1:-0.33170593 2:0.30099892 3:-0.013262769 4:0.91512668 5:-0.91490968 6:0.88357867 7:0.56949505 8:-0.093322605 9:-0.15060724 10:0 11:1.1622404 12:-0.58670475 
-0.5679137970564716 1:0.28392195 2:1.9632608 3:-2.4594958 4:-0.13509557 5:0.54507295 6:0.61258822 7:-0.45086577 8:0.031179773 9:1.0286894 10:0 11:-0.86040723 12:-0.58670475 
1.506825256526237 1:-3.4368232 2:-2.7898303 3:-0.47352786 4:-0.90950187 5:-0.95680935 6:-1.4498924 7:-4.2205397 8:-0.06565541 9:0.43904106 10:0 11:-0.86040723 12:1.7044348 
1.261657861601633 1:0.8678619 2:0.71328191 3:-1.0116732 4:-0.050229123 5:-0.45325695 6:0.79997302 7:-0.42833042 8:-0.017237818 9:0.43904106 10:0 11:-0.86040723 12:1.7044348 
-2.799999999999997 1:0.18312133 2:1.5540795 3:-2.4594958 4:-0.13509557 5:0.41474127 6:0.61258822 7:-0.45086577 8:0.031179773 9:1.0286894 10:0 11:1.1622404 12:-0.58670475 
2.799999999999997 1:-0.40480381 2:-0.65291011 3:-0.10452529 4:-0.050229123 5:-0.86375606 6:-0.36676253 7:-0.81297619 8:-0.0034042208 9:0.43904106 10:0 11:1.1622404 12:1.7044348 
-0.55800127380003 1:-0.54149485 2:-0.24553997 3:-0.042596291 4:-0.5700361 5:-0.85761722 6:-0.28315688 7:-1.9482855 8:-0.06565541 9:0.43904106 10:0 11:1.1622404 12:-0.58670475 
-2.376650290753207 1:-0.98096645 2:-0.0057415431 3:0.087883564 4:0.29984496 5:1.0892979 6:-0.63900082 7:0.029010039 8:-2.3620326 9:0.43904106 10:0 11:1.1622404 12:-0.58670475 
0.8526025999541476 1:-0.75151757 2:0.10424229 3:-0.064272462 4:-0.26239523 5:1.5054886 6:-0.40586169 7:-1.2873999 8:4.4025966 9:0.7338652 10:0 11:1.1622404 12:-0.58670475 
1.050448638742446 1:-0.40938256 2:-0.66781495 3:-0.15264582 4:2.4321144 5:-1.0204224 6:-0.034003727 7:0.55041269 8:-0.114073 9:0.14421691 10:0 11:-0.86040723 12:1.7044348 
1.942029023480736 1:1.3054554 2:-0.79750724 3:-0.29613314 4:-0.80341882 5:-0.54405809 6:-0.034003727 7:0.55041269 8:-0.114073 9:-0.0031951619 10:0 11:-0.86040723 12:-0.58670475 
-1.931238110994463 1:-0.20242115 2:-0.14553364 3:1.5258035 4:-0.050229123 5:-0.0024305919 6:-0.65834243 7:0.55141224 8:-0.013779419 9:0.43904106 10:0 11:-0.86040723 12:-0.58670475 
2.799999999999997 1:-0.55801711 2:0.084195818 3:0.016233188 4:-0.26239523 5:1.0880989 6:-0.38631211 7:0.015834127 8:2.1995962 9:0.7338652 10:0 11:1.1622404 12:-0.58670475 
1.388308691529555 1:-1.7033024 2:-1.3627441 3:-0.010656129 4:0.15132868 5:-0.9350498 6:0.84032002 7:0.5489588 8:-0.96483925 9:1.0286894 10:0 11:-0.86040723 12:1.7044348 
1.512176100379624 1:-0.50382185 2:-0.2195852 3:-0.049825895 4:0.20437021 5:0.46441834 6:-0.34721295 7:0.030100459 8:-2.2064046 9:0.91075969 10:0 11:-0.86040723 12:1.7044348 
-0.0528814426953312 1:-0.12044748 2:-1.4811342 3:-0.085494211 4:-0.050229123 5:0.27217036 6:0.54853215 7:0.54786838 8:-1.1204672 9:0.43904106 10:0 11:-0.86040723 12:-0.58670475 
1.32713048235775 1:-1.0843826 2:-0.62432205 3:-0.042596291 4:-0.5700361 5:-0.85761722 6:-0.28315688 7:-1.9482855 8:-0.079489007 9:0.43904106 10:0 11:1.1622404 12:-0.58670475 
-2.799999999999997 1:-1.2938462 2:-0.62625091 3:0.8870392 4:-0.28361185 5:0.32484523 6:-1.2419182 7:0.17821589 8:0.003512578 9:0.67490038 10:0 11:-0.86040723 12:-0.58670475 
-0.7890735850050326 1:-0.33502431 2:-0.22984956 3:-0.12858555 4:2.4321144 5:-1.0180125 6:-0.94929841 7:-0.23014653 8:-0.54291452 9:0.14421691 10:0 11:-0.86040723 12:1.7044348 
1.366906706088773 1:-1.3048821 2:-0.21375931 3:-0.17706923 4:-0.45334473 5:0.74787333 6:0.34076587 7:0.18884748 8:-0.16249059 9:0.7338652 10:0 11:-0.86040723 12:-0.58670475 
2.799999999999997 1:-0.60831992 2:-0.025758299 3:-0.027189132 4:-0.69733576 5:-0.63564916 6:-0.034003727 7:-0.12437575 8:0.058846968 9:0.49800589 10:0 11:1.1622404 12:-0.58670475 
-2.799999999999997 1:-0.67570348 2:-0.3286135 3:-0.10169467 4:2.4321144 5:-1.0015948 6:0.0084230198 7:0.18712099 8:-0.072572208 9:0.14421691 10:0 11:-0.86040723 12:1.7044348 
1.840491793824752 1:0.26083951 2:0.83672097 3:-0.117945 4:-0.10327065 5:-1.003753 6:-0.15837233 7:0.280988 8:0.32860212 9:0.55697072 10:0 11:-0.86040723 12:1.7044348 
1.424658456552344 1:0.0022613225 2:-1.5273787 3:1.4253649 4:-0.17752879 5:0.32320033 6:1.8398443 7:-0.79707423 8:4.2365934 9:1.0286894 10:0 11:1.1622404 12:-0.58670475 
-0.09979967577444419 1:-1.2328956 2:-1.9084763 3:0.082755211 4:-0.79281051 5:2.3116323 6:0.52815067 7:0.16994687 8:1.7845883 9:0.43904106 10:0 11:-0.86040723 12:1.7044348 
-0.4619446674988802 1:-1.0803044 2:-1.4440414 3:2.3386933 4:0.71356888 5:-0.061087855 6:1.7994973 7:-1.7584615 8:0.4116037 9:0.7338652 10:0 11:-0.86040723 12:-0.58670475 
2.799999999999997 1:-0.058840029 2:-0.20943898 3:-0.11721267 4:-0.050229123 5:-0.86080746 6:-0.36676253 7:-0.81297619 8:-0.017237818 9:0.43904106 10:0 11:-0.86040723 12:1.7044348 
-0.958201157701749 1:-0.69508038 2:-0.18158611 3:-0.053775752 4:-0.050229123 5:-1.0063328 6:-0.65834243 7:0.1876662 8:0.003512578 9:0.43904106 10:0 11:-0.86040723 12:1.7044348 
2.401994736449932 1:-0.25012293 2:0.0013567485 3:-0.032696747 4:-0.54881948 5:-0.18516242 6:-0.36593063 7:0.024739226 8:1.3592051 9:1.0286894 10:0 11:1.1622404 12:-0.58670475 
0.6172203932902406 1:4.5274145 2:-0.61626074 3:4.5323848 4:-0.80341882 5:0.45006201 6:2.6717413 7:-0.86240858 8:-2.0265679 9:-0.0031951619 10:0 11:1.1622404 12:-0.58670475 
2.799999999999997 1:0.049992021 2:-0.31549676 3:-0.010468667 4:0.087678849 5:-0.84344165 6:-0.65834243 7:0.1876662 8:-0.01032102 9:-0.44543138 10:0 11:-0.86040723 12:-0.58670475 
0.2287855404561102 1:-0.12784778 2:-0.096964298 3:1.2657122 4:-0.050229123 5:4.0408189 6:0.82077045 7:0.54323409 8:1.2381612 9:0.43904106 10:0 11:-0.86040723 12:-0.58670475 
-0.4433175133705256 1:-0.267888 2:-1.1717553 3:-0.34322567 4:2.8458383 5:0.028580614 6:2.027853 7:-0.22687526 8:0.27672613 9:0.43904106 10:0 11:1.1622404 12:-0.58670475 
2.799999999999997 1:-0.7927413 2:-1.6514999 3:-0.59732606 4:-0.34726168 5:-0.89901536 6:-0.3257916 7:0.29825299 8:-0.114073 9:0.43904106 10:0 11:-0.86040723 12:1.7044348 
0.05605935227883736 1:-0.78441885 2:-0.18235557 3:0.4803986 4:0.92573499 5:0.93719307 6:-1.4910713 7:-1.0002559 8:0.18334935 9:0.7338652 10:0 11:-0.86040723 12:-0.58670475 
2.799999999999997 1:-0.11960734 2:-0.58671468 3:-0.096033429 4:2.4321144 5:-0.88221382 6:-0.65834243 7:0.1876662 8:-0.01032102 9:0.14421691 10:0 11:1.1622404 12:-0.58670475 
0.9956883338310537 1:0.79885415 2:-0.36304054 3:2.1221106 4:-0.050229123 5:1.5048771 6:-0.7627455 7:-0.14745632 8:0.055388569 9:0.43904106 10:0 11:1.1622404 12:-0.58670475 
2.799999999999997 1:0.45046771 2:0.32035116 3:-1.7481953 4:0.24680343 5:0.81897845 6:-0.90832748 7:0.32396874 8:-0.1071562 9:0.43904106 10:0 11:1.1622404 12:-0.58670475 
-1.437778737407233 1:-0.084009332 2:0.093322054 3:-2.7329593 4:-0.7609856 5:1.0440318 6:-0.074974655 7:0.40784023 8:-0.017237818 9:-0.32750172 10:0 11:-0.86040723 12:-0.58670475 
-2.799999999999997 1:0.67420359 2:-0.19791212 3:-0.17414269 4:0.20437021 5:-0.28046448 6:-1.2828891 7:0.27853456 8:0.11072296 9:0.43904106 10:0 11:-0.86040723 12:-0.58670475 
-2.224483977853656 1:-0.77281342 2:-0.14596213 3:-0.059725217 4:-0.34726168 5:0.086363741 6:-0.034003727 7:-0.12437575 8:0.058846968 9:0.026287253 10:0 11:-0.86040723 12:-0.58670475 
-1.816048435454806 1:1.010101 2:-0.054863794 3:0.66603592 4:-0.34726168 5:0.91072761 6:-1.9494466 7:-0.13091828 8:0.17643255 9:0.026287253 10:0 11:1.1622404 12:-0.58670475 
-2.799999999999997 1:0.50628645 2:0.1435253 3:-0.17970434 4:0.11950377 5:0.046192602 6:-0.38714401 7:0.14495807 8:0.90961321 9:0.14421691 10:0 11:-0.86040723 12:1.7044348 
0.9611240180841913 1:-0.12674676 2:-1.5180542 3:0.12021131 4:-0.79281051 5:1.3388643 6:1.4033063 7:0.55232093 8:1.7776715 9:0.43904106 10:0 11:-0.86040723 12:1.7044348 
0.4078367371921541 1:0.44179137 2:1.6413394 3:0.26451674 4:-0.10327065 5:-0.72740036 6:-0.67809998 7:0.1790337 8:0.18680774 9:0.43904106 10:0 11:-0.86040723 12:1.7044348 
1.282657071583692 1:0.2606677 2:-0.090359512 3:-0.23774282 4:-0.050229123 5:0.95010845 6:-0.34721295 7:0.030100459 8:-2.2064046 9:0.43904106 10:0 11:1.1622404 12:-0.58670475 
-0.4377989070700948 1:0.16975331 2:0.1452909 3:-0.13206589 4:-0.9519351 5:2.0443699 6:-0.15816436 7:-0.029145712 8:-0.6916257 9:1.0286894 10:0 11:-0.86040723 12:-0.58670475 
-2.799999999999997 1:-0.68620003 2:-0.88259559 3:-0.33289819 4:-0.050229123 5:-0.30897738 6:-0.6173715 7:0.17085555 8:-0.1071562 9:0.43904106 10:0 11:-0.86040723 12:1.7044348 
2.799999999999997 1:-0.74826187 2:-0.34502026 3:-0.028913055 4:-0.5806444 5:-1.0204224 6:-0.65834243 7:0.1876662 8:0.003512578 9:-0.15060724 10:0 11:1.1622404 12:-0.58670475 
-2.687935550629644 1:-0.59947938 2:1.7138891 3:5.5899684 4:-0.36847829 5:0.74871168 6:-0.98694175 7:-9.2536473 8:3.4134944 9:0.7338652 10:0 11:-0.86040723 12:-0.58670475 
2.799999999999997 1:-0.11495246 2:0.04990682 3:-0.097448738 4:2.4321144 5:-0.21248344 6:-0.15795638 7:0.40429637 8:0.21101654 9:0.49800589 10:0 11:1.1622404 12:-0.58670475 
2.799999999999997 1:-0.20352504 2:-0.43938017 3:-0.61173783 4:0.20437021 5:-0.50399961 6:-1.2419182 7:0.29643562 8:5.417858e-05 9:0.43904106 10:0 11:-0.86040723 12:-0.58670475 
-0.04616686633767694 1:-0.25369978 2:-1.0391933 3:1.4775687 4:-0.44273643 5:1.5104848 6:0.82077045 7:0.54323409 8:1.2381612 9:0.67490038 10:0 11:1.1622404 12:-0.58670475 
-0.3850947171857732 1:-0.075401638 2:-0.15830813 3:1.4910968 4:0.91512668 5:1.1938219 6:-0.034003727 7:0.55041269 8:-0.114073 9:-0.15060724 10:0 11:-0.86040723 12:-0.58670475 
-0.2723767618477647 1:-0.11378722 2:-0.097930852 3:-0.18064959 4:-0.050229123 5:2.6612297 6:-0.36593063 7:0.024739226 8:1.3592051 9:0.43904106 10:0 11:-0.86040723 12:-0.58670475 
1.045336059983016 1:1.5875632 2:-2.117309 3:-0.12368607 4:-0.80341882 5:-0.09316614 6:0.52815067 7:0.54486972 8:-0.20744978 9:-0.0031951619 10:0 11:-0.86040723 12:1.7044348 
2.799999999999997 1:-1.7492524 2:-1.3113912 3:-0.015713601 4:-0.050229123 5:-0.98843107 6:-0.94992233 7:-0.94373576 8:-0.0034042208 9:0.43904106 10:0 11:1.1622404 12:-0.58670475 
0.2711404186057227 1:-0.77608448 2:-0.92875756 3:-0.22888633 4:-0.45334473 5:-0.27310495 6:0.17480242 7:0.54968574 8:0.10034776 9:-0.44543138 10:0 11:-0.86040723 12:1.7044348 
-2.799999999999997 1:2.2945049 2:1.0581318 3:0.069558912 4:0.29984496 5:-1.0204224 6:0.50839312 7:0.57231197 8:-0.01032102 9:0.43904106 10:0 11:-0.86040723 12:1.7044348 
2.197030243432958 1:-1.3905231 2:-1.7085161 3:-0.091837903 4:-0.050229123 5:-0.92572535 6:-0.65834243 7:-3.072418 8:-0.037988215 9:0.43904106 10:0 11:1.1622404 12:1.7044348 
2.593090570900632 1:0.079028645 2:-0.71709459 3:-0.044853223 4:0.20437021 5:-0.82699769 6:-0.013414277 7:0.30824851 8:-0.31120177 9:0.91075969 10:0 11:-0.86040723 12:-0.58670475 
2.799999999999997 1:-0.33820116 2:-0.20011173 3:-0.10452529 4:-0.050229123 5:-0.86080746 6:-0.36676253 7:-0.81297619 8:-0.0034042208 9:0.43904106 10:0 11:-0.86040723 12:1.7044348 
2.799999999999997 1:1.021048 2:-0.015564332 3:-0.34558558 4:-0.050229123 5:-0.034856357 6:-1.033528 7:0.26926598 8:0.33551892 9:0.43904106 10:0 11:1.1622404 12:-0.58670475 
0.223987139133951 1:-2.6640411 2:-2.4325433 3:-0.64572906 4:-0.90950187 5:-0.94349961 6:-0.86673263 7:-2.9617403 8:-0.06565541 9:0.43904106 10:0 11:-0.86040723 12:1.7044348 
0.1777236852538321 1:0.084446159 2:-0.38697675 3:-0.26245017 4:-0.12448726 5:1.5012936 6:1.2571004 7:-1.5654571 8:0.28018453 9:0.67490038 10:0 11:-0.86040723 12:-0.58670475 
2.799999999999997 1:0.11968542 2:0.099589001 3:-0.027882146 4:-0.80341882 5:-0.22481992 6:-0.36676253 7:0.18993791 8:0.010429377 9:-0.0031951619 10:0 11:-0.86040723 12:1.7044348 
2.799999999999997 1:-0.41405418 2:0.073841923 3:-0.053775752 4:-0.050229123 5:-0.73386022 6:-0.65834243 7:0.1876662 8:0.003512578 9:0.43904106 10:0 11:-0.86040723 12:-0.58670475 
0.3018703552016956 1:-0.8222924 2:-0.30206493 3:-0.1513192 4:0.92573499 5:-0.88827075 6:-0.74153213 7:-1.4316989 8:-1.2622616 9:0.7338652 10:0 11:-0.86040723 12:1.7044348 
1.696133933758045 1:-0.87160139 2:-0.65074002 3:1.6102604 4:-0.44273643 5:1.8770968 6:0.84032002 7:0.5489588 8:-0.96483925 9:0.67490038 10:0 11:-0.86040723 12:-0.58670475 
-2.799999999999997 1:-0.59317362 2:0.2279785 3:2.1644246 4:-0.72916068 5:1.2154672 6:0.17480242 7:0.54968574 8:0.10034776 9:0.7338652 10:0 11:-0.86040723 12:-0.58670475 
-2.588309534366299 1:-1.8132153 2:0.22077408 3:3.8392341 4:-0.36847829 5:0.9426629 6:-3.359928 7:-11.599323 8:0.065763767 9:0.7338652 10:0 11:-0.86040723 12:-0.58670475 
-1.212282457636453 1:0.31808673 2:-0.47086165 3:0.083635007 4:-0.34726168 5:1.3799099 6:0.81993855 7:0.54405191 8:-0.1244482 9:0.026287253 10:0 11:1.1622404 12:-0.58670475 
0.3051273785643706 1:-0.66450386 2:-0.71350732 3:2.1779311 4:0.20437021 5:0.77174202 6:-0.70035323 7:0.16731168 8:0.10726456 9:0.91075969 10:0 11:-0.86040723 12:-0.58670475 
-0.2222725015474663 1:0.057211564 2:0.61183915 3:-1.745507 4:0.20437021 5:0.13535976 6:-1.2412943 7:-1.4896729 8:-2.6317877 9:0.91075969 10:0 11:1.1622404 12:1.7044348 
-2.799999999999997 1:-0.78397681 2:0.36662958 3:0.48945906 4:-0.80341882 5:0.069702594 6:0.21681322 7:0.57004026 8:-0.017237818 9:0.026287253 10:0 11:1.1622404 12:-0.58670475 
-2.799999999999997 1:-0.8077724 2:0.29648214 3:0.25461741 4:-0.54881948 5:-0.90306906 6:0.30000292 7:0.57149415 8:-0.34232736 9:0.43904106 10:0 11:1.1622404 12:-0.58670475 
-1.528053193922416 1:0.24512708 2:-0.4480973 3:0.136535 4:-0.050229123 5:0.25250263 6:1.4033063 7:0.55232093 8:1.7776715 9:0.43904106 10:0 11:-0.86040723 12:-0.58670475 
1.625664455199376 1:0.049346366 2:-0.55059258 3:-0.20497854 4:2.8988798 5:-0.84732831 6:0.88233082 7:-0.21260893 8:-0.25240898 9:0.67490038 10:0 11:-0.86040723 12:1.7044348 
2.799999999999997 1:-0.75446775 2:-0.080565097 3:-0.091837903 4:-0.050229123 5:-1.0133776 6:-0.36676253 7:-0.81406661 8:0.010429377 9:0.43904106 10:0 11:-0.86040723 12:1.7044348 
0.3475043518144446 1:0.69406309 2:0.47679253 3:0.23595524 4:-0.34726168 5:0.41172399 6:1.1123503 7:0.67063153 8:1.2485364 9:0.026287253 10:0 11:1.1622404 12:-0.58670475 
-2.799999999999997 1:-0.66233408 2:-0.50451184 3:-0.38364773 4:-0.050229123 5:-0.23528739 6:-0.3257916 7:0.29825299 8:-0.114073 9:0.43904106 10:0 11:-0.86040723 12:-0.58670475 
-2.799999999999997 1:1.1222673 2:0.96547165 3:0.37782389 4:0.20437021 5:-0.82059931 6:-0.11594558 7:0.42465088 8:0.093430962 9:0.91075969 10:0 11:-0.86040723 12:1.7044348 
-2.087563447909317 1:-0.063635185 2:-0.63428339 3:-0.26870121 4:2.4321144 5:-0.91372617 6:-1.2419182 7:0.17821589 8:0.003512578 9:0.14421691 10:0 11:1.1622404 12:-0.58670475 
-1.144701976559796 1:-0.37970851 2:-1.1428777 3:1.6068374 4:-0.34726168 5:0.51918306 6:0.54853215 7:0.54786838 8:-1.1204672 9:0.026287253 10:0 11:1.1622404 12:-0.58670475 
-1.119224728594319 1:1.9174071 2:1.0396663 3:0.51637989 4:-0.46395304 5:-0.82649941 6:0.21681322 7:0.57004026 8:-0.017237818 9:1.0286894 10:0 11:-0.86040723 12:1.7044348 
-2.799999999999997 1:1.4201334 2:0.57006421 3:-0.16200764 4:-0.80341882 5:0.91395368 6:-0.074974655 7:0.14904714 8:0.15222375 9:-0.0031951619 10:0 11:1.1622404 12:-0.58670475 
0.4894942434071973 1:-0.83319829 2:1.9546358 3:0.50877598 4:-0.7609856 5:-1.0204224 6:0.50839312 7:0.57231197 8:-0.01032102 9:-0.32750172 10:0 11:1.1622404 12:-0.58670475 
-2.799999999999997 1:-0.20832599 2:-0.15561802 3:-0.26311758 4:-0.050229123 5:2.9513116 6:-0.034003727 7:-0.12437575 8:0.058846968 9:0.43904106 10:0 11:-0.86040723 12:-0.58670475 
-1.380017860924932 1:0.24434884 2:-0.19073364 3:1.6817098 4:-0.44273643 5:0.3548084 6:0.54853215 7:0.54786838 8:-1.1204672 9:0.67490038 10:0 11:1.1622404 12:-0.58670475 
2.799999999999997 1:0.51522303 2:-1.0010784 3:-0.053489998 4:-0.44273643 5:0.37461175 6:0.54853215 7:0.54786838 8:-1.1204672 9:0.67490038 10:0 11:-0.86040723 12:1.7044348 
-0.1261846319271985 1:0.53743873 2:-0.39266542 3:2.0459862 4:-0.050229123 5:1.7618245 6:-0.76191361 7:-0.14827413 8:1.4179979 9:0.43904106 10:0 11:1.1622404 12:-0.58670475 
1.895552551012562 1:-0.79276427 2:-0.41072387 3:1.4052734 4:-0.050229123 5:0.51600731 6:0.84032002 7:0.5489588 8:-0.96483925 9:0.43904106 10:0 11:1.1622404 12:-0.58670475 
0.776693382738766 1:-0.79183924 2:-0.55588419 3:-0.37096034 4:-0.050229123 5:0.54681884 6:-0.4089813 7:0.26190565 8:0.21101654 9:0.43904106 10:0 11:-0.86040723 12:-0.58670475 
0.1018378593190661 1:2.8031494 2:0.89444586 3:-0.33445471 4:-0.80341882 5:0.91395368 6:-0.054593178 7:0.15795224 8:-0.76079368 9:-0.0031951619 10:0 11:1.1622404 12:-0.58670475 
-0.3786059495478341 1:0.10452148 2:-0.51338803 3:0.073098085 4:-0.050229123 5:2.2334383 6:0.82077045 7:0.54323409 8:1.2381612 9:0.43904106 10:0 11:1.1622404 12:-0.58670475 
2.799999999999997 1:0.59821379 2:0.80289051 3:-0.016721254 4:0.16193699 5:0.18109617 6:0.32100832 7:0.18021499 8:0.020804575 9:0.7338652 10:0 11:1.1622404 12:-0.58670475 
2.799999999999997 1:-1.512813 2:-0.64744908 3:-0.0030262174 4:-0.050229123 5:-0.98548247 6:-0.94992233 7:-0.94373576 8:0.010429377 9:0.43904106 10:0 11:1.1622404 12:1.7044348 
-2.799999999999997 1:0.49496346 2:0.60020331 3:-0.27462179 4:1.2439842 5:-1.0149899 6:-1.865425 7:0.024012279 8:0.94765561 9:0.91075969 10:0 11:-0.86040723 12:1.7044348 
-2.027558779318629 1:0.15617865 2:-0.87187115 3:0.068001161 4:1.2439842 5:-0.9948225 6:0.29875507 7:0.31233759 8:-1.0685912 9:0.43904106 10:0 11:-0.86040723 12:1.7044348 
-2.317802198223567 1:-0.93283803 2:-0.54936485 3:-0.20397873 4:0.20437021 5:0.14242058 6:1.1526973 7:0.1859397 8:-0.034529815 9:0.91075969 10:0 11:-0.86040723 12:-0.58670475 
-0.4067504083424477 1:-0.64327832 2:-0.26941366 3:1.988893 4:-0.050229123 5:1.0742408 6:-0.034003727 7:0.55041269 8:-0.114073 9:0.43904106 10:0 11:-0.86040723 12:-0.58670475 
-0.4455156744602433 1:-0.79886685 2:-0.62530981 3:-0.21905437 4:0.29984496 5:-0.18973093 6:-0.65834243 7:0.55141224 8:-0.013779419 9:0.43904106 10:0 11:1.1622404 12:-0.58670475 
-2.799999999999997 1:-0.13783702 2:0.076111035 3:-0.16704663 4:-0.13509557 5:-0.12271518 6:-0.075182629 7:0.31842577 8:-0.01032102 9:0.43904106 10:0 11:-0.86040723 12:-0.58670475 
0.708511962302891 1:2.501666 2:0.8829402 3:0.10574943 4:-0.7609856 5:-0.86637559 6:-0.075182629 7:0.68798739 8:0.0069709773 9:-0.32750172 10:0 11:1.1622404 12:-0.58670475 
-2.791772428129376 1:-0.090134684 2:-0.24883456 3:0.019166118 4:0.29984496 5:1.2035845 6:0.84032002 7:0.5489588 8:-0.96483925 9:0.43904106 10:0 11:1.1622404 12:-0.58670475 
1.977011981822214 1:0.11869328 2:-0.095830628 3:1.3984823 4:-0.10327065 5:-0.019110269 6:-0.65834243 7:0.55141224 8:-0.013779419 9:0.67490038 10:0 11:-0.86040723 12:-0.58670475 
-2.799999999999997 1:-0.90157783 2:-1.0343109 3:-0.49521121 4:-0.35786998 5:-0.34798427 6:-0.3257916 7:0.29825299 8:-0.114073 9:0.7338652 10:0 11:-0.86040723 12:1.7044348 
-0.4949171374683436 1:-0.19944563 2:0.05621842 3:2.6042311 4:-0.050229123 5:0.16276473 6:-1.4078816 7:-0.14182248 8:0.28018453 9:0.43904106 10:0 11:1.1622404 12:-0.58670475 
-0.2498570317426309 1:-1.9704446 2:-0.95740725 3:1.2592046 4:-0.36847829 5:1.4781001 6:3.756535 7:0.040368584 8:3.5794975 9:0.7338652 10:0 11:-0.86040723 12:-0.58670475 
-1.120974920901819 1:-0.23216381 2:0.9191146 3:-3.9044335 4:-0.13509557 5:1.2870888 6:1.2371349 7:-0.45822611 8:-0.093322605 9:1.0286894 10:0 11:-0.86040723 12:-0.58670475 
2.799999999999997 1:-0.071957684 2:-0.43777604 3:-0.059725217 4:-0.34726168 5:-0.8069115 6:-0.034003727 7:-0.12437575 8:0.058846968 9:0.026287253 10:0 11:-0.86040723 12:-0.58670475 
0.4974690783059395 1:-0.15600734 2:-0.54065481 3:2.7309334 4:-0.5806444 5:1.612939 6:-0.034835624 7:0.16658474 8:-0.95792245 9:-0.15060724 10:0 11:1.1622404 12:-0.58670475 
0.6559553987912256 1:-1.0571004 2:0.74415923 3:-0.89300652 4:-0.34726168 5:0.4117497 6:-0.40773346 7:0.29716257 8:0.10726456 9:0.026287253 10:0 11:-0.86040723 12:-0.58670475 
-0.8633031295334987 1:-0.39093036 2:-0.99932797 3:-0.85716646 4:-0.34726168 5:0.082173575 6:-1.3675346 7:-0.79071344 8:0.56377328 9:0.026287253 10:0 11:1.1622404 12:-0.58670475 
-0.6202472523479988 1:-1.276536 2:-2.4439389 3:0.082755211 4:-0.79281051 5:0.28247282 6:0.84032002 7:0.5489588 8:-0.96483925 9:0.43904106 10:0 11:-0.86040723 12:1.7044348 
1.974456425802031 1:0.17112413 2:-0.26000587 3:0.073098085 4:-0.050229123 5:0.95082471 6:0.82077045 7:0.54323409 8:1.2381612 9:0.43904106 10:0 11:-0.86040723 12:-0.58670475 
1.205225646047085 1:-0.61756229 2:-0.089473504 3:0.136535 4:-0.050229123 5:0.36783583 6:0.88357867 7:0.56949505 8:-0.093322605 9:0.43904106 10:0 11:-0.86040723 12:1.7044348 
2.799999999999997 1:-0.04204497 2:-0.08792793 3:-0.14995388 4:-0.35786998 5:-1.0204224 6:-0.075182629 7:0.31842577 8:-0.01032102 9:0.7338652 10:0 11:-0.86040723 12:1.7044348 
-2.505668319766972 1:-0.040248683 2:0.07924179 3:-0.10949796 4:0.20437021 5:0.26599569 6:-0.57556868 7:0.31379148 8:-0.21782498 9:0.91075969 10:0 11:-0.86040723 12:-0.58670475 
2.262592097257505 1:-0.87725155 2:-0.39450687 3:0.12327233 4:-0.7609856 5:1.9482262 6:0.81973057 7:0.67226716 8:-0.19707459 9:-0.32750172 10:0 11:-0.86040723 12:-0.58670475 
-2.799999999999997 1:-0.5010473 2:-0.52675152 3:-0.073435025 4:-0.45334473 5:-0.98258474 6:-0.034003727 7:-0.12437575 8:0.058846968 9:-0.44543138 10:0 11:-0.86040723 12:1.7044348 
2.227842791327345 1:-0.45857859 2:0.081852622 3:0.003217523 4:-0.54881948 5:0.9996574 6:0.21660525 7:0.033826062 8:1.8987154 9:1.0286894 10:0 11:1.1622404 12:-0.58670475 
1.66542424605988 1:-0.46435874 2:-0.25699713 3:-0.95224927 4:-0.36847829 5:1.9187218 6:2.1339199 7:-0.18007806 8:-0.18324099 9:0.7338652 10:0 11:-0.86040723 12:-0.58670475 
1.980133055080238 1:-0.40719511 2:-0.45868626 3:2.0213226 4:-0.40030321 5:2.4613528 6:-0.42957075 7:-0.0030664923 8:1.3280795 9:0.7338652 10:0 11:-0.86040723 12:-0.58670475 
2.799999999999997 1:-0.037805626 2:-0.0072620351 3:-0.98592141 4:-0.80341882 5:2.5091371 6:0.50839312 7:0.57340239 8:-0.024154617 9:-0.0031951619 10:0 11:-0.86040723 12:-0.58670475 
-2.799999999999997 1:-0.3712217 2:0.22662191 3:0.19362823 4:-0.050229123 5:0.16276473 6:0.46638232 7:0.67708319 8:0.11072296 9:0.43904106 10:0 11:1.1622404 12:-0.58670475 
1.281000029567981 1:-1.5989135 2:-1.1127429 3:-0.10452529 4:-0.45334473 5:-0.9924412 6:0.34076587 7:0.18884748 8:-0.17632419 9:-0.44543138 10:0 11:-0.86040723 12:-0.58670475 
-0.8161351786715261 1:-0.44255865 2:0.69660885 3:-2.3248174 4:-0.050229123 5:-0.17076508 6:0.50839312 7:0.6974377 8:-0.0068626202 9:0.43904106 10:0 11:-0.86040723 12:-0.58670475 
2.799999999999997 1:0.17288697 2:-0.14660638 3:0.42884221 4:3.7157194 5:0.16657196 6:-1.5318343 7:-1.0180661 8:2.0093842 9:1.0286894 10:0 11:-0.86040723 12:-0.58670475 
2.687732103089375 1:-1.1424054 2:-0.56704102 3:0.12749591 4:0.33166988 5:-1.0204224 6:-0.94992233 7:-0.94373576 8:-0.017237818 9:0.43904106 10:0 11:-0.86040723 12:1.7044348 
2.799999999999997 1:0.6339685 2:0.099520464 3:-0.077645245 4:-0.34726168 5:-0.74402984 6:-0.44995223 7:0.27871629 8:0.32168532 9:0.55697072 10:0 11:-0.86040723 12:-0.58670475 
-2.799999999999997 1:-1.4621403 2:-0.71252851 3:-0.18119794 4:0.24680343 5:-1.0204224 6:0.25778415 7:0.55322961 8:-0.1279066 9:0.67490038 10:0 11:1.1622404 12:-0.58670475 
-2.799999999999997 1:0.26941194 2:-1.5237129 3:-0.0024547081 4:-0.44273643 5:0.6160948 6:0.84032002 7:0.5489588 8:-0.96483925 9:0.67490038 10:0 11:1.1622404 12:-0.58670475 
2.799999999999997 1:0.16729 2:-1.5012492 3:-0.23878743 4:0.20437021 5:-0.98755078 6:-0.65834243 7:0.55141224 8:-0.013779419 9:0.91075969 10:0 11:-0.86040723 12:-0.58670475 
-2.799999999999997 1:-0.097461896 2:-0.15522158 3:0.29867534 4:-0.34726168 5:0.91072761 6:-1.6171037 7:0.014289365 8:0.086514163 9:0.026287253 10:0 11:1.1622404 12:-0.58670475 
-2.799999999999997 1:-0.12137252 2:0.13165797 3:0.035035934 4:-0.050229123 5:1.1971633 6:-0.65834243 7:0.1876662 8:0.003512578 9:0.43904106 10:0 11:-0.86040723 12:-0.58670475 
0.9482768440456051 1:0.10082133 2:-0.33567095 3:1.6970832 4:-0.050229123 5:2.1178619 6:0.154005 7:0.25191013 8:1.5770843 9:0.43904106 10:0 11:1.1622404 12:-0.58670475 
-2.799999999999997 1:-1.0216184 2:-0.95101151 3:-0.091837903 4:-0.050229123 5:-0.92572535 6:-0.65834243 7:-3.072418 8:-0.037988215 9:0.43904106 10:0 11:1.1622404 12:1.7044348 
-1.611865699872346 1:-0.065980655 2:0.093592601 3:-0.37667968 4:1.2439842 5:-1.0149899 6:-2.4284113 7:-0.22196837 8:-1.7948551 9:0.91075969 10:0 11:-0.86040723 12:1.7044348 
2.799999999999997 1:-0.36877889 2:-0.010626776 3:-0.10949796 4:0.20437021 5:-0.82059931 6:-0.65834243 7:0.1876662 8:0.003512578 9:0.91075969 10:0 11:-0.86040723 12:1.7044348 
-1.141267622875921 1:-1.4241376 2:0.5488984 3:-3.9533245 4:0.92573499 5:0.98142651 6:1.6335338 7:-0.98462652 8:1.9955506 9:0.7338652 10:0 11:-0.86040723 12:-0.58670475 
-1.970699610628419 1:-0.35875497 2:-0.34756169 3:-0.066334788 4:1.7213579 5:-0.57948593 6:0.44516895 7:-0.12319446 8:0.13839015 9:0.43904106 10:0 11:1.1622404 12:-0.58670475 
2.505996165701495 1:-0.45587353 2:-1.0802942 3:-0.20966265 4:-0.7609856 5:0.34353218 6:-0.034003727 7:0.55041269 8:-0.114073 9:-0.32750172 10:0 11:1.1622404 12:-0.58670475 
0.1974623167933637 1:0.11136675 2:0.017298507 3:-1.0941412 4:-0.050229123 5:1.1180147 6:1.8402602 7:-0.43350992 8:-0.1279066 9:0.43904106 10:0 11:-0.86040723 12:1.7044348 
2.799999999999997 1:-0.24421742 2:-0.3701286 3:-0.14258744 4:-0.050229123 5:-0.4291139 6:-0.075182629 7:0.31733535 8:0.003512578 9:0.43904106 10:0 11:-0.86040723 12:-0.58670475 
-0.3543935129458606 1:0.74671023 2:0.57614585 3:-3.7398855 4:-0.9519351 5:2.0443699 6:0.30062684 7:0.17130989 8:0.93382201 9:1.0286894 10:0 11:-0.86040723 12:-0.58670475 
0.927423700096609 1:-0.53376479 2:0.038034573 3:-0.03433442 4:0.92573499 5:0.032901206 6:-0.36676253 7:-0.9370115 8:-0.031071416 9:0.7338652 10:0 11:-0.86040723 12:-0.58670475 
0.242890625557763 1:-0.56452619 2:-0.23749097 3:2.613891 4:0.71356888 5:0.87292571 6:0.71636737 7:-0.21969666 8:0.20409974 9:0.7338652 10:0 11:-0.86040723 12:-0.58670475 
2.799999999999997 1:-0.18383616 2:-0.20699547 3:-0.20308544 4:-0.34726168 5:1.1942995 6:-0.075182629 7:0.31842577 8:-0.01032102 9:0.026287253 10:0 11:-0.86040723 12:-0.58670475 
-2.282915206277769 1:-0.9365156 2:1.1691349 3:-3.7544504 4:0.92573499 5:0.18225381 6:2.2171096 7:-3.3166721 8:2.1615538 9:0.7338652 10:0 11:-0.86040723 12:1.7044348 
0.8116825362258037 1:-0.32099037 2:-3.3352722 3:-0.31131758 4:11.067275 5:-0.76796706 6:0.88274677 7:-3.3137643 8:4.9905245 9:0.67490038 10:0 11:1.1622404 12:-0.58670475 
-1.961482574297938 1:0.87693861 2:0.81774833 3:0.055251475 4:-0.13509557 5:0.28069638 6:-0.075182629 7:0.68798739 8:0.0069709773 9:1.0286894 10:0 11:1.1622404 12:-0.58670475 
0.4535397398691469 1:0.36345567 2:-0.4577262 3:-0.24971432 4:0.45896954 5:-0.2840216 6:-0.034003727 7:0.55041269 8:-0.114073 9:1.0286894 10:0 11:-0.86040723 12:-0.58670475 
-1.000295218455577 1:-1.664149 2:-1.0756648 3:-0.028400985 4:-0.050229123 5:-0.89738143 6:-0.94992233 7:-2.0717756 8:-0.017237818 9:0.43904106 10:0 11:1.1622404 12:1.7044348 
0.1651051271273989 1:0.45383508 2:0.17990229 3:0.098857889 4:0.15132868 5:1.1317787 6:0.50839312 7:0.57231197 8:-0.01032102 9:1.0286894 10:0 11:-0.86040723 12:1.7044348 
2.799999999999997 1:-0.17322798 2:-0.19677712 3:0.041379626 4:-0.050229123 5:1.4729694 6:0.81973057 7:0.67226716 8:-0.19707459 9:0.43904106 10:0 11:1.1622404 12:-0.58670475 
-1.693829433892972 1:-0.17465464 2:-0.36821282 3:1.5211231 4:-0.40030321 5:0.54412406 6:0.54853215 7:0.54786838 8:-1.1204672 9:0.43904106 10:0 11:-0.86040723 12:-0.58670475 
-2.552176391246115 1:0.03677503 2:-0.59242161 3:0.079201755 4:-0.44273643 5:1.5927892 6:1.4033063 7:0.55232093 8:1.7776715 9:0.67490038 10:0 11:1.1622404 12:-0.58670475 
-2.799999999999997 1:-0.4194194 2:-0.15379768 3:-0.12990005 4:-0.050229123 5:-0.86301964 6:-0.36676253 7:-0.9370115 8:-0.031071416 9:0.43904106 10:0 11:-0.86040723 12:1.7044348 
-1.435034508635523 1:2.069913 2:-1.1522555 3:-0.33136198 4:-0.5806444 5:0.16848215 6:0.25674428 7:0.29398218 8:-0.95100565 9:-0.15060724 10:0 11:1.1622404 12:-0.58670475 
-0.5520370288112221 1:0.96388072 2:-0.85187528 3:-0.085494211 4:-0.050229123 5:-0.89842315 6:0.54853215 7:0.54786838 8:-1.1204672 9:0.43904106 10:0 11:-0.86040723 12:1.7044348 
0.03945037386092975 1:-1.4916921 2:-1.5744586 3:0.82731617 4:-0.34726168 5:0.74722096 6:-0.59699003 7:-0.99135078 8:-3.0260453 9:0.026287253 10:0 11:1.1622404 12:-0.58670475 
0.6590280458290187 1:-0.94761544 2:-1.2534624 3:1.6970832 4:-0.050229123 5:1.4086867 6:0.154005 7:0.25191013 8:1.5770843 9:0.43904106 10:0 11:-0.86040723 12:-0.58670475 
2.112848521093086 1:1.2134546 2:-0.0151159 3:0.91691631 4:-0.34726168 5:0.91072761 6:-2.7613781 7:-0.48566835 8:0.034638172 9:0.026287253 10:0 11:1.1622404 12:-0.58670475 
-1.010229521107639 1:0.17038411 2:0.56899149 3:-2.7752196 4:-0.050229123 5:-0.17076508 6:-0.11594558 7:0.42465088 8:0.093430962 9:0.43904106 10:0 11:-0.86040723 12:-0.58670475 
0.02985541181534027 1:-0.083403167 2:0.94154964 3:-0.022094625 4:0.91512668 5:0.65242783 6:0.50839312 7:0.57231197 8:-0.01032102 9:-0.15060724 10:0 11:1.1622404 12:-0.58670475 
-1.493203431347416 1:-0.034875939 2:0.38409456 3:-1.6536652 4:-0.13509557 5:0.0055229204 6:-0.075182629 7:0.68798739 8:0.0069709773 9:1.0286894 10:0 11:-0.86040723 12:-0.58670475 
2.799999999999997 1:0.50048059 2:0.097928271 3:-0.14043956 4:-0.54881948 5:-1.0136598 6:-0.075182629 7:0.31842577 8:-0.01032102 9:1.0286894 10:0 11:-0.86040723 12:1.7044348 
0.7714603114583373 1:-0.79118847 2:-0.43000384 3:-2.5567512 4:-0.13509557 5:1.0248031 6:1.236303 7:-0.59098478 8:-1.0962584 9:1.0286894 10:0 11:-0.86040723 12:-0.58670475 
-2.799999999999997 1:-0.66714427 2:-0.9961657 3:-0.38364773 4:-0.050229123 5:-0.30897738 6:-0.3257916 7:0.29825299 8:-0.114073 9:0.43904106 10:0 11:-0.86040723 12:1.7044348 
-0.3499525345655701 1:0.1454009 2:-0.33498439 3:-0.77952381 4:0.53322768 5:0.60162094 6:1.0073233 7:0.55904519 8:0.50498049 9:0.91075969 10:0 11:-0.86040723 12:-0.58670475 
0.8404252145142714 1:0.13845665 2:-0.72268032 3:0.10620822 4:0.29984496 5:-0.30365124 6:1.3400822 7:-0.88439872 8:0.56723168 9:-0.15060724 10:0 11:-0.86040723 12:1.7044348 
-2.302352318068027 1:-1.0622094 2:-1.9451715 3:3.5099883 4:-0.79281051 5:1.5573644 6:-0.034835624 7:0.16658474 8:-0.95792245 9:0.43904106 10:0 11:-0.86040723 12:-0.58670475 
-2.799999999999997 1:-0.022343622 2:0.15658418 3:-0.16704663 4:-0.13509557 5:-0.84750908 6:-0.075182629 7:0.31842577 8:-0.01032102 9:0.43904106 10:0 11:-0.86040723 12:-0.58670475 
-0.4883029063102021 1:-3.689385 2:-2.5623051 3:0.098554184 4:-0.47456135 5:1.1261918 6:-1.4166165 7:-6.4190997 8:-13.843919 9:0.43904106 10:0 11:1.1622404 12:1.7044348 
-2.799999999999997 1:-0.084388906 2:-0.16031973 3:-0.094618119 4:2.4321144 5:-0.98486413 6:-0.65834243 7:0.1876662 8:0.003512578 9:0.14421691 10:0 11:-0.86040723 12:1.7044348 
-0.7658284921989581 1:-0.42721004 2:-0.19267849 3:0.087883564 4:0.29984496 5:1.4773759 6:-0.63900082 7:0.029010039 8:-2.3620326 9:0.43904106 10:0 11:-0.86040723 12:-0.58670475 
-0.5381388873472457 1:-1.9953151 2:-1.382594 3:-0.022057293 4:-0.050229123 5:-0.21780271 6:1.1318999 7:0.67635624 8:-0.95446405 9:0.43904106 10:0 11:-0.86040723 12:-0.58670475 
2.799999999999997 1:0.37587614 2:-0.62331491 3:-0.61173783 4:0.20437021 5:-0.28046448 6:-1.2419182 7:0.29643562 8:5.417858e-05 9:0.43904106 10:0 11:-0.86040723 12:-0.58670475 
-2.799999999999997 1:-0.18455777 2:-0.14332343 3:-0.18564033 4:-0.1881371 5:-0.78375123 6:-0.69952133 7:-0.26567605 8:-0.06565541 9:1.0286894 10:0 11:1.1622404 12:-0.58670475 
2.799999999999997 1:-0.40073365 2:-1.6540508 3:-0.060119444 4:-0.050229123 5:-0.013318331 6:0.84032002 7:0.5489588 8:-0.96483925 9:0.43904106 10:0 11:-0.86040723 12:1.7044348 
2.799999999999997 1:-0.12753343 2:0.27564087 3:-0.063205742 4:0.16193699 5:1.8769045 6:-0.15816436 7:-0.029145712 8:-0.6916257 9:0.7338652 10:0 11:-0.86040723 12:-0.58670475 
-2.799999999999997 1:0.45263771 2:-1.0512529 3:-0.49521121 4:-0.35786998 5:-0.8027925 6:-0.3257916 7:0.29825299 8:-0.114073 9:0.7338652 10:0 11:-0.86040723 12:1.7044348 
1.223315055992578 1:0.61734663 2:0.4648239 3:0.16335005 4:2.8988798 5:-0.59797368 6:0.80038897 7:-0.17898764 8:-0.031071416 9:0.67490038 10:0 11:-0.86040723 12:1.7044348 
2.799999999999997 1:-0.6007735 2:-0.38319575 3:-0.12059242 4:1.3500672 5:-0.72540585 6:0.34076587 7:0.18884748 8:-0.17632419 9:0.91075969 10:0 11:-0.86040723 12:1.7044348 
-2.799999999999997 1:-0.19895485 2:-0.76447943 3:-0.095439568 4:-0.35786998 5:-0.83078502 6:0.44516895 7:-0.12319446 8:0.13839015 9:0.7338652 10:0 11:1.1622404 12:-0.58670475 
0.2575539820999593 1:-4.8104436 2:-5.5855174 3:-2.0202145 4:-0.89889357 5:0.025519706 6:-2.4496247 7:-3.7111317 8:0.79202764 9:1.3235135 10:0 11:1.1622404 12:1.7044348 
0.2082745429289988 1:0.15403714 2:0.27273517 3:-0.99577945 4:-0.45334473 5:0.74787333 6:1.2159215 7:0.57122155 8:-0.18324099 9:0.7338652 10:0 11:-0.86040723 12:-0.58670475 
2.799999999999997 1:-1.0195833 2:-0.39471129 3:0.48543805 4:-0.050229123 5:-0.65635894 6:-0.95033828 7:0.30561333 8:0.010429377 9:0.43904106 10:0 11:-0.86040723 12:-0.58670475 
2.799999999999997 1:-0.70717294 2:-0.3160823 3:-0.20976345 4:-0.46395304 5:-0.92789986 6:-0.34638105 7:0.030463933 8:-0.84379527 9:1.0286894 10:0 11:1.1622404 12:-0.58670475 
-2.799999999999997 1:-0.21999982 2:-0.070303434 3:0.010003791 4:0.29984496 5:0.29622307 6:-0.34721295 7:0.030100459 8:-2.2064046 9:0.43904106 10:0 11:1.1622404 12:-0.58670475 
2.799999999999997 1:0.23163709 2:0.18190341 3:-0.6833352 4:-0.46395304 5:-0.28481965 6:0.50839312 7:0.57340239 8:-0.024154617 9:1.0286894 10:0 11:-0.86040723 12:-0.58670475 
2.797370672902813 1:0.12903276 2:0.36801696 3:-0.094579943 4:0.20437021 5:-0.82059931 6:-1.6986296 7:-0.26685734 8:0.10034776 9:0.91075969 10:0 11:-0.86040723 12:1.7044348 
-2.799999999999997 1:-0.85788687 2:-0.5330413 3:-0.11721267 4:-0.050229123 5:-0.92425105 6:-0.36676253 7:-2.9450205 8:-0.017237818 9:0.43904106 10:0 11:1.1622404 12:1.7044348 
2.799999999999997 1:0.093421038 2:-1.067433 3:-0.36461665 4:-0.050229123 5:-0.83921219 6:-1.6166878 7:-0.14109553 8:0.065763767 9:0.43904106 10:0 11:1.1622404 12:-0.58670475 
2.799999999999997 1:-0.77019337 2:-0.20251201 3:0.32684576 4:-0.050229123 5:-0.65635894 6:-1.033528 7:0.26926598 8:0.33551892 9:0.43904106 10:0 11:-0.86040723 12:-0.58670475 
1.211771643228533 1:-2.2547084 2:1.9056172 3:1.7383529 4:-0.36847829 5:-0.10096028 6:6.2563855 7:-4.002183 8:3.4134944 9:0.7338652 10:0 11:1.1622404 12:-0.58670475 
0.9913269730720546 1:2.6553931 2:1.3687924 3:0.39521267 4:0.33166988 5:-1.0045947 6:0.80038897 7:-2.4350673 8:-0.058738611 9:0.43904106 10:0 11:-0.86040723 12:1.7044348 
0.3038051503022702 1:-0.52707536 2:-0.32691066 3:0.22725365 4:0.53322768 5:-0.43830186 6:1.0073233 7:0.55904519 8:0.50498049 9:0.91075969 10:0 11:1.1622404 12:-0.58670475 
1.53076823172607 1:-0.71056758 2:-0.44558152 3:-0.20497854 4:2.8988798 5:-0.97375368 6:0.88233082 7:-0.21260893 8:-0.25240898 9:0.67490038 10:0 11:-0.86040723 12:-0.58670475 
-0.4761719233639634 1:0.26233277 2:0.44330723 3:-2.7752196 4:-0.050229123 5:1.1971633 6:-0.11594558 7:0.42465088 8:0.093430962 9:0.43904106 10:0 11:-0.86040723 12:-0.58670475 
-2.799999999999997 1:-0.082816318 2:-0.17031234 3:0.010003791 4:0.29984496 5:0.41560993 6:-0.34721295 7:0.030100459 8:-2.2064046 9:0.43904106 10:0 11:1.1622404 12:-0.58670475 
1.457558172400755 1:1.3547 2:1.2158525 3:-0.10452529 4:-0.54881948 5:-0.9851431 6:-0.075182629 7:0.31733535 8:0.003512578 9:1.0286894 10:0 11:1.1622404 12:-0.58670475 
2.799999999999997 1:-0.4949024 2:-0.69553515 3:-0.35827296 4:-0.050229123 5:-0.73651469 6:-0.95033828 7:0.30561333 8:0.010429377 9:0.43904106 10:0 11:-0.86040723 12:-0.58670475 
-0.1189152132170179 1:1.4125712 2:-0.46684069 3:3.0283677 4:-0.36847829 5:-0.31446304 6:-0.94992233 7:-0.21624367 8:-0.024154617 9:0.7338652 10:0 11:-0.86040723 12:-0.58670475 
-2.799999999999997 1:-0.33576419 2:-0.094022329 3:-0.094618119 4:2.4321144 5:-1.0178961 6:-0.65834243 7:0.1876662 8:0.003512578 9:0.14421691 10:0 11:1.1622404 12:-0.58670475 
-2.799999999999997 1:0.23545308 2:0.50104213 3:-0.22100547 4:-0.34726168 5:-1.0204224 6:-0.075182629 7:0.31733535 8:0.003512578 9:0.026287253 10:0 11:-0.86040723 12:1.7044348 
1.941889695598345 1:-0.67663213 2:0.13213444 3:0.52629888 4:-0.7609856 5:0.1964632 6:0.25757617 7:0.67781013 8:-0.1036978 9:-0.32750172 10:0 11:1.1622404 12:-0.58670475 
0.7381262111486603 1:1.4855683 2:-0.294357 3:-1.3438526 4:-0.9519351 5:1.6497054 6:0.38277667 7:0.2861675 8:0.62948287 9:1.0286894 10:0 11:1.1622404 12:-0.58670475 
-0.1882625186309257 1:-1.7021334 2:-1.8807256 3:6.7325529 4:-0.36847829 5:0.79581965 6:5.2094431 7:-10.201223 8:0.14184855 9:0.7338652 10:0 11:1.1622404 12:-0.58670475 
2.799999999999997 1:0.13560272 2:-1.1984816 3:-0.37096034 4:-0.050229123 5:-0.816253 6:-0.4089813 7:0.26190565 8:0.21101654 9:0.43904106 10:0 11:-0.86040723 12:1.7044348 
-1.544381055627341 1:-1.4907468 2:-0.30389112 3:-2.3830808 4:-0.13509557 5:0.5101709 6:1.5278829 7:-0.46358734 8:-1.0858832 9:1.0286894 10:0 11:-0.86040723 12:-0.58670475 
2.799999999999997 1:0.13173999 2:-0.14922241 3:-0.079661927 4:0.20437021 5:-1.0204224 6:-0.36676253 7:0.19102833 8:-0.017237818 9:0.91075969 10:0 11:-0.86040723 12:1.7044348 
-0.6843903931419925 1:-0.61811731 2:-0.43670807 3:1.4052734 4:-0.050229123 5:0.10932855 6:0.84032002 7:0.5489588 8:-0.96483925 9:0.43904106 10:0 11:-0.86040723 12:-0.58670475 
1.116830765735312 1:0.58784756 2:0.8858806 3:0.25964856 4:0.51201107 5:-1.0204224 6:-0.032755882 7:0.42610477 8:-0.23165858 9:0.7338652 10:0 11:1.1622404 12:-0.58670475 
-2.799999999999997 1:-0.50618785 2:-0.28977573 3:-0.18699328 4:-0.050229123 5:2.9513116 6:0.67352468 7:0.18475841 8:-0.114073 9:0.43904106 10:0 11:-0.86040723 12:-0.58670475 
-1.12013735840363 1:-0.30378979 2:-0.075474578 3:1.2657122 4:-0.050229123 5:2.7991576 6:0.82077045 7:0.54323409 8:1.2381612 9:0.43904106 10:0 11:-0.86040723 12:-0.58670475 
-2.799999999999997 1:0.11644573 2:-0.59882956 3:-0.18743265 4:-0.45334473 5:0.15125033 6:-0.34638105 7:0.030463933 8:-0.84379527 9:0.7338652 10:0 11:1.1622404 12:-0.58670475 
-2.799999999999997 1:0.004247485 2:-0.099412902 3:-0.11721267 4:-0.050229123 5:-0.91275641 6:-0.36676253 7:-1.941016 8:-0.017237818 9:0.43904106 10:0 11:1.1622404 12:1.7044348 
-2.799999999999997 1:-0.22131837 2:-0.19063793 3:-0.23878743 4:0.20437021 5:-0.50399961 6:-0.65834243 7:0.55141224 8:-0.013779419 9:0.43904106 10:0 11:-0.86040723 12:-0.58670475 
0.7491290770137039 1:0.54628739 2:-0.34460851 3:2.194769 4:-0.80341882 5:0.76142374 6:0.84032002 7:0.5489588 8:-0.96483925 9:-0.0031951619 10:0 11:1.1622404 12:-0.58670475 
-0.595338823656793 1:-0.41013385 2:-0.62489322 3:1.2744048 4:0.29984496 5:-0.29367361 6:0.54853215 7:0.54786838 8:-1.1204672 9:0.43904106 10:0 11:1.1622404 12:-0.58670475 
-0.8211701484856422 1:-0.48311593 2:0.16727439 3:1.5391447 4:0.24680343 5:1.6540132 6:0.17480242 7:0.54968574 8:0.10034776 9:0.43904106 10:0 11:-0.86040723 12:-0.58670475 
0.3356063134532414 1:0.4006045 2:1.2036874 3:-0.027882146 4:-0.80341882 5:1.9972715 6:1.1115184 7:0.67144935 8:-0.114073 9:-0.0031951619 10:0 11:1.1622404 12:-0.58670475 
2.799999999999997 1:-1.3196653 2:-1.2405589 3:-0.015713601 4:-0.050229123 5:-0.98843107 6:-0.94992233 7:-0.94373576 8:-0.0034042208 9:0.43904106 10:0 11:1.1622404 12:-0.58670475 
-2.799999999999997 1:0.30548039 2:-0.12514536 3:-0.47250301 4:0.20437021 5:0.26599569 6:-1.2215367 7:0.031554353 8:-1.3556384 9:0.91075969 10:0 11:-0.86040723 12:-0.58670475 
-2.799999999999997 1:-0.54147861 2:0.066429407 3:-0.10452529 4:-0.26239523 5:-0.53401097 6:0.88191487 7:0.27580851 8:0.21793334 9:0.7338652 10:0 11:1.1622404 12:-0.58670475 
-2.799999999999997 1:-2.2343123 2:-1.2483922 3:0.89081152 4:0.53322768 5:0.43584156 6:3.7554951 7:-0.96100075 8:1.5217499 9:0.91075969 10:0 11:1.1622404 12:-0.58670475 
-0.6091948874344463 1:-0.089530277 2:1.1275353 3:0.17492566 4:0.29984496 5:0.19945765 6:0.79997302 7:0.70079983 8:-0.013779419 9:0.43904106 10:0 11:1.1622404 12:-0.58670475 
-2.799999999999997 1:-0.88859809 2:-1.06935 3:-0.38364773 4:-0.050229123 5:-0.83030518 6:-0.3257916 7:0.29825299 8:-0.114073 9:0.43904106 10:0 11:-0.86040723 12:-0.58670475 
2.799999999999997 1:-0.15799172 2:-0.10136212 3:-0.28849235 4:-0.050229123 5:1.5055962 6:1.1115184 7:0.67144935 8:-0.114073 9:0.43904106 10:0 11:-0.86040723 12:-0.58670475 
2.799999999999997 1:-1.1400921 2:-2.5458914 3:0.020524589 4:-0.40030321 5:-0.85308865 6:0.84032002 7:0.5489588 8:-0.96483925 9:0.43904106 10:0 11:-0.86040723 12:1.7044348 
0.3520041053739194 1:-0.74118232 2:-1.1398794 3:0.060396586 4:0.29984496 5:-0.51995982 6:1.7148518 7:-0.57117548 8:0.33206052 9:-0.15060724 10:0 11:-0.86040723 12:1.7044348 
2.265726402099901 1:-0.47511087 2:-0.69265749 3:2.0798042 4:-0.80341882 5:0.74227723 6:0.82077045 7:0.54323409 8:1.2381612 9:-0.0031951619 10:0 11:-0.86040723 12:-0.58670475 
-2.799999999999997 1:-0.10081217 2:0.37369612 3:-0.030716881 4:-0.10327065 5:-0.72740036 6:-0.44995223 7:0.27871629 8:0.32168532 9:0.55697072 10:0 11:-0.86040723 12:1.7044348 
0.5718252768671304 1:1.0702514 2:-0.87278965 3:1.9594983 4:-0.36847829 5:1.8217737 6:2.0083034 7:-0.23259997 8:2.4797265 9:0.7338652 10:0 11:1.1622404 12:-0.58670475 
2.799999999999997 1:-0.23903721 2:-0.10675871 3:0.035035934 4:-0.050229123 5:0.51600731 6:-0.34721295 7:0.030100459 8:-2.2064046 9:0.43904106 10:0 11:1.1622404 12:-0.58670475 
2.799999999999997 1:0.69932572 2:1.0806445 3:0.110826 4:-0.13509557 5:-0.12271518 6:0.50839312 7:0.57340239 8:-0.024154617 9:0.43904106 10:0 11:-0.86040723 12:-0.58670475 
0.411938771292602 1:3.0470312 2:0.42597193 3:0.48945906 4:-0.80341882 5:-0.74758964 6:0.21681322 7:0.57004026 8:-0.017237818 9:0.026287253 10:0 11:-0.86040723 12:-0.58670475 
0.2688843427401968 1:-0.61867234 2:-0.72193819 3:-0.12990005 4:-0.050229123 5:1.5263097 6:-0.76191361 7:-0.14827413 8:1.4179979 9:0.43904106 10:0 11:-0.86040723 12:1.7044348 
2.799999999999997 1:-0.50285772 2:-0.21032499 3:-0.0093699092 4:-0.050229123 5:0.83458436 6:-0.36593063 7:0.024739226 8:1.3592051 9:0.43904106 10:0 11:1.1622404 12:-0.58670475 
-2.799999999999997 1:-1.0877444 2:-0.67383337 3:-0.10735591 4:2.4321144 5:-1.0101916 6:0.71595142 7:-0.94309968 8:-0.24549218 9:0.14421691 10:0 11:-0.86040723 12:1.7044348 
0.0187652905867169 1:-1.1128035 2:-0.099896179 3:-0.14258744 4:-0.050229123 5:-1.0195463 6:-0.65834243 7:0.55141224 8:-0.013779419 9:0.43904106 10:0 11:1.1622404 12:-0.58670475 
0.7130322569409154 1:-1.0509113 2:-1.1086953 3:3.4706585 4:-0.36847829 5:0.20670093 6:1.4638268 7:-0.2233314 8:-2.2375302 9:0.7338652 10:0 11:1.1622404 12:-0.58670475 
-0.1569727260615231 1:-0.36558225 2:-0.083754725 3:-1.0433917 4:-0.050229123 5:2.1906423 6:1.5486803 7:0.56713247 8:-0.1209898 9:0.43904106 10:0 11:-0.86040723 12:-0.58670475 
-2.799999999999997 1:-1.0573537 2:-0.36816287 3:-0.10452529 4:-0.1881371 5:-0.78375123 6:0.34076587 7:0.18884748 8:-0.16249059 9:1.0286894 10:0 11:1.1622404 12:-0.58670475 
2.799999999999997 1:0.14855324 2:0.10979774 3:-0.24408651 4:-0.050229123 5:2.4541368 6:-0.38631211 7:0.015834127 8:2.1995962 9:0.43904106 10:0 11:-0.86040723 12:-0.58670475 
1.299954904112212 1:-0.018405245 2:0.38568936 3:0.14619394 4:-0.1881371 5:-0.78375123 6:1.2159215 7:0.57122155 8:-0.18324099 9:1.0286894 10:0 11:1.1622404 12:-0.58670475 
-2.799999999999997 1:-0.77613303 2:-0.30035402 3:0.22725365 4:0.53322768 5:0.9767604 6:1.0073233 7:0.55904519 8:0.50498049 9:0.91075969 10:0 11:1.1622404 12:-0.58670475 
2.799999999999997 1:0.71617731 2:0.038717179 3:-0.48698703 4:-0.10327065 5:-0.068903783 6:-1.1999074 7:0.31479103 8:-0.1175314 9:0.61593555 10:0 11:-0.86040723 12:-0.58670475 
1.243411428386718 1:-0.42971566 2:-0.152843 3:-0.10452529 4:0.087678849 5:0.24765858 6:-0.36676253 7:0.18993791 8:0.010429377 9:-0.44543138 10:0 11:-0.86040723 12:1.7044348 
2.799999999999997 1:0.62359428 2:-0.40934585 3:1.6933675 4:-0.79281051 5:1.7753534 6:1.4033063 7:0.55232093 8:1.7776715 9:0.43904106 10:0 11:1.1622404 12:-0.58670475 
0.2510966159232885 1:0.47415158 2:-0.21139694 3:-0.78941712 4:2.4108978 5:0.71570714 6:-1.2419182 7:-2.3659165 8:0.017346175 9:0.43904106 10:0 11:-0.86040723 12:1.7044348 
2.799999999999997 1:-0.71006598 2:-0.24507261 3:-0.053775752 4:-0.050229123 5:-1.0133776 6:-0.65834243 7:-0.94146405 8:0.003512578 9:0.43904106 10:0 11:-0.86040723 12:1.7044348 
2.799999999999997 1:0.784053 2:0.18581814 3:-0.16200764 4:-0.80341882 5:0.98029045 6:-0.074974655 7:0.14904714 8:0.15222375 9:-0.0031951619 10:0 11:1.1622404 12:-0.58670475 
-0.4030154016181675 1:-0.92596958 2:-0.96604143 3:-0.066463136 4:-0.050229123 5:-1.0114935 6:-0.65834243 7:-0.94037363 8:-0.01032102 9:0.43904106 10:0 11:1.1622404 12:1.7044348 
-1.141881034541529 1:0.19532646 2:0.26969696 3:-1.7890079 4:-0.34726168 5:0.91072761 6:-1.5738451 7:0.033189983 8:0.95803081 9:0.026287253 10:0 11:1.1622404 12:-0.58670475 
0.02025827657310531 1:-0.50329554 2:-0.44310197 3:3.3232282 4:-0.36847829 5:1.6353259 6:2.0066396 7:-0.23096434 8:-0.24549218 9:0.7338652 10:0 11:-0.86040723 12:-0.58670475 
-0.4548419921635515 1:-1.3306439 2:-2.4552358 3:0.049382253 4:-0.40030321 5:0.059845704 6:0.83948813 7:-0.74491579 8:-2.3274486 9:0.43904106 10:0 11:1.1622404 12:1.7044348 
-2.799999999999997 1:0.63076513 2:0.23018477 3:-0.085563214 4:-0.3896949 5:-0.99954893 6:-0.36676253 7:0.18993791 8:0.010429377 9:0.43904106 10:0 11:1.1622404 12:-0.58670475 
0.2282450035420041 1:-0.13358301 2:-0.11887286 3:-0.92920523 4:-0.050229123 5:0.074256962 6:1.0073233 7:0.55904519 8:0.50498049 9:0.43904106 10:0 11:-0.86040723 12:-0.58670475 
-2.7964293269398 1:-1.2285071 2:-0.49173189 3:-0.2672859 4:2.4321144 5:-1.0152532 6:-1.2419182 7:0.17821589 8:0.017346175 9:0.14421691 10:0 11:-0.86040723 12:-0.58670475 
0.3116402607187768 1:1.8313862 2:1.8562509 3:-2.111984 4:0.67113566 5:0.66944481 6:-0.5753607 7:-8.250188 8:-4.7967458 9:0.55697072 10:0 11:1.1622404 12:1.7044348 
0.9946031084559445 1:-0.83749318 2:-0.53203288 3:0.12540414 4:-0.80341882 5:0.1708509 6:0.25778415 7:0.55322961 8:-0.1279066 9:-0.0031951619 10:0 11:-0.86040723 12:-0.58670475 
-0.809319653166051 1:-0.22035904 2:-1.0267208 3:1.4568937 4:0.20437021 5:1.0166211 6:1.0697156 7:-0.59943554 8:1.8883402 9:0.91075969 10:0 11:-0.86040723 12:1.7044348 
1.718884484283746 1:0.24623713 2:0.46900146 3:-1.8997901 4:-0.050229123 5:1.5277774 6:2.423836 7:-0.17962372 8:-0.1279066 9:0.43904106 10:0 11:-0.86040723 12:-0.58670475 
1.376110159143353 1:-0.32115276 2:0.06237043 3:-0.080225787 4:1.2439842 5:0.17897389 6:0.44516895 7:-0.12319446 8:0.13839015 9:0.7338652 10:0 11:-0.86040723 12:-0.58670475 
2.799999999999997 1:-0.81015497 2:-0.29414134 3:-0.33289819 4:-0.050229123 5:-0.23528739 6:-0.6173715 7:0.17085555 8:-0.1071562 9:0.43904106 10:0 11:-0.86040723 12:-0.58670475 
2.799999999999997 1:-0.36134547 2:-0.12668101 3:-1.9592482 4:-0.34726168 5:0.97525887 6:-0.074974655 7:0.40784023 8:-0.017237818 9:0.026287253 10:0 11:1.1622404 12:-0.58670475 
0.4605543918058067 1:-0.23512866 2:0.18443182 3:-2.559534 4:-0.050229123 5:0.93253248 6:1.2989032 7:0.68644263 8:0.51535569 9:0.43904106 10:0 11:1.1622404 12:-0.58670475 
1.073415909985931 1:0.005007475 2:1.1667072 3:-1.1775293 4:-0.80341882 5:0.62476649 6:0.50839312 7:0.57231197 8:-0.01032102 9:-0.0031951619 10:0 11:1.1622404 12:-0.58670475 
-0.6392264837556406 1:-3.1541197 2:-2.992323 3:-0.47352786 4:-0.90950187 5:-0.95680935 6:-1.4498924 7:-4.2205397 8:-0.06565541 9:0.43904106 10:0 11:-0.86040723 12:1.7044348 
0.9262297625952106 1:0.18256401 2:0.67359441 3:0.17334734 4:-0.13509557 5:-0.5485752 6:0.21681322 7:0.57004026 8:-0.017237818 9:0.43904106 10:0 11:-0.86040723 12:1.7044348 
2.799999999999997 1:-0.4974366 2:0.41398842 3:-2.6039399 4:-0.050229123 5:0.10424321 6:0.79997302 7:0.69970941 8:5.417858e-05 9:0.43904106 10:0 11:-0.86040723 12:-0.58670475 
2.799999999999997 1:0.29879751 2:0.48594021 3:-0.016206721 4:0.91512668 5:-0.39146838 6:0.50839312 7:0.57340239 8:-0.024154617 9:-0.15060724 10:0 11:1.1622404 12:-0.58670475 
-2.799999999999997 1:-0.80201464 2:-1.1233964 3:-0.33289819 4:-0.050229123 5:-0.83030518 6:-0.6173715 7:0.17085555 8:-0.1071562 9:0.43904106 10:0 11:-0.86040723 12:-0.58670475 
-1.891267259754764 1:-0.21803025 2:-0.56828515 3:-0.22968416 4:0.15132868 5:-0.86626182 6:0.25778415 7:0.55322961 8:-0.1279066 9:1.0286894 10:0 11:-0.86040723 12:1.7044348 
-0.1896037635235291 1:-0.55269744 2:-2.0994153 3:-0.067902565 4:-0.78220221 5:-0.9998086 6:-0.90811951 7:-0.27785241 8:0.62256607 9:0.14421691 10:0 11:1.1622404 12:-0.58670475 
-0.1675969581375977 1:0.91176933 2:0.04025515 3:-0.32829553 4:0.20437021 5:-0.28046448 6:-1.5736371 7:0.15150059 8:1.1032836 9:0.43904106 10:0 11:-0.86040723 12:-0.58670475 
2.799999999999997 1:-0.032568982 2:-0.79515466 3:0.073098085 4:-0.050229123 5:0.9531989 6:0.82077045 7:0.54323409 8:1.2381612 9:0.43904106 10:0 11:1.1622404 12:-0.58670475 
1.289941437257327 1:-0.84123621 2:0.2004444 3:-1.0433917 4:-0.050229123 5:2.4948894 6:1.5486803 7:0.56713247 8:-0.1209898 9:0.43904106 10:0 11:-0.86040723 12:-0.58670475 
-2.799999999999997 1:-0.15003611 2:0.30725211 3:-1.1396008 4:-0.13509557 5:1.4411993 6:1.5085413 7:-0.59561907 8:1.26237 9:1.0286894 10:0 11:-0.86040723 12:-0.58670475 
0.151876765548759 1:0.87426632 2:-0.022924239 3:2.4246984 4:-0.80341882 5:1.0069137 6:1.4648667 7:-0.21687974 8:-1.0893416 9:0.026287253 10:0 11:-0.86040723 12:-0.58670475 
2.799999999999997 1:0.57865162 2:0.20673717 3:-0.022753816 4:-0.35786998 5:-0.8027925 6:-0.074974655 7:0.40784023 8:-0.017237818 9:0.7338652 10:0 11:-0.86040723 12:1.7044348 
2.799999999999997 1:1.3906015 2:0.87628815 3:0.26842511 4:0.20437021 5:-1.0204224 6:0.21681322 7:0.57004026 8:-0.017237818 9:0.91075969 10:0 11:-0.86040723 12:1.7044348 
2.799999999999997 1:1.0131787 2:0.6137366 3:-0.23088269 4:1.2439842 5:-1.0149899 6:-1.5736371 7:0.15150059 8:1.1032836 9:0.91075969 10:0 11:-0.86040723 12:1.7044348 
2.799999999999997 1:-0.21214638 2:-0.739563 3:0.19530344 4:-0.35786998 5:1.6517865 6:1.4033063 7:0.55232093 8:1.7776715 9:0.7338652 10:0 11:1.1622404 12:-0.58670475 
2.799999999999997 1:-0.36798735 2:-0.28935689 3:-0.041088368 4:-0.050229123 5:0.51600731 6:-0.34638105 7:0.030463933 8:-0.84379527 9:0.43904106 10:0 11:1.1622404 12:-0.58670475 
0.6659738184379081 1:-0.81756423 2:-1.6477477 3:2.2183995 4:2.4108978 5:0.44701725 6:0.5682897 7:-0.98362697 8:0.70210925 9:0.43904106 10:0 11:-0.86040723 12:1.7044348 
-0.8102593940372401 1:-0.20074068 2:0.038321059 3:-1.0433917 4:-0.050229123 5:2.9513116 6:1.5486803 7:0.56713247 8:-0.1209898 9:0.43904106 10:0 11:-0.86040723 12:-0.58670475 
2.799999999999997 1:-0.35087316 2:-0.67041086 3:0.32295802 4:-0.72916068 5:1.1870235 6:0.0084230198 7:0.18712099 8:-0.086405806 9:0.7338652 10:0 11:-0.86040723 12:-0.58670475 
1.00641735878014 1:-0.38492789 2:-0.65326452 3:-0.22505543 4:-0.050229123 5:0.10932855 6:1.1318999 7:0.67635624 8:-0.95446405 9:0.43904106 10:0 11:-0.86040723 12:-0.58670475 
-2.799999999999997 1:-2.4460934 2:-1.9965771 3:-0.5865986 4:-0.21996201 5:-1.019434 6:-0.6173715 7:0.17085555 8:-0.1071562 9:0.43904106 10:0 11:1.1622404 12:-0.58670475 
0.7367095939531775 1:-0.29361438 2:-0.11914671 3:-0.14258744 4:-0.050229123 5:-0.85132989 6:-0.34638105 7:0.030463933 8:-0.84379527 9:0.43904106 10:0 11:-0.86040723 12:1.7044348 
2.799999999999997 1:-0.13062289 2:-0.073025974 3:1.2657122 4:-0.050229123 5:1.9716074 6:0.82077045 7:0.54323409 8:1.2381612 9:0.43904106 10:0 11:-0.86040723 12:-0.58670475 
-2.799999999999997 1:1.0851073 2:0.51735237 3:-0.050743518 4:2.4321144 5:-0.91372617 6:-0.90832748 7:0.32396874 8:-0.1071562 9:0.14421691 10:0 11:1.1622404 12:-0.58670475 
-1.376648934538337 1:-0.32340057 2:0.14314385 3:2.6042311 4:-0.050229123 5:1.4779052 6:-1.4078816 7:-0.14182248 8:0.28018453 9:0.43904106 10:0 11:-0.86040723 12:-0.58670475 
-1.87921482819951 1:0.89789471 2:0.46098153 3:0.063278189 4:0.71356888 5:0.13602391 6:0.80038897 7:-0.17898764 8:-0.031071416 9:0.7338652 10:0 11:-0.86040723 12:-0.58670475 
1.395461387157157 1:0.047354203 2:-0.2164626 3:-0.18699328 4:-0.050229123 5:2.1906423 6:0.67352468 7:0.18475841 8:-0.114073 9:0.43904106 10:0 11:-0.86040723 12:-0.58670475 
-2.799999999999997 1:-0.4697414 2:-0.12436611 3:-0.053775752 4:-0.050229123 5:-1.0175394 6:-0.65834243 7:0.1876662 8:0.003512578 9:0.43904106 10:0 11:-0.86040723 12:-0.58670475 
0.0294455940196726 1:-1.9996833 2:-1.2977296 3:1.6277802 4:-0.36847829 5:0.059669493 6:0.29875507 7:-0.21824277 8:-0.22474178 9:0.7338652 10:0 11:1.1622404 12:-0.58670475 
2.799999999999997 1:0.0059481303 2:0.52864595 3:0.06756817 4:0.15132868 5:0.046387801 6:-0.075182629 7:0.68798739 8:0.0069709773 9:1.0286894 10:0 11:-0.86040723 12:1.7044348 
-2.799999999999997 1:-0.21364515 2:-0.084441896 3:-0.066203716 4:-0.80341882 5:-0.98100798 6:-0.075182629 7:0.31842577 8:-0.01032102 9:0.026287253 10:0 11:-0.86040723 12:1.7044348 
0.1800073104537484 1:2.1820386 2:1.6768325 3:0.0025614185 4:0.33166988 5:-1.0045947 6:-3.1153502 7:-4.1459368 8:0.46693809 9:0.43904106 10:0 11:-0.86040723 12:1.7044348 
2.277067605787813 1:0.95731964 2:-0.69492086 3:0.1933639 4:-0.7609856 5:1.1363594 6:0.81993855 7:0.54405191 8:-0.1244482 9:-0.32750172 10:0 11:1.1622404 12:-0.58670475 
-2.799999999999997 1:-0.28227621 2:-0.13358059 3:-0.36461665 4:-0.050229123 5:2.4331811 6:1.1123503 7:0.67063153 8:1.2485364 9:0.43904106 10:0 11:1.1622404 12:-0.58670475 
1.01165734514989 1:-0.91632653 2:1.6336756 3:0.1281241 4:2.7079303 5:-0.948414 6:2.9670647 7:-2.4188019 8:-1.6980199 9:0.7338652 10:0 11:1.1622404 12:1.7044348 
2.799999999999997 1:-0.17465464 2:-0.46480946 3:-0.33136198 4:-0.5806444 5:-0.58373648 6:-0.65834243 7:0.55141224 8:-0.013779419 9:0.61593555 10:0 11:-0.86040723 12:-0.58670475 
2.799999999999997 1:-0.3291358 2:-0.91690826 3:-0.37096034 4:-0.050229123 5:-1.0192136 6:-0.4089813 7:0.26190565 8:0.21101654 9:0.43904106 10:0 11:1.1622404 12:-0.58670475 
-2.757364915350057 1:0.36482685 2:-0.17366037 3:2.0459862 4:-0.050229123 5:2.732077 6:-0.76191361 7:-0.14827413 8:1.4179979 9:0.43904106 10:0 11:-0.86040723 12:-0.58670475 
2.799999999999997 1:-0.2766736 2:-0.26071467 3:0.11116024 4:-0.050229123 5:2.2334383 6:1.1123503 7:0.67063153 8:1.2485364 9:0.43904106 10:0 11:1.1622404 12:-0.58670475 
-1.336881728415164 1:0.24127686 2:0.36250173 3:0.14619394 4:-0.1881371 5:-0.68772129 6:1.2159215 7:0.57122155 8:-0.18324099 9:1.0286894 10:0 11:-0.86040723 12:-0.58670475 
0.631983821458633 1:-0.19573165 2:1.114594 3:-0.15617472 4:0.16193699 5:0.5638033 6:0.029220445 7:0.052726681 8:-0.06219701 9:0.7338652 10:0 11:-0.86040723 12:-0.58670475 
-0.9461063439368345 1:-0.83347241 2:-1.2624245 3:-0.14043956 4:-0.54881948 5:0.1076862 6:-0.054385204 7:0.16086003 8:1.245078 9:1.0286894 10:0 11:1.1622404 12:-0.58670475 
-1.913265021537914 1:0.01764292 2:-0.42209153 3:-0.59184714 4:0.20437021 5:-0.50399961 6:-1.5334981 7:0.16903818 8:-0.0068626202 9:0.43904106 10:0 11:-0.86040723 12:-0.58670475 
0.3308912146753035 1:0.24097097 2:-1.0833089 3:0.010278427 4:2.8988798 5:0.13234104 6:2.0066396 7:-0.23096434 8:-0.24549218 9:0.67490038 10:0 11:-0.86040723 12:1.7044348 
2.799999999999997 1:-1.0424406 2:-0.38173498 3:-0.012701798 4:-0.21996201 5:-0.88388926 6:0.44516895 7:-0.12319446 8:0.13839015 9:0.7338652 10:0 11:-0.86040723 12:-0.58670475 
2.799999999999997 1:-0.62549723 2:-0.43536451 3:-0.05498209 4:-0.5700361 5:-0.7763167 6:0.0084230198 7:-0.81688353 8:-0.086405806 9:0.43904106 10:0 11:1.1622404 12:-0.58670475 
2.799999999999997 1:-0.6335208 2:-0.41718133 3:0.22725365 4:0.53322768 5:-0.44471127 6:1.0073233 7:0.55904519 8:0.50498049 9:0.91075969 10:0 11:1.1622404 12:-0.58670475 
-1.682415960510332 1:-1.2539929 2:0.19734337 3:0.45099558 4:-0.34726168 5:0.60610447 6:-1.2410863 7:0.023012727 8:0.84736203 9:0.026287253 10:0 11:1.1622404 12:-0.58670475 
0.5665019973016304 1:-0.55253991 2:0.55726549 3:0.14899958 4:2.8988798 5:-0.73938799 6:3.4641232 7:-0.18480321 8:-0.23857538 9:0.67490038 10:0 11:-0.86040723 12:1.7044348 
1.728038132937171 1:0.71800593 2:-0.20568553 3:-0.12990005 4:-0.050229123 5:-0.30897738 6:0.25778415 7:0.55322961 8:-0.1279066 9:0.43904106 10:0 11:-0.86040723 12:1.7044348 
-0.0269369888774306 1:0.93196505 2:1.9524813 3:-0.019989863 4:0.20437021 5:-0.36618825 6:-0.90707963 7:0.044094187 8:0.61910767 9:0.91075969 10:0 11:-0.86040723 12:1.7044348 
2.799999999999997 1:0.75402434 2:0.024579882 3:0.11116024 4:-0.050229123 5:0.83458436 6:1.1123503 7:0.67063153 8:1.2485364 9:0.43904106 10:0 11:1.1622404 12:-0.58670475 
2.799999999999997 1:0.28544134 2:0.28954268 3:-0.20308544 4:-0.34726168 5:-0.95325035 6:-0.075182629 7:0.31842577 8:-0.01032102 9:0.026287253 10:0 11:-0.86040723 12:-0.58670475 
2.799999999999997 1:1.2442938 2:0.21209583 3:-0.16200764 4:-0.80341882 5:-0.09316614 6:-0.38714401 7:0.14495807 8:0.90961321 9:-0.0031951619 10:0 11:-0.86040723 12:1.7044348 
1.894596779082565 1:0.28804879 2:-0.33671805 3:-0.15527482 4:-0.050229123 5:-0.91275641 6:-0.075182629 7:-1.8136186 8:-0.01032102 9:0.43904106 10:0 11:1.1622404 12:1.7044348 
1.761974778302222 1:-0.20905803 2:-0.29179208 3:2.0798042 4:-0.80341882 5:1.8444477 6:0.82077045 7:0.54323409 8:1.2381612 9:-0.0031951619 10:0 11:1.1622404 12:-0.58670475 
-2.799999999999997 1:0.85272918 2:0.15492879 3:-0.14284686 4:-0.80341882 5:-0.54405809 6:0.25757617 7:0.67781013 8:-0.1036978 9:-0.0031951619 10:0 11:-0.86040723 12:-0.58670475 
0.677246795921753 1:-0.33620428 2:-0.29336386 3:-0.10452529 4:0.67113566 5:0.23174716 6:0.029220445 7:-0.048046331 8:1.2692868 9:0.55697072 10:0 11:-0.86040723 12:1.7044348 
1.421511801856336 1:0.51442965 2:-0.9802287 3:-0.0045823776 4:-0.35786998 5:0.40234561 6:0.84032002 7:0.5489588 8:-0.96483925 9:0.7338652 10:0 11:1.1622404 12:-0.58670475 
0.09747484842491369 1:0.78169786 2:2.6521193 3:0.40363862 4:-0.7609856 5:0.18774471 6:0.88316272 7:0.42583217 8:-0.072572208 9:0.43904106 10:0 11:-0.86040723 12:1.7044348 
0.8993324404476701 1:0.9313415 2:-0.66121878 3:-0.53202632 4:0.45896954 5:-0.2840216 6:-0.61757948 7:0.29543607 8:-0.1002394 9:1.0286894 10:0 11:-0.86040723 12:-0.58670475 
1.868256077675909 1:-1.3986506 2:-0.60129463 3:2.5205023 4:-0.80341882 5:1.2071597 6:0.17480242 7:0.54968574 8:0.10034776 9:-0.0031951619 10:0 11:-0.86040723 12:-0.58670475 
-2.799999999999997 1:-1.136693 2:-1.0255812 3:-0.066463136 4:-0.050229123 5:-0.99587308 6:-0.65834243 7:-1.9443781 8:-0.01032102 9:0.43904106 10:0 11:1.1622404 12:1.7044348 
1.833452883101569 1:1.4041983 2:1.4123261 3:0.17459715 4:-0.050229123 5:-1.0175394 6:-0.40773346 7:0.29716257 8:0.10726456 9:0.43904106 10:0 11:-0.86040723 12:-0.58670475 
0.2788700699410884 1:1.7456961 2:-0.030980119 3:0.12132432 4:0.45896954 5:-0.032643028 6:0.50756122 7:0.40356942 8:-0.85417047 9:1.0286894 10:0 11:1.1622404 12:-0.58670475 
-1.410667910542609 1:-0.096318781 2:-0.99738193 3:0.12021131 4:-0.79281051 5:1.5022793 6:1.4033063 7:0.55232093 8:1.7776715 9:0.43904106 10:0 11:-0.86040723 12:1.7044348 
2.799999999999997 1:-0.00034416254 2:0.093150095 3:-2.633749 4:-0.80341882 5:0.1708509 6:-0.074974655 7:0.40784023 8:-0.017237818 9:-0.0031951619 10:0 11:-0.86040723 12:-0.58670475 
0.8303169906051573 1:1.9269717 2:1.1056422 3:-3.7377669 4:-0.79281051 5:0.77868802 6:0.50839312 7:-0.72519735 8:-0.01032102 9:0.43904106 10:0 11:-0.86040723 12:1.7044348 
-0.6431994543036665 1:0.78585803 2:-0.32605037 3:2.0157448 4:-0.7609856 5:1.4942313 6:0.84032002 7:0.5489588 8:-0.96483925 9:-0.32750172 10:0 11:1.1622404 12:-0.58670475 
-2.799999999999997 1:-1.0066328 2:-1.1935844 3:-0.07915052 4:-0.050229123 5:-0.99587308 6:-0.65834243 7:-1.9443781 8:-0.024154617 9:0.43904106 10:0 11:1.1622404 12:1.7044348 
2.799999999999997 1:-0.62905385 2:-0.19562214 3:-0.096033429 4:2.4321144 5:-1.0178961 6:-0.65834243 7:0.1876662 8:-0.01032102 9:0.14421691 10:0 11:1.1622404 12:-0.58670475 
2.799999999999997 1:-1.1736945 2:-1.0198141 3:-0.12990005 4:-0.050229123 5:-0.89689048 6:-0.36676253 7:-1.941016 8:-0.031071416 9:0.43904106 10:0 11:1.1622404 12:1.7044348 
2.799999999999997 1:-0.68953016 2:-0.87595859 3:-0.35827296 4:-0.050229123 5:-0.98081074 6:-0.95033828 7:0.30561333 8:0.010429377 9:0.43904106 10:0 11:-0.86040723 12:1.7044348 
-2.799999999999997 1:0.093496852 2:-0.53812836 3:-0.57421514 4:-0.10327065 5:-0.66279874 6:-0.70076918 7:0.25908873 8:0.22485014 9:0.55697072 10:0 11:-0.86040723 12:1.7044348 
-2.799999999999997 1:-0.92067084 2:-1.993359 3:-0.10452529 4:-0.35786998 5:-0.83078502 6:1.1526973 7:0.1859397 8:-0.034529815 9:0.7338652 10:0 11:1.1622404 12:-0.58670475 
-1.188717643093504 1:0.55305081 2:3.0681404 3:-1.5042249 4:0.16193699 5:1.2216364 6:0.76004196 7:-2.2438803 8:-0.60862411 9:1.3235135 10:0 11:1.1622404 12:-0.58670475 
-2.799999999999997 1:-0.10157673 2:0.19470951 3:-0.11721267 4:-0.050229123 5:-0.71528216 6:-0.36676253 7:0.19102833 8:-0.017237818 9:0.43904106 10:0 11:-0.86040723 12:1.7044348 
0.7368116237315482 1:0.13844571 2:-0.87139262 3:-0.07104087 4:2.8988798 5:-0.73583631 6:1.4638268 7:-0.2233314 8:-2.2375302 9:0.67490038 10:0 11:-0.86040723 12:1.7044348 
-1.011544942712475 1:-0.062795649 2:0.46763701 3:-3.6848043 4:-0.9519351 5:1.6497054 6:-0.19975921 7:0.031645221 8:1.4664155 9:1.0286894 10:0 11:1.1622404 12:-0.58670475 
1.123052868612859 1:0.55176796 2:1.7943973 3:0.40363862 4:-0.7609856 5:0.20458955 6:0.88316272 7:0.42583217 8:-0.072572208 9:0.43904106 10:0 11:-0.86040723 12:1.7044348 
-0.7239455249781289 1:-2.1868714 2:0.31847974 3:-0.91057838 4:-0.7609856 5:1.3484489 6:0.21681322 7:0.57004026 8:-0.017237818 9:-0.32750172 10:0 11:1.1622404 12:-0.58670475 
2.082624042506268 1:0.12503994 2:0.18079114 3:2.1157669 4:-0.050229123 5:-0.5652631 6:-1.2419182 7:0.29643562 8:5.417858e-05 9:0.43904106 10:0 11:-0.86040723 12:-0.58670475 
2.799999999999997 1:0.79829913 2:-1.2108374 3:0.073098085 4:-0.050229123 5:1.0084524 6:0.82077045 7:0.54323409 8:1.2381612 9:0.43904106 10:0 11:-0.86040723 12:-0.58670475 
-0.08683845807309951 1:1.1480937 2:0.59887632 3:-2.2598412 4:-0.7609856 5:-0.37295147 6:-0.075182629 7:0.68798739 8:0.0069709773 9:-0.32750172 10:0 11:1.1622404 12:-0.58670475 
2.799999999999997 1:-0.76445815 2:-0.30317862 3:-0.091837903 4:-0.050229123 5:-0.4291139 6:-0.36676253 7:0.18993791 8:0.010429377 9:0.43904106 10:0 11:-0.86040723 12:-0.58670475 
-0.08371685202210759 1:-0.36602541 2:0.012830191 3:-0.094618119 4:2.4321144 5:-0.9932604 6:-0.65834243 7:0.1876662 8:0.003512578 9:0.14421691 10:0 11:-0.86040723 12:-0.58670475 
1.090861250294944 1:1.093581 2:2.2232864 3:0.97963641 4:-0.34726168 5:-0.098116053 6:1.1129743 7:-3.1544721 8:1.8226307 9:0.7338652 10:0 11:1.1622404 12:-0.58670475 
-2.799999999999997 1:-0.17465464 2:-1.9040628 3:-0.2035496 4:0.32106157 5:-1.0204224 6:-0.65834243 7:0.55141224 8:-0.013779419 9:0.43904106 10:0 11:1.1622404 12:-0.58670475 
-2.799999999999997 1:-0.4498965 2:-0.36408905 3:-0.079753689 4:-0.5700361 5:-1.0202183 6:-0.65834243 7:0.1876662 8:0.003512578 9:0.43904106 10:0 11:1.1622404 12:-0.58670475 
-0.1133271449255085 1:-0.13002696 2:-0.21224887 3:0.12453287 4:0.29984496 5:0.3559165 6:-0.32766337 7:-1.2588672 8:-4.409405 9:0.43904106 10:0 11:1.1622404 12:-0.58670475 
-0.3177923955360114 1:-0.036752798 2:-0.36049475 3:-0.12017015 4:0.15132868 5:-0.98064159 6:-0.6585504 7:0.277535 8:0.010429377 9:-0.44543138 10:0 11:-0.86040723 12:1.7044348 
0.7658599756665069 1:0.52927662 2:0.062207851 3:0.038256987 4:0.33166988 5:-1.0204224 6:-0.53314193 7:-0.76163557 8:0.64677486 9:0.43904106 10:0 11:-0.86040723 12:1.7044348 
-0.7576598512879159 1:-1.1292265 2:-1.0607732 3:-0.10452529 4:-0.54881948 5:0.9996574 6:0.52815067 7:0.16994687 8:1.7845883 9:1.0286894 10:0 11:1.1622404 12:-0.58670475 
1.411689915979342 1:2.567925 2:-0.66709516 3:3.9629109 4:0.28923665 5:1.6966022 6:6.7135129 7:-1.7479208 8:7.1208985 9:0.43904106 10:0 11:1.1622404 12:-0.58670475 
2.799999999999997 1:-0.56826797 2:-0.52460659 3:1.6225732 4:0.29984496 5:0.69313481 6:-0.034003727 7:0.55041269 8:-0.114073 9:0.43904106 10:0 11:1.1622404 12:-0.58670475 
-2.799999999999997 1:-1.843415 2:-0.23955833 3:-2.2687437 4:0.92573499 5:0.0043508798 6:0.88482651 7:-5.9809325 8:0.56377328 9:0.7338652 10:0 11:-0.86040723 12:1.7044348 
-2.799999999999997 1:-0.22498296 2:-0.18187074 3:-0.059725217 4:-0.34726168 5:-0.55014075 6:-0.034003727 7:-0.12437575 8:0.058846968 9:0.026287253 10:0 11:-0.86040723 12:-0.58670475 
-0.8581213350740581 1:0.51345755 2:0.44468272 3:0.16576334 4:0.29984496 5:1.4682458 6:1.1115184 7:0.67144935 8:-0.114073 9:0.43904106 10:0 11:1.1622404 12:-0.58670475 
-0.08514843757547672 1:2.0123286 2:0.49593952 3:0.076267296 4:0.13011207 5:0.4179231 6:2.318393 7:0.029555249 8:-1.1481344 9:-0.30391579 10:0 11:1.1622404 12:-0.58670475 
0.1217528594732136 1:-3.0218862 2:-1.330877 3:-0.053489998 4:-0.44273643 5:0.25565745 6:0.54853215 7:0.54786838 8:-1.1204672 9:0.67490038 10:0 11:1.1622404 12:-0.58670475 
2.799999999999997 1:1.7426139 2:0.70065293 3:0.11078938 4:0.29984496 5:-1.0204224 6:0.21681322 7:0.57004026 8:-0.017237818 9:0.43904106 10:0 11:-0.86040723 12:1.7044348 
-2.799999999999997 1:0.12357724 2:-0.66605525 3:-0.12990005 4:-0.050229123 5:-0.83030518 6:0.25778415 7:0.55322961 8:-0.1279066 9:0.43904106 10:0 11:-0.86040723 12:-0.58670475 
-2.788010820746676 1:0.18882581 2:-0.34468676 3:-2.0287226 4:3.7157194 5:1.2540888 6:1.4679863 7:-4.5726546 8:4.2642606 9:1.0286894 10:0 11:1.1622404 12:-0.58670475 
1.090096008414795 1:1.590196 2:0.90916331 3:0.26405036 4:-0.36847829 5:1.0064008 6:2.6305624 7:0.033644325 8:-1.9055239 9:0.7338652 10:0 11:1.1622404 12:-0.58670475 
2.799999999999997 1:-0.47515707 2:-0.23986324 3:-0.14927933 4:0.20437021 5:0.26599569 6:-0.6585504 7:0.277535 8:0.010429377 9:0.91075969 10:0 11:-0.86040723 12:-0.58670475 
-2.799999999999997 1:-0.51928627 2:-0.58631233 3:-0.07342868 4:0.67113566 5:-1.0204224 6:-0.65834243 7:-0.94146405 8:0.017346175 9:0.55697072 10:0 11:-0.86040723 12:1.7044348 
-2.799999999999997 1:0.47017794 2:0.048052273 3:-0.24897898 4:3.7157194 5:1.3478935 6:0.17605027 7:-1.0307876 8:1.9886338 9:1.0286894 10:0 11:1.1622404 12:-0.58670475 
2.799999999999997 1:-0.92770579 2:-0.42244538 3:-0.010342725 4:-0.53821118 5:-0.17704821 6:-0.034003727 7:-0.12437575 8:0.058846968 9:0.43904106 10:0 11:-0.86040723 12:1.7044348 
-0.1686011275719713 1:-0.088993693 2:-2.135086 3:-0.19686339 4:1.2439842 5:-0.9948225 6:0.17355458 7:0.25763483 8:-0.62591611 9:0.43904106 10:0 11:-0.86040723 12:1.7044348 
-2.799999999999997 1:-4.3958026 2:-5.446848 3:-1.8286456 4:-0.89889357 5:0.025519706 6:-2.7823835 7:-3.8565211 8:0.72977645 9:1.3235135 10:0 11:1.1622404 12:1.7044348 
-0.72260998516717 1:-0.30020144 2:0.45735776 3:0.055251475 4:-0.13509557 5:0.800303 6:-0.075182629 7:0.68798739 8:0.0069709773 9:1.0286894 10:0 11:-0.86040723 12:-0.58670475 
-2.799999999999997 1:-1.1838552 2:-0.7355415 3:-0.26870121 4:2.4321144 5:-1.0204224 6:-1.2419182 7:0.17821589 8:0.003512578 9:0.14421691 10:0 11:-0.86040723 12:1.7044348 
-2.799999999999997 1:-0.41664429 2:-0.056046841 3:-0.18064959 4:-0.050229123 5:1.4086867 6:-0.36593063 7:0.024739226 8:1.3592051 9:0.43904106 10:0 11:-0.86040723 12:-0.58670475 
2.799999999999997 1:-0.70322071 2:-0.82851689 3:-0.091837903 4:-0.050229123 5:-0.91275641 6:-0.65834243 7:-2.0684135 8:-0.037988215 9:0.43904106 10:0 11:1.1622404 12:1.7044348 
2.799999999999997 1:0.15299341 2:-0.011939755 3:-0.091837903 4:-0.050229123 5:0.047271232 6:-0.36676253 7:0.18993791 8:0.010429377 9:0.43904106 10:0 11:-0.86040723 12:-0.58670475 
-1.606732785419947 1:-0.54799952 2:-0.5391628 3:-0.07915052 4:-0.050229123 5:-0.86375606 6:-0.65834243 7:-0.94037363 8:-0.024154617 9:0.43904106 10:0 11:1.1622404 12:1.7044348 
0.2399626683526007 1:-0.52838874 2:-0.54773292 3:1.6717084 4:-0.050229123 5:1.4729694 6:0.52815067 7:0.54486972 8:-0.20744978 9:0.43904106 10:0 11:1.1622404 12:-0.58670475 
1.882873959397716 1:0.14633315 2:-0.20950342 3:1.6970832 4:-0.050229123 5:2.732077 6:0.154005 7:0.25191013 8:1.5770843 9:0.43904106 10:0 11:-0.86040723 12:-0.58670475 
2.799999999999997 1:-0.48787212 2:-0.76615804 3:-0.10452529 4:-0.050229123 5:-0.92572535 6:-0.36676253 7:-2.9450205 8:-0.0034042208 9:0.43904106 10:0 11:1.1622404 12:1.7044348 
-2.542979966326051 1:-0.10527688 2:0.23892937 3:-0.97361107 4:-0.050229123 5:1.1971633 6:-0.40773346 7:0.29716257 8:0.10726456 9:0.43904106 10:0 11:-0.86040723 12:-0.58670475 
-2.799999999999997 1:0.013258904 2:-0.39937216 3:-0.21392407 4:0.20437021 5:0.26599569 6:-0.034003727 7:0.55041269 8:-0.114073 9:0.91075969 10:0 11:-0.86040723 12:-0.58670475 
-0.1587602519860931 1:-0.57279051 2:-0.27659838 3:-0.18064959 4:-0.050229123 5:1.7618245 6:-0.36593063 7:0.024739226 8:1.3592051 9:0.43904106 10:0 11:1.1622404 12:-0.58670475 
-2.799999999999997 1:0.0012525628 2:0.036654454 3:-0.097448738 4:2.4321144 5:-1.0187883 6:0.54915607 7:0.27989758 8:0.15568215 9:0.14421691 10:0 11:-0.86040723 12:1.7044348 
2.472844684696481 1:0.024120466 2:0.036070063 3:2.194769 4:-0.80341882 5:0.86232382 6:0.84032002 7:0.5489588 8:-0.96483925 9:0.026287253 10:0 11:-0.86040723 12:-0.58670475 
1.241630976841889 1:-0.72732795 2:-0.49711929 3:0.038373523 4:-0.44273643 5:1.1434866 6:0.82077045 7:0.54323409 8:1.2381612 9:0.67490038 10:0 11:-0.86040723 12:1.7044348 
-2.799999999999997 1:-0.42751459 2:-0.17322996 3:-0.10452529 4:-0.1881371 5:-0.68772129 6:0.34076587 7:0.18884748 8:-0.16249059 9:1.0286894 10:0 11:-0.86040723 12:-0.58670475 
1.643112506414417 1:0.1614051 2:-1.1680905 3:-0.41555888 4:1.2439842 5:-1.0149899 6:-3.052958 7:-0.49484606 8:0.024262974 9:0.91075969 10:0 11:-0.86040723 12:1.7044348 
-0.2566445990374923 1:0.97606863 2:1.5197263 3:0.14922239 4:-0.050229123 5:-0.79892949 6:0.79997302 7:0.69970941 8:5.417858e-05 9:0.43904106 10:0 11:-0.86040723 12:-0.58670475 
1.853799748523201 1:-0.17465464 2:-0.47958272 3:-0.10452529 4:-0.79281051 5:-0.1177046 6:-1.8450435 7:0.032917378 8:0.10726456 9:0.43904106 10:0 11:-0.86040723 12:-0.58670475 
2.799999999999997 1:0.077325397 2:0.11690191 3:2.0459862 4:-0.050229123 5:2.6612297 6:-0.76191361 7:-0.14827413 8:1.4179979 9:0.43904106 10:0 11:-0.86040723 12:-0.58670475 
0.4481526177210294 1:-0.46833994 2:0.036102373 3:-0.14995388 4:-0.35786998 5:-0.91887989 6:-0.075182629 7:0.31842577 8:-0.01032102 9:0.7338652 10:0 11:-0.86040723 12:1.7044348 
2.799999999999997 1:-1.1565019 2:-1.2051186 3:-0.39633511 4:-0.050229123 5:-1.0204224 6:-1.2419182 7:0.29643562 8:5.417858e-05 9:0.43904106 10:0 11:-0.86040723 12:-0.58670475 
-2.799999999999997 1:-0.53819413 2:-0.87628077 3:-0.16161851 4:-0.050229123 5:-0.53886996 6:-0.034003727 7:0.55041269 8:-0.114073 9:0.43904106 10:0 11:1.1622404 12:-0.58670475 
-2.799999999999997 1:-0.41775433 2:-0.19292701 3:-0.066463136 4:-0.050229123 5:-1.0063328 6:-0.65834243 7:0.1876662 8:-0.01032102 9:0.43904106 10:0 11:-0.86040723 12:1.7044348 
-1.144764064616771 1:-1.0603031 2:-1.3540571 3:2.1802968 4:-0.79281051 5:-0.799512 6:0.54853215 7:0.54786838 8:-1.1204672 9:0.43904106 10:0 11:-0.86040723 12:-0.58670475 
1.478544948543513 1:-0.40646888 2:-0.71262705 3:1.2657122 4:-0.050229123 5:1.4086867 6:0.82077045 7:0.54323409 8:1.2381612 9:0.43904106 10:0 11:-0.86040723 12:-0.58670475 
-2.799999999999997 1:-0.65994397 2:-0.61203794 3:-0.27719307 4:2.4321144 5:-1.0204224 6:-0.95033828 7:0.30561333 8:0.010429377 9:0.14421691 10:0 11:-0.86040723 12:1.7044348 
-2.799999999999997 1:-3.7169233 2:-4.0335779 3:-0.61756816 4:-0.47456135 5:1.0020634 6:0.48114849 7:-7.0245556 8:-6.3703175 9:0.43904106 10:0 11:-0.86040723 12:1.7044348 
0.3052256684388929 1:0.35133488 2:-1.1770547 3:2.2522513 4:-0.80341882 5:-0.35259071 6:0.54853215 7:0.54786838 8:-1.1204672 9:-0.0031951619 10:0 11:-0.86040723 12:-0.58670475 
-2.799999999999997 1:0.58755246 2:-0.90879292 3:-0.50853258 4:-0.40030321 5:-0.56692769 6:-0.40877333 7:0.29470912 8:0.11418136 9:1.0286894 10:0 11:-0.86040723 12:-0.58670475 
2.799999999999997 1:-0.022208569 2:-0.30730258 3:-0.066463136 4:-0.050229123 5:-0.36161715 6:0.0084230198 7:0.18712099 8:-0.072572208 9:0.43904106 10:0 11:1.1622404 12:-0.58670475 
2.799999999999997 1:-0.27862932 2:-0.78610864 3:0.29785121 4:-0.80341882 5:0.7388213 6:0.82077045 7:0.54323409 8:1.2381612 9:-0.0031951619 10:0 11:-0.86040723 12:-0.58670475 
2.799999999999997 1:0.44900521 2:0.1044978 3:-0.091837903 4:-0.050229123 5:-0.16638459 6:-0.36676253 7:0.18993791 8:0.010429377 9:0.43904106 10:0 11:-0.86040723 12:1.7044348 
-2.799999999999997 1:0.077534529 2:-1.0630142 3:-0.25275224 4:1.2439842 5:-0.9948225 6:-0.53376585 7:-0.05140846 8:-1.473224 9:0.43904106 10:0 11:-0.86040723 12:1.7044348 
2.799999999999997 1:1.9607004 2:1.28756 3:0.17459715 4:-0.050229123 5:-0.96463218 6:-0.40773346 7:0.29716257 8:0.10726456 9:0.43904106 10:0 11:1.1622404 12:-0.58670475 
0.9065627129886038 1:-0.76369968 2:-0.10519007 3:-0.58550298 4:-0.47456135 5:2.7705879 6:0.19622377 7:0.024920963 8:2.7391065 9:0.43904106 10:0 11:-0.86040723 12:-0.58670475 
2.439436222599451 1:2.4197844 2:0.72188408 3:0.40363862 4:-0.7609856 5:1.1363594 6:1.1115184 7:0.67144935 8:-0.114073 9:-0.32750172 10:0 11:1.1622404 12:-0.58670475 
-2.799999999999997 1:-0.093847303 2:-0.052140196 3:-1.8985228 4:-0.86706865 5:0.55082619 6:0.54936405 7:0.68062705 8:-0.1175314 9:-0.15060724 10:0 11:-0.86040723 12:-0.58670475 
0.4750595843345567 1:-1.4019936 2:-1.0035759 3:-0.07915052 4:-0.050229123 5:-0.98769465 6:-0.65834243 7:-0.94037363 8:-0.024154617 9:0.43904106 10:0 11:1.1622404 12:1.7044348 
-0.6440742431721317 1:0.73621651 2:0.60103293 3:-1.6994078 4:-0.34726168 5:0.91072761 6:-0.075182629 7:0.68798739 8:0.0069709773 9:0.026287253 10:0 11:1.1622404 12:-0.58670475 
-0.69993520284052 1:1.7894923 2:-0.97117162 3:-0.41993737 4:-0.7609856 5:-0.075303604 6:-2.1368314 7:-0.49302869 8:-0.089864205 9:0.43904106 10:0 11:-0.86040723 12:-0.58670475 
-2.799999999999997 1:0.16625957 2:0.078800303 3:-0.086677503 4:0.33166988 5:-0.98876698 6:-0.36676253 7:-0.9370115 8:-0.031071416 9:0.43904106 10:0 11:-0.86040723 12:1.7044348 
2.799999999999997 1:-1.1842399 2:-0.68801214 3:-0.066463136 4:-0.050229123 5:-0.96463218 6:-0.65834243 7:0.1876662 8:-0.01032102 9:0.43904106 10:0 11:1.1622404 12:-0.58670475 
-0.1997396868320966 1:-0.97038721 2:-0.46904886 3:-0.16236655 4:-0.28361185 5:1.3624488 6:-0.94929841 7:-0.23014653 8:-0.54291452 9:0.67490038 10:0 11:-0.86040723 12:1.7044348 
-0.4236042842900671 1:-0.6426307 2:-0.39282329 3:-0.26303997 4:2.4321144 5:-1.0152532 6:-1.9494466 7:-0.13091828 8:0.17643255 9:0.14421691 10:0 11:-0.86040723 12:-0.58670475 
-0.06424509241738828 1:2.2759092 2:1.4703205 3:0.27060276 4:-0.13509557 5:-1.0204224 6:-0.40773346 7:0.29716257 8:0.10726456 9:0.43904106 10:0 11:-0.86040723 12:-0.58670475 
2.799999999999997 1:-0.20470711 2:0.29685756 3:-0.13561555 4:-0.45334473 5:-0.94386129 6:-0.075182629 7:0.31842577 8:-0.01032102 9:-0.44543138 10:0 11:-0.86040723 12:-0.58670475 
-1.465419382954043 1:0.34023383 2:-0.71104442 3:2.3123996 4:-0.72916068 5:0.22671941 6:-0.034003727 7:0.55041269 8:-0.114073 9:0.7338652 10:0 11:-0.86040723 12:-0.58670475 
0.04533864959087095 1:-0.8173644 2:0.017329715 3:2.613891 4:0.71356888 5:0.8255999 6:0.71636737 7:-0.21969666 8:0.20409974 9:0.7338652 10:0 11:1.1622404 12:-0.58670475 
1.731869779648145 1:0.14929326 2:-0.17469136 3:-0.041088368 4:-0.050229123 5:-0.4544572 6:-0.34638105 7:0.030463933 8:-0.84379527 9:0.43904106 10:0 11:-0.86040723 12:-0.58670475 
-2.684440601026981 1:-0.21202613 2:-0.14395494 3:-0.12990005 4:-0.050229123 5:-0.23528739 6:0.25778415 7:0.55322961 8:-0.1279066 9:0.43904106 10:0 11:-0.86040723 12:-0.58670475 
-2.799999999999997 1:0.11342638 2:0.43061978 3:0.26842511 4:0.20437021 5:-0.82059931 6:0.21681322 7:0.57004026 8:-0.017237818 9:0.91075969 10:0 11:-0.86040723 12:1.7044348 
-1.077273942760168 1:-0.81452157 2:-1.0747266 3:-1.2791622 4:0.91512668 5:-1.0204224 6:0.17480242 7:0.54968574 8:0.10034776 9:-0.15060724 10:0 11:1.1622404 12:-0.58670475 
-2.799999999999997 1:-0.1695135 2:-0.37094611 3:0.079201755 4:-0.44273643 5:1.9877288 6:1.4033063 7:0.55232093 8:1.7776715 9:0.67490038 10:0 11:1.1622404 12:-0.58670475 
1.762967453863996 1:-3.0629456 2:-0.5184681 3:-0.54356597 4:-0.34726168 5:-1.0162483 6:-0.40877333 7:0.29470912 8:0.11418136 9:-0.15060724 10:0 11:1.1622404 12:-0.58670475 
1.389175110553127 1:-0.087606683 2:-0.089187917 3:-0.19858191 4:0.087678849 5:0.24765858 6:-0.075182629 7:0.31733535 8:0.003512578 9:-0.44543138 10:0 11:-0.86040723 12:1.7044348 
-0.04293129331712558 1:-0.34783765 2:-0.41996081 3:-0.74074958 4:0.15132868 5:0.43788683 6:1.0073233 7:0.55904519 8:0.50498049 9:-0.44543138 10:0 11:-0.86040723 12:-0.58670475 
-2.799999999999997 1:-0.55404787 2:-0.32163234 3:-0.088424157 4:-0.26239523 5:-0.53401097 6:-0.034003727 7:-0.12437575 8:0.058846968 9:0.7338652 10:0 11:1.1622404 12:-0.58670475 
0.1407120352467169 1:-0.16404463 2:-0.30080673 3:-0.86705566 4:0.11950377 5:3.0565134 6:0.86174137 7:0.31569972 8:1.6739195 9:0.14421691 10:0 11:-0.86040723 12:-0.58670475 
1.135886945112491 1:-0.12692628 2:-0.61330519 3:-0.17742379 4:1.2439842 5:-0.9948225 6:-0.34721295 7:0.030100459 8:-2.2064046 9:0.43904106 10:0 11:-0.86040723 12:1.7044348 
-1.188339197285058 1:-0.096211518 2:-0.43408226 3:2.0459862 4:-0.050229123 5:2.4331811 6:-0.76191361 7:-0.14827413 8:1.4179979 9:0.43904106 10:0 11:1.1622404 12:-0.58670475 
1.653704457476743 1:0.42561064 2:-0.38678428 3:-0.17308677 4:0.45896954 5:-0.032643028 6:-0.34638105 7:0.030463933 8:-0.84379527 9:1.0286894 10:0 11:1.1622404 12:-0.58670475 
2.799999999999997 1:-0.87072594 2:0.018200625 3:-0.085494211 4:-0.050229123 5:-0.69182137 6:0.81973057 7:0.67226716 8:-0.19707459 9:0.43904106 10:0 11:1.1622404 12:-0.58670475 
0.01624540939188615 1:-0.016473341 2:-0.92269148 3:-0.26311758 4:-0.050229123 5:0.95010845 6:-0.74236403 7:-0.14254943 8:-0.78500248 9:0.43904106 10:0 11:1.1622404 12:-0.58670475 
0.9113995896498978 1:1.7343203 2:2.5075705 3:3.3232282 4:-0.36847829 5:0.98317674 6:-1.5750929 7:-8.1663165 8:-5.2809217 9:0.7338652 10:0 11:1.1622404 12:-0.58670475 
1.11292661031261 1:0.65444918 2:0.44546697 3:1.1486319 4:-0.36847829 5:-0.71349568 6:0.80038897 7:-0.17898764 8:-0.031071416 9:0.7338652 10:0 11:1.1622404 12:-0.58670475 
-2.488304607734499 1:-0.51043812 2:-1.0299432 3:0.012459491 4:0.92573499 5:-0.78790144 6:0.38360857 7:-0.94482618 8:-0.16940739 9:0.7338652 10:0 11:-0.86040723 12:1.7044348 
2.799999999999997 1:0.37580011 2:-0.057681567 3:-0.16670581 4:-0.45334473 5:0.32390885 6:-0.074974655 7:0.14904714 8:0.15222375 9:-0.44543138 10:0 11:-0.86040723 12:1.7044348 
2.799999999999997 1:-0.051077599 2:0.0043450908 3:-0.16917002 4:0.20437021 5:0.26599569 6:-0.92891693 7:0.15940614 8:0.089972562 9:0.91075969 10:0 11:-0.86040723 12:-0.58670475 
1.311832572247782 1:-3.2060547 2:-1.3396621 3:-0.32638544 4:0.28923665 5:-1.0204224 6:2.4633511 7:-7.7183355 8:-0.63974971 9:0.43904106 10:0 11:1.1622404 12:-0.58670475 
-2.799999999999997 1:-0.023688628 2:0.059536922 3:2.0459862 4:-0.050229123 5:2.4968344 6:-0.76191361 7:-0.14827413 8:1.4179979 9:0.43904106 10:0 11:-0.86040723 12:-0.58670475 
-2.293480026665237 1:0.56863258 2:-0.15039863 3:-0.14258744 4:-0.050229123 5:-1.0204224 6:-0.65834243 7:0.55141224 8:-0.013779419 9:0.43904106 10:0 11:-0.86040723 12:-0.58670475 
-1.443055923099071 1:0.15777186 2:1.442539 3:-0.081128331 4:0.92573499 5:0.36224228 6:-0.98985339 7:-1.2114339 8:0.22485014 9:0.7338652 10:0 11:-0.86040723 12:-0.58670475 
-2.799999999999997 1:0.66638887 2:-0.23131532 3:-0.022057293 4:-0.050229123 5:0.33315943 6:0.81993855 7:0.54405191 8:-0.1244482 9:0.43904106 10:0 11:1.1622404 12:-0.58670475 
2.799999999999997 1:0.35325469 2:0.13046588 3:-0.36461665 4:-0.050229123 5:2.1178619 6:1.1123503 7:0.67063153 8:1.2485364 9:0.43904106 10:0 11:1.1622404 12:-0.58670475 
1.218512533706431 1:3.2397357 2:1.8904104 3:-0.10452529 4:0.28923665 5:-1.0204224 6:-0.36676253 7:-3.1974528 8:0.051930169 9:0.43904106 10:0 11:1.1622404 12:-0.58670475 
0.2027056596791943 1:-0.50060334 2:-2.7167446 3:-0.17943749 4:-0.79281051 5:0.30367572 6:-1.5542955 7:-0.4972995 8:-0.92679685 9:0.43904106 10:0 11:-0.86040723 12:1.7044348 
-0.3875983358496369 1:-1.6787512 2:-0.20057717 3:-2.9238584 4:0.92573499 5:0.83265034 6:1.5944347 7:-5.4191842 8:6.7404746 9:0.7338652 10:0 11:-0.86040723 12:-0.58670475 
0.7389683273752012 1:1.5830935 2:0.42597783 3:-0.13957107 4:-0.7609856 5:1.4942313 6:1.1318999 7:0.67635624 8:-0.95446405 9:-0.32750172 10:0 11:1.1622404 12:-0.58670475 
1.143074272495956 1:0.20350042 2:0.0031868174 3:-0.49783418 4:-0.050229123 5:1.3687831 6:1.2566845 7:-0.68848654 8:-0.114073 9:0.43904106 10:0 11:-0.86040723 12:1.7044348 
-2.799999999999997 1:-0.74533733 2:-3.288784 3:-0.032845175 4:-0.34726168 5:-0.98115308 6:0.54853215 7:0.54786838 8:-1.1204672 9:0.43904106 10:0 11:-0.86040723 12:1.7044348 
-2.629771685644533 1:1.7460955 2:0.80562104 3:0.40363862 4:-0.7609856 5:1.2632047 6:1.1115184 7:0.67144935 8:-0.114073 9:-0.32750172 10:0 11:1.1622404 12:-0.58670475 
1.259592242224166 1:1.9109694 2:0.8834206 3:-0.050981934 4:0.33166988 5:-0.98876698 6:-1.7818193 7:-1.5552798 8:0.31476852 9:0.43904106 10:0 11:-0.86040723 12:1.7044348 
0.6017312624436113 1:0.81833076 2:2.4211433 3:0.40363862 4:-0.7609856 5:0.48448654 6:0.88316272 7:0.42583217 8:-0.072572208 9:0.43904106 10:0 11:-0.86040723 12:-0.58670475 
0.5273108396948476 1:-0.71199982 2:-1.7548571 3:3.9781896 4:-0.79281051 5:0.48792068 6:2.318601 7:-0.21887885 8:0.66060846 9:0.43904106 10:0 11:1.1622404 12:-0.58670475 
0.2590132666003225 1:-0.15014506 2:-0.20095133 3:-0.60179248 4:0.20437021 5:-0.50399961 6:-2.5737853 7:-0.28548536 8:0.10380616 9:0.43904106 10:0 11:-0.86040723 12:-0.58670475 
