svm_type epsilon_svr
kernel_type rbf
gamma 0.15
nr_class 2
total_sv 2070
rho -1.08076
SV
-9.900000000000013 1:-0.58403225 2:0.063074342 3:-0.11137161 4:-0.11779769 5:-0.79617873 6:-0.71427979 7:-0.51856024 8:-0.042126032 9:-0.020458985 10:0 11:-0.80171851 12:1.3945902 
0.9591577752725029 1:-0.37001077 2:0.037742217 3:-0.13858706 4:3.0196659 5:-0.90782759 6:-0.71427979 7:0.30232065 8:-0.030394732 9:-0.88766644 10:0 11:-0.80171851 12:1.3945902 
8.205538159040454 1:0.20684205 2:-0.51777931 3:0.11396473 4:0.13695363 5:0.32969645 6:1.0545354 7:0.56768194 8:1.4741445 9:-2.6220813 10:0 11:-0.80171851 12:1.3945902 
-9.900000000000013 1:-0.2578785 2:-2.1071671 3:-0.26795561 4:1.5179739 5:-0.93071596 6:0.070829351 7:0.37968738 8:-0.83985444 9:-0.020458985 10:0 11:-0.80171851 12:1.3945902 
-9.900000000000013 1:0.2133029 2:-0.13657136 3:1.5784647 4:-0.61389235 5:0.4241738 6:0.32117211 7:0.56444179 8:-0.98356287 9:0.67330698 10:0 11:1.2473206 12:-0.71705651 
9.900000000000013 1:-1.0412317 2:-0.60309198 3:-0.086843599 4:-0.11779769 5:-0.86229527 6:-0.71427979 7:-2.0708543 8:-0.018663432 9:-0.020458985 10:0 11:1.2473206 12:1.3945902 
3.966755307542109 1:-0.43711065 2:0.19051751 3:-0.62052071 4:0.096729736 5:3.136406 6:0.036391609 7:0.19037032 8:1.5767934 9:-0.88766644 10:0 11:-0.80171851 12:-0.71705651 
-2.196479854085996 1:-0.29817365 2:-0.23397061 3:-0.14816362 4:0.79394386 5:0.30063305 6:-0.12437733 7:0.13079133 8:1.0430192 9:0.326424 10:0 11:-0.80171851 12:1.3945902 
-0.5158173916225768 1:-1.10676 2:0.23172569 3:0.38881948 4:-0.49322068 5:0.67644905 6:-1.2142516 7:0.1825014 8:0.68521458 9:-1.2345494 10:0 11:1.2473206 12:-0.71705651 
-9.900000000000013 1:-0.23397556 2:-0.74028782 3:0.21052782 4:0.32466512 5:-0.95641562 6:-0.96480098 7:0.38815144 8:-0.024529082 9:-0.020458985 10:0 11:1.2473206 12:-0.71705651 
9.900000000000013 1:-0.9332946 2:0.75067079 3:-0.91033319 4:-0.49322068 5:0.48133698 6:-0.49926695 7:0.38200177 8:0.057590019 9:-1.2345494 10:0 11:-0.80171851 12:-0.71705651 
9.900000000000013 1:-0.48206404 2:-0.61546723 3:-0.30565605 4:0.2576253 5:-0.88196948 6:-0.71427979 7:0.56702068 8:-0.045058858 9:-0.020458985 10:0 11:1.2473206 12:-0.71705651 
-9.900000000000013 1:-0.16393491 2:-0.15200435 3:-0.24343482 4:-0.49322068 5:1.266936 6:-0.21395115 7:0.39747512 8:-0.042126032 9:-1.2345494 10:0 11:-0.80171851 12:-0.71705651 
2.747482006866687 1:-1.2116182 2:-0.68011203 3:1.6533281 4:-0.49322068 5:-0.36408294 6:0.30368558 7:0.56225965 8:-0.20929706 9:-1.2345494 10:0 11:-0.80171851 12:-0.71705651 
-1.918749457025942 1:-0.53816526 2:-0.61974396 3:-0.61441678 4:0.20399345 5:0.33501504 6:-0.67930675 7:0.38074539 8:-0.11837948 9:1.3670729 10:0 11:-0.80171851 12:-0.71705651 
-9.900000000000013 1:-1.0034169 2:-0.9288674 3:-0.11137161 4:-0.11779769 5:-0.93177063 6:-0.71427979 7:-1.2491799 8:-0.042126032 9:-0.020458985 10:0 11:1.2473206 12:1.3945902 
-9.900000000000013 1:-0.0052389864 2:-0.15326842 3:0.023532445 4:-0.11779769 5:1.9193067 6:0.55474208 7:0.5610694 8:1.0166238 9:-0.020458985 10:0 11:-0.80171851 12:-0.71705651 
9.900000000000013 1:0.56869131 2:0.62647345 3:0.18557244 4:-0.50662864 5:-0.43666324 6:0.036570043 7:0.58057639 8:-0.047991683 9:0.84674847 10:0 11:-0.80171851 12:-0.71705651 
-9.900000000000013 1:0.78908721 2:0.48192643 3:0.01404024 4:0.84757572 5:0.20453682 6:0.53725555 7:0.035504603 8:-0.059722983 9:0.84674847 10:0 11:-0.80171851 12:-0.71705651 
9.900000000000013 1:-0.95549658 2:-0.46837271 3:-0.13589962 4:-0.11779769 5:-0.86229527 6:-0.46411547 7:-1.9781465 8:-0.024529082 9:-0.020458985 10:0 11:1.2473206 12:1.3945902 
-9.900000000000013 1:-0.46633412 2:-0.26580755 3:0.17254383 4:0.61964033 5:-0.37202683 6:0.71479728 7:0.57257522 8:0.3948649 9:1.3670729 10:0 11:1.2473206 12:-0.71705651 
9.900000000000013 1:-0.15584585 2:-0.0004645018 3:0.99045874 4:0.71349608 5:0.1030698 6:-0.71427979 7:0.56702068 8:-0.045058858 9:1.5405144 10:0 11:-0.80171851 12:-0.71705651 
-9.900000000000013 1:-0.15584585 2:-0.89034387 3:-0.50733815 4:-0.77478792 5:-0.68540226 6:-0.96444411 7:0.0083931833 8:-0.053857333 9:-0.71422495 10:0 11:1.2473206 12:-0.71705651 
9.900000000000013 1:-1.1012136 2:-0.4087183 3:-0.062315589 4:-0.11779769 5:-0.86229527 6:-0.96444411 7:-2.1635622 8:-0.036260382 9:-0.020458985 10:0 11:1.2473206 12:1.3945902 
7.660027187736886 1:-0.24744919 2:-0.7016006 3:0.24078554 4:-1.0697631 5:0.80968302 6:0.55474208 7:0.5610694 8:1.0166238 9:-1.3212702 10:0 11:-0.80171851 12:-0.71705651 
1.538711146110796 1:-0.050944472 2:0.21320551 3:1.7151086 4:-0.62730032 5:0.2916042 6:0.0005263959 7:0.5657643 8:0.051724369 9:-2.6220813 10:0 11:-0.80171851 12:-0.71705651 
-1.715209530256763 1:-0.068402372 2:-0.10579855 3:1.3942125 4:1.102327 5:1.2664566 6:-0.17862124 7:0.5662933 8:-0.13011078 9:-1.7548739 10:0 11:-0.80171851 12:-0.71705651 
5.214074015896211 1:-2.5661151 2:0.68054828 3:1.3530331 4:0.31125716 5:-0.15099285 6:4.9674123 7:-1.0512005 8:-0.64628799 9:-0.020458985 10:0 11:1.2473206 12:-0.71705651 
-9.900000000000013 1:0.09795812 2:0.4531122 3:0.2123414 4:0.20399345 5:-0.7558139 6:0.036570043 7:0.58057639 8:-0.047991683 9:1.3670729 10:0 11:-0.80171851 12:1.3945902 
9.900000000000013 1:0.36997422 2:-0.44209236 3:-0.20948365 4:-0.11779769 5:-0.84833009 6:-0.21395115 7:-1.1540255 8:-0.053857333 9:-0.020458985 10:0 11:1.2473206 12:1.3945902 
-9.900000000000013 1:0.072426084 2:-0.32281212 3:-0.30081854 4:-0.21165343 5:1.5751263 6:0.92909639 7:-0.97343697 8:0.20423127 9:0.67330698 10:0 11:-0.80171851 12:-0.71705651 
8.719437817907858 1:-0.071086433 2:0.3685853 3:-0.2667307 4:-1.0161313 5:0.53438307 6:0.25069072 7:0.65847213 8:0.060522844 9:-2.2751984 10:0 11:-0.80171851 12:-0.71705651 
4.269627461086086 1:-0.32871336 2:0.078851725 3:-0.13589962 4:-0.11779769 5:0.88662874 6:0.32188584 7:0.66105102 8:-0.13304361 9:-0.020458985 10:0 11:-0.80171851 12:1.3945902 
9.900000000000013 1:0.59215179 2:0.48227268 3:-0.65306581 4:0.2576253 5:-0.19609963 6:0.28673436 7:0.58302303 8:-0.053857333 9:-1.7548739 10:0 11:1.2473206 12:-0.71705651 
-6.076668258808161 1:-0.36485094 2:-0.075286902 3:-0.057245678 4:0.056505844 5:-0.95641562 6:-0.71427979 7:0.30232065 8:-0.030394732 9:-2.6220813 10:0 11:-0.80171851 12:1.3945902 
-1.284618046354083 1:-0.11652815 2:-0.15698998 3:0.073250848 4:0.32466512 5:0.42528622 6:-0.4305699 7:-0.75032982 8:-3.7726795 9:-0.020458985 10:0 11:1.2473206 12:-0.71705651 
-9.900000000000013 1:-0.75778432 2:-0.46143188 3:-0.16042763 4:-0.11779769 5:-0.85986953 6:-0.46411547 7:-1.977353 8:-0.047991683 9:-0.020458985 10:0 11:1.2473206 12:1.3945902 
-9.900000000000013 1:0.21398854 2:-0.38081741 3:0.08485247 4:-0.11779769 5:0.3214694 6:1.0545354 7:0.56768194 8:1.4741445 9:-0.020458985 10:0 11:-0.80171851 12:-0.71705651 
0.7341931442453022 1:-0.17882807 2:0.080808609 3:-1.0557 4:-0.11779769 5:3.0307943 6:1.1792607 7:0.57846038 8:-0.13597643 9:-0.020458985 10:0 11:-0.80171851 12:-0.71705651 
-9.900000000000013 1:-0.35600303 2:-0.26714993 3:-0.11137161 4:-0.11779769 5:0.0073050692 6:-0.14222072 7:0.3019239 8:-0.094916883 9:-0.020458985 10:0 11:-0.80171851 12:1.3945902 
-8.910094520746922 1:0.54742416 2:-0.34404109 3:1.5897334 4:-1.0563552 5:1.8502539 6:1.0545354 7:0.56768194 8:1.4741445 9:-0.020458985 10:0 11:1.2473206 12:-0.71705651 
-9.900000000000013 1:0.25538382 2:0.22981932 3:-0.22657185 4:-0.29210122 5:-0.62241812 6:-0.7496097 7:-0.027579042 8:-0.089051233 9:1.7139559 10:0 11:-0.80171851 12:-0.71705651 
-9.900000000000013 1:-0.40252726 2:-0.63334455 3:-0.37517176 4:-0.18483751 5:-0.87779761 6:-1.0361745 7:0.36170127 8:0.25115647 9:0.326424 10:0 11:-0.80171851 12:1.3945902 
-9.900000000000013 1:0.50355837 2:-0.0038648601 3:1.609528 4:-0.18483751 5:0.32509414 6:-1.5714762 7:-0.48126551 8:0.095716745 9:0.67330698 10:0 11:-0.80171851 12:-0.71705651 
9.900000000000013 1:-0.29267284 2:-0.3874219 3:-0.14816362 4:-0.11779769 5:0.44370938 6:0.25069072 7:0.65847213 8:0.060522844 9:-0.020458985 10:0 11:-0.80171851 12:1.3945902 
9.900000000000013 1:-0.84563833 2:-0.49307838 3:-0.12363561 4:-0.11779769 5:-0.83240235 6:-0.71427979 7:-1.3394411 8:-0.053857333 9:-0.020458985 10:0 11:1.2473206 12:1.3945902 
-9.900000000000013 1:-0.97668586 2:-0.39847524 3:-0.12363561 4:-0.11779769 5:-0.77524719 6:-0.71427979 7:-0.51856024 8:-0.053857333 9:-0.020458985 10:0 11:1.2473206 12:1.3945902 
9.900000000000013 1:1.2685626 2:0.77761241 3:0.29334055 4:-0.11779769 5:-0.25958182 6:1.3594789 7:0.036760986 8:-0.11837948 9:-0.020458985 10:0 11:-0.80171851 12:1.3945902 
-9.900000000000013 1:0.16541619 2:0.30147792 3:-0.23401166 4:-0.11779769 5:-0.87387143 6:0.036213175 7:-1.882992 8:-0.036260382 9:-0.020458985 10:0 11:-0.80171851 12:1.3945902 
-9.900000000000013 1:1.2491878 2:0.58544925 3:-0.20372779 4:-1.0697631 5:0.9854978 6:-0.21377271 7:0.27421735 8:0.095716745 9:-1.3212702 10:0 11:1.2473206 12:-0.71705651 
-0.02775358641736159 1:0.41576277 2:-0.15618148 3:-0.81020057 4:2.9928499 5:0.7864788 6:-1.2149653 7:-1.5559357 8:-0.018663432 9:-0.020458985 10:0 11:-0.80171851 12:1.3945902 
9.900000000000013 1:0.30925068 2:0.16825689 3:-0.39957572 4:-0.11779769 5:2.194097 6:0.8049064 7:0.65377723 8:1.0254223 9:-0.020458985 10:0 11:1.2473206 12:-0.71705651 
7.014480700290464 1:-0.45034763 2:0.21795502 3:0.19827709 4:-0.49322068 5:-0.023781029 6:0.036570043 7:0.58057639 8:-0.047991683 9:-1.2345494 10:0 11:1.2473206 12:-0.71705651 
9.900000000000013 1:0.029024804 2:0.5257892 3:0.44987992 4:-0.93568349 5:-0.89071749 6:0.89376648 7:0.58143602 8:-0.18876728 9:-0.020458985 10:0 11:1.2473206 12:-0.71705651 
-2.760111521432562 1:1.2333065 2:-1.2125494 3:3.1652055 4:-0.5200366 5:-0.01362204 6:1.5721722 7:-0.0023191338 8:-0.24155814 9:0.84674847 10:0 11:1.2473206 12:-0.71705651 
9.900000000000013 1:-0.20217019 2:0.10217594 3:-1.6083411 4:-0.21165343 5:0.93852488 6:-0.39292034 7:-0.069767056 8:-0.22982684 9:-2.6220813 10:0 11:-0.80171851 12:-0.71705651 
9.900000000000013 1:0.46359198 2:-0.40684925 3:-0.481677 4:0.2576253 5:0.16745513 6:-1.2861604 7:0.065128789 8:0.010664818 9:-0.020458985 10:0 11:-0.80171851 12:-0.71705651 
-0.1810560239526373 1:-0.28476995 2:-3.1208354 3:-0.34805525 4:13.933749 5:-0.70297657 6:0.60791538 7:-2.2456899 8:4.198739 9:0.67330698 10:0 11:1.2473206 12:-0.71705651 
-2.396306448294564 1:-0.39414744 2:-0.97312021 3:-0.41971003 4:-1.0563552 5:1.8702592 6:-0.94713602 7:0.002441896 8:-2.3619906 9:-0.020458985 10:0 11:-0.80171851 12:1.3945902 
-9.900000000000013 1:-0.11281532 2:0.52534247 3:-0.98824796 4:-0.11779769 5:-0.10344758 6:-0.49926695 7:0.38200177 8:0.057590019 9:-0.020458985 10:0 11:-0.80171851 12:-0.71705651 
-9.900000000000013 1:-0.099428657 2:-0.83166841 3:-0.16813398 4:0.15036159 5:0.66609875 6:0.55384991 7:0.38213403 8:1.4858758 9:0.84674847 10:0 11:1.2473206 12:-0.71705651 
-9.900000000000013 1:-0.29993294 2:-0.14547146 3:-0.14816362 4:-0.11779769 5:-0.79617873 6:-0.46411547 7:-0.42585241 8:-0.036260382 9:-0.020458985 10:0 11:-0.80171851 12:1.3945902 
8.474736278861398 1:0.090112762 2:-0.44278033 3:0.023532445 4:-0.11779769 5:2.3101239 6:0.55474208 7:0.5610694 8:1.0166238 9:-0.020458985 10:0 11:1.2473206 12:-0.71705651 
-9.900000000000013 1:-0.60652548 2:-0.79316969 3:-0.36891571 4:-0.11779769 5:-0.24219843 6:-0.67912831 7:0.29008745 8:-0.12424513 9:-0.020458985 10:0 11:-0.80171851 12:1.3945902 
9.900000000000013 1:-0.67809652 2:-0.72342321 3:-0.054730353 4:0.096729736 5:0.11435548 6:0.55384991 7:0.65496748 8:-0.20049858 9:-0.88766644 10:0 11:-0.80171851 12:1.3945902 
-8.305264263973147 1:0.91421266 2:0.41713286 3:-0.45476375 4:-0.11779769 5:-0.23754088 6:-1.3218472 7:-0.56504641 8:0.12797782 9:-0.020458985 10:0 11:-0.80171851 12:1.3945902 
9.346571137052759 1:0.39722246 2:0.66417443 3:0.0062813778 4:-0.2250614 5:-0.54103977 6:-0.21395115 7:0.66640718 8:-0.027461907 9:1.7139559 10:0 11:1.2473206 12:-0.71705651 
-9.900000000000013 1:-0.39962633 2:0.013477488 3:1.0498073 4:-1.2574746 5:1.4474997 6:-1.1071912 7:0.13145258 8:-0.57296737 9:1.7139559 10:0 11:-0.80171851 12:-0.71705651 
-9.900000000000013 1:-0.48876879 2:0.57330287 3:0.096901104 4:3.6096163 5:-0.67428614 6:2.8226369 7:0.031272577 8:-0.23569249 9:0.67330698 10:0 11:-0.80171851 12:1.3945902 
-9.900000000000013 1:1.1360481 2:0.52318683 3:0.097116475 4:-0.11779769 5:-0.900408 6:0.036570043 7:0.58057639 8:-0.047991683 9:-0.020458985 10:0 11:1.2473206 12:-0.71705651 
9.900000000000013 1:-0.20740354 2:0.20048433 3:-0.62032781 4:-0.11779769 5:-0.59556069 6:-0.7496097 7:-0.26695304 8:0.042925894 9:-0.020458985 10:0 11:-0.80171851 12:1.3945902 
-9.900000000000013 1:-0.66120296 2:-0.28299412 3:-0.075074576 4:-0.78819588 5:-0.95641562 6:-0.71427979 7:0.30232065 8:-0.030394732 9:-1.7548739 10:0 11:1.2473206 12:-0.71705651 
9.900000000000013 1:-0.18128113 2:-0.37254459 3:-0.63845045 4:0.20399345 5:-0.43798056 6:-1.2149653 7:0.38147277 8:-0.033327557 9:-0.020458985 10:0 11:-0.80171851 12:-0.71705651 
9.900000000000013 1:0.46288105 2:1.6788189 3:0.12164448 4:-0.11779769 5:-0.95641562 6:-0.49926695 7:0.38200177 8:0.057590019 9:-0.020458985 10:0 11:-0.80171851 12:1.3945902 
-7.794311370851817 1:-0.15828949 2:0.030067203 3:-2.5212486 4:-0.11779769 5:1.4309786 6:0.9649616 7:0.66528305 8:0.40366337 9:-0.020458985 10:0 11:-0.80171851 12:-0.71705651 
9.900000000000013 1:-1.149459 2:-0.65033957 3:-0.30686099 4:3.0196659 5:-0.95641562 6:-1.2149653 7:0.29544361 8:-0.030394732 9:-0.88766644 10:0 11:-0.80171851 12:1.3945902 
8.558708501341158 1:-0.82381749 2:-0.47692344 3:-0.2442983 4:0.20399345 5:0.21095841 6:0.83952257 7:0.30106427 8:-0.062655808 9:1.3670729 10:0 11:-0.80171851 12:-0.71705651 
8.682895394475834 1:0.50749816 2:0.58703281 3:0.05996598 4:0.32466512 5:-0.66171225 6:0.036570043 7:0.58057639 8:-0.047991683 9:-0.020458985 10:0 11:-0.80171851 12:-0.71705651 
9.900000000000013 1:-0.20972132 2:-0.55475247 3:-0.56154271 4:0.20399345 5:-0.76223721 6:-0.87522716 7:0.12536904 8:-0.64042234 9:1.3670729 10:0 11:-0.80171851 12:-0.71705651 
9.900000000000013 1:0.61824098 2:1.0218408 3:-0.55287578 4:-0.11779769 5:-0.20193653 6:-0.7496097 7:0.0019790181 8:0.057590019 9:-0.020458985 10:0 11:1.2473206 12:-0.71705651 
0.3857567498964287 1:1.3927583 2:0.44870684 3:-0.18203993 4:-1.0161313 5:1.5680365 6:0.82167918 7:0.65794313 8:-0.84278727 9:-2.2751984 10:0 11:1.2473206 12:-0.71705651 
-9.900000000000013 1:-1.2624951 2:-0.29994459 3:2.3892666 4:-1.0697631 5:0.53045039 6:0.0005263959 7:0.5657643 8:0.051724369 9:-1.3212702 10:0 11:1.2473206 12:-0.71705651 
-9.900000000000013 1:1.1550365 2:0.78014911 3:-0.05940429 4:-0.33232511 5:-0.95592423 6:-0.99995246 7:0.37512473 8:0.069321319 9:-0.020458985 10:0 11:1.2473206 12:-0.71705651 
-5.164828710511476 1:-0.22548588 2:-0.9417857 3:1.3811358 4:-0.61389235 5:1.5843533 6:0.55474208 7:0.5610694 8:1.0166238 9:0.67330698 10:0 11:1.2473206 12:-0.71705651 
-8.2250594073925 1:0.13615285 2:0.020396984 3:-0.15046721 4:3.6230242 5:0.78185456 6:-0.87522716 7:-0.18290764 8:-0.10371536 9:0.84674847 10:0 11:1.2473206 12:-0.71705651 
-9.900000000000013 1:-0.74004876 2:-0.13366404 3:-0.21015968 4:0.32466512 5:0.96996418 6:-0.44734268 7:0.18765918 8:-1.9044699 9:-0.020458985 10:0 11:-0.80171851 12:-0.71705651 
0.1197538311677683 1:0.81461411 2:2.0659486 3:0.039298987 4:0.20399345 5:-0.51069589 6:-0.74889597 7:0.19923113 8:0.76146803 9:1.3670729 10:0 11:-0.80171851 12:1.3945902 
7.244489977217283 1:-1.2107653 2:-0.46437312 3:-0.30686099 4:3.0196659 5:-0.95122628 6:-1.2149653 7:0.29544361 8:-0.030394732 9:-0.88766644 10:0 11:-0.80171851 12:-0.71705651 
9.900000000000013 1:-0.050900925 2:-0.0039087593 3:-0.14335689 4:0.20399345 5:-0.95641562 6:-0.21395115 7:0.39747512 8:-0.042126032 9:1.3670729 10:0 11:-0.80171851 12:1.3945902 
-9.900000000000013 1:-0.54816416 2:0.71813709 3:-0.063289616 4:0.15036159 5:-0.017313936 6:0.12596542 7:0.29689837 8:-0.015730607 9:0.84674847 10:0 11:-0.80171851 12:-0.71705651 
-9.864598679472605 1:0.14646879 2:0.722145 3:0.10388287 4:0.13695363 5:-0.95641562 6:0.28673436 7:0.58302303 8:-0.053857333 9:-2.6220813 10:0 11:1.2473206 12:-0.71705651 
-6.175050828617658 1:-0.71241721 2:-0.59188576 3:-0.092975601 4:-0.11779769 5:0.34121377 6:0.57133643 7:0.65714962 8:-0.9747644 9:-0.020458985 10:0 11:-0.80171851 12:-0.71705651 
8.235344359852927 1:-1.3347846 2:-0.5700084 3:-0.050051584 4:-0.11779769 5:-0.92133954 6:-0.96444411 7:-0.52100688 8:-0.024529082 9:-0.020458985 10:0 11:1.2473206 12:1.3945902 
9.900000000000013 1:-0.68727995 2:-0.78137027 3:-0.22224918 4:-1.0697631 5:-0.95641562 6:-0.46411547 7:0.30476729 8:-0.047991683 9:-0.020458985 10:0 11:1.2473206 12:-0.71705651 
-9.900000000000013 1:-0.17768711 2:0.097793756 3:2.4702014 4:-0.11779769 5:0.23138183 6:-1.3573556 7:0.062549898 8:0.20423127 9:-0.020458985 10:0 11:1.2473206 12:-0.71705651 
-9.900000000000013 1:-0.36904258 2:-0.0087494377 3:-0.22174765 4:-0.11779769 5:1.4821586 6:-0.46340173 7:0.18375778 8:1.1192727 9:-0.020458985 10:0 11:-0.80171851 12:-0.71705651 
5.096799262387255 1:-0.65578128 2:-0.30519446 3:-0.1851018 4:3.0196659 5:-0.78278896 6:0.07172152 7:0.56834319 8:-0.14184208 9:-0.88766644 10:0 11:-0.80171851 12:-0.71705651 
9.900000000000013 1:-0.60470403 2:0.16056694 3:1.427761 4:-0.11779769 5:-0.54103499 6:-0.71427979 7:0.56702068 8:-0.045058858 9:-0.020458985 10:0 11:-0.80171851 12:-0.71705651 
5.405185482726854 1:-2.4005611 2:-0.19882422 3:-0.14816362 4:-1.472002 5:2.0310872 6:-0.44662895 7:0.18792368 8:-0.74893687 9:-0.020458985 10:0 11:1.2473206 12:-0.71705651 
9.900000000000013 1:0.45320664 2:1.2882065 3:0.44467174 4:-1.0161313 5:-0.90123258 6:0.28673436 7:0.58222953 8:-0.042126032 9:-2.2751984 10:0 11:1.2473206 12:-0.71705651 
9.403245329149842 1:0.89065428 2:0.6268957 3:-0.27030447 4:1.5179739 5:-0.95096191 6:-1.4995674 7:0.27600274 8:0.90224363 9:1.3670729 10:0 11:-0.80171851 12:1.3945902 
9.900000000000013 1:0.3154323 2:0.61610828 3:-0.11137161 4:-0.11779769 5:-0.9166496 6:-0.21395115 7:0.66640718 8:-0.027461907 9:-0.020458985 10:0 11:-0.80171851 12:1.3945902 
9.900000000000013 1:-0.48949547 2:-0.91567372 3:-0.16655963 4:-0.11779769 5:-0.0071713832 6:0.30368558 7:0.56225965 8:-0.20929706 9:-0.020458985 10:0 11:1.2473206 12:-0.71705651 
0.8034141749953788 1:2.9947881 2:0.73489564 3:0.52876126 4:-0.5200366 5:1.8968551 6:2.0739283 7:0.18190627 8:2.087105 9:0.84674847 10:0 11:1.2473206 12:-0.71705651 
-3.93374014223237 1:0.24816744 2:1.9076358 3:-2.4245486 4:-0.2250614 5:0.61517972 6:0.37612975 7:-0.16234264 8:-0.0069321319 9:1.7139559 10:0 11:-0.80171851 12:-0.71705651 
8.179157239006756 1:2.493242 2:1.3444998 3:0.46304221 4:-1.0697631 5:-0.12770201 6:0.28673436 7:0.58302303 8:-0.053857333 9:-1.2345494 10:0 11:-0.80171851 12:1.3945902 
-4.740210768837526 1:-1.1968594 2:-0.48702787 3:-0.16510178 4:-1.0161313 5:0.25645914 6:0.14291664 7:0.30318028 8:-0.18290163 9:-0.020458985 10:0 11:-0.80171851 12:1.3945902 
4.390306123612838 1:0.7649782 2:0.66492052 3:1.1619976 4:-0.18483751 5:0.079117277 6:-1.5534544 7:-1.2962612 8:-1.2856439 9:0.67330698 10:0 11:-0.80171851 12:-0.71705651 
-1.302780873744515 1:-0.83119941 2:-0.51735088 3:0.012951685 4:4.6420295 5:1.5348987 6:1.5735996 7:-0.0035093913 8:2.069508 9:1.7139559 10:0 11:1.2473206 12:-0.71705651 
-9.900000000000013 1:-0.3830601 2:0.025526619 3:1.9305852 4:-0.11779769 5:2.8780475 6:-0.80313987 7:0.057854993 8:1.1691307 9:-0.020458985 10:0 11:-0.80171851 12:-0.71705651 
9.900000000000013 1:-0.41020191 2:-0.22275984 3:2.0344129 4:-0.49322068 5:0.43260539 6:-0.17862124 7:0.5662933 8:-0.13011078 9:-1.2345494 10:0 11:-0.80171851 12:-0.71705651 
-9.900000000000013 1:-0.44793189 2:-0.23056537 3:-0.22787966 4:-0.11779769 5:3.0307943 6:0.42841088 7:0.30020464 8:-0.13011078 9:-0.020458985 10:0 11:-0.80171851 12:-0.71705651 
-1.963295213181925 1:-0.19675746 2:-0.99735837 3:-0.30146368 4:-0.11779769 5:-0.22661325 6:-0.78636708 7:0.062020894 8:-0.69907884 9:-0.020458985 10:0 11:1.2473206 12:-0.71705651 
-9.900000000000013 1:0.10510825 2:-0.43458587 3:-0.16042763 4:-0.11779769 5:-0.94745195 6:-0.46411547 7:-0.42585241 8:-0.047991683 9:-0.020458985 10:0 11:1.2473206 12:1.3945902 
9.900000000000013 1:2.0504906 2:0.86770403 3:0.18557244 4:-0.50662864 5:-0.88387108 6:0.036570043 7:0.58057639 8:-0.047991683 9:0.84674847 10:0 11:-0.80171851 12:1.3945902 
-3.059288917831774 1:-0.65496576 2:-1.0373399 3:0.011254796 4:0.32466512 5:-0.45400297 6:1.3218294 7:-0.24989269 8:0.24822365 9:-1.7548739 10:0 11:-0.80171851 12:1.3945902 
-0.5529578471507677 1:-0.76919572 2:0.61853866 3:-3.1561179 4:1.115735 5:1.0310306 6:0.25247506 7:-2.251509 8:3.3658167 9:0.84674847 10:0 11:-0.80171851 12:-0.71705651 
-9.900000000000013 1:-0.12669581 2:0.34053205 3:-1.4153802 4:-1.0563552 5:2.3973766 6:0.89376648 7:0.58143602 8:-0.18876728 9:-0.020458985 10:0 11:-0.80171851 12:-0.71705651 
4.235997599069335 1:-1.1160639 2:-1.5091274 3:-0.57115618 4:0.20399345 5:-0.95641562 6:-0.42896399 7:0.38279528 8:-0.13011078 9:1.3670729 10:0 11:-0.80171851 12:1.3945902 
-9.900000000000013 1:0.27551107 2:0.14934857 3:-0.19687481 4:0.32466512 5:-0.50837632 6:-0.21395115 7:0.39747512 8:-0.042126032 9:-0.020458985 10:0 11:1.2473206 12:-0.71705651 
-7.123783641136854 1:1.2237032 2:4.6437211 3:0.83424927 4:-1.0161313 5:0.40540819 6:1.68066 7:-0.17437746 8:-0.15357338 9:-0.020458985 10:0 11:-0.80171851 12:1.3945902 
-9.900000000000013 1:-0.46781721 2:-1.6791798 3:-0.12976762 4:-0.11779769 5:-0.80669224 6:0.32117211 7:0.56444179 8:-0.98356287 9:-0.020458985 10:0 11:-0.80171851 12:-0.71705651 
3.247159255349934 1:0.019112597 2:-0.6215171 3:-0.27794543 4:0.20399345 5:-0.76780128 6:-0.71427979 7:0.56702068 8:-0.045058858 9:1.3670729 10:0 11:-0.80171851 12:1.3945902 
9.900000000000013 1:3.3569205 2:-0.90126217 3:0.56669194 4:0.31125716 5:0.31668627 6:3.6784059 7:-1.1160034 8:-3.2975618 9:-0.020458985 10:0 11:1.2473206 12:-0.71705651 
-7.9937808583702 1:1.387667 2:1.1827857 3:0.10300589 4:-0.49322068 5:-0.95641562 6:0.28673436 7:0.58302303 8:-0.053857333 9:-1.2345494 10:0 11:-0.80171851 12:1.3945902 
9.900000000000013 1:-0.037687063 2:-0.15395639 3:2.1697333 4:-0.11779769 5:0.22389332 6:-2.0721617 7:0.063806281 8:0.10744804 9:-0.020458985 10:0 11:-0.80171851 12:-0.71705651 
9.900000000000013 1:-1.0509667 2:-0.21857477 3:-0.068698592 4:-0.97590738 5:0.17926487 6:0.14291664 7:0.30318028 8:-0.18290163 9:0.84674847 10:0 11:-0.80171851 12:1.3945902 
-7.99352996699051 1:0.22066548 2:0.35294584 3:-0.2211725 4:-0.21165343 5:-0.20971664 6:-0.78601022 7:0.18547704 8:0.022396119 9:-2.6220813 10:0 11:-0.80171851 12:-0.71705651 
1.548752323404753 1:-0.20912442 2:0.21947223 3:-2.5212486 4:-0.11779769 5:1.004149 6:0.9649616 7:0.66528305 8:0.40366337 9:-0.020458985 10:0 11:1.2473206 12:-0.71705651 
-7.869316657046489 1:-0.23798592 2:-1.0675912 3:-0.37889856 4:3.5425765 5:0.096674867 6:1.5903724 7:0.00065650985 8:0.20129845 9:-0.020458985 10:0 11:1.2473206 12:-0.71705651 
9.900000000000013 1:1.3539717 2:1.1015838 3:0.097116475 4:-0.11779769 5:-0.94819124 6:0.036570043 7:0.58057639 8:-0.047991683 9:-0.020458985 10:0 11:1.2473206 12:-0.71705651 
-9.900000000000013 1:-0.16198832 2:0.26490399 3:-0.15310617 4:3.3682729 5:-0.80580697 6:-1.2499383 7:0.078419997 8:-0.17117033 9:0.84674847 10:0 11:-0.80171851 12:-0.71705651 
-5.595016410625364 1:-0.82705749 2:1.1539858 3:-3.6762905 4:1.115735 5:0.25094686 6:1.7527473 7:-2.247806 8:1.7996881 9:0.84674847 10:0 11:-0.80171851 12:1.3945902 
-9.900000000000013 1:-0.41647396 2:-0.16186037 3:0.023532445 4:-0.11779769 5:1.7760311 6:0.55474208 7:0.5610694 8:1.0166238 9:-0.020458985 10:0 11:1.2473206 12:-0.71705651 
-1.50569983563968 1:0.4149497 2:0.57447861 3:-1.7240883 4:-0.11779769 5:-0.45270213 6:-0.21395115 7:0.66640718 8:-0.027461907 9:-0.020458985 10:0 11:-0.80171851 12:-0.71705651 
5.742172117099997 1:-0.67480391 2:-0.055387874 3:-0.61309106 4:-0.65411624 5:2.8493664 6:0.018905087 7:0.18389003 8:2.2894699 9:-0.020458985 10:0 11:-0.80171851 12:-0.71705651 
9.900000000000013 1:0.06929735 2:0.53510644 3:-0.19398689 4:-0.54685253 5:-0.94072 6:-0.7496097 7:-0.027579042 8:-0.089051233 9:-2.6220813 10:0 11:-0.80171851 12:1.3945902 
-9.900000000000013 1:0.13562355 2:-0.78299186 3:0.018605606 4:1.5179739 5:-0.93071596 6:0.106873 7:0.39304472 8:-0.9395705 9:-0.020458985 10:0 11:-0.80171851 12:1.3945902 
-9.900000000000013 1:0.11170759 2:0.39370018 3:-0.13855016 4:0.20399345 5:-0.7558139 6:-1.6068061 7:-0.028438672 8:0.051724369 9:1.3670729 10:0 11:-0.80171851 12:1.3945902 
7.738086412176726 1:-0.2489996 2:0.58902801 3:-0.5169302 4:-0.26528529 5:-0.29207115 6:-1.6430282 7:0.13680874 8:-0.46738566 9:-0.88766644 10:0 11:-0.80171851 12:-0.71705651 
9.900000000000013 1:-0.14362127 2:0.88644883 3:-0.092975601 4:-0.11779769 5:-0.95641562 6:-0.7496097 7:0.46789869 8:0.057590019 9:-0.020458985 10:0 11:-0.80171851 12:-0.71705651 
9.900000000000013 1:-0.016565802 2:-0.73615277 3:-0.010033355 4:-0.61389235 5:1.045911 6:0.55474208 7:0.5610694 8:1.0166238 9:0.67330698 10:0 11:1.2473206 12:-0.71705651 
3.683303768476832 1:-0.39296951 2:0.14131145 3:0.032867312 4:-1.0563552 5:2.2832917 6:-1.1607214 7:-0.179932 8:-0.15650621 9:-0.020458985 10:0 11:-0.80171851 12:-0.71705651 
-9.900000000000013 1:-0.34609563 2:-0.54957963 3:-0.13228767 4:0.88779961 5:1.0108715 6:-0.99995246 7:-0.19368608 8:1.5064056 9:0.84674847 10:0 11:-0.80171851 12:-0.71705651 
-4.699675334486394 1:0.74907424 2:0.80057889 3:5.5706809 4:0.31125716 5:2.2125215 6:3.6784059 7:-1.1160034 8:-3.2975618 9:-0.020458985 10:0 11:1.2473206 12:-0.71705651 
-9.900000000000013 1:-0.18264328 2:0.14147691 3:1.4188315 4:0.20399345 5:1.1087585 6:0.0005263959 7:0.5657643 8:0.051724369 9:1.3670729 10:0 11:-0.80171851 12:-0.71705651 
-9.900000000000013 1:0.079093019 2:0.70869883 3:0.17239934 4:-0.62730032 5:-0.54741862 6:0.036570043 7:0.58057639 8:-0.047991683 9:-2.6220813 10:0 11:-0.80171851 12:-0.71705651 
9.900000000000013 1:-1.8180632 2:-2.2706787 3:-1.2580561 4:-0.11779769 5:0.74024842 6:1.7142055 7:-0.16750042 8:-0.9395705 9:-0.020458985 10:0 11:-0.80171851 12:1.3945902 
1.119244432353687 1:0.82350166 2:-0.52942692 3:1.5187614 4:-1.0697631 5:1.461194 6:1.0545354 7:0.56768194 8:1.4741445 9:-1.3212702 10:0 11:-0.80171851 12:-0.71705651 
-9.900000000000013 1:0.13191921 2:0.060590406 3:0.43212457 4:-0.49322068 5:-0.17095472 6:-0.32154679 7:-0.39907162 8:0.42712597 9:-0.020458985 10:0 11:-0.80171851 12:1.3945902 
-0.4472941224744776 1:1.249641 2:0.70436831 3:-0.36617459 4:0.096729736 5:-0.87069984 6:-0.94642229 7:0.19103158 8:-0.039193207 9:-0.88766644 10:0 11:-0.80171851 12:-0.71705651 
-9.900000000000013 1:-1.0818173 2:-1.8710156 3:-0.39957572 4:-0.11779769 5:-0.86668844 6:0.32099367 7:-0.34848568 8:-0.84572009 9:-0.020458985 10:0 11:-0.80171851 12:1.3945902 
-9.900000000000013 1:0.56725022 2:0.38817365 3:-0.068483678 4:1.102327 5:0.27428039 6:0.28673436 7:0.58222953 8:-0.042126032 9:-1.7548739 10:0 11:1.2473206 12:-0.71705651 
9.900000000000013 1:1.2965269 2:0.77718578 3:0.074178624 4:0.2576253 5:-0.9268869 6:0.28673436 7:0.58222953 8:-0.042126032 9:-1.7548739 10:0 11:1.2473206 12:-0.71705651 
7.641987826125429 1:-0.46960094 2:-0.48128335 3:0.16427865 4:-0.74797199 5:-0.11790102 6:0.55474208 7:0.5610694 8:1.0166238 9:1.7139559 10:0 11:1.2473206 12:-0.71705651 
-5.81980757366799 1:0.1549202 2:0.67856105 3:-0.14335689 4:0.20399345 5:-0.91248257 6:-0.21395115 7:0.39747512 8:-0.042126032 9:1.3670729 10:0 11:-0.80171851 12:-0.71705651 
9.900000000000013 1:-1.2136798 2:-0.9322308 3:-0.11750361 4:-0.11779769 5:-0.95641562 6:0.42841088 7:0.30020464 8:-0.13011078 9:-0.020458985 10:0 11:-0.80171851 12:1.3945902 
-9.900000000000013 1:-0.2466231 2:-0.75719025 3:0.96044665 4:-0.49322068 5:0.7748056 6:1.0545354 7:0.56768194 8:1.4741445 9:-1.2345494 10:0 11:-0.80171851 12:-0.71705651 
9.900000000000013 1:-0.27043094 2:-0.61949618 3:-0.36891571 4:-0.11779769 5:0.24024503 6:-0.67912831 7:0.29008745 8:-0.12424513 9:-0.020458985 10:0 11:-0.80171851 12:-0.71705651 
9.900000000000013 1:-0.7330654 2:-1.4959126 3:-0.010033355 4:-0.61389235 5:0.0036984842 6:0.55474208 7:0.5610694 8:1.0166238 9:0.67330698 10:0 11:1.2473206 12:-0.71705651 
9.900000000000013 1:0.10983509 2:0.95876183 3:0.10938048 4:-0.11779769 5:-0.63463189 6:0.41145966 7:0.29392272 8:0.037060244 9:-0.020458985 10:0 11:-0.80171851 12:1.3945902 
8.993568701592013 1:0.76440881 2:0.44824254 3:-1.1549221 4:-0.74797199 5:0.07678994 6:0.28673436 7:0.58222953 8:-0.042126032 9:0.67330698 10:0 11:-0.80171851 12:-0.71705651 
9.900000000000013 1:-0.38895816 2:-0.38477304 3:-0.095066261 4:-0.21165343 5:0.72060508 6:0.23249046 7:0.076105608 8:0.083985444 9:0.67330698 10:0 11:-0.80171851 12:-0.71705651 
9.900000000000013 1:-0.18284046 2:-0.64732735 3:-0.10309637 4:0.4453368 5:0.45854801 6:0.32117211 7:0.56444179 8:-0.98356287 9:0.67330698 10:0 11:-0.80171851 12:-0.71705651 
-1.124215454629157 1:-0.29295676 2:-1.0453596 3:-0.30308947 4:-0.27869325 5:0.55650218 6:0.071364653 7:-0.39649273 8:0.95796731 9:1.7139559 10:0 11:-0.80171851 12:-0.71705651 
-9.900000000000013 1:-0.22386487 2:0.061362068 3:0.14004049 4:-0.11779769 5:1.5516467 6:0.25069072 7:0.65847213 8:0.060522844 9:-0.020458985 10:0 11:-0.80171851 12:-0.71705651 
9.900000000000013 1:-0.55617879 2:-0.1412107 3:-0.13995514 4:3.0196659 5:-0.9538795 6:-0.71427979 7:0.30232065 8:-0.042126032 9:-0.88766644 10:0 11:1.2473206 12:-0.71705651 
-9.900000000000013 1:-0.70788631 2:-2.0897314 3:-1.9544986 4:-0.2250614 5:-0.83188248 6:0.32117211 7:0.56444179 8:-0.98356287 9:-0.020458985 10:0 11:-0.80171851 12:1.3945902 
4.703824426273188 1:0.85708448 2:0.37489774 3:-0.04423141 4:-0.49322068 5:-0.43484292 6:1.0725572 7:-1.9237253 8:-0.012797782 9:-1.2345494 10:0 11:-0.80171851 12:-0.71705651 
9.900000000000013 1:0.086852873 2:-0.27412134 3:1.5933251 4:-0.11779769 5:2.194097 6:-0.017316994 7:0.34907132 8:1.3040407 9:-0.020458985 10:0 11:1.2473206 12:-0.71705651 
-9.900000000000013 1:-0.31281591 2:0.074730708 3:-0.13434212 4:3.6230242 5:1.2670879 6:0.23249046 7:0.076105608 8:0.083985444 9:0.84674847 10:0 11:-0.80171851 12:-0.71705651 
-0.6079995874153649 1:-0.46256148 2:-0.24034979 3:0.12164448 4:-0.11779769 5:-0.13381406 6:1.3046997 7:0.66038977 8:1.482943 9:-0.020458985 10:0 11:-0.80171851 12:-0.71705651 
9.900000000000013 1:-0.25839007 2:0.69942937 3:-2.8203737 4:-0.18483751 5:0.83418689 6:0.60827224 7:0.47563536 8:-0.094916883 9:1.7139559 10:0 11:-0.80171851 12:-0.71705651 
-9.900000000000013 1:-0.081194396 2:-0.2946992 3:-0.12363561 4:-0.11779769 5:0.0073050692 6:-0.14222072 7:0.3019239 8:-0.10664818 9:-0.020458985 10:0 11:-0.80171851 12:1.3945902 
-9.900000000000013 1:0.55891899 2:0.79797076 3:0.0093288022 4:0.2576253 5:-0.74310712 6:-0.21395115 7:0.66640718 8:-0.027461907 9:-1.7548739 10:0 11:1.2473206 12:-0.71705651 
9.900000000000013 1:0.2258465 2:0.4372318 3:-0.17410741 4:-0.18483751 5:-0.061779542 6:-0.7496097 7:-0.027579042 8:-0.089051233 9:1.7139559 10:0 11:1.2473206 12:-0.71705651 
2.300898154087852 1:1.9241313 2:3.456409 3:0.85056538 4:-1.2038428 5:-0.89801427 6:-0.90966491 7:-2.9049603 8:0.066388494 9:-0.020458985 10:0 11:-0.80171851 12:1.3945902 
5.842209356972424 1:-0.1137964 2:-0.5376048 3:-0.2186295 4:1.5179739 5:-0.93071596 6:-0.44734268 7:0.18765918 8:-1.9044699 9:-0.020458985 10:0 11:-0.80171851 12:1.3945902 
9.900000000000013 1:0.40155431 2:0.84059963 3:0.08485247 4:-0.11779769 5:0.16134668 6:1.1439308 7:0.67414385 8:-0.17996881 9:-0.020458985 10:0 11:1.2473206 12:-0.71705651 
1.862231873699116 1:-1.353 2:-0.56948569 3:-0.013851252 4:-0.65411624 5:1.5594228 6:-0.68091265 7:-0.75112333 8:-3.9046566 9:-0.020458985 10:0 11:-0.80171851 12:-0.71705651 
-5.187795506101034 1:-0.69902198 2:-0.36364616 3:-2.5185586 4:-0.2250614 5:1.0967792 6:0.911253 7:-0.26430803 8:-0.9630331 9:1.7139559 10:0 11:-0.80171851 12:-0.71705651 
9.900000000000013 1:0.29010694 2:0.64301544 3:0.048060455 4:-0.11779769 5:-0.69707899 6:0.89376648 7:0.58143602 8:-0.18876728 9:-0.020458985 10:0 11:-0.80171851 12:-0.71705651 
9.900000000000013 1:-0.051203419 2:-0.78080157 3:-0.10523961 4:-0.11779769 5:0.99005653 6:0.57151486 7:0.5652353 8:-0.85158575 9:-0.020458985 10:0 11:1.2473206 12:-0.71705651 
9.900000000000013 1:-1.5135896 2:-0.63120691 3:-0.037787579 4:-0.11779769 5:-0.93303157 6:-0.96444411 7:-1.3426813 8:-0.012797782 9:-0.020458985 10:0 11:1.2473206 12:1.3945902 
-1.3168950014549 1:-1.4809788 2:-0.14591318 3:-2.8734154 4:1.115735 5:0.90387766 6:1.2185162 7:-3.7778158 8:5.6827485 9:0.84674847 10:0 11:-0.80171851 12:-0.71705651 
9.900000000000013 1:2.7828702 2:1.5756337 3:0.42599943 4:-1.0697631 5:-0.95641562 6:0.036570043 7:0.58057639 8:-0.047991683 9:-1.2345494 10:0 11:-0.80171851 12:1.3945902 
-0.8427602779271266 1:0.33670368 2:-0.51025873 3:0.31499551 4:-0.5200366 5:1.1333479 6:3.0735149 7:0.19513135 8:3.0021464 9:0.84674847 10:0 11:1.2473206 12:-0.71705651 
-2.711037986817228 1:0.17731479 2:0.04746513 3:-0.52834778 4:-0.11779769 5:1.4420994 6:0.92873952 7:-0.33526059 8:-0.13011078 9:-0.020458985 10:0 11:-0.80171851 12:1.3945902 
9.900000000000013 1:-1.059813 2:-0.46927471 3:-0.11137161 4:-0.11779769 5:-0.83563667 6:-0.71427979 7:-1.3402346 8:-0.042126032 9:-0.020458985 10:0 11:1.2473206 12:1.3945902 
-3.302668726118423 1:-0.2925696 2:0.29515065 3:-0.98679711 4:3.0196659 5:0.49759384 6:-0.21395115 7:0.66640718 8:-0.027461907 9:-0.88766644 10:0 11:-0.80171851 12:-0.71705651 
2.962255291144414 1:1.5124831 2:1.0090644 3:0.56877389 4:-0.73456403 5:1.4657361 6:0.89376648 7:0.47265972 8:-0.042126032 9:-0.020458985 10:0 11:1.2473206 12:-0.71705651 
9.900000000000013 1:-0.15458893 2:-0.14230681 3:-0.007127567 4:-0.11779769 5:1.5466918 6:0.55384991 7:0.65496748 8:-0.20049858 9:-0.020458985 10:0 11:1.2473206 12:-0.71705651 
-9.900000000000013 1:0.34287175 2:0.01098984 3:0.073431378 4:-0.2250614 5:-0.89181052 6:1.1792607 7:0.57846038 8:-0.13597643 9:-0.020458985 10:0 11:-0.80171851 12:1.3945902 
-9.900000000000013 1:1.3230027 2:1.359541 3:0.01126844 4:-0.11779769 5:-0.80670382 6:0.53689869 7:-0.14594353 8:-0.047991683 9:-0.020458985 10:0 11:-0.80171851 12:1.3945902 
9.900000000000013 1:-0.5678958 2:0.026168722 3:-0.14203162 4:-0.11779769 5:-0.63463189 6:0.10651613 7:0.18091439 8:-0.059722983 9:-0.020458985 10:0 11:-0.80171851 12:1.3945902 
9.900000000000013 1:0.44495166 2:-0.47286743 3:-0.39344372 4:-0.11779769 5:-0.95641562 6:-0.96480098 7:0.38815144 8:-0.024529082 9:-0.020458985 10:0 11:1.2473206 12:-0.71705651 
5.910011010100123 1:0.0024393379 2:1.1516818 3:-1.1853614 4:-1.0697631 5:0.69518379 6:0.28673436 7:0.58222953 8:-0.042126032 9:-1.3212702 10:0 11:1.2473206 12:-0.71705651 
-9.900000000000013 1:-0.4957955 2:0.43497192 3:-0.059946541 4:1.102327 5:-0.1138706 6:0.60862911 7:0.58017964 8:-0.11251383 9:-1.7548739 10:0 11:1.2473206 12:-0.71705651 
-9.900000000000013 1:1.725436 2:1.2663749 3:0.12164448 4:-0.11779769 5:-0.900408 6:-0.49926695 7:0.38200177 8:0.057590019 9:-0.020458985 10:0 11:1.2473206 12:-0.71705651 
-9.430451707242673 1:-0.44301185 2:-2.5338337 3:-0.220576 4:-1.0563552 5:0.37284189 6:-1.482973 7:-0.19613272 8:-0.81932467 9:-0.020458985 10:0 11:-0.80171851 12:1.3945902 
-4.656043070314367 1:-0.30894918 2:0.54984071 3:0.042385343 4:-0.92227552 5:1.0865786 6:-0.48088825 7:0.17727749 8:1.8319492 9:-2.6220813 10:0 11:-0.80171851 12:1.3945902 
-4.496844749431765 1:0.0015794519 2:-0.06759189 3:-0.1058841 4:1.5179739 5:-0.93071596 6:-0.21377271 7:0.27421735 8:0.095716745 9:-0.020458985 10:0 11:-0.80171851 12:1.3945902 
7.722631422454754 1:0.26382751 2:-0.39296992 3:-2.2553207 4:0.056505844 5:0.38086688 6:-0.30334653 7:0.1952636 8:0.49751378 9:1.7139559 10:0 11:-0.80171851 12:-0.71705651 
9.900000000000013 1:-0.33267003 2:1.0141858 3:-2.9590139 4:-0.73456403 5:0.47906676 6:0.39397314 7:0.28744243 8:0.81132606 9:-0.020458985 10:0 11:-0.80171851 12:-0.71705651 
-9.900000000000013 1:0.14693388 2:0.10568754 3:-0.089790102 4:-0.18483751 5:-0.62443566 6:0.036391609 7:0.19037032 8:1.5767934 9:1.7139559 10:0 11:-0.80171851 12:1.3945902 
3.024652267364107 1:-0.83405945 2:0.42908024 3:-0.071255886 4:0.20399345 5:-0.69235718 6:0.07172152 7:0.016526609 8:-1.5789264 9:1.3670729 10:0 11:1.2473206 12:-0.71705651 
-9.900000000000013 1:-0.14136449 2:0.70530471 3:-0.020366834 4:-0.41277289 5:0.36822431 6:-0.21377271 7:0.46254253 8:-0.047991683 9:0.67330698 10:0 11:-0.80171851 12:1.3945902 
9.900000000000013 1:-0.25116916 2:0.17889476 3:0.05996598 4:0.32466512 5:-0.92871661 6:0.036570043 7:0.58057639 8:-0.047991683 9:-0.020458985 10:0 11:1.2473206 12:-0.71705651 
-9.166071240773622 1:-0.8662194 2:0.038991841 3:0.037824533 4:0.32466512 5:1.1615252 6:-0.69768544 7:0.18686568 8:-2.0364471 9:-0.020458985 10:0 11:1.2473206 12:-0.71705651 
9.246029568179674 1:0.028607708 2:0.18645889 3:-2.3238236 4:-0.2250614 5:1.3600868 6:0.66180241 7:-0.26040663 8:-0.12131231 9:1.7139559 10:0 11:-0.80171851 12:-0.71705651 
9.900000000000013 1:2.2508461 2:1.9779043 3:0.22703892 4:0.2576253 5:-0.88268589 6:-0.1779075 7:0.41003895 8:-0.13011078 9:-0.020458985 10:0 11:1.2473206 12:-0.71705651 
9.900000000000013 1:1.1002979 2:0.86093469 3:0.020111375 4:0.32466512 5:-0.95641562 6:0.28673436 7:0.58222953 8:-0.042126032 9:-0.020458985 10:0 11:-0.80171851 12:1.3945902 
7.522019490624843 1:0.286168 2:1.318905 3:0.08485247 4:-0.11779769 5:-0.95641562 6:1.1439308 7:0.67414385 8:-0.17996881 9:-0.020458985 10:0 11:-0.80171851 12:1.3945902 
9.900000000000013 1:-0.57131116 2:-0.073144213 3:-0.16147589 4:1.6520536 5:-0.66024952 6:0.14291664 7:0.30318028 8:-0.17117033 9:1.3670729 10:0 11:-0.80171851 12:1.3945902 
9.900000000000013 1:-0.3857455 2:0.016582916 3:-0.28284802 4:3.3682729 5:-0.28758098 6:-1.2149653 7:-0.00053374761 8:-1.719702 9:0.84674847 10:0 11:-0.80171851 12:-0.71705651 
-9.900000000000013 1:-0.65118596 2:-0.57412092 3:-0.099107604 4:-0.11779769 5:-0.94819124 6:-0.71427979 7:0.30232065 8:-0.030394732 9:-0.020458985 10:0 11:1.2473206 12:-0.71705651 
-9.900000000000013 1:0.028500863 2:-0.3196189 3:0.08485247 4:-0.11779769 5:1.54683 6:1.0545354 7:0.56768194 8:1.4741445 9:-0.020458985 10:0 11:-0.80171851 12:-0.71705651 
0.392798596076393 1:-0.525491 2:-0.61758851 3:-0.24581855 4:3.1403375 5:-0.95641562 6:-0.96480098 7:0.38815144 8:-0.024529082 9:-0.020458985 10:0 11:-0.80171851 12:1.3945902 
-9.900000000000013 1:-0.039014616 2:-0.039005575 3:-0.19207626 4:-0.50662864 5:-0.95641562 6:-0.21395115 7:0.39747512 8:-0.042126032 9:0.84674847 10:0 11:-0.80171851 12:1.3945902 
-9.900000000000013 1:0.10061822 2:-0.52386698 3:-0.22830436 4:-0.62730032 5:0.21982257 6:-0.44662895 7:0.18792368 8:-0.74893687 9:0.84674847 10:0 11:1.2473206 12:-0.71705651 
-9.900000000000013 1:2.037432 2:1.2215645 3:0.31764585 4:0.36488901 5:-0.95641562 6:0.53725555 7:0.035504603 8:-0.059722983 9:-0.020458985 10:0 11:-0.80171851 12:1.3945902 
-0.04289959656542545 1:-1.0887181 2:-1.0407456 3:2.4263094 4:-1.0697631 5:0.81315242 6:-0.51800251 7:0.16352341 8:1.0928773 9:-1.3212702 10:0 11:-0.80171851 12:-0.71705651 
-9.900000000000013 1:-0.73334745 2:-0.20727255 3:-0.16510178 4:-1.0161313 5:0.55435724 6:0.14291664 7:0.30318028 8:-0.18290163 9:-0.020458985 10:0 11:-0.80171851 12:-0.71705651 
9.900000000000013 1:0.40560583 2:1.3276741 3:1.0631756 4:-0.5200366 5:-0.95140519 6:0.53725555 7:0.035504603 8:-0.059722983 9:0.84674847 10:0 11:1.2473206 12:-0.71705651 
-4.619777406852728 1:-0.036859908 2:0.03856742 3:2.5437855 4:-0.11779769 5:0.23138183 6:-0.75032344 7:0.28750856 8:0.057590019 9:-0.020458985 10:0 11:1.2473206 12:-0.71705651 
-4.297523991755125 1:-0.77411338 2:-1.3480623 3:-0.049499146 4:-0.61389235 5:-0.87621531 6:0.57151486 7:0.5652353 8:-0.85158575 9:0.67330698 10:0 11:1.2473206 12:-0.71705651 
9.900000000000013 1:-0.51483994 2:-0.82204902 3:0.71031672 4:-0.11779769 5:-0.95641562 6:-1.2149653 7:0.38147277 8:-0.033327557 9:-0.020458985 10:0 11:-0.80171851 12:-0.71705651 
-0.5931094140707995 1:-0.8208428 2:-1.3052285 3:0.027543162 4:3.6096163 5:-0.37848338 6:1.5735996 7:-0.0035093913 8:2.069508 9:0.67330698 10:0 11:-0.80171851 12:1.3945902 
3.344568164787415 1:2.7877058 2:1.1280108 3:0.49473319 4:-0.93568349 5:-0.95641562 6:0.28673436 7:0.58222953 8:-0.042126032 9:-0.020458985 10:0 11:-0.80171851 12:-0.71705651 
-9.900000000000013 1:-0.60798454 2:-2.3766052 3:-0.26795561 4:1.5179739 5:-0.93071596 6:-0.17933497 7:0.28697955 8:-0.84572009 9:-0.020458985 10:0 11:-0.80171851 12:1.3945902 
-8.434546477591752 1:-0.72917634 2:-0.97982897 3:-1.8441985 4:0.32466512 5:-0.95641562 6:0.55402834 7:0.56166452 8:-0.13890926 9:-0.020458985 10:0 11:-0.80171851 12:-0.71705651 
0.4477248013473625 1:1.3966961 2:-1.9649508 3:-0.16668501 4:-1.0697631 5:-0.025546276 6:0.30368558 7:0.56225965 8:-0.20929706 9:-1.3212702 10:0 11:-0.80171851 12:1.3945902 
-1.913428114844897 1:1.1549555 2:1.0320533 3:0.01126844 4:-0.11779769 5:-0.65839068 6:0.53689869 7:-0.14594353 8:-0.047991683 9:-0.020458985 10:0 11:-0.80171851 12:1.3945902 
8.353381118631303 1:0.95968811 2:0.66712487 3:-0.92692793 4:-0.11779769 5:-0.38481939 6:-0.57046207 7:-0.46605666 8:0.09864957 9:-0.020458985 10:0 11:-0.80171851 12:1.3945902 
-0.1448953224910101 1:-0.95973444 2:-1.1482831 3:-0.41797173 4:-0.11779769 5:0.88662874 6:-0.42896399 7:0.38279528 8:-0.13011078 9:-0.020458985 10:0 11:-0.80171851 12:1.3945902 
1.101874031724454 1:3.1726636 2:2.2928679 3:0.1523045 4:-0.11779769 5:-0.94227107 6:-0.24892419 7:0.47477573 8:0.045858719 9:-0.020458985 10:0 11:-0.80171851 12:1.3945902 
8.107144474560476 1:-0.47222761 2:0.080536725 3:-0.08031503 4:1.115735 5:0.10101229 6:-0.46411547 7:-0.5161136 8:-0.059722983 9:0.84674847 10:0 11:-0.80171851 12:-0.71705651 
9.900000000000013 1:0.80601623 2:0.90443581 3:-0.040085246 4:3.0196659 5:-0.94356306 6:0.28673436 7:0.58222953 8:-0.042126032 9:1.7139559 10:0 11:1.2473206 12:-0.71705651 
-0.6499933789824198 1:-0.80927059 2:1.5948492 3:0.076722242 4:3.3682729 5:-0.88412662 6:2.3961799 7:-1.5944207 8:-1.4733447 9:0.84674847 10:0 11:1.2473206 12:1.3945902 
3.72571633206142 1:-2.2889155 2:-1.4656441 3:-0.36217698 4:-1.2038428 5:-0.90319818 6:-2.2505956 7:-3.9538416 8:0.051724369 9:-0.020458985 10:0 11:-0.80171851 12:1.3945902 
-9.900000000000013 1:0.010823164 2:0.15754367 3:-0.2211725 4:-0.21165343 5:-0.92644965 6:-0.78601022 7:0.18547704 8:0.022396119 9:-2.6220813 10:0 11:1.2473206 12:-0.71705651 
-9.900000000000013 1:-1.002602 2:-0.70827453 3:-0.12363561 4:-0.11779769 5:-0.86134957 6:-0.71427979 7:-2.0700608 8:-0.053857333 9:-0.020458985 10:0 11:1.2473206 12:1.3945902 
-9.900000000000013 1:0.5537418 2:0.26289319 3:-0.12983432 4:-0.54685253 5:-0.9354608 6:-0.46411547 7:0.30397379 8:-0.024529082 9:-0.020458985 10:0 11:1.2473206 12:-0.71705651 
8.919382269142895 1:-0.54703251 2:-0.64070086 3:-0.17269163 4:-0.11779769 5:1.6002399 6:-0.80313987 7:0.057854993 8:1.1691307 9:-0.020458985 10:0 11:-0.80171851 12:1.3945902 
-9.900000000000013 1:-0.61434922 2:-0.12789008 3:-0.099107604 4:-0.11779769 5:-0.94227107 6:-0.71427979 7:0.30232065 8:-0.030394732 9:-0.020458985 10:0 11:-0.80171851 12:1.3945902 
8.73419964584469 1:0.31993493 2:-0.39313967 3:-0.17269163 4:-0.11779769 5:-0.75145065 6:0.07172152 7:0.56834319 8:-0.14184208 9:-0.020458985 10:0 11:-0.80171851 12:1.3945902 
9.900000000000013 1:0.78088321 2:1.5261972 3:-0.062315589 4:-0.11779769 5:-0.59930703 6:-0.49926695 7:-0.19520697 8:0.045858719 9:-0.020458985 10:0 11:-0.80171851 12:1.3945902 
7.073706780286812 1:-0.11509724 2:0.07573294 3:-0.19721964 4:-0.11779769 5:0.61703778 6:-0.21395115 7:0.39747512 8:-0.042126032 9:-0.020458985 10:0 11:-0.80171851 12:1.3945902 
-9.900000000000013 1:0.51361132 2:1.2777846 3:0.43167664 4:-0.64070828 5:-0.95179446 6:0.28673436 7:0.58222953 8:-0.042126032 9:1.7139559 10:0 11:1.2473206 12:-0.71705651 
2.901423569064236 1:-0.44538372 2:-0.37607669 3:3.1652055 4:-0.5200366 5:1.7096808 6:1.5721722 7:-0.0023191338 8:-0.24155814 9:0.84674847 10:0 11:-0.80171851 12:-0.71705651 
6.34947884085416 1:-0.46602427 2:-0.40881003 3:-0.013259569 4:-0.11779769 5:-0.38824512 6:-0.44734268 7:0.18765918 8:-1.9044699 9:-0.020458985 10:0 11:-0.80171851 12:-0.71705651 
-5.720485987260869 1:-1.1742908 2:-2.2856538 3:0.00060801196 4:-0.5602605 5:0.12806178 6:0.57080113 7:-0.37632448 8:-2.0071188 9:-0.020458985 10:0 11:1.2473206 12:1.3945902 
-7.366225591895883 1:0.61185797 2:-0.29798615 3:1.9305852 4:-0.11779769 5:1.7534037 6:-0.80313987 7:0.057854993 8:1.1691307 9:-0.020458985 10:0 11:-0.80171851 12:-0.71705651 
9.900000000000013 1:0.016274824 2:-0.13412141 3:-0.13995514 4:3.0196659 5:-0.92071878 6:-0.71427979 7:0.30232065 8:-0.042126032 9:-0.88766644 10:0 11:-0.80171851 12:1.3945902 
-2.414982953984869 1:-0.37141282 2:0.11166757 3:0.21389825 4:-1.0563552 5:1.0584688 6:-0.96390881 7:0.27527536 8:0.81719171 9:-0.020458985 10:0 11:-0.80171851 12:-0.71705651 
9.900000000000013 1:-1.4666472 2:-1.0858768 3:-0.13589962 4:-0.11779769 5:-0.92780505 6:-0.1784428 7:-0.25498434 8:-0.14770773 9:-0.020458985 10:0 11:1.2473206 12:-0.71705651 
-9.900000000000013 1:0.17617592 2:0.59665071 3:0.14481558 4:0.1101377 5:-0.69504722 6:0.28673436 7:0.58302303 8:-0.053857333 9:-1.7548739 10:0 11:1.2473206 12:-0.71705651 
9.900000000000013 1:-0.78203549 2:-0.5384105 3:-0.22227771 4:0.2576253 5:-0.95021015 6:0.07172152 7:0.56834319 8:-0.14184208 9:0.67330698 10:0 11:1.2473206 12:-0.71705651 
8.943819469969473 1:2.437337 2:0.93053981 3:0.46304221 4:-1.0697631 5:-0.91684761 6:0.28673436 7:0.58302303 8:-0.053857333 9:-1.2345494 10:0 11:-0.80171851 12:1.3945902 
9.900000000000013 1:-0.42609064 2:-0.25663168 3:-0.11137161 4:-0.11779769 5:0.43725199 6:-0.14222072 7:0.3019239 8:-0.094916883 9:-0.020458985 10:0 11:-0.80171851 12:1.3945902 
-4.248052260616519 1:-1.8024415 2:0.45914974 3:-2.0479242 4:1.115735 5:-0.15167422 6:1.1103852 7:-5.8836457 8:0.58549853 9:0.84674847 10:0 11:-0.80171851 12:1.3945902 
9.900000000000013 1:-0.28933811 2:-0.66142856 3:-0.11390237 4:2.4699393 5:-0.57390288 6:-0.37579069 7:-0.82154689 8:-0.67854907 9:2.2342804 10:0 11:-0.80171851 12:1.3945902 
-9.900000000000013 1:-0.19406045 2:-0.49487939 3:-0.26914594 4:0.13695363 5:-0.80165433 6:0.07172152 7:0.56834319 8:-0.14184208 9:1.7139559 10:0 11:-0.80171851 12:1.3945902 
-9.900000000000013 1:-0.58191332 2:-0.34652607 3:-0.11137161 4:-0.11779769 5:-0.79913881 6:-0.71427979 7:-0.51856024 8:-0.042126032 9:-0.020458985 10:0 11:1.2473206 12:1.3945902 
-9.900000000000013 1:-0.35861094 2:-1.0464792 3:-0.10523961 4:-0.11779769 5:-0.1506685 6:0.57151486 7:0.5652353 8:-0.85158575 9:-0.020458985 10:0 11:-0.80171851 12:-0.71705651 
9.900000000000013 1:-0.67547213 2:-0.24328511 3:-0.13589962 4:-0.11779769 5:-0.36280306 6:-0.46411547 7:0.30397379 8:-0.024529082 9:-0.020458985 10:0 11:-0.80171851 12:-0.71705651 
-9.900000000000013 1:-0.7360333 2:1.8994504 3:0.44467174 4:-1.0161313 5:-0.95641562 6:0.28673436 7:0.58222953 8:-0.042126032 9:-2.2751984 10:0 11:1.2473206 12:-0.71705651 
1.120890096934578 1:-0.84412771 2:-0.87183763 3:3.1473917 4:-0.5200366 5:0.54587931 6:1.5735996 7:-0.0035093913 8:2.069508 9:0.84674847 10:0 11:-0.80171851 12:-0.71705651 
-9.900000000000013 1:-1.4640392 2:-1.572025 3:-0.086843599 4:-0.11779769 5:-0.93177063 6:-0.96444411 7:-1.3418878 8:-0.059722983 9:-0.020458985 10:0 11:1.2473206 12:1.3945902 
3.713936905604648 1:0.58256846 2:-0.22412572 3:-0.31506947 4:3.0196659 5:-0.84930364 6:-0.96480098 7:0.38815144 8:-0.024529082 9:-0.88766644 10:0 11:1.2473206 12:-0.71705651 
1.990039632881462 1:-0.68052496 2:-0.1477494 3:0.26881254 4:-0.11779769 5:-0.59093357 6:-1.0361745 7:0.36170127 8:0.25115647 9:-0.020458985 10:0 11:-0.80171851 12:-0.71705651 
-9.900000000000013 1:0.013571366 2:-0.35613713 3:-0.61922352 4:0.20399345 5:-0.43798056 6:-1.4651296 7:0.28876494 8:-0.039193207 9:-0.020458985 10:0 11:-0.80171851 12:-0.71705651 
8.777885110501192 1:-0.36007789 2:-0.6318643 3:1.1763489 4:-0.11779769 5:1.4821586 6:0.55474208 7:0.5610694 8:1.0166238 9:-0.020458985 10:0 11:-0.80171851 12:-0.71705651 
-9.900000000000013 1:-0.19579567 2:-0.022279384 3:-0.037456388 4:0.32466512 5:0.36536019 6:-0.44734268 7:0.18765918 8:-1.9044699 9:-0.020458985 10:0 11:1.2473206 12:-0.71705651 
-9.900000000000013 1:-0.80619367 2:-0.64964443 3:-0.12363561 4:-0.11779769 5:-0.84833009 6:-0.71427979 7:-1.3394411 8:-0.053857333 9:-0.020458985 10:0 11:1.2473206 12:1.3945902 
3.584018306035547 1:2.1078134 2:3.236774 3:-0.29280772 4:-0.65411624 5:1.0541503 6:0.80151615 7:-4.7152758 8:-3.7110902 9:-0.020458985 10:0 11:-0.80171851 12:-0.71705651 
9.900000000000013 1:0.33636852 2:-1.2950591 3:0.77815463 4:-0.5200366 5:-0.46562777 6:2.5731863 7:0.0097156916 8:2.9845494 9:0.84674847 10:0 11:1.2473206 12:-0.71705651 
-9.900000000000013 1:1.7213254 2:1.3992013 3:0.24528221 4:-0.74797199 5:-0.94703747 6:-0.17755063 7:0.47583374 8:-0.22982684 9:0.49986549 10:0 11:-0.80171851 12:-0.71705651 
9.900000000000013 1:-0.41402905 2:0.05653101 3:-0.40570773 4:-0.11779769 5:0.17263228 6:-0.21395115 7:0.39668162 8:-0.030394732 9:-0.020458985 10:0 11:-0.80171851 12:-0.71705651 
-9.900000000000013 1:-0.10140571 2:0.60584992 3:-0.18495564 4:-0.11779769 5:-0.73405965 6:-0.21395115 7:0.39668162 8:-0.030394732 9:-0.020458985 10:0 11:-0.80171851 12:-0.71705651 
-9.900000000000013 1:-1.7335763 2:0.31068826 3:0.49416367 4:0.84757572 5:-0.19777482 6:0.9654969 7:0.19129608 8:0.15730607 9:0.84674847 10:0 11:-0.80171851 12:-0.71705651 
-9.900000000000013 1:0.81924079 2:0.56645466 3:-0.11351955 4:-0.49322068 5:-0.13308747 6:0.32188584 7:0.66105102 8:-0.13304361 9:-1.2345494 10:0 11:-0.80171851 12:-0.71705651 
-8.030823079692865 1:1.7709212 2:0.51510264 3:0.026595899 4:0.1101377 5:0.48753443 6:1.8396446 7:0.18726243 8:-1.0070255 9:-2.2058218 10:0 11:1.2473206 12:-0.71705651 
-9.900000000000013 1:-0.70578675 2:-0.54899755 3:-0.25887086 4:0.32466512 5:-0.12248733 6:-0.71427979 7:0.56702068 8:-0.045058858 9:-0.020458985 10:0 11:1.2473206 12:-0.71705651 
-9.900000000000013 1:-0.058035939 2:-0.55751376 3:-0.30686099 4:3.0196659 5:-0.84930364 6:-1.2149653 7:0.29544361 8:-0.030394732 9:-0.88766644 10:0 11:1.2473206 12:-0.71705651 
0.4386648906509989 1:2.467647 2:0.89329744 3:-0.37042029 4:-1.0697631 5:0.9854978 6:-0.19628619 7:0.28069764 8:-0.67854907 9:-1.3212702 10:0 11:1.2473206 12:-0.71705651 
1.271299732689675 1:-0.72537273 2:-2.5574258 3:0.0068121896 4:-0.65411624 5:1.2388249 6:5.0578783 7:-2.4317669 8:9.1464148 9:-0.020458985 10:0 11:-0.80171851 12:1.3945902 
9.809004054263744 1:-0.055532225 2:0.52119937 3:-0.11137161 4:-0.11779769 5:-0.54103499 6:-1.4995674 7:0.27600274 8:0.90224363 9:-0.020458985 10:0 11:-0.80171851 12:-0.71705651 
-0.1161681111262157 1:-0.86686658 2:-0.5061874 3:-0.13488928 4:-0.21165343 5:-0.54741401 6:-0.60739789 7:0.12834468 8:-1.282711 9:-2.6220813 10:0 11:1.2473206 12:-0.71705651 
-2.297354978612845 1:1.4451808 2:0.066971073 3:-0.28823813 4:-0.38595696 5:0.75503429 6:-0.2305455 7:0.27005145 8:1.9639263 9:0.84674847 10:0 11:1.2473206 12:-0.71705651 
9.900000000000013 1:-0.81929591 2:-0.35647295 3:-0.057123939 4:-0.73456403 5:-0.1097552 6:-0.17862124 7:0.075245977 8:0.016530468 9:-0.020458985 10:0 11:-0.80171851 12:1.3945902 
9.900000000000013 1:-0.53791187 2:0.019995322 3:-0.07340818 4:-0.93568349 5:-0.57014309 6:-0.17862124 7:0.075245977 8:0.016530468 9:0.15298251 10:0 11:1.2473206 12:-0.71705651 
9.900000000000013 1:0.12157069 2:-0.0028329195 3:-0.19721964 4:-0.11779769 5:-0.65008638 6:-0.21395115 7:0.39747512 8:-0.042126032 9:-0.020458985 10:0 11:-0.80171851 12:1.3945902 
-9.900000000000013 1:-0.47156608 2:-0.17876908 3:1.1763489 4:-0.11779769 5:2.5106449 6:0.55474208 7:0.5610694 8:1.0166238 9:-0.020458985 10:0 11:1.2473206 12:-0.71705651 
0.9003117673963429 1:-0.50355083 2:1.2139869 3:-2.4245486 4:-0.2250614 5:0.46669493 6:0.37612975 7:-0.16234264 8:-0.0069321319 9:1.7139559 10:0 11:-0.80171851 12:1.3945902 
9.900000000000013 1:0.47412767 2:1.0756551 3:0.072588465 4:-0.11779769 5:-0.63463189 6:0.39397314 7:0.28744243 8:0.81132606 9:-0.020458985 10:0 11:-0.80171851 12:1.3945902 
-9.900000000000013 1:0.4440741 2:0.18065068 3:-0.22083394 4:0.096729736 5:0.11435548 6:-0.48160199 7:0.27124171 8:0.73800543 9:-0.88766644 10:0 11:-0.80171851 12:1.3945902 
9.900000000000013 1:-0.8269708 2:-0.60596473 3:-0.17092932 4:1.102327 5:-0.94479754 6:0.07172152 7:0.56834319 8:-0.14184208 9:-1.7548739 10:0 11:1.2473206 12:-0.71705651 
9.668493839479281 1:-0.74969703 2:0.59944418 3:-2.6438886 4:-0.11779769 5:2.5725937 6:1.429425 7:0.67116821 8:-0.12717796 9:-0.020458985 10:0 11:-0.80171851 12:-0.71705651 
9.900000000000013 1:0.76474039 2:2.7600588 3:0.097116475 4:-0.11779769 5:-0.9391172 6:0.53689869 7:0.67493736 8:-0.033327557 9:-0.020458985 10:0 11:-0.80171851 12:-0.71705651 
-9.900000000000013 1:-0.43179544 2:-0.68266686 3:-0.14816362 4:-0.11779769 5:-0.86134957 6:-0.46411547 7:-1.977353 8:-0.036260382 9:-0.020458985 10:0 11:1.2473206 12:1.3945902 
9.900000000000013 1:-0.97798982 2:-0.47438096 3:-0.086843599 4:-0.11779769 5:-0.92841181 6:-0.71427979 7:-0.51935375 8:-0.018663432 9:-0.020458985 10:0 11:1.2473206 12:1.3945902 
9.900000000000013 1:-0.54459415 2:-0.2275728 3:-0.17164072 4:3.3682729 5:0.32675945 6:-0.44662895 7:0.18792368 8:-0.74893687 9:0.84674847 10:0 11:1.2473206 12:-0.71705651 
9.494894220015405 1:-0.55544513 2:-0.29851018 3:-0.76315707 4:0.13695363 5:1.527834 6:0.71479728 7:0.57257522 8:0.3948649 9:-2.6220813 10:0 11:1.2473206 12:-0.71705651 
9.900000000000013 1:0.10641221 2:-0.41865561 3:1.9305852 4:-0.11779769 5:2.5316822 6:-0.80313987 7:0.057854993 8:1.1691307 9:-0.020458985 10:0 11:-0.80171851 12:-0.71705651 
-7.307216683692703 1:-0.54605454 2:-0.040472372 3:0.08485247 4:-0.11779769 5:0.43725199 6:0.60862911 7:0.58017964 8:-0.11251383 9:-0.020458985 10:0 11:-0.80171851 12:1.3945902 
9.900000000000013 1:-0.3516501 2:-0.36983166 3:-0.0086902152 4:-0.5602605 5:-0.89760179 6:-0.44662895 7:0.27990413 8:-0.81052619 9:-0.020458985 10:0 11:-0.80171851 12:1.3945902 
-9.900000000000013 1:-1.2874166 2:-0.17806049 3:-0.092599457 4:-1.0697631 5:-0.21064127 6:0.39308097 7:0.39588811 8:-0.17703598 9:-1.3212702 10:0 11:-0.80171851 12:1.3945902 
-9.900000000000013 1:-0.59727786 2:-0.26742361 3:-0.14542746 4:3.0196659 5:-0.93751469 6:-0.14222072 7:0.3019239 8:-0.094916883 9:-0.88766644 10:0 11:-0.80171851 12:1.3945902 
-9.900000000000013 1:0.41854522 2:0.57076595 3:-0.16739056 4:0.20399345 5:-0.91244792 6:-0.21395115 7:0.39668162 8:-0.030394732 9:1.3670729 10:0 11:-0.80171851 12:-0.71705651 
7.763844272169315 1:0.89683303 2:-0.13515169 3:-0.29859879 4:-0.74797199 5:1.2742785 6:-0.44734268 7:0.18765918 8:-1.9044699 9:1.7139559 10:0 11:1.2473206 12:-0.71705651 
-9.900000000000013 1:-0.75467551 2:-0.047557673 3:-0.14816362 4:-0.18483751 5:-0.67770707 6:-0.053003773 7:-0.029695055 8:0.031194594 9:-0.020458985 10:0 11:-0.80171851 12:1.3945902 
4.359145128558652 1:-0.89975248 2:-0.10734279 3:-2.4047405 4:-0.11779769 5:1.004149 6:-0.32083305 7:0.18878331 8:1.2101903 9:-0.020458985 10:0 11:1.2473206 12:-0.71705651 
-9.900000000000013 1:0.144505 2:0.11922466 3:-0.13091142 4:0.36488901 5:-0.92463684 6:-0.46411547 7:-0.5161136 8:-0.059722983 9:-0.020458985 10:0 11:-0.80171851 12:1.3945902 
9.900000000000013 1:0.95313222 2:0.42437943 3:0.58933929 4:-1.0965791 5:-0.23064111 6:0.53725555 7:0.035504603 8:-0.059722983 9:-0.020458985 10:0 11:1.2473206 12:-0.71705651 
9.900000000000013 1:-0.53105906 2:-0.020674203 3:-0.27080367 4:-0.11779769 5:0.17263228 6:-0.46411547 7:0.30397379 8:-0.024529082 9:-0.020458985 10:0 11:-0.80171851 12:-0.71705651 
9.900000000000013 1:0.043647028 2:0.22785563 3:-0.13457162 4:3.3682729 5:0.88862875 6:0.035677873 7:0.19010582 8:0.42126032 9:0.84674847 10:0 11:-0.80171851 12:-0.71705651 
-9.900000000000013 1:-0.79602408 2:-0.34833608 3:-0.21357251 4:-0.84182774 5:-0.5527662 6:-0.44662895 7:0.18792368 8:-0.74893687 9:-0.020458985 10:0 11:-0.80171851 12:-0.71705651 
-7.31602254195096 1:0.88389569 2:0.11410622 3:-0.11137161 4:-0.11779769 5:-0.29504331 6:-0.74925283 7:0.076965238 8:0.039993069 9:-0.020458985 10:0 11:1.2473206 12:-0.71705651 
-1.190239698061732 1:0.56621921 2:-0.027648498 3:0.070862996 4:-0.21165343 5:-0.18494184 6:-0.48160199 7:0.27124171 8:0.73800543 9:-2.6220813 10:0 11:-0.80171851 12:-0.71705651 
-9.900000000000013 1:-0.52456773 2:0.26079936 3:2.0450712 4:-0.97590738 5:1.2881862 6:0.0005263959 7:0.5657643 8:0.051724369 9:0.84674847 10:0 11:-0.80171851 12:-0.71705651 
-2.528549903531427 1:0.4674004 2:-0.088854333 3:1.2965036 4:4.6420295 5:1.4211285 6:1.5721722 7:-0.0023191338 8:-0.24155814 9:1.7139559 10:0 11:1.2473206 12:-0.71705651 
-9.900000000000013 1:0.95037499 2:0.82161174 3:-0.11137161 4:-0.11779769 5:0.13716193 6:-0.21395115 7:0.66640718 8:-0.027461907 9:-0.020458985 10:0 11:1.2473206 12:-0.71705651 
-9.900000000000013 1:1.3173174 2:2.5415298 3:0.13390849 4:-0.11779769 5:-0.94819124 6:0.28673436 7:0.67328422 8:-0.039193207 9:-0.020458985 10:0 11:1.2473206 12:-0.71705651 
-5.391278495602203 1:-0.94473895 2:-0.33790354 3:-2.3434205 4:-0.11779769 5:1.004149 6:-0.30334653 7:0.1952636 8:0.49751378 9:-0.020458985 10:0 11:1.2473206 12:-0.71705651 
1.133358794585632 1:-1.3228292 2:-3.7169944 3:0.25010443 4:-1.0563552 5:0.88181023 6:2.0901657 7:0.0072690513 8:0.65881915 9:-0.020458985 10:0 11:-0.80171851 12:1.3945902 
3.165010095802083 1:-0.45754856 2:-0.37473272 3:-0.27693567 4:-0.11779769 5:-0.78666423 6:-0.44734268 7:0.18765918 8:-1.9044699 9:-0.020458985 10:0 11:-0.80171851 12:1.3945902 
9.900000000000013 1:0.29474487 2:-0.36370823 3:-0.20879075 4:-0.49322068 5:0.5054074 6:0.07172152 7:0.56834319 8:-0.14184208 9:-1.2345494 10:0 11:-0.80171851 12:-0.71705651 
1.611620159832088 1:-0.73545409 2:0.2041382 3:0.048060455 4:-0.11779769 5:0.16134668 6:0.89376648 7:0.58143602 8:-0.18876728 9:-0.020458985 10:0 11:1.2473206 12:-0.71705651 
-9.900000000000013 1:-0.10183584 2:-0.25279435 3:0.17683251 4:-0.11779769 5:-0.95641562 6:-0.71427979 7:0.56702068 8:-0.045058858 9:-0.020458985 10:0 11:-0.80171851 12:-0.71705651 
-9.900000000000013 1:2.2481238 2:2.5873582 3:0.53523565 4:-0.97590738 5:-0.86583003 6:0.28673436 7:0.58222953 8:-0.042126032 9:0.84674847 10:0 11:-0.80171851 12:1.3945902 
7.021671755958848 1:1.460407 2:0.59702865 3:-0.36891571 4:-0.11779769 5:-0.6974866 6:-1.8571489 7:-0.67316146 8:0.21009692 9:-0.020458985 10:0 11:-0.80171851 12:1.3945902 
7.459277655013371 1:1.0453668 2:1.1657115 3:-0.42057339 4:-0.18483751 5:0.079117277 6:-0.51603973 7:-0.91180808 8:0.20423127 9:0.67330698 10:0 11:-0.80171851 12:-0.71705651 
9.900000000000013 1:-3.1135099 2:-3.2028407 3:-0.36512976 4:-0.65411624 5:0.88087406 6:1.9067357 7:-5.4932413 8:-5.5353073 9:-0.020458985 10:0 11:-0.80171851 12:1.3945902 
0.5239169321367314 1:-0.85464649 2:0.29462697 3:-3.0107115 4:-1.0161313 5:1.421686 6:0.28673436 7:0.67328422 8:-0.039193207 9:-2.2751984 10:0 11:1.2473206 12:-0.71705651 
9.900000000000013 1:-1.4612683 2:-1.4700224 3:-0.12363561 4:-0.11779769 5:-0.86134957 6:-0.71427979 7:-2.0700608 8:-0.053857333 9:-0.020458985 10:0 11:1.2473206 12:1.3945902 
9.900000000000013 1:1.0098779 2:1.0609662 3:-2.5732486 4:-0.49322068 5:1.2316058 6:-0.73140944 7:0.20491791 8:0.060522844 9:-1.2345494 10:0 11:1.2473206 12:-0.71705651 
2.40273020915502 1:2.2527127 2:-0.25020836 3:0.6381775 4:0.31125716 5:1.0652331 6:1.6792325 7:-1.1035718 8:-0.45858719 9:-0.020458985 10:0 11:-0.80171851 12:-0.71705651 
0.3791142870236857 1:-1.0296175 2:-0.74644907 3:0.06032446 4:-0.11779769 5:0.67111659 6:0.8049064 7:0.65377723 8:1.0254223 9:-0.020458985 10:0 11:-0.80171851 12:1.3945902 
9.900000000000013 1:0.7430685 2:0.3485196 3:-0.41797173 4:-0.11779769 5:-0.45270213 6:-0.99995246 7:0.37512473 8:0.069321319 9:-0.020458985 10:0 11:-0.80171851 12:-0.71705651 
-9.900000000000013 1:-0.03620793 2:-0.26530007 3:-0.16042763 4:-0.11779769 5:-0.02237964 6:-0.46411547 7:0.30476729 8:-0.047991683 9:-0.020458985 10:0 11:-0.80171851 12:1.3945902 
-9.900000000000013 1:1.6443256 2:1.6080042 3:0.097116475 4:-0.11779769 5:-0.95641562 6:0.53689869 7:0.67493736 8:-0.033327557 9:-0.020458985 10:0 11:-0.80171851 12:1.3945902 
-9.900000000000013 1:-0.58852214 2:0.12800621 3:-1.3402571 4:-0.62730032 5:-0.53554349 6:1.1792607 7:0.57846038 8:-0.13597643 9:-2.6220813 10:0 11:1.2473206 12:-0.71705651 
-7.654277083580302 1:-0.93611623 2:-1.2406012 3:2.0604138 4:-1.0563552 5:-0.73464443 6:0.32117211 7:0.56444179 8:-0.98356287 9:-0.020458985 10:0 11:-0.80171851 12:-0.71705651 
5.02640481681378 1:-1.0141746 2:-0.33507523 3:-0.16042763 4:-0.11779769 5:-0.83563667 6:-0.46411547 7:-1.2475268 8:-0.047991683 9:-0.020458985 10:0 11:1.2473206 12:1.3945902 
-2.4400842935553 1:0.34041009 2:-0.89412667 3:1.5093996 4:-0.61389235 5:1.8568329 6:0.57151486 7:0.5652353 8:-0.85158575 9:0.67330698 10:0 11:-0.80171851 12:-0.71705651 
0.4862215792493516 1:-0.55004408 2:0.14521861 3:-1.2662698 4:-1.2574746 5:1.4474997 6:-1.4469294 7:0.0055497905 8:-1.652247 9:1.7139559 10:0 11:-0.80171851 12:-0.71705651 
9.900000000000013 1:-0.26925209 2:-0.51419791 3:0.43987761 4:-0.97590738 5:0.48756378 6:1.0545354 7:0.56768194 8:1.4741445 9:0.84674847 10:0 11:-0.80171851 12:1.3945902 
9.900000000000013 1:-1.0094479 2:-0.84285438 3:-0.52581233 4:-0.50662864 5:-0.20925977 6:-0.42896399 7:0.38279528 8:-0.13011078 9:0.84674847 10:0 11:-0.80171851 12:1.3945902 
9.900000000000013 1:-0.52822677 2:-0.14335396 3:-0.14816362 4:0.79394386 5:0.90969257 6:-0.12437733 7:0.13079133 8:1.0430192 9:0.326424 10:0 11:-0.80171851 12:-0.71705651 
5.002841261594996 1:-0.71850266 2:-1.5584033 3:-0.31985969 4:-0.11779769 5:-0.51443133 6:0.32117211 7:-0.28341827 8:-0.85158575 9:-0.020458985 10:0 11:-0.80171851 12:1.3945902 
5.106401895736898 1:1.0630273 2:0.37617345 3:-0.17410741 4:-0.18483751 5:0.079117277 6:-0.96390881 7:-1.0777829 8:-0.033327557 9:0.67330698 10:0 11:-0.80171851 12:-0.71705651 
9.900000000000013 1:-0.45603993 2:-0.97087668 3:-0.32138398 4:-0.49322068 5:-0.93318128 6:-0.17862124 7:0.5662933 8:-0.13011078 9:-1.2345494 10:0 11:-0.80171851 12:1.3945902 
9.900000000000013 1:0.068434501 2:0.57573224 3:-0.18495564 4:-0.11779769 5:-0.94671266 6:-0.78601022 7:0.18547704 8:0.022396119 9:-0.020458985 10:0 11:-0.80171851 12:1.3945902 
-9.900000000000013 1:2.489731 2:1.1522965 3:0.22058783 4:-1.0965791 5:-0.95641562 6:0.036570043 7:0.58057639 8:-0.047991683 9:-0.020458985 10:0 11:-0.80171851 12:1.3945902 
-9.900000000000013 1:0.23538388 2:-1.4016098 3:-0.049499146 4:-0.61389235 5:0.68647831 6:0.57151486 7:0.5652353 8:-0.85158575 9:0.67330698 10:0 11:1.2473206 12:-0.71705651 
-9.900000000000013 1:-0.084109772 2:0.022346682 3:2.1697333 4:-0.11779769 5:-0.49948278 6:-2.0721617 7:0.063806281 8:0.10744804 9:-0.020458985 10:0 11:-0.80171851 12:-0.71705651 
9.900000000000013 1:-0.087225191 2:-0.080450913 3:-0.22174765 4:-0.11779769 5:2.5316822 6:-0.46340173 7:0.18375778 8:1.1192727 9:-0.020458985 10:0 11:-0.80171851 12:-0.71705651 
9.900000000000013 1:0.32032317 2:0.36232209 3:0.15808987 4:0.096729736 5:0.76127488 6:0.28673436 7:0.58222953 8:-0.042126032 9:-0.88766644 10:0 11:-0.80171851 12:1.3945902 
-0.9135623844902119 1:-0.69305783 2:-0.12862032 3:0.41724132 4:1.115735 5:1.0088278 6:-1.4287291 7:-0.56213689 8:0.12211217 9:0.84674847 10:0 11:-0.80171851 12:-0.71705651 
-6.699908287058264 1:-1.1266208 2:-2.2749326 3:0.032867312 4:-1.0563552 5:0.35155637 6:0.57151486 7:0.5652353 8:-0.85158575 9:-0.020458985 10:0 11:-0.80171851 12:1.3945902 
9.900000000000013 1:-1.0208689 2:-1.099254 3:-0.43023574 4:-0.11779769 5:-0.95641562 6:-1.2149653 7:0.38147277 8:-0.033327557 9:-0.020458985 10:0 11:-0.80171851 12:-0.71705651 
9.900000000000013 1:-1.0507358 2:-0.95110479 3:-0.16548566 4:-0.49322068 5:-0.28456957 6:0.14291664 7:0.30318028 8:-0.18290163 9:-1.4947117 10:0 11:1.2473206 12:-0.71705651 
-9.900000000000013 1:-0.69362569 2:1.0870033 3:-1.8048487 4:-0.78819588 5:0.5811565 6:-0.21395115 7:0.66640718 8:-0.027461907 9:-1.7548739 10:0 11:-0.80171851 12:-0.71705651 
-9.900000000000013 1:0.11651786 2:-0.61889994 3:-0.18495564 4:-0.11779769 5:0.44370938 6:0.0005263959 7:0.5657643 8:0.051724369 9:-0.020458985 10:0 11:-0.80171851 12:1.3945902 
-9.900000000000013 1:0.11926388 2:-0.0085659798 3:-0.26467167 4:-0.11779769 5:0.58600083 6:0.82167918 7:0.65794313 8:-0.84278727 9:-0.020458985 10:0 11:1.2473206 12:-0.71705651 
9.900000000000013 1:0.066152579 2:0.15538426 3:1.9305852 4:-0.11779769 5:2.7395821 6:-0.80313987 7:0.057854993 8:1.1691307 9:-0.020458985 10:0 11:-0.80171851 12:-0.71705651 
0.791412885229699 1:0.10259834 2:-0.046505479 3:1.3046885 4:-0.18483751 5:0.048798155 6:-0.71427979 7:0.56702068 8:-0.045058858 9:0.67330698 10:0 11:-0.80171851 12:-0.71705651 
-1.574241626539036 1:-0.90500193 2:-2.7597135 3:3.0922901 4:-1.0563552 5:1.7508374 6:-0.66235553 7:-0.83622673 8:-3.1714504 9:-0.020458985 10:0 11:-0.80171851 12:1.3945902 
9.900000000000013 1:0.64100985 2:0.26431955 3:-0.097483823 4:0.52578458 5:0.035212665 6:-0.21377271 7:0.27421735 8:0.095716745 9:1.7139559 10:0 11:1.2473206 12:-0.71705651 
-9.900000000000013 1:0.62964365 2:0.24208406 3:1.9670258 4:-0.26528529 5:1.9422463 6:-0.62417067 7:0.12417878 8:0.58549853 9:-0.88766644 10:0 11:1.2473206 12:-0.71705651 
7.33280522424099 1:-1.5501464 2:-0.75526308 3:0.49325128 4:0.61964033 5:0.23400943 6:1.89371 7:0.019502253 8:0.82599018 9:1.3670729 10:0 11:1.2473206 12:-0.71705651 
-9.900000000000013 1:0.68178259 2:-0.27883009 3:-0.17269163 4:-0.11779769 5:1.7760311 6:-0.80313987 7:0.057854993 8:1.1691307 9:-0.020458985 10:0 11:1.2473206 12:-0.71705651 
-9.900000000000013 1:0.12955742 2:-0.12134674 3:-0.086843599 4:-0.11779769 5:-0.38824512 6:-0.44662895 7:0.18792368 8:-0.74893687 9:-0.020458985 10:0 11:-0.80171851 12:-0.71705651 
9.900000000000013 1:0.041568977 2:-0.043518445 3:-0.24330764 4:3.3682729 5:1.4429005 6:-0.46411547 7:-0.76071151 8:-0.036260382 9:0.84674847 10:0 11:1.2473206 12:-0.71705651 
-1.096617969524923 1:-0.62838561 2:-0.038357521 3:1.2376983 4:1.102327 5:1.2361922 6:0.0005263959 7:0.5657643 8:0.051724369 9:-1.7548739 10:0 11:1.2473206 12:-0.71705651 
9.900000000000013 1:-0.9667432 2:-0.60854986 3:-0.16042763 4:-0.11779769 5:-0.86229527 6:-0.46411547 7:-1.9781465 8:-0.047991683 9:-0.020458985 10:0 11:1.2473206 12:1.3945902 
-9.900000000000013 1:0.36394342 2:0.52838481 3:-0.20948365 4:-0.11779769 5:-0.79839952 6:-0.21395115 7:-0.42340577 8:-0.053857333 9:-0.020458985 10:0 11:-0.80171851 12:1.3945902 
2.988915627722061 1:1.9645493 2:1.8302957 3:0.10652969 4:-0.50662864 5:-0.41005216 6:-0.49855321 7:0.29200509 8:0.89344516 9:0.84674847 10:0 11:-0.80171851 12:-0.71705651 
2.638640784281467 1:-1.8656901 2:-0.84012259 3:-0.19897808 4:-1.0161313 5:0.36139534 6:1.3569809 7:-1.3417555 8:-0.47618414 9:-0.020458985 10:0 11:-0.80171851 12:1.3945902 
9.900000000000013 1:1.930157 2:0.7909284 3:0.048060455 4:-0.11779769 5:-0.65008638 6:0.28673436 7:0.58302303 8:-0.053857333 9:-0.020458985 10:0 11:-0.80171851 12:1.3945902 
-9.900000000000013 1:-0.34109993 2:-0.57552743 3:-0.26467167 4:-0.11779769 5:0.17773744 6:0.82167918 7:0.65794313 8:-0.84278727 9:-0.020458985 10:0 11:-0.80171851 12:-0.71705651 
-9.900000000000013 1:-0.16877255 2:0.36083941 3:-0.05054833 4:3.3682729 5:-0.87689877 6:0.1079436 7:0.5816344 8:-0.32367724 9:0.84674847 10:0 11:-0.80171851 12:-0.71705651 
-9.900000000000013 1:-0.5874828 2:0.091866985 3:-0.16762146 4:-0.18483751 5:-0.43908777 6:-0.28532471 7:0.37102496 8:0.23355952 9:0.326424 10:0 11:-0.80171851 12:-0.71705651 
-9.900000000000013 1:0.17466965 2:-0.074612643 3:-0.30709369 4:-0.97590738 5:-0.063734094 6:-0.21395115 7:0.39747512 8:-0.042126032 9:0.84674847 10:0 11:-0.80171851 12:-0.71705651 
7.729069614951249 1:-0.63684245 2:-0.095311005 3:0.090984472 4:-0.11779769 5:-0.087846281 6:1.1792607 7:0.57846038 8:-0.13597643 9:-0.020458985 10:0 11:-0.80171851 12:-0.71705651 
9.900000000000013 1:-0.099045431 2:-0.43621264 3:-0.23037381 4:1.5179739 5:0.25481914 6:0.0005263959 7:0.5657643 8:0.051724369 9:-0.020458985 10:0 11:-0.80171851 12:-0.71705651 
9.900000000000013 1:1.1384611 2:0.12477531 3:-0.061553446 4:-0.49322068 5:1.0276556 6:0.82167918 7:0.65794313 8:-0.84278727 9:-1.2345494 10:0 11:1.2473206 12:-0.71705651 
-9.900000000000013 1:0.80131098 2:0.08264412 3:-0.36446664 4:0.20399345 5:-0.21357442 6:-1.4995674 7:0.27600274 8:0.90224363 9:-0.020458985 10:0 11:-0.80171851 12:-0.71705651 
3.948925602950695 1:0.45092307 2:-0.21300299 3:-1.6083411 4:-0.21165343 5:0.96924079 6:-0.39292034 7:0.39615261 8:-0.22982684 9:-2.6220813 10:0 11:-0.80171851 12:-0.71705651 
9.900000000000013 1:-0.046972506 2:0.048564367 3:-0.21065116 4:0.20399345 5:0.33501504 6:-0.94642229 7:0.28175565 8:0.042925894 9:1.3670729 10:0 11:-0.80171851 12:-0.71705651 
-9.900000000000013 1:0.15162449 2:0.36449931 3:-0.17212552 4:-0.41277289 5:-0.080835646 6:-0.7496097 7:-0.027579042 8:-0.089051233 9:0.67330698 10:0 11:-0.80171851 12:-0.71705651 
-9.900000000000013 1:1.28385 2:1.090075 3:0.34337345 4:0.47215273 5:-0.95494922 6:1.6813737 7:0.034711098 8:-0.18876728 9:0.326424 10:0 11:1.2473206 12:-0.71705651 
-0.3067867410641911 1:3.3812368 2:1.7226787 3:-2.0364278 4:-0.5200366 5:-0.85715057 6:1.0375842 7:0.038810874 8:-0.047991683 9:0.84674847 10:0 11:-0.80171851 12:-0.71705651 
9.900000000000013 1:-0.30205187 2:0.38062473 3:-0.13589962 4:-0.11779769 5:-0.66669499 6:-0.46411547 7:0.30397379 8:-0.024529082 9:-0.020458985 10:0 11:-0.80171851 12:-0.71705651 
9.900000000000013 1:-0.31541499 2:-0.61130382 3:-0.061642419 4:0.20399345 5:-0.76223721 6:0.55384991 7:0.65496748 8:-0.20049858 9:1.3670729 10:0 11:-0.80171851 12:-0.71705651 
9.900000000000013 1:-0.61809809 2:-0.97387575 3:-0.12363561 4:-0.11779769 5:-0.94745195 6:-0.71427979 7:-0.51856024 8:-0.053857333 9:-0.020458985 10:0 11:1.2473206 12:1.3945902 
-9.900000000000013 1:-0.22916604 2:-0.24624806 3:1.5093996 4:-0.61389235 5:1.3514926 6:0.57151486 7:0.5652353 8:-0.85158575 9:0.67330698 10:0 11:1.2473206 12:-0.71705651 
-9.900000000000013 1:1.0486767 2:0.92414499 3:0.17239934 4:-0.62730032 5:-0.89242527 6:0.036570043 7:0.58057639 8:-0.047991683 9:-2.6220813 10:0 11:-0.80171851 12:-0.71705651 
9.900000000000013 1:0.057490513 2:0.019222147 3:0.7229602 4:3.3682729 5:0.46957343 6:0.32117211 7:0.56444179 8:-0.98356287 9:0.84674847 10:0 11:-0.80171851 12:-0.71705651 
-1.890555563256237 1:-3.8630186 2:-4.7078181 3:0.31477701 4:-1.1904348 5:0.08486514 6:-2.4479435 7:-1.8519131 8:-0.19170011 9:2.5811634 10:0 11:1.2473206 12:1.3945902 
-9.900000000000013 1:0.72666767 2:0.0014324774 3:-0.068447591 4:-0.11779769 5:0.99005653 6:0.82167918 7:0.65794313 8:-0.84278727 9:-0.020458985 10:0 11:1.2473206 12:-0.71705651 
-9.900000000000013 1:-1.970437 2:-1.140322 3:0.81395873 4:0.61964033 5:0.50552271 6:3.0726228 7:-0.53357071 8:1.2571155 9:1.3670729 10:0 11:1.2473206 12:-0.71705651 
-5.72814259531158 1:-1.315344 2:-0.2439613 3:-2.3506836 4:-0.2250614 5:0.58014168 6:1.1614173 7:-0.17160019 8:-0.95423462 9:1.7139559 10:0 11:-0.80171851 12:-0.71705651 
-9.900000000000013 1:0.27826715 2:-0.40242148 3:0.03371775 4:-0.49322068 5:1.4532697 6:0.55402834 7:0.56166452 8:-0.13890926 9:-1.2345494 10:0 11:1.2473206 12:-0.71705651 
9.900000000000013 1:-0.05967913 2:-0.58699355 3:-0.27693567 4:-0.11779769 5:0.054612662 6:-0.44734268 7:0.18765918 8:-1.9044699 9:-0.020458985 10:0 11:-0.80171851 12:1.3945902 
-4.234371934817693 1:-0.72642503 2:-0.24222819 3:-0.19339602 4:1.115735 5:-0.82374903 6:-0.78565335 7:-0.87610036 8:-1.1038087 9:0.84674847 10:0 11:-0.80171851 12:1.3945902 
9.900000000000013 1:-0.54572856 2:-0.44667881 3:-0.13589962 4:-0.11779769 5:-0.83563667 6:-0.46411547 7:-1.2475268 8:-0.024529082 9:-0.020458985 10:0 11:1.2473206 12:1.3945902 
1.23157305133214 1:-0.90226519 2:-0.38641644 3:-0.17092932 4:1.102327 5:0.34899798 6:0.07172152 7:0.56834319 8:-0.14184208 9:-1.7548739 10:0 11:1.2473206 12:-0.71705651 
-9.900000000000013 1:0.0017697746 2:-0.049905167 3:-0.16042763 4:-0.11779769 5:-0.84833009 6:-0.46411547 7:-1.2467333 8:-0.047991683 9:-0.020458985 10:0 11:1.2473206 12:1.3945902 
9.900000000000013 1:-0.27296976 2:0.3621343 3:-1.6456086 4:-0.2250614 5:1.2103293 6:-0.21395115 7:0.66640718 8:-0.027461907 9:1.7139559 10:0 11:1.2473206 12:-0.71705651 
-2.945574828840121 1:1.954417 2:2.9258979 3:0.2988626 4:0.20399345 5:-0.57118214 6:-0.64112189 7:-0.45197195 8:0.29808167 9:1.3670729 10:0 11:1.2473206 12:1.3945902 
1.836779602395914 1:-0.20049901 2:-0.047272606 3:-2.2119163 4:-1.0563552 5:1.1031847 6:-0.21377271 7:0.46254253 8:-0.047991683 9:-0.020458985 10:0 11:1.2473206 12:-0.71705651 
-9.900000000000013 1:-0.15584585 2:-1.7625736 3:-0.24388348 4:0.35148105 5:-0.95641562 6:-0.71427979 7:0.56702068 8:-0.045058858 9:-0.020458985 10:0 11:1.2473206 12:-0.71705651 
9.900000000000013 1:-0.4443229 2:-0.55402787 3:-0.05940429 4:-0.33232511 5:-0.95641562 6:0.23249046 7:0.076105608 8:0.083985444 9:0.84674847 10:0 11:1.2473206 12:-0.71705651 
3.500893016646573 1:1.1733738 2:0.96798059 3:0.12164448 4:-0.11779769 5:-0.66873683 6:-0.49926695 7:0.38200177 8:0.057590019 9:-0.020458985 10:0 11:-0.80171851 12:-0.71705651 
-1.961403760962467 1:-0.60525897 2:-0.069909001 3:3.1473917 4:-0.5200366 5:2.6596386 6:1.5735996 7:-0.0035093913 8:2.069508 9:0.84674847 10:0 11:-0.80171851 12:-0.71705651 
-1.986469133527159 1:-2.0087874 2:-1.9323086 3:1.5758741 4:-0.77478792 5:-0.35135271 6:-0.49980225 7:-0.5514907 8:0.034127419 9:-0.71422495 10:0 11:1.2473206 12:-0.71705651 
9.900000000000013 1:0.52090707 2:-0.95100466 3:-0.17269163 4:-0.11779769 5:0.90581923 6:-0.80313987 7:0.057854993 8:1.1691307 9:-0.020458985 10:0 11:1.2473206 12:-0.71705651 
-9.900000000000013 1:0.60950831 2:0.49693155 3:0.18095505 4:-0.49322068 5:0.48131117 6:0.8049064 7:0.65377723 8:1.0254223 9:-1.2345494 10:0 11:1.2473206 12:-0.71705651 
2.712223854090005 1:-1.6804959 2:-1.4713372 3:-0.074579594 4:-0.11779769 5:-0.93177063 6:-0.96444411 7:-1.3418878 8:-0.047991683 9:-0.020458985 10:0 11:1.2473206 12:1.3945902 
-9.900000000000013 1:-0.32902456 2:0.25951192 3:0.14004049 4:-0.11779769 5:0.23138183 6:0.25069072 7:0.65847213 8:0.060522844 9:-0.020458985 10:0 11:1.2473206 12:-0.71705651 
9.900000000000013 1:1.3181129 2:2.591354 3:0.1523045 4:-0.11779769 5:-0.95641562 6:-0.24892419 7:0.47477573 8:0.045858719 9:-0.020458985 10:0 11:-0.80171851 12:1.3945902 
9.900000000000013 1:0.48414403 2:1.7473791 3:0.34304282 4:-1.0161313 5:0.27336963 6:0.60827224 7:0.47563536 8:-0.094916883 9:-0.020458985 10:0 11:-0.80171851 12:1.3945902 
9.900000000000013 1:-0.099775763 2:-0.052565307 3:-0.28306768 4:-0.11779769 5:1.8366724 6:-0.48088825 7:0.17727749 8:1.8319492 9:-0.020458985 10:0 11:1.2473206 12:-0.71705651 
9.900000000000013 1:-0.29475483 2:-0.075189234 3:-0.13995514 4:3.0196659 5:-0.92914777 6:-0.71427979 7:0.30232065 8:-0.042126032 9:-0.88766644 10:0 11:-0.80171851 12:-0.71705651 
-9.900000000000013 1:-0.18287661 2:0.71845462 3:-0.20188362 4:-0.2250614 5:-0.95641562 6:-0.21395115 7:0.39668162 8:-0.030394732 9:-0.020458985 10:0 11:-0.80171851 12:1.3945902 
-9.900000000000013 1:-1.4516517 2:-0.48424182 3:-0.11137161 4:-0.11779769 5:-0.86229527 6:-0.71427979 7:-2.0708543 8:-0.042126032 9:-0.020458985 10:0 11:1.2473206 12:1.3945902 
-0.2483449729547418 1:0.88763479 2:-1.9746012 3:5.3562242 4:0.31125716 5:1.3821788 6:3.6084598 7:-1.1302865 8:-0.44685589 9:-0.020458985 10:0 11:-0.80171851 12:-0.71705651 
-9.900000000000013 1:0.047033627 2:-0.40610422 3:-0.27794543 4:0.20399345 5:-0.21357442 6:-0.71427979 7:0.56702068 8:-0.045058858 9:-0.020458985 10:0 11:-0.80171851 12:-0.71705651 
-6.778572086937206 1:-0.25169823 2:0.7589706 3:-0.01793492 4:-0.62730032 5:-0.92391579 6:-0.21377271 7:0.46254253 8:-0.047991683 9:-2.6220813 10:0 11:-0.80171851 12:1.3945902 
-9.865320517424164 1:0.94517266 2:1.26226 3:0.45202191 4:-0.64070828 5:-0.94043088 6:0.036570043 7:0.58057639 8:-0.047991683 9:1.7139559 10:0 11:-0.80171851 12:1.3945902 
-7.315237625356333 1:-0.075985887 2:0.13300625 3:-2.6888866 4:-1.0161313 5:1.1160828 6:-0.21377271 7:0.46254253 8:-0.047991683 9:-2.2751984 10:0 11:-0.80171851 12:-0.71705651 
8.598556052252583 1:-0.87736704 2:0.29820648 3:-0.079866527 4:1.102327 5:0.39541493 6:0.89376648 7:0.58143602 8:-0.18876728 9:-1.7548739 10:0 11:1.2473206 12:-0.71705651 
-9.900000000000013 1:-0.70856 2:-1.0216971 3:-0.36891571 4:-0.11779769 5:-0.7655576 6:-0.67912831 7:0.29008745 8:-0.12424513 9:-0.020458985 10:0 11:-0.80171851 12:-0.71705651 
-5.468770337324499 1:0.32724815 2:-0.061701318 3:-0.25835714 4:-0.62730032 5:0.21982257 6:-0.44734268 7:0.18765918 8:-1.9044699 9:0.84674847 10:0 11:1.2473206 12:-0.71705651 
9.900000000000013 1:0.51614549 2:0.67436952 3:0.19827709 4:-0.49322068 5:-0.95641562 6:0.036570043 7:0.58057639 8:-0.047991683 9:-1.2345494 10:0 11:1.2473206 12:-0.71705651 
9.900000000000013 1:-0.1163533 2:-0.76260848 3:-0.41303792 4:3.5425765 5:-0.053396656 6:2.0901657 7:0.0072690513 8:0.65881915 9:-0.020458985 10:0 11:1.2473206 12:-0.71705651 
-9.900000000000013 1:0.51116185 2:0.034982114 3:-0.17219729 4:0.20399345 5:-0.21357442 6:-0.99977402 7:0.46122002 8:0.048791544 9:-0.020458985 10:0 11:-0.80171851 12:-0.71705651 
-9.900000000000013 1:-0.16457067 2:-0.091577611 3:-0.22657185 4:-0.29210122 5:-0.71882225 6:-0.7496097 7:-0.027579042 8:-0.089051233 9:1.7139559 10:0 11:1.2473206 12:-0.71705651 
9.900000000000013 1:-1.567615 2:-1.0703083 3:-0.29633473 4:-1.0697631 5:-0.89338112 6:0.0005263959 7:0.5657643 8:0.051724369 9:-1.3212702 10:0 11:-0.80171851 12:-0.71705651 
9.900000000000013 1:-0.088661889 2:0.68282201 3:-1.3120747 4:-0.54685253 5:-0.94229267 6:0.35792949 7:0.3828614 8:-0.083185583 9:-2.6220813 10:0 11:-0.80171851 12:-0.71705651 
-9.900000000000013 1:-0.0008687996 2:0.079226949 3:-0.14132322 4:3.0196659 5:-0.95477516 6:0.32170741 7:0.36943795 8:0.09864957 9:-0.88766644 10:0 11:-0.80171851 12:1.3945902 
9.900000000000013 1:-0.71573176 2:-0.23470846 3:-0.36891571 4:-0.11779769 5:-0.1682213 6:-0.67912831 7:0.29008745 8:-0.12424513 9:-0.020458985 10:0 11:-0.80171851 12:-0.71705651 
9.900000000000013 1:0.16454696 2:0.83045542 3:-0.41030291 4:0.1101377 5:-0.88174396 6:-1.482973 7:0.19612323 8:-1.0891446 9:0.84674847 10:0 11:1.2473206 12:-0.71705651 
9.900000000000013 1:1.5440556 2:0.488278 3:0.10300589 4:-0.49322068 5:-0.55252554 6:0.28673436 7:0.58302303 8:-0.053857333 9:-1.2345494 10:0 11:-0.80171851 12:-0.71705651 
9.900000000000013 1:2.0116488 2:1.2234222 3:0.10652969 4:-0.50662864 5:-0.95641562 6:0.28673436 7:0.58222953 8:-0.042126032 9:0.84674847 10:0 11:-0.80171851 12:1.3945902 
9.900000000000013 1:-0.21993237 2:-0.63657453 3:-0.30081854 4:-0.21165343 5:1.9161485 6:0.92909639 7:-0.97343697 8:0.20423127 9:0.67330698 10:0 11:-0.80171851 12:-0.71705651 
-9.900000000000013 1:0.25265234 2:-1.3685125 3:-0.010033355 4:-0.61389235 5:1.7121057 6:0.55474208 7:0.5610694 8:1.0166238 9:0.67330698 10:0 11:-0.80171851 12:-0.71705651 
-0.2651822743519422 1:-3.4256044 2:-2.8073662 3:0.68870577 4:-0.65411624 5:1.2365574 6:-2.0982131 7:-5.4423908 8:-12.920161 9:-0.020458985 10:0 11:1.2473206 12:1.3945902 
-9.900000000000013 1:1.2363903 2:0.83202508 3:0.59269193 4:-1.0697631 5:-0.18417716 6:1.1439308 7:-0.14753054 8:-0.18290163 9:-1.3212702 10:0 11:-0.80171851 12:1.3945902 
-9.900000000000013 1:1.6586083 2:0.83208413 3:0.06032446 4:-0.11779769 5:-0.95641562 6:0.28673436 7:0.58222953 8:-0.042126032 9:-0.020458985 10:0 11:-0.80171851 12:1.3945902 
-9.900000000000013 1:0.27931874 2:-0.21315215 3:-0.43023574 4:-0.11779769 5:-0.9555361 6:-1.2149653 7:0.38147277 8:-0.033327557 9:-0.020458985 10:0 11:1.2473206 12:-0.71705651 
-5.133039682440679 1:-0.44731822 2:0.16930426 3:-0.078732006 4:-0.74797199 5:1.278151 6:-0.46340173 7:0.18375778 8:1.1192727 9:1.7139559 10:0 11:1.2473206 12:-0.71705651 
-5.548126097885477 1:2.1034608 2:0.63370216 3:0.49520638 4:0.31125716 5:-0.24349663 6:0.82346352 7:-2.169249 8:-0.27088639 9:-0.020458985 10:0 11:1.2473206 12:-0.71705651 
-1.904319843383951 1:0.29809504 2:-1.0836879 3:-0.31717364 4:-0.27869325 5:1.115728 6:0.41110279 7:-0.40138601 8:2.0372469 9:1.7139559 10:0 11:-0.80171851 12:1.3945902 
9.900000000000013 1:1.1161982 2:1.0001562 3:0.11799091 4:-0.74797199 5:-0.95271175 6:0.036570043 7:0.58057639 8:-0.047991683 9:0.67330698 10:0 11:-0.80171851 12:-0.71705651 
9.900000000000013 1:0.16849568 2:0.41020247 3:0.12787162 4:0.36488901 5:-0.94052623 6:-2.1785083 7:-2.612686 8:0.22182822 9:-0.020458985 10:0 11:-0.80171851 12:1.3945902 
-9.900000000000013 1:0.0071140173 2:0.13168939 3:-0.037456388 4:0.32466512 5:1.4795593 6:-0.44734268 7:0.18765918 8:-1.9044699 9:-0.020458985 10:0 11:-0.80171851 12:-0.71705651 
-9.900000000000013 1:-0.97838125 2:-0.33938161 3:-0.31506947 4:3.0196659 5:-0.95122628 6:-0.96480098 7:0.38815144 8:-0.024529082 9:-0.88766644 10:0 11:-0.80171851 12:-0.71705651 
9.900000000000013 1:-0.20501134 2:-0.094573922 3:-0.05940429 4:-0.33232511 5:-0.31572182 6:0.23249046 7:0.076105608 8:0.083985444 9:0.84674847 10:0 11:1.2473206 12:-0.71705651 
-9.900000000000013 1:0.09663254 2:0.30624783 3:0.08485247 4:-0.11779769 5:-0.29504331 6:0.60862911 7:0.58017964 8:-0.11251383 9:-0.020458985 10:0 11:1.2473206 12:-0.71705651 
9.900000000000013 1:-0.60882127 2:-0.46901481 3:-0.092975601 4:-0.11779769 5:-0.80966547 6:0.57133643 7:0.65714962 8:-0.9747644 9:-0.020458985 10:0 11:-0.80171851 12:-0.71705651 
-2.058831880088032 1:-0.11387313 2:-0.094662411 3:2.106183 4:-0.26528529 5:1.0903584 6:-0.85774064 7:0.12755118 8:-1.4146882 9:-0.88766644 10:0 11:-0.80171851 12:-0.71705651 
4.051859089886413 1:-0.24277766 2:-0.855354 3:-0.13021725 4:2.4699393 5:-0.69384115 6:-0.036052553 7:0.29431947 8:0.40073055 9:2.2342804 10:0 11:-0.80171851 12:-0.71705651 
-9.900000000000013 1:-0.30842284 2:-0.35411502 3:-0.76315707 4:0.13695363 5:0.50757595 6:0.71479728 7:0.57257522 8:0.3948649 9:-2.6220813 10:0 11:-0.80171851 12:-0.71705651 
-4.213573662298612 1:0.17011339 2:0.30039148 3:-1.776435 4:-0.49322068 5:0.98225917 6:-1.4997458 7:0.18990745 8:0.77906498 9:-1.2345494 10:0 11:1.2473206 12:-0.71705651 
9.900000000000013 1:0.3146576 2:-0.14189984 3:-0.01793492 4:-0.62730032 5:0.21982257 6:-0.21377271 7:0.27421735 8:0.095716745 9:0.84674847 10:0 11:1.2473206 12:-0.71705651 
9.900000000000013 1:0.39360841 2:0.14361237 3:-0.13589962 4:-0.11779769 5:-0.099050019 6:-0.46411547 7:0.30397379 8:-0.024529082 9:-0.020458985 10:0 11:-0.80171851 12:1.3945902 
-9.900000000000013 1:0.35623348 2:-0.27038757 3:0.17254383 4:0.61964033 5:-0.38777726 6:0.71479728 7:0.57257522 8:0.3948649 9:1.3670729 10:0 11:-0.80171851 12:-0.71705651 
1.185328781786597 1:1.0942704 2:0.24572623 3:-0.20372779 4:-1.0697631 5:-0.025546276 6:-0.48160199 7:0.27124171 8:0.73800543 9:-1.3212702 10:0 11:-0.80171851 12:1.3945902 
9.900000000000013 1:0.11273013 2:0.19913183 3:-0.29767451 4:-0.93568349 5:-0.37037295 6:-0.21395115 7:0.39747512 8:-0.042126032 9:-0.020458985 10:0 11:1.2473206 12:-0.71705651 
-0.5737317119891605 1:0.90068412 2:1.0693105 3:0.06032446 4:-0.11779769 5:-0.099050019 6:0.28673436 7:0.58222953 8:-0.042126032 9:-0.020458985 10:0 11:-0.80171851 12:1.3945902 
-9.900000000000013 1:1.1024362 2:2.4262466 3:0.16072638 4:-0.2250614 5:-0.95641562 6:-0.24910262 7:0.38365491 8:0.063455669 9:-0.020458985 10:0 11:-0.80171851 12:1.3945902 
6.763585949757021 1:0.34549526 2:-0.20070374 3:1.6332176 4:-0.5200366 5:1.4152982 6:2.5731863 7:0.0097156916 8:2.9845494 9:0.84674847 10:0 11:1.2473206 12:-0.71705651 
2.57336425809917 1:-0.49932889 2:-0.18094551 3:2.479539 4:0.84757572 5:0.94430996 6:0.46516826 7:0.0058804176 8:0.13970912 9:0.84674847 10:0 11:-0.80171851 12:-0.71705651 
5.035425944833258 1:0.23929385 2:0.39706763 3:-0.87944788 4:-0.62730032 5:2.0011527 6:0.036570043 7:0.58057639 8:-0.047991683 9:-2.6220813 10:0 11:-0.80171851 12:-0.71705651 
-9.900000000000013 1:0.054253985 2:-0.15650951 3:-0.94532394 4:-0.11779769 5:1.4309786 6:0.71479728 7:0.57257522 8:0.3948649 9:-0.020458985 10:0 11:-0.80171851 12:-0.71705651 
4.363738717342291 1:-0.32444654 2:0.056616989 3:-0.13858706 4:3.0196659 5:-0.92914777 6:-0.71427979 7:0.30232065 8:-0.030394732 9:-0.88766644 10:0 11:-0.80171851 12:-0.71705651 
9.900000000000013 1:-0.28316145 2:0.21805397 3:0.19442503 4:0.096729736 5:1.3195153 6:0.8049064 7:0.65377723 8:1.0254223 9:-0.88766644 10:0 11:1.2473206 12:-0.71705651 
9.900000000000013 1:-0.048502466 2:0.2468568 3:-0.14132322 4:3.0196659 5:-0.89825348 6:-0.28496784 7:0.45996364 8:0.14557477 9:0.15298251 10:0 11:1.2473206 12:-0.71705651 
-9.900000000000013 1:0.14649208 2:0.40629356 3:0.12777649 4:-0.11779769 5:-0.087846281 6:1.429425 7:0.67116821 8:-0.12717796 9:-0.020458985 10:0 11:-0.80171851 12:-0.71705651 
9.900000000000013 1:-0.94476311 2:-0.72632549 3:0.19398138 4:-0.29210122 5:-0.57976704 6:0.71479728 7:0.57257522 8:0.3948649 9:1.7139559 10:0 11:1.2473206 12:-0.71705651 
-3.751872699156958 1:0.38034968 2:0.98993504 3:-0.013863622 4:-0.2250614 5:-0.73699938 6:-0.21395115 7:0.66640718 8:-0.027461907 9:-0.020458985 10:0 11:-0.80171851 12:-0.71705651 
-9.900000000000013 1:-0.18030858 2:-0.093675172 3:1.427761 4:-0.11779769 5:0.065542825 6:-0.71427979 7:0.56702068 8:-0.045058858 9:-0.020458985 10:0 11:-0.80171851 12:-0.71705651 
9.597420193585355 1:0.33178894 2:1.2666654 3:0.12164448 4:-0.11779769 5:-0.29504331 6:0.85879343 7:0.67288747 8:-0.10371536 9:-0.020458985 10:0 11:1.2473206 12:-0.71705651 
3.225849202490899 1:-2.8822225 2:-1.9351001 3:-0.682578 4:-0.5200366 5:-0.8042685 6:0.106873 7:0.0069384242 8:-0.22396119 9:0.84674847 10:0 11:1.2473206 12:-0.71705651 
1.624696752030876 1:1.2724712 2:-0.67584884 3:-0.25209584 4:-0.49322068 5:-0.21794444 6:0.16147377 7:-0.40634542 8:1.5855919 9:-0.020458985 10:0 11:-0.80171851 12:1.3945902 
-9.900000000000013 1:-0.41582199 2:-0.073586528 3:-0.099107604 4:-0.11779769 5:-0.95352136 6:-0.71427979 7:0.30232065 8:-0.030394732 9:-0.020458985 10:0 11:-0.80171851 12:-0.71705651 
-9.417154154549632 1:0.77299611 2:1.6674003 3:-2.6209118 4:-0.15802158 5:0.33380195 6:-0.32065462 7:-0.46453578 8:0.12211217 9:-0.020458985 10:0 11:1.2473206 12:-0.71705651 
-9.900000000000013 1:-0.83553267 2:-0.4679905 3:-0.14816362 4:-0.11779769 5:-0.87917875 6:-0.46411547 7:-2.7990274 8:-0.036260382 9:-0.020458985 10:0 11:1.2473206 12:1.3945902 
9.536384003891357 1:2.0622016 2:0.79893685 3:-0.21717243 4:0.36488901 5:-0.92463684 6:-0.10653394 7:-0.38359827 8:0.50337943 9:-0.020458985 10:0 11:-0.80171851 12:1.3945902 
0.8175955148221656 1:0.11250164 2:0.89975059 3:0.096901104 4:3.6096163 5:-0.95641562 6:2.8226369 7:0.031272577 8:-0.23569249 9:0.67330698 10:0 11:-0.80171851 12:1.3945902 
4.063048677073862 1:0.50522451 2:0.44523946 3:1.9670258 4:-0.26528529 5:2.3494657 6:-0.62417067 7:0.12417878 8:0.58549853 9:-0.88766644 10:0 11:1.2473206 12:-0.71705651 
8.078644742689084 1:0.22768007 2:-0.041313221 3:-0.27693567 4:-0.11779769 5:1.0217935 6:-0.44734268 7:0.18765918 8:-1.9044699 9:-0.020458985 10:0 11:1.2473206 12:-0.71705651 
-9.900000000000013 1:0.31953242 2:0.27125895 3:-0.64806392 4:0.20399345 5:-0.43798056 6:-1.8931925 7:0.13013007 8:-0.47618414 9:-0.020458985 10:0 11:-0.80171851 12:-0.71705651 
1.705771476463335 1:-0.58251445 2:-0.57939533 3:-0.39957572 4:-0.11779769 5:1.4821586 6:0.8049064 7:0.65377723 8:1.0254223 9:-0.020458985 10:0 11:-0.80171851 12:-0.71705651 
-9.900000000000013 1:-0.21501283 2:-0.38359986 3:-0.41797173 4:-0.11779769 5:0.61693242 6:-0.42896399 7:0.38279528 8:-0.13011078 9:-0.020458985 10:0 11:-0.80171851 12:-0.71705651 
-9.900000000000013 1:-0.072229702 2:0.84838131 3:-0.19108764 4:-0.11779769 5:-0.63463189 6:0.000347962 7:0.14156977 8:-0.56710172 9:-0.020458985 10:0 11:-0.80171851 12:1.3945902 
-1.615951988017176 1:-0.3310724 2:1.1642347 3:0.08485247 4:-0.11779769 5:-0.69707899 6:1.1439308 7:0.67414385 8:-0.17996881 9:-0.020458985 10:0 11:-0.80171851 12:-0.71705651 
-9.900000000000013 1:-0.66686271 2:-0.40915483 3:-0.30138866 4:3.0196659 5:-0.95641562 6:-1.8219974 7:0.070484947 8:0.11624652 9:-0.88766644 10:0 11:-0.80171851 12:1.3945902 
-9.900000000000013 1:-0.49667504 2:-0.50123901 3:-0.060303331 4:-0.41277289 5:-0.95371588 6:-0.14222072 7:0.3019239 8:-0.10664818 9:0.67330698 10:0 11:-0.80171851 12:1.3945902 
9.900000000000013 1:-0.20368839 2:0.48598621 3:-0.14335689 4:0.20399345 5:-0.51069589 6:-1.7677535 7:-0.17834499 8:-0.021596257 9:1.3670729 10:0 11:-0.80171851 12:1.3945902 
6.076569444325904 1:-0.79764487 2:-0.70054464 3:1.4295301 4:0.056505844 5:0.8261277 6:0.33919393 7:-0.56623667 8:0.95210166 9:-2.6220813 10:0 11:-0.80171851 12:1.3945902 
5.795131048287171 1:-1.2863743 2:-0.9592144 3:-0.068447591 4:-0.11779769 5:-0.78666423 6:0.82167918 7:0.65794313 8:-0.84278727 9:-0.020458985 10:0 11:-0.80171851 12:1.3945902 
-9.900000000000013 1:1.2425254 2:-0.39860547 3:2.8801845 4:-0.5200366 5:-0.24770547 6:-0.96444411 7:0.0083931833 8:-0.053857333 9:0.84674847 10:0 11:-0.80171851 12:-0.71705651 
9.900000000000013 1:-0.26912699 2:0.006706893 3:-0.16042763 4:-0.11779769 5:0.61703778 6:-0.46411547 7:0.30476729 8:-0.047991683 9:-0.020458985 10:0 11:-0.80171851 12:1.3945902 
3.594389090595633 1:0.48739821 2:-1.6156488 3:3.7968922 4:-1.0697631 5:0.58760616 6:1.839823 7:0.0064755463 8:0.52684203 9:-1.3212702 10:0 11:-0.80171851 12:-0.71705651 
-6.560520580477826 1:-0.97978275 2:-0.74805433 3:1.9305852 4:-0.11779769 5:1.4821586 6:-0.80313987 7:0.057854993 8:1.1691307 9:-0.020458985 10:0 11:-0.80171851 12:-0.71705651 
-0.1119875313120685 1:0.46315027 2:-0.26740913 3:-0.48154862 4:-1.0697631 5:3.4335573 6:-0.21305898 7:0.27653174 8:1.1896605 9:-1.3212702 10:0 11:-0.80171851 12:-0.71705651 
9.900000000000013 1:-0.65148296 2:0.16743133 3:-1.4910722 4:-0.11779769 5:0.86306304 6:0.64360216 7:-0.085967783 8:-0.050924508 9:-0.020458985 10:0 11:-0.80171851 12:-0.71705651 
-2.736616387091769 1:1.2833588 2:2.0175655 3:-0.071255886 4:0.20399345 5:-0.95641562 6:-1.4820808 7:0.017782992 8:-1.5583966 9:1.3670729 10:0 11:-0.80171851 12:1.3945902 
-9.900000000000013 1:0.49972041 2:0.2232484 3:-0.068447591 4:-0.11779769 5:-0.22661325 6:0.82167918 7:0.65794313 8:-0.84278727 9:-0.020458985 10:0 11:1.2473206 12:-0.71705651 
-0.501035683450664 1:-0.17441503 2:1.1022248 3:-0.19808951 4:0.15036159 5:0.63398306 6:-0.12437733 7:0.20412441 8:-0.086118408 9:0.84674847 10:0 11:-0.80171851 12:-0.71705651 
9.900000000000013 1:-1.3561369 2:-0.47372356 3:-0.086843599 4:-0.11779769 5:-0.93303157 6:-0.71427979 7:-1.2499735 8:-0.018663432 9:-0.020458985 10:0 11:1.2473206 12:1.3945902 
5.398641611068716 1:1.0671005 2:0.030095287 3:0.8391924 4:-0.49322068 5:0.98225917 6:-2.5186033 7:-0.18766867 8:-0.0039993069 9:-1.2345494 10:0 11:1.2473206 12:-0.71705651 
-9.900000000000013 1:-1.5430915 2:-1.20011 3:-0.062315589 4:-0.11779769 5:-0.92429962 6:-0.96444411 7:-0.52100688 8:-0.036260382 9:-0.020458985 10:0 11:1.2473206 12:-0.71705651 
-9.900000000000013 1:-0.54938932 2:-1.8092609 3:-0.51347538 4:0.20399345 5:-0.76223721 6:-0.769059 7:0.16471366 8:-0.13304361 9:1.3670729 10:0 11:-0.80171851 12:-0.71705651 
9.900000000000013 1:0.7343005 2:0.48080071 3:-0.12037084 4:0.2576253 5:-0.83524837 6:-1.3566418 7:-0.025992032 8:0.045858719 9:-0.020458985 10:0 11:-0.80171851 12:-0.71705651 
2.544883646044601 1:0.60781087 2:0.11976185 3:-0.11451649 4:0.20399345 5:-0.95641562 6:-1.3213119 7:0.07736199 8:0.10451522 9:1.3670729 10:0 11:-0.80171851 12:1.3945902 
-9.405054307517331 1:0.74215475 2:1.5387847 3:0.15401138 4:-0.2250614 5:-0.78282853 6:-0.24910262 7:0.38444841 8:0.051724369 9:-0.020458985 10:0 11:-0.80171851 12:-0.71705651 
-9.900000000000013 1:-0.39652158 2:0.39736527 3:-0.39957572 4:-0.11779769 5:2.0472727 6:0.8049064 7:0.65377723 8:1.0254223 9:-0.020458985 10:0 11:-0.80171851 12:-0.71705651 
-9.900000000000013 1:0.072998346 2:-0.017356672 3:-0.16655963 4:-0.11779769 5:-0.63463189 6:-0.87522716 7:-0.18290764 8:-0.10371536 9:-0.020458985 10:0 11:-0.80171851 12:1.3945902 
-5.17097866635239 1:-0.97929377 2:-0.095632056 3:-0.15429563 4:-0.11779769 5:-0.63463189 6:0.6785752 7:0.39291247 8:-0.12424513 9:-0.020458985 10:0 11:-0.80171851 12:1.3945902 
-1.318906219636374 1:-0.21321659 2:-0.64818387 3:-1.2606357 4:3.5425765 5:-0.89130553 6:1.0545354 7:0.56768194 8:1.4741445 9:-0.020458985 10:0 11:1.2473206 12:-0.71705651 
-2.400133160090714 1:-0.14004292 2:-0.036854802 3:-0.12159389 4:0.32466512 5:-0.52211275 6:-0.17862124 7:0.075245977 8:0.016530468 9:-1.7548739 10:0 11:-0.80171851 12:-0.71705651 
2.865527731852331 1:1.9761091 2:1.5775344 3:0.18087138 4:-0.2250614 5:-0.94052361 6:0.0012401315 7:0.47722237 8:0.039993069 9:0.326424 10:0 11:-0.80171851 12:1.3945902 
9.900000000000013 1:1.8646315 2:2.1773454 3:0.56669194 4:0.31125716 5:-0.95641562 6:0.53654182 7:-0.71131583 8:-0.0010664818 9:-0.020458985 10:0 11:1.2473206 12:-0.71705651 
-9.900000000000013 1:-0.48688756 2:-0.64467578 3:2.0654893 4:-0.11779769 5:0.17773744 6:-0.78636708 7:0.062020894 8:-0.69907884 9:-0.020458985 10:0 11:-0.80171851 12:-0.71705651 
-9.900000000000013 1:-0.69959531 2:-0.4831105 3:-0.40570773 4:-0.11779769 5:0.61693242 6:-0.50033755 7:0.35634511 8:0.14557477 9:-0.020458985 10:0 11:-0.80171851 12:-0.71705651 
-9.900000000000013 1:-1.0208556 2:0.41175378 3:-1.0815486 4:-0.2250614 5:1.1975879 6:-0.1241989 7:-0.26172913 8:-0.024529082 9:1.7139559 10:0 11:1.2473206 12:-0.71705651 
9.900000000000013 1:0.51836415 2:0.12004157 3:-0.0091997184 4:0.2576253 5:-0.61249358 6:-0.99995246 7:0.37512473 8:0.069321319 9:-0.020458985 10:0 11:1.2473206 12:-0.71705651 
-9.900000000000013 1:0.20438573 2:0.66427487 3:0.61470068 4:-0.97590738 5:0.64915956 6:1.1792607 7:0.57846038 8:-0.13597643 9:0.84674847 10:0 11:-0.80171851 12:-0.71705651 
-9.900000000000013 1:-0.62331391 2:-1.0958141 3:-0.17269163 4:-0.11779769 5:-0.86134957 6:-0.46411547 7:-1.977353 8:-0.059722983 9:-0.020458985 10:0 11:1.2473206 12:1.3945902 
0.9099126146895904 1:1.3423446 2:2.7187469 3:-3.4972359 4:-1.0563552 5:1.9279067 6:-0.26587541 7:-0.74332053 8:3.0989296 9:-0.020458985 10:0 11:-0.80171851 12:1.3945902 
-9.900000000000013 1:-0.17212073 2:-0.99536597 3:-0.20584443 4:0.20399345 5:1.068372 6:0.30368558 7:0.28942619 8:1.4800102 9:1.3670729 10:0 11:-0.80171851 12:1.3945902 
-9.900000000000013 1:0.47966627 2:-0.21778829 3:0.13978498 4:-1.0161313 5:1.3361097 6:0.55402834 7:0.56166452 8:-0.13890926 9:-2.2751984 10:0 11:1.2473206 12:-0.71705651 
9.900000000000013 1:-0.65069698 2:-0.19670209 3:-0.11137161 4:-0.11779769 5:-0.77524719 6:-0.71427979 7:-0.51856024 8:-0.042126032 9:-0.020458985 10:0 11:1.2473206 12:1.3945902 
9.900000000000013 1:-0.26847501 2:-0.50200666 3:0.08485247 4:-0.11779769 5:1.152509 6:1.0545354 7:0.56768194 8:1.4741445 9:-0.020458985 10:0 11:1.2473206 12:-0.71705651 
9.900000000000013 1:2.1621198 2:1.308865 3:0.10300589 4:-0.49322068 5:-0.88898182 6:0.28673436 7:0.58302303 8:-0.053857333 9:-1.2345494 10:0 11:-0.80171851 12:-0.71705651 
-5.690378258176821 1:-0.34431121 2:-0.055091838 3:-0.043506003 4:-0.93568349 5:1.2154602 6:-0.44662895 7:0.18792368 8:-0.74893687 9:0.15298251 10:0 11:-0.80171851 12:-0.71705651 
0.4453809643575412 1:1.201835 2:-0.10608287 3:3.2364608 4:-0.5200366 5:1.0783052 6:1.6071452 7:0.004822411 8:-1.6669111 9:0.84674847 10:0 11:1.2473206 12:-0.71705651 
-9.900000000000013 1:-0.94130453 2:0.37557964 3:-0.14816362 4:-0.11779769 5:-0.60399424 6:0.25069072 7:0.65847213 8:0.060522844 9:-0.020458985 10:0 11:-0.80171851 12:-0.71705651 
-9.900000000000013 1:0.77140034 2:0.44056292 3:-0.50326535 4:-0.49322068 5:0.98225917 6:-0.99995246 7:0.37512473 8:0.069321319 9:-1.2345494 10:0 11:1.2473206 12:-0.71705651 
-9.118531083709524 1:-1.675606 2:-2.1630806 3:-1.2580561 4:-0.11779769 5:1.122065 6:1.7142055 7:-0.16750042 8:-0.9395705 9:-0.020458985 10:0 11:-0.80171851 12:1.3945902 
6.035261411853681 1:1.1719069 2:1.7402468 3:0.12164448 4:-0.11779769 5:-0.94819124 6:-0.49926695 7:0.38200177 8:0.057590019 9:-0.020458985 10:0 11:1.2473206 12:-0.71705651 
2.959103425728198 1:-0.71688557 2:1.0185665 3:0.20811263 4:-0.5200366 5:1.6648708 6:2.1074738 7:0.19023807 8:-1.6493142 9:0.84674847 10:0 11:1.2473206 12:-0.71705651 
7.187041233894608 1:-0.62755177 2:-0.18814072 3:-0.099107604 4:-0.11779769 5:-0.94934335 6:-0.71427979 7:-0.51935375 8:-0.030394732 9:-0.020458985 10:0 11:-0.80171851 12:1.3945902 
4.706801436797216 1:0.090586528 2:-0.1585439 3:0.90707005 4:3.3682729 5:2.5590416 6:-0.51800251 7:0.16352341 8:1.0928773 9:0.84674847 10:0 11:-0.80171851 12:-0.71705651 
9.900000000000013 1:-0.26638632 2:-1.7001225 3:-0.063604577 4:1.5179739 5:-0.93071596 6:0.57151486 7:0.5652353 8:-0.85158575 9:-0.020458985 10:0 11:-0.80171851 12:1.3945902 
-9.900000000000013 1:-1.2750055 2:-0.69173274 3:-0.092975601 4:-0.11779769 5:-0.80669224 6:0.57133643 7:0.65714962 8:-0.9747644 9:-0.020458985 10:0 11:-0.80171851 12:-0.71705651 
9.900000000000013 1:-0.67400518 2:-0.8246633 3:-0.12976762 4:-0.11779769 5:-0.80966547 6:0.32117211 7:0.56444179 8:-0.98356287 9:-0.020458985 10:0 11:-0.80171851 12:-0.71705651 
-9.900000000000013 1:0.36932224 2:0.31672022 3:-0.19721964 4:-0.11779769 5:-0.94671266 6:-0.21395115 7:0.39747512 8:-0.042126032 9:-0.020458985 10:0 11:-0.80171851 12:1.3945902 
-9.900000000000013 1:1.2351487 2:1.3847817 3:0.12164448 4:-0.11779769 5:-0.95352136 6:-0.49926695 7:0.38200177 8:0.057590019 9:-0.020458985 10:0 11:-0.80171851 12:-0.71705651 
-8.182270551135707 1:-0.26645458 2:0.47848736 3:0.0062813778 4:-0.2250614 5:0.87140429 6:-0.21395115 7:0.66640718 8:-0.027461907 9:1.7139559 10:0 11:-0.80171851 12:-0.71705651 
9.900000000000013 1:0.76308482 2:1.1792018 3:0.13390849 4:-0.11779769 5:-0.66873683 6:0.28673436 7:0.67328422 8:-0.039193207 9:-0.020458985 10:0 11:-0.80171851 12:-0.71705651 
-9.900000000000013 1:-0.98738841 2:-0.40703159 3:-1.0579373 4:3.0196659 5:-0.31378402 6:0.85772283 7:-0.4482028 8:-0.23862531 9:-0.88766644 10:0 11:1.2473206 12:-0.71705651 
9.089536592936847 1:-0.28298152 2:0.16935764 3:-0.30146368 4:-0.11779769 5:-0.80966547 6:-0.69768544 7:0.18686568 8:-2.0364471 9:-0.020458985 10:0 11:-0.80171851 12:-0.71705651 
-9.900000000000013 1:0.73950177 2:0.46018985 3:-0.96197452 4:-0.64070828 5:-0.65003312 6:0.28673436 7:0.58222953 8:-0.042126032 9:1.7139559 10:0 11:-0.80171851 12:-0.71705651 
9.900000000000013 1:0.37078919 2:-0.2487277 3:-0.39344372 4:-0.11779769 5:-0.56269331 6:-0.96480098 7:0.38815144 8:-0.024529082 9:-0.020458985 10:0 11:1.2473206 12:-0.71705651 
-8.884572403694825 1:-1.0424336 2:0.19721742 3:-0.088045802 4:0.79394386 5:-0.95554595 6:-2.5892632 7:-2.8729556 8:-0.76653382 9:0.326424 10:0 11:-0.80171851 12:1.3945902 
-9.900000000000013 1:0.31541691 2:0.79873417 3:0.10300589 4:-0.49322068 5:-0.95641562 6:0.28673436 7:0.58302303 8:-0.053857333 9:-1.2345494 10:0 11:-0.80171851 12:-0.71705651 
-9.900000000000013 1:0.5437046 2:0.92524422 3:-0.85861654 4:0.84757572 5:0.20453682 6:1.0375842 7:0.22092026 8:-0.042126032 9:0.84674847 10:0 11:-0.80171851 12:-0.71705651 
-1.298167685254973 1:0.10129475 2:1.0766769 3:0.32251681 4:-1.0563552 5:0.29422225 6:-0.49926695 7:0.38200177 8:0.057590019 9:-0.020458985 10:0 11:-0.80171851 12:-0.71705651 
-0.0225699114394136 1:-2.4443541 2:-1.5682635 3:0.21344661 4:-0.65411624 5:1.5744893 6:-1.1312798 7:-3.5666773 8:-9.7732395 9:-0.020458985 10:0 11:1.2473206 12:-0.71705651 
-0.2602641976223876 1:2.9152193 2:1.5381311 3:-0.92692093 4:-0.97590738 5:-0.2265584 6:0.28673436 7:0.58222953 8:-0.042126032 9:0.84674847 10:0 11:1.2473206 12:-0.71705651 
-4.653902543783253 1:0.14758305 2:0.18232629 3:-0.1747852 4:-1.2574746 5:2.1203188 6:-0.28514627 7:0.14454541 8:-0.61989257 9:1.7139559 10:0 11:-0.80171851 12:-0.71705651 
9.900000000000013 1:-0.24351431 2:0.52968475 3:-0.062792253 4:1.102327 5:-0.54695329 6:0.28673436 7:0.58302303 8:-0.053857333 9:-1.7548739 10:0 11:1.2473206 12:-0.71705651 
3.486686597628727 1:-0.85689892 2:-0.40070109 3:-0.20407472 4:-0.41277289 5:1.4357405 6:-0.96390881 7:-0.0017240051 8:-0.49378109 9:0.67330698 10:0 11:-0.80171851 12:1.3945902 
-1.060642980317007 1:1.5857498 2:1.1927318 3:0.023532445 4:-0.11779769 5:-0.69786359 6:0.26924784 7:-0.27217695 8:0.73213978 9:-0.020458985 10:0 11:1.2473206 12:-0.71705651 
8.330619888170684 1:-1.0684517 2:-0.51622465 3:-0.14816362 4:-0.11779769 5:-0.92841181 6:-0.46411547 7:-0.42664592 8:-0.036260382 9:-0.020458985 10:0 11:1.2473206 12:1.3945902 
9.900000000000013 1:-0.6508349 2:0.24737312 3:-0.14816362 4:-0.11779769 5:0.42598988 6:0.25069072 7:0.65847213 8:0.060522844 9:-0.020458985 10:0 11:1.2473206 12:-0.71705651 
