<?xml version="1.0" ?>
<NeuralNetwork Version="4">
    <InputsOutputsInformation Version="4">
        <InputsName>
            <InputName Index="1">i0</InputName>
            <InputName Index="2">i1</InputName>
            <InputName Index="3">i2</InputName>
            <InputName Index="4">i3</InputName>
            <InputName Index="5">i4</InputName>
            <InputName Index="6">i5</InputName>
            <InputName Index="7">i6</InputName>
            <InputName Index="8">i7</InputName>
            <InputName Index="9">i8</InputName>
            <InputName Index="10">i9</InputName>
            <InputName Index="11">i10</InputName>
            <InputName Index="12">i11</InputName>
        </InputsName>
        <InputsUnits>
            <InputUnits Index="1"></InputUnits>
            <InputUnits Index="2"></InputUnits>
            <InputUnits Index="3"></InputUnits>
            <InputUnits Index="4"></InputUnits>
            <InputUnits Index="5"></InputUnits>
            <InputUnits Index="6"></InputUnits>
            <InputUnits Index="7"></InputUnits>
            <InputUnits Index="8"></InputUnits>
            <InputUnits Index="9"></InputUnits>
            <InputUnits Index="10"></InputUnits>
            <InputUnits Index="11"></InputUnits>
            <InputUnits Index="12"></InputUnits>
        </InputsUnits>
        <InputsDescription>
            <InputDescription Index="1"></InputDescription>
            <InputDescription Index="2"></InputDescription>
            <InputDescription Index="3"></InputDescription>
            <InputDescription Index="4"></InputDescription>
            <InputDescription Index="5"></InputDescription>
            <InputDescription Index="6"></InputDescription>
            <InputDescription Index="7"></InputDescription>
            <InputDescription Index="8"></InputDescription>
            <InputDescription Index="9"></InputDescription>
            <InputDescription Index="10"></InputDescription>
            <InputDescription Index="11"></InputDescription>
            <InputDescription Index="12"></InputDescription>
        </InputsDescription>
        <OutputsName>
            <OutputName Index="1">o1</OutputName>
        </OutputsName>
        <OutputsUnits>
            <OutputUnits Index="1"></OutputUnits>
        </OutputsUnits>
        <OutputsDescription>
            <OutputDescription Index="1"></OutputDescription>
        </OutputsDescription>
        <Display>1</Display>
    </InputsOutputsInformation>
    <MultilayerPerceptron Version="4">
        <Architecture>12 28 1</Architecture>
        <LayersActivationFunction>HyperbolicTangent Linear</LayersActivationFunction>
        <Parameters>105519 -245239 -293896 -351629 103272 -135284 -156431 68013.5 -16837.3 144065 2.59708 415773 342687 -72760.5 15999.7 -68558.7 -201208 44183.6 -9143.24 -62046.2 -42053.6 -23935.2 16550.1 0.0955054 61348 -79362.8 125657 -170168 18619.5 -98153 -171733 249136 66736 23639.9 -112034 264943 0.619632 -243286 432846 -228911 -109443 97157.8 -3451.58 -184295 229505 -157723 580100 -37.8731 -120624 0.153107 -287500 146089 -110458 97253.4 -145061 -706587 111959 -363137 -258335 -50799.7 -106839 6088.99 0.541662 18845.1 115061 241002 -247844 10598.5 281685 233202 372449 166212 38163.2 353833 -11673.9 -2.1953 479100 -94072.8 0.931369 -0.557478 -0.157529 -0.520197 1.04627 -0.553092 -0.0782856 0.0781224 0.213576 -0.238255 -0.873556 0.906402 0.972873 54558.7 505913 -371545 -64868.3 30359.5 -226458 59289.3 -270441 -152399 113247 -0.825463 508008 -297710 -92705.3 -203933 200256 74621 -34593.4 6554.46 183660 -32497.1 202271 43126.1 0.634968 -131632 137161 -106083 -27712.4 23233.3 -55170.2 38730.4 -249705 58952.7 -169411 -34980.5 13691.8 0.827991 -28997.6 -41846 -265759 33436.8 255903 51224.3 -462191 -59401.7 -90818.7 -162575 383527 -262777 -0.451896 -25458.7 -60050.5 -114682 -94273.1 -136337 -198116 -16928.8 -198202 -105517 -18144.1 4198.01 336930 0.891393 -239078 96554.7 7624.34 299.038 -5980.97 9872.25 -17054.6 -4910.94 7629.48 -6304.38 -14883.7 -243.381 0.0377583 -5984.54 -4873.04 248441 -29979.6 -103531 54035.2 191595 96557 276427 128070 -442263 42976.5 -0.718448 -73627.1 -183157 32786.5 -174070 187013 156558 -127921 424506 129182 -188526 -99172.2 309514 -1.669 -101467 552317 -28335.1 -245626 -85191.9 -26498.3 126608 61258.8 64471 -86668.8 -35282.5 76657.1 1.38204 -290221 57654.9 311073 232266 158093 -25678.5 -177472 25403.8 37179.6 142140 -190296 -28617.5 -0.664521 -836828 -32728.1 106285 145456 117137 234532 -226023 149257 194159 -40102.8 -4747.98 -567771 -0.843505 292452 -77648.3 -69429.1 -23202.7 -29196.7 -20218.4 -98338.1 66705.7 -136929 358646 30019 -152656 0.678938 -40716 80400.6 43611 55334.7 -2891.63 -19106.9 -790026 -95409.8 56269.1 -68887.3 -3641.68 -58893.3 -1.68075 -7233.21 -23315 409945 154618 -116285 163355 376975 -132341 158871 -57369.3 -105392 -874102 -0.956109 -151503 -177635 -106882 -56280.5 38161 -267149 59795.4 74077.6 -67603.9 -117893 59973.3 14964.3 1.01214 -10460.4 -430847 -74861.7 111177 -155835 313991 192320 19771 -56322.2 25078.8 15421.6 -85436.7 -1.51278 319654 174030 553743 117304 -62750.3 -12477 794334 -40247.6 -86110.5 -6414.98 -326784 280942 1.37036 27396.6 -19602.4 -401956 483969 -234913 39924.9 14504.2 -34515.2 -250734 232114 124256 46631.8 -0.24046 -143063 30645.8 263341 63115.1 -82631.4 -186791 465813 -379554 504786 166430 -639556 -846.558 -1.56212 162376 -5439.74 -69512.6 68953.4 114253 309236 273393 25357 -144864 -229481 469873 -219168 0.0482295 -207320 -210957 624140 186065 201764 247639 -598397 97909.3 77092.4 104615 -146035 112396 0.183324 653891 -464110 1.50988 -0.456918 0.532964 -0.46841 0.407708 -0.370291 -0.406571 1.3127 0.474233 0.31497 0.355991 0.355294 -0.500794 -0.431122 0.379256 0.413115 0.412343 0.397363 -0.476441 -0.368447 0.450395 0.372045 -0.26296 -0.156677 0.401114 0.258069 -0.425471 -0.375125 0.645252</Parameters>
        <Display>1</Display>
    </MultilayerPerceptron>
    <ScalingLayer Version="4">
        <Minimums>-6.10979 -4.43313 -3.83141 -1.12167 -1.02042 -6.55171 -16.2418 -11.4853 -2.98092 0 -0.860407 -0.586705</Minimums>
        <Maximums>7.00654 6.35678 6.03361 15.7561 4.16469 6.71351 0.7008 10.8248 2.79763 0 1.16224 1.70443</Maximums>
        <Means>0.228554 0.222975 0.0282372 -0.0203933 -0.275301 0.0819843 0.00110815 0.00882676 0.0884304 0 -0.0453417 0.109498</Means>
        <StandardDeviations>1.05025 1.02978 0.845543 0.960083 0.844373 1.01125 1.03058 0.890208 0.928955 0 0.992269 1.05394</StandardDeviations>
        <ScalingMethod>MinimumMaximum</ScalingMethod>
        <Display>1</Display>
    </ScalingLayer>
    <UnscalingLayer Version="4">
        <Minimums>0.59</Minimums>
        <Maximums>12.23</Maximums>
        <Means>2.17261</Means>
        <StandardDeviations>1.39263</StandardDeviations>
        <UnscalingMethod>MinimumMaximum</UnscalingMethod>
        <Display>1</Display>
    </UnscalingLayer>
    <ScalingLayerFlag>0</ScalingLayerFlag>
    <UnscalingLayerFlag>0</UnscalingLayerFlag>
    <ProbabilisticLayerFlag>0</ProbabilisticLayerFlag>
    <BoundingLayerFlag>0</BoundingLayerFlag>
    <ConditionsLayerFlag>0</ConditionsLayerFlag>
    <Display>1</Display>
</NeuralNetwork>
