<?xml version="1.0" ?>
<NeuralNetwork Version="4">
    <InputsOutputsInformation Version="4">
        <InputsName>
            <InputName Index="1">i0</InputName>
            <InputName Index="2">i1</InputName>
            <InputName Index="3">i2</InputName>
            <InputName Index="4">i3</InputName>
            <InputName Index="5">i4</InputName>
            <InputName Index="6">i5</InputName>
            <InputName Index="7">i6</InputName>
            <InputName Index="8">i7</InputName>
            <InputName Index="9">i8</InputName>
            <InputName Index="10">i9</InputName>
            <InputName Index="11">i10</InputName>
            <InputName Index="12">i11</InputName>
        </InputsName>
        <InputsUnits>
            <InputUnits Index="1"></InputUnits>
            <InputUnits Index="2"></InputUnits>
            <InputUnits Index="3"></InputUnits>
            <InputUnits Index="4"></InputUnits>
            <InputUnits Index="5"></InputUnits>
            <InputUnits Index="6"></InputUnits>
            <InputUnits Index="7"></InputUnits>
            <InputUnits Index="8"></InputUnits>
            <InputUnits Index="9"></InputUnits>
            <InputUnits Index="10"></InputUnits>
            <InputUnits Index="11"></InputUnits>
            <InputUnits Index="12"></InputUnits>
        </InputsUnits>
        <InputsDescription>
            <InputDescription Index="1"></InputDescription>
            <InputDescription Index="2"></InputDescription>
            <InputDescription Index="3"></InputDescription>
            <InputDescription Index="4"></InputDescription>
            <InputDescription Index="5"></InputDescription>
            <InputDescription Index="6"></InputDescription>
            <InputDescription Index="7"></InputDescription>
            <InputDescription Index="8"></InputDescription>
            <InputDescription Index="9"></InputDescription>
            <InputDescription Index="10"></InputDescription>
            <InputDescription Index="11"></InputDescription>
            <InputDescription Index="12"></InputDescription>
        </InputsDescription>
        <OutputsName>
            <OutputName Index="1">o1</OutputName>
        </OutputsName>
        <OutputsUnits>
            <OutputUnits Index="1"></OutputUnits>
        </OutputsUnits>
        <OutputsDescription>
            <OutputDescription Index="1"></OutputDescription>
        </OutputsDescription>
        <Display>1</Display>
    </InputsOutputsInformation>
    <MultilayerPerceptron Version="4">
        <Architecture>12 28 1</Architecture>
        <LayersActivationFunction>HyperbolicTangent Linear</LayersActivationFunction>
        <Parameters>-13077.9 -6591.88 2376.37 -11740.6 -628.049 44129.9 -19482.3 -24267.4 -35727.6 -10147.2 -1.36291 -38027 -2639.12 -160106 -2721.82 6421.28 170346 -97272.5 22252.4 21381.8 52729.2 24544.7 56696.1 0.800101 216155 18035.9 -98666.4 -96315.3 110048 34120.9 205131 -73332.4 169167 170006 100862 -118183 0.911207 457178 6748.33 -63134.9 33367.9 22633.5 70748.6 -79923.6 67990.4 -13847.9 -57026.1 -109681 45564.3 -1.23568 -88160.7 -109604 -204168 -99172.5 -58670.1 -62608 -44162.1 62048.8 -176573 22590 -32098.9 252362 -1.11297 34204.3 299068 -124204 59829.3 10534.2 -10740.5 81390.2 130561 43106.5 -82585.1 7113.77 -96836.7 1.89131 -30243.3 8201.73 -229083 -4860.82 27599 26872 -2737.65 -126850 -6709.36 275450 117082 1255.34 0.395862 -99249.4 38344.3 16283.8 8096.78 29272 -34358.5 84596.7 2727.39 -10238.9 145308 3680.1 5946.9 -0.537127 26741.4 2776.69 154201 22546.5 113585 47671.8 27807.2 29820.9 64101.5 21482.5 1975.52 -1354.94 -0.596135 -19833.4 -1908.61 478.76 -1248.58 609.153 -1975.42 226.997 -1543.35 1082.27 515.568 -1142.87 -383.796 -1.40512 1106.9 1604.21 -134582 7165.27 5455.72 30594.3 231671 -348257 56712 -88093.5 -61944.2 188050 0.91081 267726 -83360.5 0.508312 -0.0518298 -0.423952 -0.393106 -1.19675 2.59829 -0.493107 0.546281 -0.0620186 -1.10519 -0.494811 -1.14425 -0.279205 22601.1 -31608.5 -47729.3 81255 259911 -100550 108045 -276270 -39502.1 59842.5 0.323884 -71146.4 -127194 -106923 179004 144593 -80786.8 66722.8 -212438 -212621 49470.3 -81247.2 -106567 -0.80675 36450.9 -6688 5457.3 15276.8 -31729.1 43873.9 58035.7 -52876 42075.8 -33981.4 3685.12 7793.94 0.156784 -10140.2 -53233.9 -138288 44964.1 -214689 118966 99337.5 9052.15 -20943.3 -19798.9 -8062.04 132464 -9.31076e-05 -163283 -159616 316153 -9628.72 100450 16465.5 -79141 258388 -264494 -74859.1 245255 1395.81 0.379787 -16159.7 40591 23236.5 -226751 -13305.5 -14574.6 270640 -144289 -142621 -83966.3 20773.2 154828 0.0783367 -15490.7 146355 -78479.3 49669.3 59965.7 322864 28082.8 7099.23 32976.5 149538 -39356 5540.91 -1.20027 -360022 96996.4 55204.6 -217604 -41331.7 -7087.67 123301 -204677 -118019 16632.9 -384675 -214312 -2.43965 -201348 60322.8 113374 -270142 40647.5 -47471.2 -133394 -421963 82800.1 163410 297322 48550.4 -1.24562 14433.5 -14027.8 -314889 106803 -60986.1 -94789.8 -444640 22762.6 -118111 146347 225172 108783 -1.13158 -111334 -194854 -29059.7 147175 22014 -58141.4 266877 134085 26578.2 -154170 -47484.9 -153947 0.523943 13338 -41535.4 41329.8 106133 -251359 66659.9 -18996.1 -132636 -101358 55994.6 -141928 174736 1.3531 -116877 -55511.4 -56994.5 46405.5 113261 62722.5 -1408 15762.9 48275.1 60689.3 -1154.81 -12565.7 1.5966 -235796 10162.6 165913 -25881.6 19089.8 264317 139338 226548 51046.5 -129339 266571 -53369.8 -0.0721591 161572 -122639 -77995.5 213305 223511 276092 -211869 50078.1 26221.8 -9703.36 -274668 116796 -0.41754 -93757.7 -348806 -5357.13 31147 148951 -30443.6 129411 80036.2 -96225.3 -76856.5 86316 -14612.2 0.750535 24623.5 11852 2.70759 0.550572 -0.502438 0.630321 -0.377687 -0.374513 -0.402235 0.536951 -0.357303 -0.567568 -0.493224 -0.461992 -0.78746 -0.342519 -0.233693 0.507743 -0.170775 -0.458922 0.306412 -0.681274 -0.313515 -0.424133 -0.36304 -0.323996 -0.352204 0.73377 -0.458448 0.439594 0.321213</Parameters>
        <Display>1</Display>
    </MultilayerPerceptron>
    <ScalingLayer Version="4">
        <Minimums>-6.10979 -4.43313 -3.83141 -1.12167 -1.02042 -6.55171 -16.2418 -11.4853 -2.98092 0 -0.860407 -0.586705</Minimums>
        <Maximums>7.00654 6.35678 6.03361 15.7561 4.16469 6.71351 0.7008 10.8248 2.79763 0 1.16224 1.70443</Maximums>
        <Means>0.228554 0.222975 0.0282372 -0.0203933 -0.275301 0.0819843 0.00110815 0.00882676 0.0884304 0 -0.0453417 0.109498</Means>
        <StandardDeviations>1.05025 1.02978 0.845543 0.960083 0.844373 1.01125 1.03058 0.890208 0.928955 0 0.992269 1.05394</StandardDeviations>
        <ScalingMethod>MinimumMaximum</ScalingMethod>
        <Display>1</Display>
    </ScalingLayer>
    <UnscalingLayer Version="4">
        <Minimums>0.59</Minimums>
        <Maximums>12.23</Maximums>
        <Means>2.17261</Means>
        <StandardDeviations>1.39263</StandardDeviations>
        <UnscalingMethod>MinimumMaximum</UnscalingMethod>
        <Display>1</Display>
    </UnscalingLayer>
    <ScalingLayerFlag>0</ScalingLayerFlag>
    <UnscalingLayerFlag>0</UnscalingLayerFlag>
    <ProbabilisticLayerFlag>0</ProbabilisticLayerFlag>
    <BoundingLayerFlag>0</BoundingLayerFlag>
    <ConditionsLayerFlag>0</ConditionsLayerFlag>
    <Display>1</Display>
</NeuralNetwork>
